0.13590775,-0.012556642,0.023966754,-0.087549835,-0.026846558,-0.13642916,0.20632632,0.10381477,0.15152523,0.19390617,0.24205582,-0.049055524,-0.13499697,0.22109237,-0.10331174,0.15476704,-0.2962528,-0.11788717,-0.23191462,0.06374917,0.08089505,-0.061271038,0.1394039,0.087221436,0.1415524,0.10434701,-0.093636066,0.030086683,-0.0051265294,0.09292054,0.11313989,0.11038469,-0.002216133,0.10819057,-0.035302956,0.10447983,0.06527476,0.21387073,0.16853175,-0.018534752,0.26521966,0.072998755,0.027907485,-0.061922967,-0.015313471,-0.07961352,0.20458561,-0.08961707,0.18076195,0.097908504,0.124858476,0.003440873,0.02683262,-0.030922884,-0.08563879,-0.026828913,0.15115154,0.13200201,0.13610595,0.062445704,-0.004959462,0.22767039,-0.17631112,-0.13872378,-0.01094421,0.044967182,0.09382983,-0.11955578,-0.15362343,-0.034125797,0.18739857,0.10673484,0.14156301,0.12702067,-0.11461178,0.14805448,0.14111246,0.16188677,0.21745244,-0.043414004,0.0914044,0.15428488,-0.023170948,0.10157417,0.017171288,0.08809241,0.24496669,-0.041073263,0.20242326,-0.09608104,-0.014955426,-0.08013939,-0.09035462,-0.040108804,0.16885331,0.0095011825,0.1713454,0.09382887,0.12371172,-0.042387426,-0.012004146,-0.05265628,-0.13476549,-0.007428369,0.10056254,0.06649028,0.06624484,0.040827945,0.0067539895,0.17451599,-0.08235693,-0.008316666,-0.08441043,0.019096944,0.10208784,0.043990064,-0.1264874,-0.12406317,0.17264684,0.18574107,0.3173567,0.03319471,0.1156266,-0.040674895,0.10717321,0.015977796,0.18947677,-0.10694284,0.26664138,0.16677612,-0.013121636,0.122962534,0.021613684,0.07632791,0.16417958,-0.012696076,-0.20182869,-0.17600349,-0.0041296096,-0.048392244,-0.009905729,-0.12023307,-0.1682514,-0.0724154
0.05557081,0.022644171,-0.032002926,0.16876782,0.13971283,-0.0856574,0.10193581,-0.037083857,0.061198503,0.076092266,0.08001731,0.020640044,-0.058952115,0.16515107,-0.15750763,-0.0537467,-0.1646744,0.050065037,-0.14834973,0.08942048,0.09460582,-0.087774,0.1351623,0.03168821,0.071734905,0.033399343,-0.13454904,-0.019533876,-0.14277269,-0.05459395,-0.17934915,0.18499093,-0.109558046,0.07100032,-0.20647667,0.15038763,0.16803215,0.17989276,-0.26922134,-0.099912696,0.29047439,0.072386935,0.07730497,0.040634394,-0.05898245,0.08789191,0.30012837,0.09823862,-0.004388983,0.10583063,-0.0049988828,0.14340194,0.05300938,0.07515935,0.027572589,0.015698448,0.0716695,0.029888794,0.12305863,-0.0013739191,0.057873942,0.13018721,-0.09502289,0.037158035,-0.14469248,0.11128638,0.06242489,0.04208452,0.060683213,-0.12060652,0.032757115,0.025798166,0.17223267,0.065315455,-0.079538986,0.1053769,0.043325156,0.04522336,0.29688916,0.015665106,0.25716087,0.29254025,0.076582834,0.09871192,-0.001475759,0.053666577,0.2581036,0.010281396,0.23111187,-0.04551203,-0.0047539864,0.030478884,-0.079031296,-0.009854176,0.27661052,0.041255236,-0.0059061567,0.05383898,-0.16282316,0.0103240665,0.08040603,0.016035795,0.21344574,-0.010741863,0.033970624,-0.017361587,-0.028376257,0.042667758,0.020175269,0.13699672,0.023164785,0.030385105,-0.09654194,0.033826716,0.04838854,0.0010926239,0.047501512,-0.12921338,0.07697803,0.07124968,0.27007166,0.14086588,0.1423819,0.11461072,-0.08017125,0.09427355,0.2056019,-0.05610979,0.21918774,0.25800753,0.10640951,0.12985197,0.06779559,0.15721795,0.32325846,0.03344145,-0.31465808,-0.06419772,-0.1263622,-0.042927247,-0.08803836,-0.17257476,-0.27793866,0.17168984
-0.21960774,-0.12244967,-0.09053323,-0.03301407,0.060394537,0.04110141,0.2018457,0.07078071,0.139599,0.06989985,0.12869881,0.0021663057,-0.0392738,0.18531342,-0.18066773,0.17084476,-0.036288355,-0.04908742,-0.097087964,0.04986425,-0.06705932,-0.050563518,0.3059022,-0.0008071246,0.13822103,0.04824038,-0.00052436104,-0.02794319,-0.077326335,0.06255026,-0.12933847,0.030998282,0.19457608,0.01558456,0.038785096,0.05056595,0.06852083,0.15472583,-0.066178985,0.124314256,-0.10022646,-0.006588933,0.02660164,0.031521592,-0.15622516,-0.026018627,0.014937784,0.1523635,-0.044701852,-0.0155766215,-0.046851315,0.09368841,-0.0018270996,0.013044004,-0.28272033,0.1504654,0.05708704,-0.02680864,-0.07347356,0.024722088,-0.04787116,0.12943704,-0.15690893,0.05895239,0.21012108,0.09035245,0.015169423,0.20318253,0.14210545,0.017432792,0.006044371,-0.15157366,0.15001416,0.1405253,0.20242167,0.06051963,-0.0038565272,0.04191915,0.24826401,0.10363691,0.3038568,0.23825264,0.1841369,0.09093613,0.21422164,0.17753315,0.3065418,0.036404375,0.3152037,0.13165297,0.0566941,0.003602587,-0.11328757,0.027811501,0.19532625,0.12996173,0.0378863,0.020116648,-0.039822858,0.077118926,0.12304192,-0.018511046,-0.3918475,0.08405722,0.22401306,0.13500297,0.106230125,0.11396882,-0.04149385,0.14151503,0.0067792186,0.12862563,0.1914534,0.13806343,-0.08638215,0.10640799,0.07452923,0.1389844,-0.03699824,-0.24819374,0.17191613,0.2430429,0.22130969,0.03621869,-0.083600655,0.14925928,0.29103768,-0.0014207053,0.28383982,0.29518306,0.16530305,0.20571856,0.11466869,0.14230041,0.2900138,0.074343115,-0.22048776,-0.03842922,-0.01701112,-0.03648856,-0.077324234,-0.030842591,-0.17574902,0.075663984
0.11730675,0.0019444871,0.07567967,-0.12563597,-0.12251722,-0.10840624,-0.008906092,0.021447299,-0.044519022,-0.06293687,-0.13467042,-0.10505482,-0.10938786,-0.09362315,0.015995277,-0.08793566,-0.068296954,-0.129838,0.058382787,-0.045750197,-0.102411866,-0.05177457,0.001191859,-0.07124846,-0.014931091,-0.11911921,0.14104623,-0.09519839,-0.07242194,0.0070057474,0.10736894,-0.057989977,0.05958549,-0.07499299,0.1225283,-0.13529947,-0.016548363,-0.03549803,-0.017727308,-0.014079832,-0.13056445,-0.0506826,0.024944803,-0.012905616,-0.13179873,0.015141319,-0.052558053,-0.10471897,0.098882005,-0.13194022,-0.0035723862,-0.12271041,0.012703975,-0.034870602,0.116903365,-0.09205304,-0.12676577,-0.079296544,-0.022454977,-0.1101452,-0.0017499456,-0.012712567,0.06798375,0.0067713787,-0.023353707,-0.11788706,0.056961652,-0.10335212,-0.041918468,-0.10582268,-0.104215845,-0.08486897,-0.01332106,0.017779544,-0.004788769,-0.13531657,-0.033089273,-0.079769775,0.005843788,0.00844803,-0.12066254,-0.10544818,0.036602043,-0.035946935,-0.054894958,-0.07950301,-0.065699294,0.035588115,-0.063892566,-0.06518126,0.046077255,-0.12042879,0.016760478,-0.061149675,0.014115312,-0.0110575855,0.026338633,0.021845996,0.04935462,-0.11106727,-0.033606607,-0.06218906,0.016149828,-0.09971466,-0.03315259,-0.13725443,0.11933588,-0.048139736,-0.030857997,-0.1396972,0.10848271,0.011842185,-0.08818718,-0.09126281,0.05545364,-0.091208175,-0.08599967,-0.0780281,-0.06956398,-0.07223432,-0.001976943,-0.065304816,0.024415625,-0.043153554,-0.0492764,-0.029160589,-0.0964143,-0.07718436,-0.09394348,0.0032317552,-0.012430615,-0.07908218,-0.07854609,-0.047113113,-0.12809211,-0.08235786,-0.0026173696,-0.06790753,0.11371575,-0.025968818,0.018921016,-0.102274254,0.10569825,0.0013701739
0.13008472,-0.05843363,0.010086328,-0.17714907,-0.18761721,-0.030852003,0.044355232,0.03708759,0.18764879,0.12777051,0.23093043,-0.047699872,-0.098025575,0.2285362,0.07720125,-0.06625257,0.11574256,-0.0037867234,0.13972725,-0.053942118,-0.06994893,0.13654426,-0.14303531,0.053586088,0.031676758,-0.009504066,0.0363385,-0.03855844,-0.122011095,-0.04880367,-0.05099186,-0.012738165,0.031058788,-0.101949,-0.041209,-0.0609307,0.13623872,0.03492305,-0.2432288,0.01130472,0.094544955,0.18461259,0.07453212,-0.005868697,0.1688423,-0.05972928,0.2903664,-0.13601096,-0.08959558,-0.10563425,-0.09060693,-0.06868446,0.086326905,0.06854735,0.05771214,0.010846502,0.24264039,0.15939493,0.16504641,-0.07787394,0.08516933,0.10667771,-0.02624421,-0.13089707,0.076176666,-0.019427096,0.20689861,-0.11597896,-0.20718436,0.025534166,0.19655892,0.2536537,0.15043621,-0.112940066,-0.10248347,0.061522316,0.12184102,0.006511307,-0.21384178,-0.15462768,0.09953553,-0.05359313,0.097889535,-0.13041396,-0.10153004,0.028028293,0.054105993,-0.06707827,-0.0035688104,0.001106992,-0.108186826,-0.026845524,0.20407489,0.034381423,-0.1968209,0.07019105,-0.04945201,-0.023541916,-0.016598698,0.005045562,0.06172676,0.15816283,0.002442206,0.045036614,0.14656144,0.014440931,0.100018255,0.039010823,0.11041122,0.14411326,-0.079715505,-0.027059523,-0.27783966,-0.13452771,-0.027720949,-0.12405515,-0.12386632,0.070476085,0.12248315,0.19496827,0.1777322,-0.032588422,0.09636003,0.023117764,0.1646825,-0.027319834,-0.0107454015,0.04492571,0.28573254,0.06277887,0.12836897,-0.042917315,-0.14110169,-0.05574939,0.12757125,-0.017448384,-0.14067863,-0.11843724,-0.054199945,-0.08503456,-0.058710884,-0.12334281,-0.112471245,0.029134152
0.035883836,-0.03522434,-0.017642472,-0.017430313,-0.1015005,-0.113560535,-0.04509071,-0.025962843,-0.09386468,-0.1083324,-0.106255546,0.00024210902,0.006559173,0.023530018,0.045298252,0.015419218,-0.11607441,-0.06677968,-0.014768902,-0.11077963,-0.051570285,-0.11249678,-0.025476117,0.017826045,0.0144716315,-0.039503183,-0.020279443,-0.0063416706,-0.0050156196,-0.041622344,0.070593715,-0.07554972,0.016517786,-0.12941867,0.04888806,-0.07467211,-0.12699354,-0.08112513,0.11531537,-0.07048234,0.032575376,-0.12807126,0.033951808,-0.03424392,-0.033593275,-0.11289922,-0.03629445,-0.06575636,0.13639174,0.026850048,0.07436228,0.011048339,-0.027157959,-0.044997517,-0.06220972,-0.08208974,-0.10822913,-0.034801427,0.07850777,-0.09751076,-0.023463,-0.072500534,0.031844296,-0.02152317,0.0019936378,0.010854627,-0.012249654,-0.12344728,-0.11080004,-0.015648205,-0.09744581,-0.1162162,-0.052140806,0.019188583,-0.01737974,-0.057857916,-0.00936071,-0.059088603,0.01556221,-0.06630898,0.09736991,-0.09922711,0.13242479,-0.11336061,-0.03883417,-0.054102436,-0.1014092,-0.07673495,-0.12149508,-0.070725635,0.022424258,-0.038705133,0.075860105,-0.06759477,-0.08530849,-0.063668035,0.047602646,-0.0028562164,0.021168444,0.0019830177,-0.0050765597,0.009314111,-0.12515213,-0.0035541172,-0.043633923,0.023127351,0.11404954,-0.004766428,0.019089332,-0.07473409,-0.084987,-0.05726882,0.122047655,0.0034200824,0.0037513133,-0.014318912,0.016311452,-0.10613565,-0.08410951,0.0034470411,-0.09613743,0.008123526,0.13215344,-0.0034968732,-0.09401802,-0.0050880616,-0.016891673,-0.104996555,-0.09259101,-0.053917993,0.088292666,-0.1261311,-0.015427351,-0.107476935,-0.048772383,-0.085127406,0.09414931,-0.034070157,0.11220155,-0.05221673,-0.027179899,0.035317868,-0.007876825,-0.03555214
-0.078205526,0.20201023,-0.015106358,0.09263601,0.12913221,-0.073712185,0.047387563,-0.1012044,-0.09693536,-0.029675338,0.04898632,0.0056204824,-0.054203015,-0.031882837,0.123339385,-0.0018886073,0.09513676,0.03288183,-0.11931678,0.04485778,0.08550136,0.010348348,-0.36594468,-0.11962304,-0.033761993,0.054256096,-0.011836877,-0.061405003,-0.20450819,0.05438758,-0.07374665,0.10255041,-0.18294096,-0.04105581,-0.24161723,0.1023528,0.062055852,0.06703336,-0.22346966,0.019505953,0.17218427,0.17354517,0.001828704,0.13846573,0.07028669,0.038746648,0.21485534,-0.06837531,-0.14690347,-0.005002275,-0.039202277,-0.0007491324,0.029179025,0.039623294,0.21531716,-0.039737485,0.09118599,0.06745387,0.12856671,0.035751916,0.05943436,0.0017132082,0.13494582,-0.10317586,-0.17255941,0.04681337,-0.10664766,-0.030720254,0.0645781,-0.09410086,0.1502046,0.14817327,-0.11772823,0.016982948,-0.081323296,0.08989754,0.011535592,0.058438264,-0.24347603,-0.06284652,-0.25803667,-0.07635213,-0.18453912,-0.049958475,-0.05277768,-0.028999595,-0.279899,-0.01381766,-0.25753158,-0.052701663,-0.03303899,-0.0032962821,-0.0116355,0.034701936,-0.33082727,0.031853314,-0.14624943,0.04547679,-0.0099087525,0.05142593,0.09521592,0.06250342,0.39708704,-0.045205157,-0.06296063,0.012040784,-0.12200727,0.04155565,0.14655061,-0.07839453,0.020619476,-0.14805767,-0.13086891,0.063054,-0.1503794,-0.043695323,-0.019153345,0.0061272066,0.055011105,0.046392437,-0.086171575,-0.019917822,-0.21493427,0.04960769,0.09078487,-0.07923996,-0.31677797,-0.07168097,-0.18810627,-0.12573534,-0.06665315,-0.05976719,0.01967708,-0.024228929,-0.37127677,0.07193062,-0.0008645705,-0.05019083,-0.06140252,-0.18237108,-0.05852537,-0.09349179,0.07708158,-0.0063192258
0.0027639873,-0.05209804,0.10527428,-0.11103846,-0.09857596,-0.079999216,-0.03500249,-0.07648863,-0.12349295,-0.010024402,-0.09208605,-0.092738435,0.013064602,-0.016727947,-0.01905096,-0.07791102,-0.0065090847,0.01851128,0.0942175,-0.03982381,-0.07222819,0.0045701903,0.047845926,-0.14282769,-0.06863854,-0.108577535,0.08107753,0.005141663,-0.117433965,-0.004440529,-0.010051215,-0.021674661,-0.05621494,-0.13832088,-0.021440074,-0.09219263,-0.08139103,0.022860667,0.06751216,0.0010819939,-0.073717795,-0.13232742,0.13341404,-0.03878722,-0.12965372,-0.11536476,-0.023262125,-0.062051035,0.097897716,0.02107806,0.097567394,-0.015014308,-0.0042823297,-0.007074171,-0.0063385465,-0.13799539,-0.11338162,-0.09854456,0.099543564,-0.053868826,-0.14210775,-0.13000888,0.009695968,-0.113207504,0.018069262,-0.053940576,0.062145,-0.10179108,0.001026315,-0.017672684,-0.015277884,-0.12446832,-0.07455705,-0.11641445,-0.009781501,-0.06719784,-0.02857692,-0.09224681,-0.054971866,0.017360345,-0.01362301,0.00095134956,0.01489091,0.006431714,-0.12807174,-0.11462624,-0.17125154,-0.110350505,0.05396902,-0.13647607,0.03000046,-0.010210148,0.02113021,-0.06839754,0.04759319,0.01844901,0.08722248,-0.10926305,0.055862684,-0.0708781,0.023219505,-0.09654184,-0.07301254,-0.045073,-0.039367408,0.019358998,0.071883455,0.007995134,-0.11877392,-0.0750467,-0.09740866,-0.12707569,0.14484853,-0.034732573,-0.016106378,-0.053764444,-0.14138368,-0.04772969,-0.023959393,-0.121097594,0.021284577,-0.1217901,0.084563226,-0.058323264,-0.026716974,-0.11590305,-0.09135663,-0.063310534,-0.028763618,-0.038122706,-0.0032916623,-0.118190475,0.013040807,-0.08713828,0.02302821,0.015378495,0.14403073,-0.007996587,0.139244,-0.01577038,-0.05840786,-0.053443536,0.063645266,-0.13462718
0.032897867,-0.12699057,-0.010666962,-0.093537025,-0.13228239,-0.10975349,-0.0317784,-0.11996592,-0.07134711,-0.02163142,-0.07394254,0.021511247,-0.09844951,0.02455252,0.053532787,-0.12231901,0.07542763,-0.018945068,0.048915084,-0.05275948,0.0032506725,-0.002403219,0.018344302,-0.08909342,-0.0035870157,-0.037848007,0.07699598,-0.010659961,-0.12818228,-0.00720822,0.02534806,0.010423445,0.10841176,-0.016287621,0.024539886,-0.013762979,-0.123744525,-0.08914932,0.030415926,-0.076005526,-0.05295123,0.014559407,-0.021613512,-0.051791098,-0.04277642,-0.0644042,-0.0934279,-0.051819254,-0.026785951,-0.12505089,0.0010894837,-0.006347563,-0.14178166,-0.0076552606,0.08378706,-0.056969646,0.0043447926,0.0184816,0.042311557,-0.07343085,-0.13041653,-0.0022914687,0.0047773556,-0.08067605,-0.14754684,-0.04031406,-0.015664987,-0.05097488,0.0026022627,-0.09221415,-0.053719264,-0.01671364,-0.121543415,-0.07570838,0.030913621,-0.003701177,-0.10764098,-0.09611302,-0.1313695,0.011623887,-0.03284785,-0.07956363,0.09391673,-0.10925428,-0.107486404,-0.09693444,-0.12509558,0.01560357,0.01732462,0.010860151,0.08968318,-0.10340063,-0.07818211,-0.1269002,-0.0022348943,-0.06645072,-0.15979172,-0.0514985,0.030745173,-0.08986515,-0.03174705,-0.010185916,-0.02480363,-0.06399168,-0.10403602,-0.09877159,0.12847468,-0.13420647,-0.0007396816,-0.12671104,-0.098411866,-0.0979751,-0.14796796,-0.026644494,0.03828704,-0.011034676,-0.05362154,-0.08983073,-0.13334094,-0.039475545,-0.031144066,-0.09469595,0.009001661,0.011034837,-0.07622947,-0.03609133,-0.080684,-0.014532263,-0.090025656,-0.0055111507,0.013696761,-0.035313424,-0.045865543,0.016317861,-0.09499229,-0.104704484,0.04091404,-0.10459055,0.1326266,-0.091812186,-0.010885591,-0.059417184,-0.0051214597,-0.079251006
0.05003748,0.017751958,-0.06961855,0.034933962,-0.002021505,-0.028917225,-0.19050051,-0.10885838,0.05879167,0.057585523,0.22081621,-0.04929786,-0.23393829,0.033308193,-0.034000393,-0.010850292,0.21667205,0.1596557,0.17381041,-0.06508819,-0.07813532,0.14353846,-0.25158796,-0.04206929,0.044546865,0.015495672,0.12860349,-0.15746173,-0.18269292,-0.13657421,0.29363576,0.11600077,-0.0448757,-0.07546763,-0.15392913,0.0656005,0.16818964,-0.0028166377,0.18588084,0.15001556,-0.2883946,0.29753295,-0.060293574,0.16464321,0.32905006,0.2266379,-0.09786449,0.024467012,-0.22453937,-0.13072076,-0.17550355,0.05726652,0.014115562,0.18998061,0.34371012,-0.034807265,0.1316012,0.087668926,0.3260983,0.008456258,0.022504775,0.13869183,0.23441581,-0.06606606,-0.052607507,0.015979176,-0.024499387,-0.038928397,-0.038252,0.07153388,0.13418321,0.24427992,-0.029320046,-0.03185554,-0.26813915,0.07147585,0.11796634,0.16435455,-0.26629877,-0.060979743,-0.25111535,-0.22901297,-0.29671675,-0.051401578,-0.037862338,0.023138165,-0.24508722,0.050707813,-0.33012626,-0.04820693,-0.26267952,0.025539508,0.16342388,-0.004171677,-0.2837315,0.16555949,-0.17181881,-0.081533335,-0.18964852,0.037218533,0.051981885,0.07260586,0.21575432,-0.046058957,0.0716921,0.050396573,0.25781575,0.044931114,0.052238144,0.13671409,0.19012469,0.003115765,-0.11762756,0.15905176,-0.11167429,-0.09554224,-0.050871193,0.15897892,0.24091882,0.243631,-0.10492677,-0.16269384,-0.18842237,0.034962934,0.18308043,0.17302665,-0.32315943,0.035880383,-0.23630196,-0.25201508,-0.23805569,-0.015299562,0.040786967,-0.05630116,-0.31435278,-0.0028630304,0.19354008,0.044435542,0.086391084,-0.028238935,0.09180202,-0.07287687,0.13632049,0.15064718
0.16057488,0.06105939,0.15322642,-0.04299599,0.005720998,0.2090705,-0.052771997,-0.068842925,0.07766762,-0.0349149,0.13178118,0.07468067,0.13053684,0.08039346,0.0030420227,-0.0017212599,0.14935638,0.14017579,0.20102191,0.04048195,-0.016265398,0.1983096,-0.12672399,0.066636525,0.108662374,-0.0467613,-0.05542448,0.06377294,0.15027454,0.016120084,0.17985494,-0.016168175,0.012223748,-0.09085084,0.091571905,0.022982335,0.029229512,-0.08203163,-0.1267489,-0.0435796,0.12869006,0.0860326,0.0025712713,0.00012602413,0.15877141,0.095159985,0.039591983,-0.06935147,-0.18050109,-0.09346709,0.015001364,-0.015591237,-0.054185305,0.06716238,-0.14850976,0.038845073,0.06857485,-0.023896065,0.080718905,0.063799225,-0.07769117,0.036693487,0.03427621,0.013529014,0.1580935,-0.040257003,0.078781,-0.05181692,-0.06796685,0.17528121,0.00063970545,-0.0409646,0.10173064,0.018801404,0.008435682,-0.06446254,0.00318379,-0.08513125,-0.054932453,-0.041234452,-0.17579053,0.019335706,0.0341687,-0.018100096,-0.13224527,0.013773183,-0.017889313,-0.09925496,-0.055490647,0.07671157,-0.13922696,3.47187e-05,0.24784698,0.015610735,-0.0037900198,0.034403376,-0.12844412,-0.10265056,0.05590846,0.009030463,-0.03248223,0.17901647,0.08384503,0.11030822,0.051259086,-0.056624558,0.13593885,-0.03937773,0.038134474,0.037989024,-0.12905556,-0.0057482766,0.18517698,-0.07687059,0.15728378,-0.08728419,-0.07331852,0.10033805,-0.0673488,0.013957967,0.14281087,0.04404471,-0.039507043,-0.06794716,-0.01372228,0.044565246,-0.032033607,0.07559073,0.0639059,-0.11531028,0.10816502,-0.09506251,0.009752085,-0.065826386,-0.035803348,0.026249146,0.16501306,-0.040958807,-0.062194023,0.09425681,0.19377518,0.040743846,0.10955227,-0.044465415
0.018950509,0.12095331,0.08664744,-0.05256728,0.07777203,-0.122350074,-0.0025003038,-0.044178896,-0.06308085,-0.069776915,-0.105977334,0.012203293,-0.11759435,-0.015069376,-0.0466864,-0.11570906,-0.012813381,-0.07787397,0.09916643,-0.002928205,-0.060432598,-0.12337951,0.010058096,-0.08114132,0.024920912,-0.12531596,0.0027991666,-0.05412085,-0.08126808,-0.04791699,0.035270777,-0.036820196,0.039312694,-0.05727691,0.059409656,-0.041480426,0.009542134,-0.09916617,0.13886023,-0.03816268,-0.12248895,-0.0622822,-0.029177357,-0.132961,-0.109184764,-0.07442306,-0.11492773,-0.06117227,0.02764834,-0.00048718767,0.0057141427,-0.07038412,-0.011439489,-0.05663295,0.015907396,-0.023201479,-0.070508756,0.005559961,0.11200058,-0.040262733,-0.025975231,-0.054668177,0.09566714,-0.03317895,0.009486177,0.0076635517,0.01772116,-0.12005832,-0.02888657,-0.060436077,-0.13943224,-0.008988559,-0.059640218,-0.01369508,0.012484721,-0.025569234,-0.13445723,-0.0059395307,-0.03446769,0.024942387,-0.05678589,-0.00012080506,0.014406243,-0.013003037,-0.03434729,-0.076265104,-0.105919145,-0.10494854,-0.1146319,-0.14148518,-0.011528813,-0.14701416,0.011316021,-0.1159802,-0.048761602,-0.07968747,-0.0985556,-0.056472763,0.0065234127,-0.042679995,-0.09399726,-0.09778171,0.099434674,-0.035410516,-0.040011276,-0.09434108,-0.004963203,0.0146966735,-0.1391347,-0.018264474,-0.04421648,-0.07012161,-0.12645286,-0.042779505,-0.0009704654,-0.11761625,-0.026249181,-0.107321665,0.007968943,-0.1378404,0.0013377985,0.013413482,0.13473271,-0.121665716,-0.0009739592,-0.11293859,-0.003292333,-0.12112153,-0.1386825,-0.09385493,-0.015902966,-0.09280899,-0.054072104,-0.10689903,-0.026824187,-0.047206625,0.01368425,-0.060143184,0.1413213,-0.0011391288,-0.08239381,-0.06853971,-0.0061392453,-0.04115114
0.089139014,0.013510911,-0.01597727,-0.006296744,-0.14084627,-0.13281506,0.021953346,0.008779535,-0.1345816,-0.046179764,-0.13190664,-0.017235555,-0.13691203,-0.055290144,-0.13952261,-0.12481447,0.005849067,-0.09487441,-0.016828457,-0.00052424916,-0.10679182,-0.09481954,0.008966704,-0.07482459,-0.02213332,-0.06829861,-0.11339653,-0.13593921,-0.093803994,-0.0083664805,0.12676847,-0.05149072,-0.11857885,-0.028648922,-0.010706196,0.011610217,-0.11740549,-0.13616958,-0.065660864,-0.05138242,-0.12579568,-0.06919185,0.069570504,-0.08207222,0.004377705,-0.07611864,0.024408204,0.14304374,0.0027375282,0.12474523,0.0044914167,-0.04050699,-0.05610598,-0.05518678,0.10729123,-0.14030911,-0.0074149966,-0.05058243,-0.12638779,-0.012774899,-0.02920966,-0.035383943,0.09213651,-0.13510475,-0.08940777,-0.07546119,-0.051643092,-0.08088895,-0.0831574,-0.14211863,-0.0781106,-0.1285172,-0.13934503,-0.062097862,-0.063765526,-0.12973829,-0.11776959,-0.029384507,0.12324621,-0.029055912,0.0012222765,0.11663913,0.031512484,-0.0054267542,-0.020221082,-0.056563534,0.01680344,0.048392907,-0.058141675,-0.13193028,0.0086042145,-0.069049,-0.0050413646,-0.028983084,0.021249041,-0.088929415,0.11462521,-0.018023679,0.00944511,-0.11053859,-0.088577636,-0.021774625,-0.085643396,0.019635016,-0.08701181,-0.11281277,-0.09067743,0.010891758,-0.06993348,-0.0011238225,-0.078070104,-0.061736993,0.005812972,0.028760128,0.09509721,-0.09917278,-0.13248399,-0.14020008,0.1381972,-0.13562176,-0.06320119,-0.008618906,-0.10767055,-0.123729594,-0.009045828,-0.10885602,0.05330047,-0.07960837,-0.051043667,-0.10646799,-0.013708195,-0.03307612,-0.13538136,0.001344957,0.12902994,-0.111773916,-0.04293871,-0.051669806,-0.008913543,-0.05043076,-0.051600587,-0.092177436,-0.12739627,-0.10645491
0.118732214,0.11980907,0.06455547,0.2265538,0.16983227,-0.091806754,-0.008386019,-0.04132692,-0.07705951,0.046483815,0.09639785,-0.10188697,-0.14184335,-0.04549126,0.31372884,-0.09272866,0.21864672,0.17641345,0.076826595,0.025195422,0.04718097,0.062920064,-0.27014706,0.011689381,-0.08077807,-0.042058755,-0.07282498,-0.073000334,-0.16033919,-0.11889279,-0.13451281,0.1777813,-0.21103483,0.1014148,-0.17399786,0.10219253,0.16251098,0.074919306,-0.2511366,-0.029132048,0.037309982,0.18471177,0.019573005,0.1384687,0.22682005,0.16110423,0.25752985,-0.07197104,-0.07110761,-0.07849942,-0.005918967,0.037190452,-0.0008982013,-0.02982749,0.25944862,-0.10609425,0.10307474,0.016172549,0.28980166,0.039183788,-0.012490805,0.05578666,0.16101247,-0.030839074,-0.19269414,0.062971,-0.11262203,-0.054171953,0.059744664,-0.089361906,0.14132078,0.13969289,0.08419701,-0.07162303,-0.25262824,-0.070587955,0.07897996,-0.07098522,-0.14389227,-0.070579775,-0.07372523,-0.017608648,-0.10275105,-0.1297252,-0.05564631,-0.10363001,-0.10897403,0.06812424,-0.12716235,-0.122039095,-0.13855867,-0.123234905,-0.045273855,-0.0023757287,-0.13189547,0.12206777,-0.24346207,-0.047226265,-0.097823374,0.0050833356,-0.008772384,0.0024753744,0.3366805,-0.10531463,0.058943886,0.016498316,-0.083274946,0.024031235,0.25318688,-0.00592857,0.004584908,-0.17791706,-0.07496861,0.07335261,-0.120167404,0.044990256,0.048104748,-0.05010429,0.10208347,0.26371554,0.075828575,-0.037495922,-0.15994434,-0.07712498,0.016820628,-0.00834248,-0.21562985,-0.06427578,-0.01982232,-0.021444436,-0.14959136,-0.07755398,-0.1408326,-0.1261934,-0.14417464,-0.03780553,-0.17459342,-0.03391172,0.057489768,-0.11600944,-0.23286872,-0.06954766,0.1413287,-0.00021753501
-0.10433922,0.28308946,-0.1359859,0.27045676,0.13576391,0.0075389654,0.20938456,-0.027077729,-0.087678894,0.040589694,-0.024310676,0.02674966,-0.21464922,-0.048767336,-0.12847866,0.1347147,0.17882012,0.12926067,0.11883935,0.15190014,0.08888152,0.19303414,0.07701355,0.10890838,0.013941519,0.16346881,-0.055838797,0.033208035,-0.034635358,0.03999398,0.19251533,0.2604438,0.0064477334,0.2520192,-0.23455293,0.19461739,0.12774952,0.2225595,0.2954396,0.14515467,0.00029690942,0.020502754,-0.14665613,0.045750424,-0.1698878,0.062053494,-0.36236966,0.091522396,-0.15595745,0.10504232,-0.12073089,0.13242982,0.089746706,0.123961866,0.37754202,0.013759129,-0.056067985,-0.02688054,0.00736957,-0.007971615,-0.054352436,-0.009821279,0.07279098,0.033498082,-0.2441262,0.09798766,-0.19231611,0.12183975,0.066074975,-0.039705962,0.10255105,0.0832702,-0.28760892,0.029617457,-0.16858788,-0.025973843,-0.12430498,-0.012421642,-0.095977016,0.19904263,-0.30794317,0.003921518,-0.19504456,0.16304609,0.121513,0.033380203,-0.29240447,0.14049466,-0.18700844,-0.02672412,0.0048217224,-0.08670832,-0.1444111,-0.007738615,-0.10269254,0.048968364,-0.17590845,0.05325456,-0.13814288,0.041040577,-0.025738172,-0.0018057644,0.3222605,0.015108682,-0.008352713,0.02164471,-0.16975577,0.10729105,-0.054575093,-0.015504663,0.38278612,0.153485,-0.23713902,0.1675731,-0.09905069,0.14669998,0.12106539,0.0367279,0.11150774,0.16054535,-0.23757806,-0.019323263,-0.18628672,0.05565307,-0.10817747,0.027595822,-0.1172385,0.18091393,-0.33368403,-0.08962211,-0.16438642,0.1339337,0.12911163,0.08257961,-0.30025604,0.029594956,0.2463867,0.07926967,0.04836082,-0.048856094,-0.15754199,-0.01982629,0.1657093,0.07060934
-0.050321132,-0.052928906,-0.04039853,-0.066715084,-0.058133762,-0.054878317,0.06013397,0.026808716,-0.063130885,-0.016964458,-0.009186119,-0.033930182,-0.012764432,-0.057247303,-0.014449894,-0.06833656,-0.04149449,-0.038433284,-0.0049401596,0.08211664,0.06467632,0.052654453,-0.009017795,0.031733565,-0.08022672,-0.01222679,0.00966721,-0.06534818,-0.029268127,0.0006690547,-0.07954933,-0.03279534,0.0060714856,0.0012709275,-0.034820437,-0.0038607195,-0.025645148,0.029450662,-0.06912323,-0.015295744,-0.07259579,-0.082991295,0.010069609,-0.04633703,0.044497184,0.018996775,0.016142152,0.047888942,-0.016343333,0.056544878,0.052405335,-0.07670956,-0.07014325,-0.06282008,-0.062313102,0.0040196776,0.0043685064,0.03303227,-0.0011849329,0.03007102,0.057418264,-0.06671779,0.081689484,-0.05752636,0.011129953,0.05072201,0.031598814,0.06144423,-0.08212522,-0.047881853,0.034006305,0.0554341,-0.06146138,0.021699063,0.07104006,-0.0615984,-0.039963048,0.018612027,0.06485122,0.05022519,0.07052607,-0.02628979,-0.08009382,0.018758982,0.054386474,-0.03753219,-0.073922426,-0.06770459,-0.021251231,-0.06665736,0.07669107,0.0081167,0.066778354,0.01854121,-0.064466685,0.007412821,-0.011906445,-0.015028931,-0.07777986,0.006907217,-0.045955043,0.0027364567,0.066161014,-0.07954948,-0.017434217,-0.027456623,0.0017678961,0.00987529,-0.013723828,-0.05330957,0.018101253,-0.048721783,0.050804175,-0.04960875,0.014277726,0.030445635,0.047394104,-0.033706278,0.016238488,0.014715947,-0.007539712,-0.018897772,-0.019400634,0.0029920712,-0.03138002,0.070486434,0.07514446,0.04591281,-0.0075827166,0.04582099,-0.0040920675,-0.052660815,0.07653359,-0.021846764,0.023492724,0.0016312599,-0.026146144,-0.059358113,0.0004176125,-0.07943714,0.059231706,-0.067107074,0.07980246,-0.056452505
-0.1968661,-0.1657088,-0.045256246,-0.14558542,-0.0568241,0.15876944,0.23540758,0.32420862,0.16073988,0.041449312,0.07838137,0.06686458,-0.051771425,0.08638557,-0.07324358,0.15985306,-0.00029316972,-0.080052696,-0.03791024,0.013076507,-0.022993155,-0.006808516,0.21739863,0.08359789,0.17652926,0.003048315,0.006283154,0.14426655,0.11139081,0.09690948,-0.12937015,-0.04764409,-0.0026179312,0.0046936143,0.10393143,-0.091632865,-0.07148378,-0.0864265,-0.06473155,0.06578162,-0.063480206,-0.13073179,-0.053744115,-0.1334302,-0.14165881,-0.00775315,-0.11233506,0.21411651,0.093709424,-0.06417323,-0.05477656,0.030541206,0.12540972,0.007610169,-0.28986642,0.17116381,0.06586485,0.058483396,-0.06456806,0.15336128,0.014710189,-0.0026568365,-0.2035172,0.13203101,0.049602054,0.06937519,0.0704798,0.12736402,0.16808277,0.08437767,-0.099316545,-0.21061395,0.18415354,0.1948995,0.24053563,-0.024079327,-0.039619673,-0.037119176,0.29359096,0.119204774,0.3741649,0.27580768,0.24470054,0.15753126,0.18687542,0.1410504,0.33017117,-0.025142647,0.29535553,0.11255185,0.23789771,-0.031538688,-0.06935068,0.004589603,0.2181377,0.009933865,0.19900161,-0.02159407,-0.089363195,0.03325485,0.102854796,-0.048959613,-0.3254943,0.046139754,0.07961335,-0.015738556,-0.14154936,0.086707585,-0.030827375,0.19284993,-0.07217508,0.18390498,0.028961835,0.040664136,0.048606794,0.17959511,0.10932685,0.02097759,-0.12479099,-0.15913266,0.23050898,0.12875277,0.2523205,0.010947779,-0.052045885,0.018415887,0.28797773,0.021289596,0.28430396,0.27135447,0.27845728,0.15595274,0.1786395,0.1385838,0.2657628,-0.038510468,-0.07389269,-0.016525187,-0.027516603,0.04418304,0.037906416,0.051798787,-0.2674265,0.01918186
0.043446526,-0.1415374,0.04022785,-0.03886419,-0.06588094,-0.11840634,-0.13199377,0.020222113,-0.10059105,-0.08084723,0.022946768,-0.1406968,-0.028403256,-0.11840909,0.0077254507,-0.14046524,-0.07708925,-0.09221166,0.13223422,-0.04293112,-0.04482425,-0.12527445,-0.020100681,-0.13588679,-0.09545748,-0.017874666,0.03148039,-0.01039484,-0.042660005,-0.14106624,0.10836203,-0.021774229,0.040059905,-0.018673487,0.023956532,0.0038519432,-0.027972864,-0.030665934,0.0075295093,-0.11368393,-0.077046566,-0.1061838,0.027189992,-0.08681462,0.0029049246,-0.105783105,0.12951452,-0.11104766,-0.122990094,-0.1340617,0.0046260203,-0.028183747,-0.07314119,-0.027597718,0.022897989,0.025840461,0.008389484,-0.042096853,0.0039795157,-0.058209267,-0.090249434,-0.069048725,0.13383482,-0.041623194,-0.12077712,-0.030015005,0.11476376,-0.023581626,0.0008950351,-0.08262982,-0.043176416,0.003002223,-0.03299836,0.016167277,0.10174881,0.0061871544,-0.015684739,-0.06562148,-0.09252482,0.013995423,0.10402077,-0.07846428,0.008740012,-0.110745214,-0.04288104,-0.032843772,-0.008549286,0.012648889,0.14243,-0.0150149735,0.124024786,-0.13864774,-0.02780136,-0.017461417,0.018029593,0.016483752,0.0040613557,-0.062903956,0.025097396,-0.11561336,0.0046832315,0.004117547,0.114165716,-0.09488326,-0.12890452,-0.04498976,0.036852665,-0.004354618,0.008446709,-0.09297149,-0.096589476,-0.045995414,-0.038391072,-0.14095129,-0.008324832,-0.02765081,-0.09407816,-0.13603924,0.017816855,-0.1157836,-0.12275954,-0.08822997,0.084939614,-0.13842793,-0.03098846,-0.06263149,-0.05805925,-0.016680904,-0.08262397,-0.01925007,0.08006076,-0.13211551,-0.13745831,-0.049939413,0.1500988,-0.018197773,0.0270059,-0.015906,0.10868564,-0.11807952,-0.1154259,-0.021324491,0.08214644,-0.12830177
-0.21760026,-0.18067484,-0.20069295,-0.058820147,0.00818891,0.0056593237,0.07902115,-0.02080796,0.054864112,-0.058326043,0.071555816,-0.035370216,-0.25795484,0.09911212,-0.1323749,0.1525676,0.037050884,0.034996103,0.05305032,-0.013324911,-0.097632706,-0.0454109,0.25741985,0.112905376,0.1741015,-0.009776422,0.085650444,-0.08607901,-0.13217856,-0.09843087,0.15148102,0.1420885,0.32206196,0.09597194,0.05484658,0.02111502,-0.08689277,0.02004083,0.30704495,0.140658,-0.34056088,-0.16904359,-0.056655582,-0.09169922,-0.10864949,-0.05311456,-0.29924366,0.10067771,-0.088666566,-0.02874504,-0.11505679,0.040443122,0.061876576,0.07560126,-0.23591697,0.1813811,0.07613705,0.02314746,-0.016233569,0.06508612,-0.0834146,-0.017546047,-0.14587991,0.05428897,-0.020485772,0.04205001,0.026171966,0.12585819,0.10750811,0.054608263,-0.02829623,-0.09743779,0.17281245,0.027145773,0.043643564,-0.08109472,-0.20314267,-0.11690121,0.32733867,0.1399901,0.00066993455,0.08424548,0.009223865,0.18439694,0.042655203,0.06759259,0.14518456,0.06962949,0.069736466,-0.0943746,0.059786562,-0.14110072,-0.17493472,-0.115989506,0.14645515,0.11330406,0.00075567036,-0.016482685,-0.109239556,0.070364684,-0.09056556,-0.09294036,-0.24591061,0.10788059,0.033778068,0.053683948,0.1383505,-0.058224466,-0.04419545,0.031608123,0.0654633,0.20490097,-0.0761609,0.07574722,-0.12523107,0.09224556,0.17871444,0.09831027,0.03356656,-0.0842241,0.08148733,0.025277419,-0.033724714,-0.02388614,-0.023811683,-0.024416864,0.20919372,0.13207603,-0.01821292,0.16873416,0.024026902,0.119266726,0.085693344,0.0518535,0.12783599,0.13845366,0.19876808,-0.045536883,-0.040707182,0.009619912,-0.1940889,-0.020480825,-0.091441624,0.19492309
-0.29258436,-0.27986902,-0.13241276,-0.12686388,-0.17408772,0.1933687,0.040530574,0.16015327,0.13246463,0.025063027,0.14684899,0.0530525,0.06538409,0.21769892,-0.1341103,0.023844173,-0.05633518,-0.074099675,0.1781287,-0.15737487,-0.09764271,-0.062495794,-0.1165707,0.105782956,0.2363249,-0.14157462,0.09935292,-0.08330535,0.002782643,0.030855546,0.12136508,-0.11985266,0.31618097,0.0659129,0.29162493,-0.2126665,-0.1326682,-0.105793595,0.16212212,0.060237847,-0.40093532,-0.2655777,-0.034839276,-0.029284416,-0.081486575,-0.040996853,-0.20472634,0.14684965,0.01685578,-0.023351302,0.026879355,0.1803687,0.17582175,0.074829295,-0.36094716,0.11624812,0.16318698,-0.0020912113,-0.03721788,0.060682442,0.071524456,0.039141357,-0.08788846,0.09259603,0.06906169,0.13499089,-0.003387985,0.09262444,0.07467235,0.07934247,0.06280496,-0.08341034,0.25897026,0.1275522,0.14565329,0.048856765,-0.048723504,-0.001973461,0.29378253,0.12158553,0.27032402,0.23784475,0.10835214,0.18526126,0.22052379,0.09843483,0.21185069,-0.012278847,0.11875137,-0.00750261,0.0144145535,-0.01784006,-0.18799253,0.022048801,0.2350007,0.11508852,0.1573847,0.019131405,-0.06406627,0.051934857,0.09424581,0.013695923,-0.3425906,0.1390474,0.07968759,0.01540702,0.096443266,-0.00808635,-0.035964623,0.0724069,-0.12886994,0.05848994,0.15169038,0.053014677,-0.08540867,0.069528416,0.101114325,0.16401465,-0.033871148,-0.21952073,0.14000882,0.24332038,0.16339055,0.08569113,0.04607149,0.2428393,0.29609844,0.027295738,0.1834799,0.21707329,0.17336902,0.13572243,0.18564257,0.14922495,0.25147563,0.021350153,0.03009043,0.060806043,-0.05866798,0.20841303,0.1013557,0.19584778,-0.122904375,0.060816202
0.014140388,0.014385663,0.087125964,-0.07590959,0.01282782,-0.106735185,0.053120077,0.06854588,0.1997339,0.12321651,0.2549192,-0.04951082,-0.10616642,0.16879088,-0.18332592,0.0198145,-0.07913067,-0.083528005,-0.07515139,0.01695311,-0.08711979,-0.12495818,-0.0029759882,0.054711282,0.11289907,0.027602172,0.0035010953,0.0695318,-0.03863885,-0.05408197,-0.15613033,0.09087736,-0.07373028,0.047777396,-0.1352458,0.061005026,0.09213315,0.008092255,-0.07549066,0.06494582,0.0833009,0.1023081,-0.011322546,0.016772216,-0.005103952,-0.074484065,0.17854989,0.13215035,0.068793185,0.03346915,0.022691295,0.043335684,0.096208744,0.004211277,-0.058914196,0.10948592,0.20609663,0.06966879,0.18975882,0.016741404,0.0011459156,0.08125686,-0.20566489,-0.017369833,0.12369542,-0.009237609,0.0662482,-0.031001788,0.020917494,-0.042935573,0.14672504,0.09275413,0.08370292,0.021824509,0.041836653,-0.014301427,0.05268596,0.030801486,0.17249295,-0.058138374,0.011390628,0.05816414,-0.026104955,0.09033099,0.055472147,-0.017663224,0.13667057,-0.058358777,0.102371804,0.013305225,-0.033215474,-0.03555665,-0.050869476,0.033700418,0.033003405,0.09469408,0.12811413,0.10364323,0.09444528,0.032473464,0.06221852,-0.09380941,-0.021055957,0.050122447,0.11876144,0.09769151,0.02288576,0.09583215,-0.028146125,0.08150377,-0.20213981,0.09510818,0.115296744,-0.011567383,-0.015080456,0.005523348,0.013174453,-0.060755078,0.15085648,0.13234806,0.20688604,0.09849504,0.12612224,0.105023056,0.03470765,-0.022768684,0.21775691,0.06590216,0.18643264,0.11774812,-0.032495886,0.11259678,0.047548637,0.044538703,0.09864189,0.031734895,-0.06418652,-0.12682684,-0.027220137,-0.08927243,-0.13190873,-0.008471116,-0.06540132,0.146759
0.0175325,0.08342922,-0.008364682,0.09500568,0.07357578,0.031282008,-0.03774576,-0.058126573,-0.05086875,-0.0537382,-0.0135366125,0.008020375,-0.0006010614,-0.07549945,0.064437434,-0.0064748274,0.13679226,0.13040836,0.044215392,-0.047165886,-0.004961784,0.06687561,0.11716955,-0.13875146,0.013691006,-0.06332441,-0.052438304,-0.07383433,0.014191783,-0.0006911505,0.057323985,-0.059511628,-0.36184162,-0.051759858,-0.083060816,0.03193554,-0.011992376,-0.07844691,-0.03831538,0.0563678,0.15114969,-0.03448286,0.03538563,0.029520046,0.0034464004,-0.1022642,-0.07231557,-0.062253557,-0.10674119,-0.046909448,-0.057648897,-0.059694022,-0.11638912,-0.009395341,0.2557136,-0.12350466,0.009140592,-0.08307694,-0.038822267,-0.04016852,-0.11158586,-0.051181514,0.017528912,-0.060680337,0.017524606,0.0021902814,0.014756267,0.035832666,0.07723359,0.08622767,-0.13541794,0.0040233536,-0.0075759334,-0.12929474,0.037826598,-0.080109425,-0.04337396,0.033593394,-0.05401937,0.021823348,-0.1376426,0.012843865,-0.10250467,-0.017957518,-0.09667948,0.047586985,-0.08282375,0.044913184,-0.060707368,0.028885527,-0.0073186164,-0.07085528,-0.005376558,0.03524778,-0.11272146,-0.044883825,-0.14319934,-0.077209696,-0.010260727,0.0069558653,0.027726617,0.049860317,0.2213689,-0.08846207,-0.04513981,-0.06413228,-0.04654529,-0.017989002,0.033087503,0.006777651,-0.083715886,-0.08688294,-0.16262265,-0.07354493,0.046182163,0.06467799,0.03602793,-0.052093875,0.008232619,-0.11194559,-0.14533249,-0.07987236,-0.037712507,-0.0810985,-0.055130593,-0.031095477,-0.16735521,0.028445316,-0.100824855,-0.14312704,0.018851701,0.040906385,0.03701971,0.007210342,-0.1559247,0.016390463,0.07174863,0.07713642,0.10038858,-0.037367206,-0.014824653,-0.047376234,0.096351475,0.006120787
-0.12492654,-0.20670983,-0.07282775,-0.24884003,-0.31105754,0.16511694,-0.28830546,-0.013386622,0.0006855956,0.109820254,0.07608692,0.012183803,0.02454672,0.11102987,0.39827362,0.08128224,0.038004886,-0.19394831,0.22755384,-0.257319,-0.2889283,-0.07451689,-0.26048478,-0.103492506,0.11044214,-0.08522019,0.20302185,-0.1458922,-0.06568292,-0.093992345,0.21145552,0.044424355,-0.12579124,-0.24921289,0.1389817,-0.25612438,-0.39008886,-0.35616666,0.044236578,0.08431991,-0.25393465,0.017203527,-0.11163383,0.22142737,0.25412032,0.15037379,-0.038734622,0.07100198,0.016905565,-0.05398318,-0.0036016847,-0.01030971,0.05770139,0.07659912,-0.1250616,-0.1274375,0.10484876,0.1208017,-0.026525771,0.17732859,0.15660252,0.060127027,0.18998127,0.1049061,0.2259237,0.07100166,-0.15248255,0.10171997,0.14380509,0.13522547,-0.2548126,-0.12453071,-0.035349447,-0.14581186,-0.36033827,0.011076203,0.08632299,-0.034034442,-0.36838898,-0.017280998,-0.2936557,-0.20859723,-0.24457118,0.012009928,0.09541345,0.08057096,-0.2736378,0.080594905,-0.30131617,0.16969661,-0.24839266,0.23333298,0.35827288,0.2554291,-0.22634733,0.16091089,0.23249659,0.16624387,-0.005447187,0.014717745,0.07701612,-0.038696643,-0.30549455,0.018511258,0.13922887,0.0066439174,0.14505856,-0.055960696,-0.04237134,0.074529015,0.007781219,-0.06032834,0.27520806,0.031422377,-0.0553336,0.109407976,0.14252734,0.1522977,-0.23323779,-0.10132532,-0.13759185,-0.14599255,-0.2517207,0.15849583,0.2038198,0.21250525,-0.3697298,0.08059414,-0.24490471,-0.15946816,-0.27370778,0.07949691,0.1767498,-0.0074856966,-0.25976995,0.015231825,0.22047822,0.22083062,0.0050328816,0.28894222,0.38214272,0.28199962,0.14254005,0.023056148
-0.021923516,-0.08623678,0.084229305,-0.13301493,-0.06335069,-0.0994336,0.011439774,0.021354662,0.08721376,0.08818253,0.19243738,-0.02678648,-0.032990456,0.08376924,-0.10561506,0.0657238,-0.1856642,-0.09700098,-0.077028066,-0.057241667,0.0052407454,-0.044732884,-0.012971756,0.07953806,-0.020220036,0.044408645,-0.017093053,-0.040281016,-0.033199366,-0.0027826703,-0.17740412,0.02839634,-0.27482092,0.0057871165,0.0057148193,-0.061393872,0.068229176,0.055926677,-0.18462898,-0.021289678,0.16980746,-0.0062958584,0.041562665,-0.040699553,-0.028685497,-0.024844266,0.28236294,0.06236775,0.06915621,0.14354391,0.051728096,0.07283416,-0.02785849,-0.095304854,-0.22039352,0.068423346,0.05424029,0.0858527,0.1258524,-0.034631386,0.040960114,0.13359301,-0.1074559,-0.096410885,0.20332378,0.06920029,0.07634661,-0.046760663,-0.043347094,0.045961298,0.033753395,0.08027833,0.13527457,0.07518396,-0.01847115,-0.03597335,-0.010675531,0.07238981,-0.0007813629,-0.0004235203,0.031085834,0.0940204,-0.02989137,0.06646082,-0.05540549,0.06386849,0.17906426,-0.03532957,-0.026039999,-0.052800417,-0.033803254,-0.055204794,-0.119621724,-0.065071605,-0.113352634,0.033368997,0.15647534,0.13032335,-0.012144351,0.0636147,0.02603134,-0.095747024,-0.19774581,-0.06711698,0.16371293,0.09312143,0.09367411,-0.039573632,-0.012435061,0.11786667,-0.116344996,-0.09053602,0.013297467,-0.005377324,-0.034509014,-0.061273742,-0.030228758,-0.103556566,0.071027406,0.10718366,0.11391463,-0.017085304,0.00014302213,0.087451726,0.0012319532,0.00043754137,-0.022501606,0.029159475,0.112796,0.047942095,-0.052942958,-0.026755666,0.03666313,0.09099517,0.123036124,0.08621262,-0.06069012,-0.11022453,-0.062422574,0.037736733,-0.14108521,-0.0030947903,-0.15686855,-0.020865038
0.23881191,0.26746985,0.24398229,-0.003677028,-0.0106606325,0.3044047,-0.054740503,0.022080103,0.09211874,0.15810727,-0.06924691,0.26912218,0.2477915,0.120827384,0.2591576,0.113242894,-0.047355607,0.034329105,-0.027052185,0.0049628946,0.10387424,0.046011668,0.3367368,-0.029961262,-0.07145515,0.29123414,-0.18584877,0.2744001,0.27349693,0.23998621,0.0880774,-0.031397887,0.051778227,0.026787365,0.0126559725,-0.082435034,-0.03851124,-0.13319862,0.20258039,0.1906597,0.062468536,0.22633947,-0.28477067,0.19245695,0.26786077,0.26331306,-0.09543152,0.08745629,0.32637188,0.12961057,0.029122036,-0.019060124,0.03398734,0.17754981,-0.08320594,0.015824644,0.08859744,0.025357924,-0.031398892,0.084474675,0.15460889,0.09554144,0.22031866,0.094102085,0.3055811,0.23598383,0.14266324,0.10019799,0.0181182,0.22971952,-0.1962607,-0.0021022328,0.009781709,0.11800896,-0.08022608,0.15870097,0.15566894,0.20642863,-0.041252494,0.04441221,-0.17156972,-0.04455837,-0.1581274,0.054174237,-0.0008005516,0.029279675,-0.17515263,0.021880915,-0.09518995,0.2624572,-0.2608849,0.2214544,0.23881015,0.23428346,0.16990541,-0.028770495,0.33582523,0.10568691,0.10467097,0.08423668,-0.016548026,0.23381807,-0.19914295,-0.007338274,-0.0048711505,0.13534091,-0.05801388,0.08617849,0.1272004,0.045197487,0.40365475,0.11111766,0.2297481,0.034542307,0.007171123,-0.025240751,-0.023249138,0.17374016,-0.21854031,-0.03476064,-0.04038381,0.12631737,-0.22318996,0.025722766,0.15521751,0.12682831,-0.033170067,0.053315762,-0.042198762,-0.023780884,-0.13923296,-0.08055664,0.06717035,0.056373656,-0.23016696,0.031319406,0.024676675,0.22089557,-0.17674634,0.30558088,0.26499912,0.23173466,0.07797018,-0.049988337
-0.084858716,0.0064469576,-0.0659994,-0.0025594176,-0.17329545,0.17646873,-0.11307796,-0.022571899,-0.009864677,0.039907277,-0.18266289,0.088604935,0.048467506,-0.1388718,0.19797131,0.06809748,0.096535884,0.058355384,0.053267077,-0.0343091,-0.03142252,0.112050325,-0.23060682,-0.1432844,0.0044625406,0.106988646,-0.08175397,0.014195826,0.06191564,0.087133154,0.15665387,0.051899157,0.027319169,-0.10498673,-0.018478706,-0.14599884,-0.08517244,-0.110700734,0.18233433,0.14493398,-0.10611252,0.084708124,-0.026893018,0.005518121,0.09506446,0.055867508,-0.1810501,-0.054290716,-0.08745296,-0.022218352,-0.034745913,-0.012529035,-0.018813342,-0.0126459645,-0.024296865,0.027554076,-0.09646199,0.07780327,-0.19315277,0.093873926,0.097056784,-0.10912624,0.1245734,0.013453333,0.07941924,0.07542924,-0.2426249,0.0412514,0.0055766813,0.10878072,-0.09877934,0.0642643,-0.094126664,-0.047903884,-0.05842051,0.07009616,0.12563159,0.03136378,-0.17889206,-0.036671147,-0.19131213,-0.17108876,-0.2461915,0.019835863,0.1800184,0.0815492,-0.19975986,0.052767176,-0.2794397,0.1275826,-0.26228774,0.19866042,0.069245934,0.18316172,-0.32501143,0.0033646277,0.07089072,0.08648591,-0.03286025,0.057679705,0.009483692,-0.0917343,-0.08697015,0.13477717,0.0005168397,0.0016069007,-0.023969363,0.0077958596,-0.029556205,-0.07915686,0.2684779,-0.090953946,-0.06375974,-0.03428066,-0.20572104,0.0739369,-0.030722033,0.021557443,-0.017078917,0.012074546,-0.26538342,-0.15016882,-0.29311287,0.011103064,0.09585163,0.025415178,-0.23442195,0.09173927,-0.22149496,-0.078012146,-0.3024438,0.10684105,0.071712814,0.05863666,-0.26234663,-0.066043474,0.20903692,0.2730612,0.015873274,0.14102738,0.12854546,0.119707234,0.20214069,-0.04537679
-0.1563278,-0.1475494,-0.064629905,-0.12502038,-0.21895215,0.09065768,0.20222081,0.30197334,0.086352974,0.08329343,0.17918977,-0.1397465,-0.12193982,0.11657137,-0.13490315,-0.1339904,0.043903023,-0.0438064,0.17981367,-0.18970668,-0.25807273,0.16025001,-0.24543776,0.118882194,0.20214805,-0.241257,0.20095906,-0.16892266,-0.20695387,-0.08514404,0.2181292,0.074656144,0.19435452,-0.21598062,0.213504,-0.22016378,-0.3165548,-0.23725279,0.0746765,0.3205331,0.0030904969,-0.21608819,0.13096821,-0.2600403,-0.1342508,-0.28893632,0.01701829,-0.11895049,-0.052122038,-0.19054353,-0.0031221206,-0.2342869,-0.254122,0.06074024,-0.027350197,0.1101764,0.14479049,0.036439437,0.16669163,-0.22289473,-0.1922248,0.1984804,-0.2563613,0.101690196,-0.122323304,-0.1628162,-0.034252062,-0.2361855,-0.18924107,-0.019219695,-0.006389945,0.10472023,0.21497238,-0.15600097,0.28183898,-0.18316892,-0.22786765,-0.08768714,-0.07695558,0.08830857,-0.051135257,-0.24575226,0.30430153,-0.19588274,-0.29421076,-0.2565407,-0.0154630495,0.17483772,0.2020416,-0.19013582,0.16861802,-0.17691074,-0.1924788,-0.14675763,0.10543374,0.23113593,-0.11700253,-0.2484875,0.017206123,-0.2251249,-0.21107492,0.038369488,-0.11664694,0.21297811,0.109938525,0.0722838,0.22961013,-0.23092352,-0.14042893,0.2157539,-0.3521025,0.060070217,-0.1979995,-0.23718654,-0.067010686,-0.27561036,-0.21309766,0.1894954,-0.06479703,0.1530024,0.24585089,-0.063339934,0.19474033,-0.1651797,-0.23658496,-0.052566983,0.071763486,0.15010473,0.26779276,-0.18945478,0.30333406,-0.16937332,-0.26818404,-0.17232783,0.050252903,0.057315446,0.15193081,-0.111456975,0.29356414,-0.21730243,-0.15606357,-0.24096234,0.3336663,0.06931672
-0.09289249,-0.35693675,0.05564217,-0.26511562,-0.2607261,0.13328141,0.06345332,0.052169148,0.08791798,0.020168135,0.2500276,-0.23727413,-0.045764,0.101347834,-0.13516991,-0.017928878,0.09207208,0.065176755,0.17521808,-0.15440027,-0.19661313,0.18379977,-0.17487492,0.1180212,0.16752489,-0.12781063,0.2312985,-0.101925984,-0.06332614,-0.0013129745,0.24848323,0.054796517,0.1821044,-0.10054432,0.29293212,-0.24877606,-0.23391962,-0.29096437,0.2653987,0.10199015,-0.24692053,-0.2311802,0.08830903,-0.08495695,-0.1701116,-0.18579328,-0.117874205,-0.108617656,-0.099957615,-0.1918473,-0.104778886,-0.07060867,-0.003917081,0.09534273,-0.036809772,-0.06900515,0.11817247,0.088494346,0.09887927,-0.07002139,-0.025573049,0.15805365,-0.21369715,-0.056285594,-0.021226542,-0.025765462,0.062100917,-0.1069401,0.05903489,0.14991064,0.15404718,0.1145896,0.079025425,-0.19691531,0.013876317,-0.20429726,-0.056219015,-0.16651486,-0.18277031,0.02238036,-0.19771525,-0.29134348,0.04940435,-0.0064002224,-0.037979104,-0.08212917,-0.29784453,-0.092765324,-0.07810599,-0.09721004,0.05595504,-0.12726198,0.0023021298,-0.03457007,-0.056833263,0.07095637,-0.19344713,-0.2410056,-0.1007351,-0.05467657,0.01847158,0.051271945,-0.11979643,0.105520435,0.13322909,0.006343462,0.2592465,-0.0842437,-0.15041207,0.0793472,-0.13498446,0.059760895,-0.17138377,-0.20492001,-0.1071429,0.043356635,0.055174116,0.1064435,0.092450954,0.10220194,-0.019687157,-0.1397855,-0.003875473,-0.004788095,-0.014773262,-0.067396164,-0.31351665,0.096491516,-0.12569016,-0.21015511,-0.008686913,-0.12746373,-0.082595855,-0.0779231,-0.23939696,-0.03203869,0.15981299,-0.10262673,0.23480482,-0.121849865,-0.008582197,-0.043450102,0.30775872,-0.03586689
-0.06916655,0.04255132,0.11743511,-0.025660357,-0.047204893,-0.113425374,0.07555517,-0.12834774,-0.003506929,0.008998891,-0.1326993,0.068081625,0.0836369,-0.15527737,0.08328544,-0.052477617,-0.06107826,0.00011753099,-0.12191854,-0.09499289,-0.112353936,0.0015609621,-0.08119343,-0.06773226,-0.04970306,0.018197246,-0.043382294,0.044839863,0.029860709,-0.009362165,-0.04651906,-0.13788709,-0.11283515,-0.07834607,0.061851785,-0.022255247,-0.09248884,0.0041816584,0.05448002,-0.09417052,-0.0516536,0.057648342,0.035182048,0.00922747,-0.089428425,-0.007394308,-0.14951006,0.010765553,0.031650376,0.047696017,0.14183833,-0.010696239,0.027545314,-0.13365003,-0.010715793,-0.14693752,-0.12510043,-0.11950265,-0.10778828,0.020760369,0.056039132,-0.15622322,-0.059325777,-0.121703185,-0.012217182,-0.038501516,-0.035837278,-0.09404393,0.061279994,-0.10807217,-0.121420264,-0.09806496,0.015872227,-0.070786886,0.0076379552,-0.027170872,-0.011821387,-0.029860292,0.15504004,-0.026984291,0.13618627,0.05021463,0.006053324,-0.093008734,-0.037925273,-0.12530303,0.09715702,-0.080257714,0.043163817,-0.010880383,-0.06830294,-0.026196908,-0.00024323676,-0.054311942,0.041922476,-0.041230835,0.04787885,0.0013440679,0.0048684236,0.017844794,-0.07943589,-0.08550633,0.049420577,-0.03988735,-0.060974132,-0.11718372,-0.011673418,0.05927424,-0.0038835679,-0.01585605,0.1119078,-0.05763137,-0.07541865,-0.059111904,0.003164107,-0.09634867,-0.074462585,-0.12228133,-0.028297147,-0.04660457,-0.08293405,-0.13025346,0.073580295,-0.019270895,-0.048931245,-0.021453038,-0.00032032756,-0.09335035,-0.023779534,-0.09062646,-0.050037432,-0.0016466348,-0.048330385,-0.0061578965,-0.042123135,-0.048502665,-0.041219745,-0.08868739,0.054053262,0.044311926,0.07218734,0.0132794455,-0.0030041183,-0.14064234
0.0855926,0.004766916,0.09947662,-0.13407552,-0.10336064,-0.1519364,-0.1336476,0.00413704,-0.038453586,-0.14191025,-0.04217781,-0.092454754,0.009797914,-0.085629605,0.13204524,-0.014001419,-0.01816787,-0.09272003,0.018695645,0.019804865,-0.0032370978,-0.11076584,0.0009511901,-0.047898035,-0.09725231,-0.021238701,0.08332783,-0.06253761,-0.04215585,-0.015342549,0.11235179,-0.02300691,0.092444345,-0.04793692,0.045848638,0.022484185,-0.14217088,-0.039645456,0.07887169,-0.08678969,-0.0037786975,0.0043535777,0.07234189,-0.030989556,0.020504696,-0.075721286,-0.046906568,-0.08840146,-0.044464782,0.029959114,0.10373689,-0.02764115,-0.0750545,-0.09410701,-0.08823482,-0.028043617,0.0026847792,-0.058574174,0.06667198,-0.07809816,0.017373078,-0.036148414,0.10559629,-0.13535081,-0.120837815,-0.07722699,-0.014144757,-0.032660212,-0.020714644,-0.15740019,-0.074713156,-0.09139103,-0.1298178,-0.007735788,0.072250776,-0.075326994,-0.10178645,-0.105155945,0.045742657,-0.12999511,0.048445392,-0.11773456,0.018551245,-0.106322035,-0.07092457,-0.13167551,-0.044880148,0.005503238,0.012538596,-0.042149555,0.099160396,-0.0011267291,-0.016486775,-0.0535718,0.083753265,-0.055856876,-0.10135452,-0.10262855,0.07639519,-0.0075725303,-0.036815543,-0.014721964,-0.069808535,-0.07552948,0.003291766,-0.13814685,0.112202816,-0.0067586447,-0.0024092938,-0.020817835,0.14127342,-0.04632838,0.090340465,-0.09195336,0.116693854,-0.11488259,-0.10495487,-0.13714394,-0.036874745,-0.037357304,-0.07852961,-0.118437916,-0.013017482,-0.048302397,-0.13968171,-0.013629059,0.15887034,-0.09768167,-0.07096933,0.005419407,0.03924173,0.01399481,-0.14002761,-0.08225541,-0.08945009,0.010161453,-0.029075302,-0.012947697,0.023812415,-0.07371307,-0.0751649,-0.115065575,0.05285232,-0.09487682
-0.20221874,-0.16433555,-0.078434266,0.06460244,-0.062040556,0.07422559,-0.11237444,-0.054979518,-0.048299816,-0.13427526,-0.029361904,-0.085328795,-0.089409575,-0.15891074,0.12240745,0.05279051,0.16424116,0.039530538,0.13148504,0.08528327,-0.029674843,0.21220957,-0.30456936,-0.039926827,0.1564402,0.013816057,0.0013571298,-0.021923838,-0.10435386,-0.013718942,0.17092192,0.03705854,0.038051084,0.07411824,0.057675157,-0.09053498,0.028912442,-0.038782965,0.26770386,0.1490765,-0.25108016,-0.13686249,-0.104893215,-0.028796945,-0.019946385,-0.004681055,-0.29319948,0.02294458,-0.2569977,-0.123287655,-0.0623751,0.089873575,0.062217373,0.14752279,0.33294246,-0.005197291,-0.1388684,-0.022812305,-0.010310999,0.006456137,-0.10165583,-0.013425106,0.07331198,0.029219285,-0.11182135,0.10334885,-0.18992095,0.13679573,0.04431617,0.12320993,0.03254926,-0.05059347,-0.25397798,-0.15388347,-0.18502884,-0.1464799,-0.16459906,-0.17275262,-0.31218895,0.062127464,-0.21240373,-0.16776033,-0.17676978,-0.045924094,-0.016879074,0.042430688,-0.18706407,-0.011600429,-0.18838248,-0.10666782,-0.055827595,0.0042052893,-0.1211587,-0.015066006,-0.2929878,0.16534457,-0.2687287,-0.0339623,-0.014441934,0.004455124,-0.058546815,0.03648885,0.20872459,0.14411646,-0.002184184,-0.0018933798,0.032346718,-0.0089546945,-0.010186728,-0.037986454,0.09230203,0.019709589,-0.26678818,-0.006966213,-0.05517396,0.08296824,0.05758131,0.12560724,0.07958783,-0.08246949,-0.20998819,-0.08934964,-0.29933715,0.095355175,0.06428103,-0.08488199,-0.21131729,0.10799748,-0.3112218,-0.17843081,-0.30154604,0.06867059,0.013552225,0.047812853,-0.32746163,0.073806345,0.2842342,0.13225783,0.1458304,0.079382196,0.05218548,0.113666296,0.13844667,0.058027327
0.1831281,0.2181388,0.22279492,-0.0677903,-0.06640265,0.26353365,-0.38908994,-0.018791722,-0.1569883,0.18264067,-0.18929052,0.23372747,0.23258747,0.0102607375,0.30813515,-0.045191187,0.14962,0.08776592,-0.11677766,0.08901387,0.14101988,0.052440215,0.08224876,-0.0005072322,-0.14030796,0.0992984,-0.13625422,0.28246424,0.18101454,0.23768646,-0.26353505,-0.12114222,0.15760526,0.039332457,0.02856352,-0.07657293,-0.120419286,-0.12353315,0.09366454,-0.08240758,-0.21278019,0.101232834,-0.069734566,0.09486786,0.019039106,0.054319113,-0.096151985,-0.14552346,0.25748566,0.09319358,0.04826895,0.10321494,0.026077423,0.14505343,-0.17224915,-0.051485118,-0.2659266,0.013289679,-0.28889078,0.19036156,-0.048130665,-0.1777753,0.18706985,0.096079975,0.2609494,0.22065464,0.116116434,-0.07207739,-0.07384691,0.2072569,-0.3513068,0.096642956,0.30040586,0.02107102,-0.070869684,0.11096291,0.048526295,0.14606477,-0.072279744,-0.14375226,0.08056333,0.12126995,-0.18293536,-0.0050746794,0.031632923,0.007841136,-0.06389906,0.03545099,-0.31823644,0.20119672,-0.31882486,0.26535523,0.28339747,0.208272,-0.12758206,-0.10975802,0.24450235,0.18938759,0.04221993,-0.00448113,-0.070817836,0.21772227,-0.1678793,-0.017765123,-0.1387451,0.010171718,-0.07984875,0.14405373,0.03838224,-0.021858307,0.16077708,-0.06354454,0.28633627,0.068205535,0.09176111,-0.06869598,-0.14374197,0.1654149,-0.21252617,-0.22607045,0.29348704,0.094306424,-0.05150329,0.011395773,0.067653075,0.051812097,-0.103150666,-0.03095334,0.122450545,0.08433349,0.0005586642,0.109822646,0.08454361,0.08893001,-0.025758674,0.02214281,-0.20922884,0.33065403,-0.21151294,0.22336712,0.32487306,0.20543133,-0.10694847,-0.09871731
