0.03684679,-0.033092625,-0.03435962,0.022618726,0.017328504,-0.0094246995,0.01752984,0.005031405,-0.022082103,0.010226764,-0.033290822,0.012124392,-0.030802397,0.027733002,-0.009051524,0.036237724,-0.021787027,-0.0101775825,-0.0093837725,0.031151518,0.028268397,-0.008118233,0.018756503,-0.006857305,-0.0040399944,0.03779293,-0.020761462,-0.025255874,-0.016609134,0.02996688,0.040052753,-0.03634204,0.029976957,0.027740875,-0.033643913,0.035255075,0.026127055,0.045038085,0.02943618,-0.041048035,0.026630927,-0.03888837,0.04639874,-0.027358914,0.022384688,0.031190408,-0.047851313,0.021596173,-0.027648102,0.009513141,0.028915064,-0.030159509,0.013286316,0.047782145,-0.023066303,0.018954268,0.011564297,0.004939618,-0.050042056,-0.039342403,-0.027862195,-0.030896075,0.013366837,-0.001161412,0.014818697,-0.01025802,-0.0254706,-0.021789676,-0.036034,-0.00054760434,0.0041268445,0.04468669,0.005636487,-0.0067222863,0.0051011406,-0.038569115,-0.04037764,-0.0068051657,-0.00095347624,0.008447584,-0.010748421,-0.02417825,-0.029819433,-0.00093075994,-0.031105647,-0.017788649,-0.012999592,-0.008013974,-0.022353267,0.020050183,0.032440864,-0.017406207,0.0068948385,-0.026744038,-0.004524163,0.008855241,-0.045923304,-0.022331571,0.035452858,0.001986099,-0.016511373,0.006678372,0.008897118,-0.01590543,0.019735588,0.0055566994,-0.008779111,-0.012264738,0.00042758044,0.012406849,-0.023409313,0.031563375,-0.032205217,0.033443138,0.050404213,-0.020274632,0.008466319,0.011955096,0.016213788,0.0075490954,-0.006677171,-0.017491722,0.015311742,-0.03618417,0.04611719,-0.029370854,0.035671372,-0.0051009706,0.01314789,0.038934432,-0.032207496,0.006794819,-0.02972409,-0.015148017,-0.017486263,0.00091843284,0.012848026,-0.025738178,-0.020595826,0.0067501045,-0.033808425,-0.031365544,-0.013669473,-0.021946246,-0.027156245,-0.0082785,0.016613264,-0.025638634,-0.0067446306,-0.008182882,-0.005485232,0.0036416082,0.037103422,0.025796937,-0.009380509,-0.0051918686,0.032066442,-0.016694665,-0.01237188,0.024922388,-0.035960656,-0.026575677,-0.03210639,0.021911811,-0.011457264,-0.031166269,-0.032515485,-0.0009953973,-0.013098598,0.011599888,0.03994036,0.044409774,0.017609306,0.03099264,-0.04355933,0.012508388,0.012332097,0.027521119,-0.016562423,-0.03267841,0.021278167,-0.03756439,0.01946203,0.029475361,0.007194089,0.013187862,-0.036049634,-0.011816036,0.010042348,0.014764034,-0.03262916,0.0183121,0.026616028,-0.043309316,-0.033621322,-0.03238969,-0.034527667,0.018216005,0.043082587,-0.025509024,0.005715235,-0.029191928,-0.02751623,-0.050563633,0.056081645,-0.019797066,-0.035332218,-0.0150837265,0.030675031,-0.016275363,-0.019834742,-0.026777927,0.037665676,0.035257466,0.04172688,-0.013989402,0.01858602,0.031520236,-0.031926543,-0.017030913,0.017546076,0.03067095,-0.021797476,0.013177116,0.040839866,0.013798788,-0.020600453,0.01605914,-0.00023684656,0.042744625,-0.0070504765,-0.040631395,-0.0465482,-0.023818014,-0.021039633,-0.0424531,0.0030101507,-0.012572931,-0.049670782,-0.0033082906,0.039292578,0.025070243,0.01965098,0.048403632,0.016092498,-0.02165482,0.022146827,-0.01915237,0.019896364,-0.024176262,0.022419184,0.05630903,-0.022320027,0.010625403,-0.027546033,-0.050564248,-0.019429507,-0.01631548,-0.010180696,0.048472792,0.02761138,-0.020128682,-0.032670897,0.027339185,-0.02188346,-0.018252024,0.03540128,-0.0432581,-0.013692365,0.0059416727,0.032814227,-0.003128515,0.015483861,0.021042302,-0.049663827,0.0055648345,-0.023722652,-0.010199433,0.032446295,0.012199997,0.045996387,-0.0325142,0.024496661,-0.007456828,-0.04046181,-0.012330847,0.019389983,-0.06328779,0.018795349,-0.041056745,0.0011787404,-0.046122067,-0.022047784,0.02670997,0.0034366741,-0.04074233,0.019750137,0.007630591,0.042349912,-0.032308985,-0.010395289,-0.023093604,0.015768323,-0.012739055,0.04780029,0.029788045,0.023843622,-0.016005,0.018282866,-0.01344876,-0.026849305,0.0018515901,-0.0034105089,-0.022592071,-0.037667073,-0.060195837,-0.010637455,0.01821646,-0.0049894922,0.013319691,0.028003464,-0.06615272,-0.047419835,0.03449155,0.0092744185,-0.00882882,-0.051280197,-0.06317802,0.015904555,0.032120816,-0.011043894,0.04026072,-0.041605685,-0.0051992787,-0.03224748,-0.018312111,0.023253359,0.03011429,-0.011361726,-0.03157417,0.036642242,-0.0444196,-0.021205563,-0.017652273,0.00791198,0.02777106,0.020642709,0.02509377,0.013534921,-0.0210644,-0.0039687306,0.010398119,0.027342938,-0.052462228,-0.008925643,0.018532427,-0.0314535,-0.01325331,0.024628362,-0.06321214,-0.043945283,-0.031552773,-0.0052120527,-0.004981407,-0.02622167,0.03180252,0.038193807,0.052692797,-0.025931127,-0.05641882,0.028702682,-0.020516127,-0.002079973,0.03301268,0.023674183,-5.0392006e-05,-0.028681824,0.06343217,0.008305639,0.048911918,-0.011599453,0.027021602,-0.03537776,-0.0023412996,0.029760737,-0.03624798,0.00988931,0.012190763,0.042659912,0.010409947,-0.04302102,-0.024448326,-0.03884197,-0.06719738,0.033921156,-0.013292995,-0.019775117,0.05185249,-0.03430118,0.0033139135,-0.028829537,0.008405278,-0.0037901632,-0.031616017,0.03491672,-0.052739743,-0.017224027,0.01824877,-0.022439148,0.022693051,-0.012586106,-0.0029840698,0.00072704215,-0.028411955,0.031267963,0.02977148,0.017924458,-0.06148792,0.024388619,-0.016434323,-0.026677817,0.00020919989,0.02295802,0.011184157,0.023161126,-0.053936966,-0.020906614,-0.0013354622,0.009954278,0.042249568,0.019992353,-0.048885766,-0.04685236,0.014435463,0.02382215,-0.027867973,0.029332114,0.021241471,0.020831628,-0.003689693,0.02153543,0.026458314,0.036109112,0.0087497225,-0.04567512,0.030333307,-0.008305408,0.019110555,-0.012077961,0.018056184,-0.0378512,0.0477122,-0.029923307,-0.007582536,0.016515646,-0.015457851
0.0047999,-0.004142324,0.011659203,-0.003233423,-0.037950158,0.021564083,-0.005137227,0.023900459,0.012948633,0.0028053736,0.023137173,-0.023933075,-0.027401855,0.0036931017,0.021298014,0.029826652,0.05070659,0.0014427821,0.019487882,0.021101376,-0.020114265,0.036233854,-0.0064067724,0.0039836015,-0.009926458,0.0064211353,0.042022232,0.026445027,-0.037778385,0.038202718,-0.03362528,0.051815227,-0.02269261,0.022980263,0.02397953,-0.013473078,0.016893806,0.008314942,0.014951982,0.042728763,0.018153818,-0.0037980338,-0.042993188,0.010778813,0.044973146,0.04358178,-0.008850913,0.013445587,0.027951997,0.04226866,-0.039905325,-0.010310121,0.01576403,-0.020578785,-0.0119376825,-0.016684128,-0.0023759308,-0.03258588,0.00024697828,-0.044986103,0.03490778,-0.036190454,0.01869639,-0.027308732,0.004618651,0.027546776,0.036254466,-0.033143952,0.027517926,0.04504418,-0.038395364,0.023048893,-0.018112745,-0.010432248,0.014542434,-0.033300392,-0.047476035,0.030871082,-0.0033854812,0.0036160722,0.017633038,0.009498646,0.01158685,-0.0091320155,0.0051518143,0.01976985,-0.026357701,-0.016549379,-0.00010693155,0.050281923,0.037998226,-0.01715995,0.018584615,-0.019533526,-0.021983882,0.021213962,0.008298738,-0.018462468,0.008807259,-0.010239093,0.02765754,0.028848365,-0.013684043,0.009822563,-0.0044555045,-0.028844044,-0.033698216,-0.013158297,-0.0033873327,-0.008361408,0.034948494,0.031076588,0.02956631,-0.018205103,-0.02789416,0.022250997,-0.0400988,-0.01698855,-0.015451426,-0.025518045,0.010535627,0.03392454,0.04286246,-0.033451,-0.016366873,-0.033243068,0.032436047,0.048645046,0.029077074,-0.0026927,-0.04234103,-0.011868012,-0.038694113,0.04596639,-0.012373861,0.035749447,-0.023915868,-0.029078847,0.03772955,-0.019293502,-0.01737967,0.036554754,0.017984102,-0.023565162,0.008692602,0.02598779,0.014160522,-0.009403785,0.007732987,-0.0023634313,0.022827845,-0.018143287,0.021121958,-0.0010274323,-0.016940352,0.020209577,-0.034825746,-0.02941735,0.006348376,-0.045109536,-0.0023763925,0.019539516,0.0398675,0.024196882,0.0017649974,-0.005011615,0.047250144,-0.009429061,-0.013166399,-0.022644678,-0.020134918,-0.003403113,-0.031183232,-0.03702641,0.020530868,-0.032755997,0.0057985326,0.031880677,0.024322992,-0.05019708,-0.009682368,-0.015343965,-0.013989011,-0.008257617,0.019183049,0.03735122,-0.022667896,-0.027252905,0.035996147,-0.035897437,-0.039512888,-0.05096046,-0.039801538,-0.00887195,0.005217497,0.040846318,0.0048160893,-0.058241427,-0.011590737,0.011390406,0.05691392,0.026205482,0.029662874,0.011259237,0.0013336132,0.016459735,0.00073977635,0.035552688,-0.02275712,-0.005407634,-0.0316079,0.04783582,0.0037098648,0.037966676,-0.031661447,-0.03294507,-0.012581345,0.02275474,0.04405368,0.007386225,0.022126889,0.012994909,-0.0026470902,-0.02381165,0.026383568,-0.010844371,0.015142526,0.012123286,-0.04344147,-0.035208017,0.03729991,0.046650242,0.017671835,-0.026211614,-0.051457822,-0.026888186,-0.011765053,-0.016783487,-0.04272437,-0.04324066,-0.0069308295,-0.0387544,-0.038161192,0.049388334,0.00014381413,-0.014368606,-0.027134359,-0.04127827,-0.014536523,-0.02386212,0.014034858,-0.025815245,-0.045584787,-0.034575567,-0.015693005,-0.039738268,0.0038451732,0.036247667,0.016892053,0.013563678,-0.050019428,0.030938081,-0.008031464,-0.011364776,0.024077337,-0.040983804,-0.02786335,-0.0051947525,0.013631945,-0.018160073,0.039628047,-0.039968178,-0.028967224,-0.04669873,-0.016896345,-0.0074869934,-0.045132577,0.017832676,0.004941322,0.01482612,-0.038052365,0.015118408,0.028938506,-0.0075233574,-0.0065515772,-0.022589942,0.028386127,-0.0397216,-0.0075951316,-0.030916292,-0.023308713,-0.016772665,0.042256452,-0.053760964,-0.04428582,0.02989997,-0.008818888,0.03018395,0.016774178,0.008435391,0.0017626417,0.03013553,0.001547771,0.024501335,0.024538701,0.005720337,-0.03909612,0.016422775,0.012253487,-0.0057463474,0.012724797,-0.03304895,0.036768444,-0.011344812,0.011775082,0.017883517,0.041200284,0.030769426,-0.035708096,0.036403675,-0.028329045,0.02243296,-0.026165154,-0.02669771,-0.0333915,0.008485623,-0.033077337,0.011123361,0.04893223,0.0100097675,0.024123302,-0.035883356,-0.043195326,0.017516576,0.043023292,0.016404929,-0.038938448,0.019272512,-0.026692972,-0.002888768,0.047297593,0.04700513,0.025982473,0.017852549,0.02868375,-0.02119851,-0.008648748,0.016025335,-0.052099884,-0.042980734,0.009385747,-0.036313042,0.0220602,-0.009757676,0.018589435,0.03925076,0.0041539827,-0.030164005,-0.037243582,0.018813465,-0.023104398,0.04120426,-0.031554557,-0.0020760016,0.01916509,-0.042513672,-0.004192641,-0.016289802,0.018946685,0.03639416,0.015662214,-0.04497985,0.00086348824,0.017997984,-0.03453507,-0.024703754,-0.05402166,-0.040726505,-0.047597405,0.0058628037,0.0069728927,0.04057443,-0.006875147,-0.04407326,0.007172385,0.02281694,-0.020169917,0.009080171,-0.03135471,-0.046043288,-0.038072284,0.013536266,-0.024951553,-0.032928176,0.01944252,0.023357404,-0.029256029,0.00060485676,-0.028708654,-0.036097173,-0.020555576,0.02541185,-0.026025455,0.0385555,-0.013352595,0.023342682,0.032761645,-0.02661909,-0.026264217,0.019540904,-0.029530127,0.011256917,0.046831127,0.013313598,0.00053561444,-0.03364074,-0.020679934,-0.035888728,-0.010991286,-0.0041423854,0.03647628,-0.029311022,0.0060712253,0.007582435,0.04397033,-0.03553958,-0.04070132,0.03589959,-0.030530393,-0.009379154,0.04942734,0.028363634,-0.027657812,-0.024570325,-0.0018062337,0.01649846,0.023947436,-0.010862164,0.022688152,0.039890762,0.013155661,-0.005355535,-0.022516282,0.0015155972,-0.04488867,0.03384801,0.004561638,0.012192604,0.033166025,-0.0025781642,0.013983902,0.0005434942,-0.018507311,0.016999615,0.04735299,-0.020235626
0.039195783,0.025084943,0.0119884405,-0.029154932,0.018198133,-0.011779528,-0.03702477,0.03815698,0.041114595,-0.0008952017,-0.013924249,0.027042566,-0.023741692,0.012648786,-0.027223798,0.034093995,-0.024710864,-0.044894878,-0.02796701,0.026821297,0.023729537,-0.045643043,0.007440245,-0.02774512,-0.02699192,-0.045087606,-0.016289905,0.00016459866,0.0064433333,-0.046592362,0.0032329918,-0.0252845,-0.008343816,0.027416134,0.028831212,-0.011222118,0.0005601324,0.00015400616,0.044253968,-0.007391137,-0.04161249,0.0056725983,-0.001954336,-0.008000729,0.0362007,-0.039932735,0.02983032,0.007383393,0.008903566,-0.017769057,0.044638988,0.016899832,0.018936317,0.0034186335,0.013359844,-0.023470584,0.0322994,-0.0006824071,0.02964235,0.0384569,-0.019660648,-0.026512116,0.050465968,0.034457643,0.04190379,-0.019668031,-0.030717907,-0.019430542,0.0037665935,0.015892487,-0.035670646,0.023304416,-0.02017672,-0.021382993,0.049659003,0.022456411,0.035486523,0.04420226,-0.019281924,0.012952107,-0.030622756,-0.016018437,0.0054898555,0.0014030007,0.015078062,0.015797574,-0.0060600764,-0.037102595,-0.035162654,-0.018196046,0.028903732,0.0032493104,0.034458607,0.032996323,-0.011353154,0.05032403,-0.013159964,-0.0094691375,-0.00573872,0.015277911,-0.017046126,0.010794375,0.031670764,-0.010862629,0.014745838,-0.018053837,0.025280174,0.024455681,-0.035005156,-0.0291445,0.00048915675,0.04407425,-0.050000977,0.0049538827,0.04749641,0.03677738,-0.029689124,-0.022188088,-0.019193837,0.049719054,-0.0117166275,0.0113721,0.038279727,-0.030803649,0.02603787,-0.010100351,0.043071277,0.0392301,0.0111186225,-0.02423072,0.0066169105,0.03259074,-0.015529804,-0.043430515,-0.0061469814,-0.0013001922,0.025088245,0.02205226,0.019454576,-0.033960905,0.030065758,0.02937309,0.004089656,-0.017153703,0.010864569,-0.0016255248,0.041498218,-0.04903082,-0.027133187,-0.0069244527,-0.03156774,0.041700106,-0.04698441,-0.023186648,0.03690436,0.0046914197,-0.026655057,-0.007568255,-0.03288327,0.0054606306,0.014438446,-0.02055427,0.03056495,-0.031169917,-0.004752378,-0.0015380862,-0.025900565,0.018245542,-0.025139477,-0.039107032,0.030636577,0.021557081,0.043429866,0.016378952,-0.010660048,0.019756706,-0.046230067,-0.002280432,-0.019675726,0.0396736,0.0014327746,-0.008282059,0.0223321,0.038456634,0.013600073,0.0018332691,0.017991113,-0.02931392,0.0059551466,-0.029098144,0.022051446,0.020999974,0.004804136,-0.05088611,0.03271361,0.024105864,0.0049347687,-0.04333995,0.018032968,0.022460021,-0.005073858,-0.019363219,0.012539056,-0.008760045,-0.031687792,0.007839718,-0.01592224,0.032547727,0.03745501,0.0063188295,0.018484835,0.036964696,0.035717085,0.0046177013,0.021162255,-0.008674094,-0.0041097174,-0.025455298,0.009411129,-0.00014474665,0.037563443,0.04501452,-0.034778934,-0.03775527,0.0382127,-0.005680467,0.020151393,-0.039325707,-0.031077173,-0.018750783,-0.03021373,-0.048928987,0.020561725,-0.03762194,0.009142067,0.017489303,0.010376757,-0.010945484,0.028637871,-0.035818856,-0.039519183,0.00600204,0.024997743,0.012444476,-0.004939612,0.05036458,0.038661126,0.015122405,-0.034445528,0.03310925,-0.028405422,0.0050299508,-0.014369004,-0.03476158,-0.03051915,0.032774102,-0.031631794,-0.018547101,0.0032578849,0.029618427,0.03413425,-0.051643148,-0.008580537,0.025046907,-0.0332302,0.03250795,-0.0033264046,0.01801542,0.027105657,-0.047773354,-0.034500897,-0.047418065,-0.019557517,-0.03361192,0.021964965,0.032947846,0.026976094,0.022044703,0.040621113,-0.014174594,0.022089843,0.025785564,-0.045443654,-0.003313533,0.013472996,-0.01737744,0.02482159,-0.026463924,-0.04381837,0.0064464393,0.004889541,0.030567996,-0.0039996407,0.02605959,-0.029498665,-0.032984473,-0.013635739,0.011929256,-0.03911291,-0.0123096425,-0.04052203,-0.03185119,0.025527999,-0.03834544,0.047642693,-0.03417138,-0.015666408,-0.0126877315,0.033380955,0.018830141,0.015147231,-0.013078362,0.027428877,0.007044051,-0.031174885,0.03210478,0.004463157,-0.012765588,0.035572536,-0.014564082,0.041010883,0.007454258,-0.032711696,-0.03735363,0.009956318,-0.008105167,0.04180105,0.024886133,-0.013093913,-0.013557051,-0.011152161,0.044263326,-0.038601797,0.021332517,0.010516649,0.03377667,0.012829085,-0.021074831,0.02767003,-0.03871914,-0.01768102,-0.026600275,0.04217767,0.012626486,-0.030821366,-0.012633698,0.020338405,-0.026539965,0.035870418,0.03806728,-0.00024654967,-0.009361645,-0.018270187,0.015354659,-0.025656162,0.0034395359,-0.010054075,-0.03097281,0.014289773,-0.024683023,-0.014879489,-0.035115354,-0.011926519,0.0006321349,0.023447115,0.03773008,0.002096364,0.040076986,0.034729213,0.043812856,-0.02102536,-0.03295803,0.04178466,0.027249442,0.029599706,0.00029267502,-0.026298653,-0.032409057,0.015939249,-0.02356324,0.0037396394,-0.028402554,0.0047989283,0.022115385,-0.036950864,-0.03523001,-0.011035964,0.04505017,-0.0154428,0.039484695,-0.042068165,-0.020166654,0.028326573,0.01885865,0.0077670985,-0.02073376,-0.043555114,-0.043382965,0.014409029,-0.010177661,-0.031972125,-0.0349233,-0.021674018,-0.01933786,-0.03305856,0.029105626,0.035656493,-0.0048245797,0.012597057,-0.038549338,0.04133654,-0.015606798,0.025229681,-0.01878937,0.043748178,0.037618514,0.013488898,0.004191542,-0.014610929,-0.024056388,-0.017682197,-0.012015911,0.025065735,-0.012737629,-0.029553857,0.017993094,-0.039007172,0.0012479088,-0.01720689,-0.02507212,0.030954253,0.013441777,-0.00919961,0.033269603,-0.02238967,-0.016907163,-0.029630547,0.022075426,-0.035888713,0.04251688,0.012585833,-0.031784218,0.028649291,-0.018393515,0.009249678,-0.0015837869,0.038538508,0.029968973,-0.015846282,-0.020705882,-0.026585266,0.025833573,-0.026775833,-0.006652335,0.0037846777,-0.017090186
0.0023228817,-0.007952148,-0.015617482,-0.04727167,-0.020788806,0.019268513,0.035905223,-0.010656026,0.007224843,-0.037333567,-0.021915944,0.0153520815,0.042990852,-0.04491738,0.05330126,0.0055341586,-0.018497411,-0.0057874043,-0.04300934,0.03775704,-0.033530362,0.041513577,0.043195404,0.038518146,-0.016648311,0.0076667108,0.03343938,-0.022702796,-0.04572938,-0.03159931,-0.01537389,-0.010492027,0.0060895216,-0.013920601,-0.019076057,-0.014024087,0.02605831,0.0072777867,-0.03430537,-0.008072989,0.036002245,0.01794778,-0.018759232,-0.02256755,0.022324868,0.0070212586,0.01719367,0.015459097,-0.0024629063,0.029555881,0.029444927,-0.033708043,0.0037672448,0.015555588,-0.016611286,-0.03876665,0.049056638,0.028192181,0.00740011,0.0430501,-0.04947478,-0.013800491,-0.024560714,0.0068494016,0.011475002,0.01517521,-0.008667223,0.004874938,-0.03425985,0.025463795,0.0010238325,0.008033073,0.018794945,0.022102665,0.048210952,-0.011774071,0.030480623,0.037146617,-0.028929075,0.031948406,0.023009118,0.023099074,-0.04655242,-0.045081764,0.02758824,-0.0127941305,-0.01652255,0.027952502,0.041178968,-0.027697166,-0.050615314,-0.005096863,0.021686098,-0.0041185706,0.024128653,0.02580157,-0.0021386028,-0.023379585,0.013757142,0.02999709,0.00088459544,-0.028523345,-0.0027948997,-0.020584198,-0.0050958437,-0.024492657,-0.019702233,0.030791976,0.010878537,0.041843466,-0.025518386,-0.012489886,0.03254657,-0.03921931,-0.017075865,-0.0097945,0.03645207,0.034524247,-0.029461594,0.01704912,-0.05091825,0.013411211,0.022790283,-0.005689071,-0.032177377,0.00538148,-0.011304583,-0.0021589252,-0.01675911,-0.03993489,-0.025407502,0.025920706,-0.04313936,0.022423327,0.027948836,0.032414194,-0.027219076,-0.031862468,-0.024019763,-0.01680969,0.028817482,0.03287427,0.02773421,0.033720717,0.026530445,-0.017420989,0.039548013,-0.04572615,-0.0368944,-0.026797023,-0.05198217,0.030081352,0.022588074,-0.046378758,0.009716339,0.0016078949,-0.020565817,-0.018599195,-0.033412207,-0.042415198,0.037327558,0.008308762,0.040658846,-0.014767766,0.0070416057,-0.0035777928,-0.031864107,-0.002850285,-0.022306371,0.01827817,0.008698908,0.0056287455,-0.01595972,-0.026048578,0.004236824,-0.046607465,0.047587115,0.023233298,-0.011033396,0.03216638,-0.013968408,-0.029392388,-0.005813,-0.015506311,0.02532792,0.031912852,-0.0343007,-0.020927422,-0.011496985,-0.034217037,0.030996423,0.015563207,-0.026987633,-0.00042145513,0.04662716,0.0010851971,0.039601658,0.009597892,0.017074697,-0.01824517,0.013022887,-0.0076006493,0.042635925,-0.040516853,-0.010256234,-0.00825849,0.049009643,-0.008385302,-0.02072308,-0.03351505,0.027541881,0.02788235,-0.014946783,-0.019110734,-0.032867186,0.030851668,-0.0073428787,0.024572102,-0.0020963135,0.020827254,0.0070790905,-0.01221091,0.054087676,0.040109858,0.023438606,0.04381036,0.0070709977,-0.029599315,-0.028502837,-0.045277968,0.0007086845,-0.03982112,0.050462835,-0.023008265,-0.055638254,-0.033366818,0.0014609196,0.0031819649,0.0106911445,0.012553901,-0.04276296,0.041893564,-0.03784769,-0.03627429,-0.025092032,0.0139862,-0.0057698665,0.027946973,0.0018086161,-0.021093689,-0.03169092,-0.0069420333,0.02915049,0.0032172794,-0.030271033,-0.034807485,-0.02788022,-0.02177997,0.033253495,0.032219604,0.02375534,0.031735692,0.0424566,0.026287826,-0.022268092,-0.03932622,-0.037461024,0.0062292865,-0.010026703,0.0020825607,-0.053500347,0.044507585,0.043045714,0.0042082295,0.0037569774,0.00021268804,0.0027954562,-0.0017009195,-0.006439626,0.014160219,-0.009844664,0.028504398,-0.021459414,0.040236074,0.003346436,-0.040089913,-0.03210109,0.0039633717,-0.012060264,-0.04063976,0.010485028,0.01966818,0.038534332,0.020357814,0.029930253,-0.016996237,0.008994436,0.033097565,-0.007537444,-0.024511017,0.013643073,0.021703402,-0.03841781,0.023678254,0.00535813,0.030250138,0.02226882,0.010143446,0.033878095,0.03180014,-0.04085721,0.031912982,0.019037351,-0.027104799,0.0075111086,0.032077618,0.0025215258,-0.037229642,-0.046853624,0.028852543,-0.0042318343,-0.0027612697,0.002450851,0.023695549,-0.008826875,-0.01746593,-0.034248296,-0.036077276,-0.028532606,-0.0032297156,-0.010734713,-0.052935116,-0.046760328,-0.02095759,0.024986342,-0.0016694482,0.029082812,-0.048913475,-0.0029345439,0.03430487,-0.0478998,0.018852156,-0.008569927,-0.0154959485,0.028011153,-0.0029705781,0.022199403,-0.0440104,-0.0398728,-0.030176952,0.01562685,-0.03003981,-0.04135473,0.03497701,0.04042583,-0.021144481,0.021830497,0.029207978,0.031372353,-0.008696846,-0.01034474,0.01209044,-0.024458062,-0.002684085,-0.01707593,-0.042110734,0.001093,0.005428962,0.035792317,0.044455044,-0.014838065,0.02804001,0.023058686,0.03494142,0.016934494,-0.0144555485,0.015728047,-0.018762743,-0.020340199,-0.0058757514,-0.016735582,0.050803956,-0.009750752,0.0026543709,0.019738534,-0.025829082,0.01940585,-0.0020832317,-0.0130873285,0.010721373,0.039018717,-0.0018172996,-0.0014492699,-0.034321036,0.017035367,-0.025499804,-0.014909649,-0.054099772,0.0038302185,0.0031566706,-0.0007145339,0.012344484,0.0014009433,0.002359304,0.0201545,-0.034172025,-0.008225734,-0.01727212,-0.04640578,-0.030601148,0.03245643,-0.02209415,-0.0068618767,-0.04869555,-0.008464405,-0.05251069,-0.044024613,0.036299337,0.053854607,-0.0026570465,0.0144854,-0.037867196,-0.022413729,-0.021795865,-0.037370343,-0.04783922,0.027940609,-0.01678181,0.018430749,-0.021140484,0.021146733,-0.011142566,-0.019801931,-0.047646746,-0.008699811,-0.017804312,-0.03930385,0.0067600356,-0.026793618,-0.012814117,0.020917801,-0.0037629078,0.050431322,0.015039012,0.037210803,0.022041442,0.011739636,-0.0007736459,-0.02720003,-0.03209717,-0.028215963,-0.044344135,-0.024759255,-0.015128931,0.027553929,0.03127509
-0.00092607987,-0.028386116,0.004017475,-0.030680418,-0.025687184,0.033676475,-0.023833752,0.021726092,0.0018630457,-0.05395116,-0.040196124,-0.017990012,0.013384438,-0.02212992,0.03708712,0.028703293,-0.0155455265,-0.033767924,-0.0030073032,0.0153434975,0.034176834,-0.060105905,-0.045096505,0.008823954,0.025784872,-0.002736403,0.011311589,0.010203079,-0.021120444,-0.03322888,-0.03791101,-0.030557977,0.022198264,0.03913868,0.0028605985,0.023268983,0.03190697,-0.026191691,0.015369749,-0.036870614,-0.0019920222,-0.026619352,-0.021538917,0.018066866,-0.02014344,-0.000789985,-0.014933384,0.046700038,-0.008950367,-0.031763274,-0.019725243,-0.010083019,-0.040460616,-0.008566059,0.022634886,0.018237997,-0.00281865,0.017266512,0.04175349,0.02855248,-0.005957954,0.010948547,0.00035468,-0.0054275678,-0.040741436,0.0025592027,0.03716484,0.0031076083,0.001898568,-0.0029045404,-0.020901322,0.038712293,0.01291431,0.017341485,-0.039467316,0.034986094,0.028945727,-0.03673427,-0.026233463,-0.031566236,0.0015301113,-0.01853017,-0.00042040518,-0.024624186,0.036869437,-0.038827717,0.026881905,0.021201031,-0.045252852,-0.0033660098,-0.019509738,-0.023901287,-0.01395052,-0.026261818,0.002135732,0.030865742,-0.023449363,-0.0031452067,-0.007316767,0.022669844,0.02814228,0.022658462,-0.039919794,0.022151444,-0.009062926,-0.014448614,0.011185428,0.021980362,-0.0035402593,-0.0023285982,-0.01891021,0.047573134,-0.024769507,0.031668697,0.003034486,0.006119708,0.039940707,0.002776294,-0.036237642,-0.022548987,0.019350747,-0.039932262,-0.006963605,0.025719672,0.021229371,0.013698058,0.017891312,0.008923364,0.014261417,-0.0034869423,0.020567482,0.015701886,-0.02920543,0.030658197,0.036658343,0.027938837,-0.0078403065,-0.030482931,-0.018557174,-0.02672338,-0.007286528,-0.040067963,0.03222987,-0.0006659978,0.020680549,-0.00025356814,0.022454957,-0.03280585,0.0054236357,-0.006503275,0.03197183,-0.0041069663,0.01065684,-0.037241757,0.01225621,-0.011520587,-0.035107363,-0.01496836,0.017996864,0.008667542,-0.020097198,0.018783482,0.008880031,-0.006596097,-0.033674058,0.018230086,0.02334848,-0.0024010795,-0.015735332,-0.024971256,0.041180428,0.0113700135,-0.0048781005,0.018214447,0.012131415,0.025879633,0.03246532,-0.037248485,-0.011318096,0.032938644,0.030052058,-0.01026256,-0.040722627,-0.008493486,0.0016494519,-0.008979493,-0.034576077,0.043732584,-0.007438869,-0.011819707,-0.01957626,-0.04582718,0.015172612,-0.032839533,-0.026890382,0.0019379966,0.022808148,-0.022219548,-0.034689296,-0.04348427,0.03979326,-0.02871726,0.020945726,-0.045213386,-0.00040297315,0.025411692,0.020891901,-0.045096483,0.0018398566,0.0012463615,-0.046633136,0.015709173,0.036020115,0.042106804,0.0080222525,0.035437427,-0.028423153,-0.0427264,-0.031802006,-0.008003738,0.0019419524,0.032386106,0.035044912,-0.008207642,0.0051672366,0.012635222,-0.0136744585,-0.014875895,0.019371077,0.012145035,-0.008754728,0.012469174,-0.012905897,0.023126733,0.026814898,0.027506178,-0.016832659,0.03276713,0.02132156,-0.04874414,0.01964982,-0.034355063,0.008689206,-0.010958006,0.0037164758,-0.046622656,-0.009838189,-0.028421642,0.019717358,0.035774484,0.033588156,-0.046471894,-0.038422883,-0.0010725978,-0.021490308,-0.011760156,-0.034349572,-0.00526968,0.024406444,0.011250385,0.005560122,0.002728711,0.0073959245,-0.031826477,-0.002873585,-0.041898135,0.0336401,0.013309938,-0.013012203,-0.010749226,-0.03977194,-0.005580317,0.027587697,-0.017019305,-0.028951854,0.01637224,-0.051460326,0.018347383,0.034397047,0.035336368,-0.018312005,-0.020754032,-0.011848202,0.005044597,0.0011912051,0.027139794,0.040988285,0.03158483,-0.035828847,-0.03586338,-0.0011089932,0.035971038,-0.029208977,-0.041792993,-0.024379537,0.02158899,0.042751264,-0.023237763,0.010391086,-0.012888926,-0.04138598,0.0007496937,-0.03747743,0.023699293,0.031730775,0.03503502,-0.04501919,0.009594755,-0.011370508,0.003504281,-0.029338066,0.013558328,0.03295103,-0.018268269,0.0011232072,0.009398861,0.038963445,0.021549318,0.025519075,-0.030514449,0.040422264,0.056094855,-0.022057507,-0.0008416078,-0.00040680915,-0.0120413685,-0.0137051465,0.010828426,0.0042945533,0.009745609,-0.028009355,0.002971694,0.04211501,0.062162463,0.012957879,0.04349995,0.03091819,-0.0038283747,-0.04239512,0.02251681,-0.01251226,0.029051442,-0.03250216,-0.03883882,0.03658755,-0.028401218,0.02794999,-0.031044612,0.008696045,0.029806748,-0.009898763,0.041456774,-0.020904317,-0.030605238,-0.030240892,0.0046809274,0.04360828,0.010689765,0.008536106,-0.031859986,0.03675594,-0.010105589,0.04045994,0.008929232,-0.011777661,0.008299815,0.002016546,0.0026220027,0.039885774,-0.0285939,0.041583113,0.0013825484,-0.028109597,-0.015075979,-0.038982987,-0.000782039,0.018490536,-0.04143293,0.0030751359,0.007940514,-0.003357164,0.024103682,0.03430906,0.026317868,0.01460972,-0.008977799,0.007228892,-0.018785087,-0.048723448,0.0096123,0.033485617,-0.04417633,-0.027593076,-0.03128198,0.018268034,-0.048739698,0.010695086,0.030706571,0.02937581,0.05169418,-0.04836301,0.035150465,-0.025941174,0.020387301,-0.013139862,-0.0015321017,0.016328633,-0.009105396,0.01946137,-0.007866669,-0.03425667,-0.026505075,0.022582818,-0.04054284,-0.02480334,-0.0026756458,-0.008220531,-0.03197895,0.040314298,-0.0006004171,-0.033622272,0.016532348,0.042063545,-0.0006480589,-0.022180619,0.015626524,-0.017419903,-0.0304435,0.043848097,-0.023490816,-0.04827426,-0.016037961,-0.053474195,0.039909568,-0.016467435,-0.029081522,0.033732146,0.009963879,0.031275094,0.03079709,0.014737298,0.006534471,-0.045468565,0.015793366,-0.047817595,0.006160303,0.0038610878,-0.026216803,-0.00089756196,-0.00046183052,-0.0041809203,0.010841663,-0.04798866,0.0062171225,0.024037326,0.029016318
0.022153731,-0.01182265,0.040234197,-0.03044458,-0.026038641,0.03438937,-0.037965804,-0.010728473,-0.011395003,0.028839378,0.0009839205,-0.021996176,-0.018971305,0.030546559,-0.028823383,0.0012149959,-0.025379272,0.016329626,0.0020218263,-0.0005251594,0.024851862,0.023067033,-0.043932997,-0.012145076,-0.034537435,0.010291114,0.030171862,0.019926408,-0.045643844,0.020504402,-0.01769744,-0.01651859,-0.008974898,0.02544295,0.033887986,0.006172917,0.04168671,-0.04362922,0.04411253,-0.021356072,-0.004758052,-0.024295097,0.035561595,-0.043463297,-0.01708922,0.03587871,-0.016009843,0.0151989,-0.027362458,0.0055563813,0.049945995,-0.032774325,-0.025917556,0.04624535,-0.01867713,0.03906286,-0.008742066,-0.030017216,-0.050536204,0.0048437733,0.03645315,0.019490924,0.011084154,-0.0017458685,-0.006517018,-0.03587413,0.008754421,0.025872191,-0.017761923,0.025136352,0.030045317,0.024887696,0.007540288,0.038294945,-0.038697403,-6.1897255e-05,0.02411045,0.01591559,0.039351303,0.002444131,0.032331783,-0.030890394,-0.018362055,-0.0152088795,0.0024659766,0.02470996,-0.0060675875,-0.023293601,-0.023654254,-0.013855215,0.043705363,0.0075050755,-0.0044406895,0.053233918,-0.012014822,-0.037003275,-0.0028985993,0.03579838,-0.0069264956,0.041781522,0.008228269,0.019309444,-0.0428416,-0.046460845,0.0299681,-0.030744534,0.042565905,-0.01606983,-0.016772324,0.0029953155,-0.028326917,0.0033872693,-0.029658323,-0.04540532,0.008041598,-0.04806905,-0.020294076,0.00904931,0.043784942,-0.012143969,0.028119558,-0.004682706,-0.030765746,0.051989153,-0.019113142,0.029125545,-0.001237723,-0.034540445,0.042101704,-0.006953405,-0.0019437248,0.007430596,-0.035650775,-0.035004538,-0.020594187,-0.034233425,-0.019949904,-0.04911198,0.0063682613,-0.027618703,0.031311605,-0.035620764,0.04286544,-0.000319812,-0.0064024515,-0.04625921,0.020887943,0.023915267,0.032462277,0.020996492,-0.038549352,0.02478397,0.020536538,0.04690038,0.028172063,-0.0024849821,-0.005142496,-0.037700877,-0.017468048,-0.017982496,-0.024840176,-0.051059082,0.011504137,-0.004210595,0.0027544727,0.00022983256,0.0067352997,0.034006763,-0.039465647,0.020118603,0.013331964,-0.034275252,-0.0340436,-0.022449953,0.00948895,-0.047106236,0.04321643,-0.02835394,0.010221325,0.0054325815,-0.03225063,0.010552798,0.0042541292,-0.032390162,-0.008439739,-0.050642617,0.0027001826,-0.016438117,-0.003804951,-0.010161621,-0.008841172,-0.018216662,-0.030949065,0.016198765,0.005311644,0.012997776,-0.03878276,0.018704168,0.043231633,-0.0018510728,0.04284766,0.0394104,-0.006939702,0.0055921604,-0.01120808,-0.03952222,-0.024229547,-0.0040557394,-0.0018124677,-0.04068265,-0.0324865,0.016100297,-0.012270378,-0.013646221,-0.03417614,-0.047790162,0.00790469,-0.01722053,-0.02171327,0.017381981,0.016457593,0.020677675,-0.025000855,0.020977732,-0.016742842,0.0021594153,0.025065862,0.011823243,-0.025589224,0.01979268,-0.031618137,-0.016657121,0.020707827,-0.005465485,-0.027167764,-0.009077,0.031444803,0.021701612,0.031684466,-0.041251335,0.016255384,-0.030311963,-0.048842613,0.021426532,-0.0056949714,0.04082832,0.012281021,-0.046858437,-0.04001264,-0.009697082,0.021940785,0.05545268,0.023546165,-0.04341124,0.032441355,0.04753437,0.019320667,0.012235049,0.027604092,-0.031056467,0.022099847,0.047164954,-0.018519359,0.017827377,0.038647175,0.016307702,-0.0032466943,-0.023655867,0.031041132,-0.018202668,-0.027596992,0.02416793,0.026364654,0.01770524,0.009910072,-0.011835997,-0.029833686,0.018456973,0.026881475,0.02098056,-0.043052357,-0.011202494,-0.029900193,0.020355813,0.03272125,-0.017085755,-0.0008684861,-0.039353795,-0.023090724,0.03266016,0.007093698,0.0100688,-0.027127674,0.02285951,0.035013206,-0.03791822,-0.03115599,0.05210492,-0.0004659362,0.024906723,0.03422508,0.0036368454,-0.052014694,0.033447143,0.027822103,0.034983158,-0.048259776,0.03472959,0.008905484,0.038094215,-0.03159224,-0.024840675,-0.02090436,-0.010204852,-0.015719471,0.013861723,-0.03631394,-0.044225473,-0.03305501,0.036936685,0.038313527,-0.006517508,-0.010671448,-0.03146715,0.0019803396,0.006554577,-0.0017378301,-0.02984814,0.03989314,0.03063427,-0.042344563,0.012412518,0.0044750073,0.012480748,-0.01925254,-0.03704419,-0.026771285,-0.0050864494,0.0032422675,-0.022259234,0.021903746,0.0041629532,0.026490666,-0.022861557,-0.01936658,-0.024594313,-0.024029495,-0.009328943,0.0375989,-0.033761732,0.035744607,-0.008216445,-0.00518129,-0.0011918563,0.018633151,-0.017381229,-0.0032036023,0.017257962,-0.0009994841,-0.0077907545,-0.04429333,-0.0052462122,-0.04695135,0.0006805223,-0.021571843,-0.009037493,-0.0055280337,0.00092501886,-0.013137082,0.00019666455,0.023222234,-0.011365751,0.03828932,-0.0038311433,0.023871845,-1.8393825e-05,0.001664857,-0.004270079,0.012635288,0.004505334,-0.051676873,-0.03655886,0.012277189,-0.00014321548,-0.011305133,0.021079909,0.008994547,0.017103797,0.026044192,0.038219202,-0.0023476735,0.025059849,0.020703156,0.019676736,0.047063768,-0.0280202,0.03246949,-0.03891311,-0.0033249296,-0.031668793,-0.03197758,-0.019095674,-0.008469462,-0.049547758,-0.032385692,-0.024898691,-0.0053676344,0.0005124164,-0.044145517,0.024237616,-0.026192598,0.046899296,0.016503332,-0.003685553,-0.011675821,-0.031181779,0.006642933,-0.012535707,0.03422796,0.0070261136,0.031091368,-0.0057822526,0.029844766,-0.025925046,0.0026432492,0.02298285,0.03298495,0.038012933,0.037204992,-0.004102198,0.009318261,-0.037846215,-0.04029594,0.037238516,-0.008926118,-0.012011833,0.014709115,-0.015148393,0.034858875,-0.031178765,-0.019022832,0.0039716554,-0.021407513,0.01749222,0.022931674,-0.025760924,-0.0029700669,-0.008821728,-0.021367751,-0.04750103,-0.010339866,-0.03924291,-0.030503605,0.048608854,-0.001100055,0.0009879796
-0.020015068,-0.037595276,-0.0044152685,0.02532474,-0.002719528,-0.01924475,0.022976374,-0.0020813525,-0.052957475,-0.02205003,-0.01157675,-0.03801834,-0.0012383227,0.022105351,0.029120803,0.03337054,0.027121939,0.00063162117,-0.037235823,-0.012754277,0.021108989,-0.023524143,0.009398264,-0.017964466,-0.039233148,-0.019453472,-0.011415628,-0.024014669,-0.015515651,0.03465241,-0.03674815,-0.035040732,0.021642972,-0.021478593,0.031659964,-0.04015949,-0.0059788856,-0.040634055,-0.0133819645,-0.025582045,0.0003513463,0.0035658437,0.03538344,0.03778181,0.033781894,-0.01593075,-0.014705965,-0.018483177,-0.016336346,0.040965475,-0.042696524,-0.03629802,0.034973223,-0.014162614,-0.027559126,0.02671827,0.0337336,0.011207801,-0.042502064,0.04479993,-0.03289064,0.022472216,-0.0037006245,-0.032023035,-0.02940167,-0.02207961,0.0002707502,0.022530906,0.00018977447,0.0014637485,-0.02948971,0.0059175817,-0.013937768,0.0066002216,0.0014146026,0.0028083376,0.012486113,-0.03442611,-0.023055546,-0.0066712056,-0.0030548298,-0.045529295,0.027248023,0.008215128,-0.013926997,-0.04336875,-0.019839784,0.036016002,0.013924809,-0.031917796,0.015007913,-0.007038191,-0.019518843,0.012095141,0.016340846,0.0030482905,0.005681081,0.014405129,-0.014629221,0.018499268,-0.028491842,0.030468447,0.03050078,-0.008188258,-0.05553932,-0.0038408376,-0.010913513,-0.010342625,-0.002389602,0.0015100556,-0.054238856,0.041613836,0.025900938,-0.04193345,0.011527503,-0.0043746615,0.023030728,0.0058648293,-0.037958853,-0.038293727,-0.037741765,0.0067621954,0.03430452,0.04155023,0.023989944,-0.00055629405,0.0016196062,-0.0469509,-0.03184818,-0.020593092,-0.024764523,-0.019092895,-0.028524462,-0.0018911203,-0.008710895,0.030660365,0.047974415,0.019479293,0.042957816,-0.008021929,0.028501112,0.021586625,0.018230539,0.033961214,-0.02467064,0.02415761,-0.03260087,-0.02341058,-0.0144819515,0.0071672234,0.034247838,-0.041990377,-0.02820422,-0.012269968,-0.022126557,0.011630677,0.029261373,-0.0037346552,0.009278448,-0.012175233,0.020467184,-0.009527841,0.036727063,-0.024844022,0.027947314,-0.04176792,-0.012977386,-0.032749712,-0.03146229,-0.046711307,0.026262932,0.012305253,0.026985666,0.0024756421,0.045850743,-0.024627287,-0.04753036,-0.020154122,0.007048386,-0.021304628,-0.016228816,-0.027090441,-0.012800592,-0.031442538,0.020493934,0.01867721,0.017286045,-0.037114315,-0.016045138,-0.04749891,-0.01942885,-0.014877836,0.022717312,-0.007350613,0.015523914,0.0021830688,0.009867856,-0.023175536,-0.034800053,-0.04425509,0.018325066,0.0020783937,-0.043151874,-0.048210226,0.023006817,0.026905363,-0.020494424,0.03844066,0.0010824295,-0.026466414,-0.025745133,0.037089013,0.016526606,0.027083114,-0.02108878,0.038836673,0.012488763,-0.040480014,-0.013058889,0.03578857,-0.009445023,-0.0466697,-0.010521664,-0.0005885684,-0.0149639165,0.0121035455,-0.034702823,0.039833028,-0.0014973491,0.0023807744,0.033305373,0.031564422,0.0154328095,-0.04762199,-0.004093522,-0.003743018,0.026547508,0.035782024,-0.0083159525,0.012735092,-0.031830676,0.0043975012,0.035601422,0.053963587,0.011718873,0.009904072,0.033173345,0.029752193,0.038674075,0.051075835,0.020810053,-0.035893597,-0.013432725,-0.0067164134,0.016163457,0.011174143,-0.04825443,0.0013525481,-0.03181414,0.028037315,-0.014247127,0.03694129,-0.05203577,0.02840736,0.01883451,-0.032612372,0.024678117,0.022996455,0.01782272,-0.023801273,0.029668571,-0.00535254,0.027409608,0.043874256,-0.016314143,0.045953818,0.005618769,-0.037234202,0.024869312,-0.035289735,0.044078927,-0.020533126,0.0103994245,-0.033533916,0.014799213,-0.024157884,0.03830912,0.034763467,0.037721746,-0.039543066,-0.0053793956,-0.050658897,-0.0256667,0.050599005,0.00435186,0.030706212,0.029919224,0.006284516,0.017493933,-0.021418631,0.029388571,-0.038004015,-0.037321378,-0.014137463,-0.01581653,0.01931256,-0.034558535,0.010334156,-0.00994932,-0.050837837,-0.026511885,0.014801623,-0.038468275,0.023543524,-0.044178568,0.022223061,-0.02302778,-0.013009274,0.03444482,0.010719063,-0.007503735,-0.058442924,0.044663202,0.03466307,-0.038734872,0.0038342946,0.012764289,0.010753328,-0.036996763,0.0012601379,-0.021253768,-0.045337543,-0.006120358,-0.01132605,0.049743213,0.031905163,-0.02604264,0.034255225,-0.053379264,0.030142425,-0.034427457,0.022429448,0.022326443,-0.024354374,0.024210684,0.036469255,0.03216982,-0.031605203,0.022600723,-0.024427498,-0.031906337,-0.0052992147,-0.0030747538,0.03141209,-0.036808494,-0.018670142,-0.045276567,0.031018263,-0.029795257,-0.03059251,-0.03065954,0.037511814,0.01953982,-0.025043456,-0.031885404,0.030941036,0.026668347,0.024907896,-0.042146,0.018896619,-0.027823642,-0.03927395,-0.012220328,-0.01129684,-0.018588783,0.015340563,-0.038706884,-0.026295612,-0.04461818,-0.051202327,0.0082166,-0.0023257025,-0.026512973,0.0007277888,0.016948484,-0.047628827,0.020499445,-0.00510888,-0.022111477,-0.008382373,0.013098257,-0.02203016,0.018545166,-0.052565046,-0.014977343,0.007851175,-0.029207092,-0.014329639,0.020077595,-0.0025016286,-0.019466504,0.009219916,0.0144859515,-0.011730373,0.001732049,0.0038764526,0.045481935,-0.035966057,-0.014771123,-0.023103256,-0.00085299194,-0.009450001,0.008638766,-0.038283482,-0.03833131,-0.021102192,-0.029842883,0.00968699,-0.013099369,0.03767348,-0.0451698,0.028251803,0.0007939874,-0.015586962,-0.012758166,0.043983717,-0.039366134,-0.05116737,0.0026318121,-0.031927478,0.02179859,0.043773923,-0.053364582,-0.037414834,-0.01280637,-0.0306329,0.049402367,-0.021210905,-0.0506815,0.033629168,-0.0004262891,-0.014152318,0.008566613,0.02653207,0.00926296,-0.01956466,0.018113328,-0.0319971,0.00502963,0.018020162,-0.0018927188,-0.048948985,-0.051138878,-0.012244073,0.017468799,-0.030462718
0.041551393,-0.037057716,-0.028792357,0.050997045,0.014849249,-0.00857909,0.0022615674,-0.021613345,0.013696721,-0.040104564,-0.035224188,-0.023602866,-0.016979115,0.024875421,0.0011150882,-0.002982674,-0.012917449,0.0152539145,0.007961358,-0.031777296,-0.001494933,0.041981455,-0.0327517,-0.009815336,-0.011720138,0.037428837,-0.00011878282,-0.02378368,-0.008658389,-0.022598121,0.03321858,0.017843325,0.03647352,-0.0073803095,0.0054802857,-0.017104693,0.021981362,-0.021584868,0.026503483,0.03679159,-0.019072922,-0.030377641,-0.035659235,0.031400688,-0.024755439,0.048264816,0.029581174,-0.034812886,0.027957978,0.015600003,0.01805017,-0.012021837,0.007924191,-0.0006950746,-0.014874713,-0.0018215609,-0.04182646,0.004038148,-0.014690184,0.048373986,0.03242257,-0.0021659283,-0.017505646,0.009809755,-0.020627055,-0.002977008,0.01054342,0.008415412,0.02527791,0.025622321,-0.0055073434,0.035920084,-0.034099206,-0.038084775,0.01782049,-0.0045684343,0.03490356,-0.042956885,0.028895063,0.024486335,-0.031381235,-0.04864531,0.0075741005,-0.03691787,-0.041061983,0.016608099,-0.017325096,0.029658766,-0.039810654,0.0039879037,-0.038240165,-0.027628396,-0.014610755,-0.014578625,-0.023537023,0.011273516,0.026513675,0.004756864,-0.02380469,-0.017422203,0.03692928,0.032693822,0.047012478,0.00031482195,0.019721227,0.02867285,0.025213474,0.002285268,-0.026076045,0.03905229,-0.028848238,-0.009507413,-0.023383148,0.03937438,-0.007569276,0.023149334,-0.04044732,0.041597687,-0.023440484,-0.0068672155,-0.038609423,0.025239864,0.031184483,-0.020304933,0.005214578,-0.018694166,-0.00071580464,-0.036562987,0.0025246178,-0.01529836,-0.008354531,-0.03448107,-0.023385426,-0.023393752,-0.0021661134,-0.00089800096,-0.005795549,-0.012695299,-0.027182719,0.028250877,0.019759942,0.044735715,-0.0077477735,-0.029363584,0.017250422,-0.04685093,-0.03762515,-0.037387133,0.027569804,0.036425088,-0.044931483,-0.035904367,-0.04001584,0.002086624,0.0036363946,-0.017590987,0.012792521,0.027731022,-0.015891088,0.015932865,-0.024976417,-9.121722e-05,0.019068142,-0.023013275,0.020832142,-0.00017467729,0.013161377,-0.022259377,0.043299787,-0.022583235,-0.030078968,-0.029033968,-0.040044412,-0.004050238,0.025189951,-0.011846409,-0.027917257,-0.012901814,0.036874045,0.00086514757,0.03894583,0.011864503,0.0401672,0.0023901123,0.028912764,0.010482809,-0.033547364,0.04078361,0.022321487,0.0019060334,0.01774354,0.017550508,0.03489312,0.0050418032,-0.0019568005,0.0015143929,0.012552856,-0.010338251,-0.031140745,-0.02135338,0.041121878,-0.05055223,0.015760522,-0.0039265156,-0.025907604,0.016968008,0.022314122,0.036167797,-0.014513389,-0.025703844,0.011870379,0.018126354,0.043884084,-0.055998385,0.003772466,0.011842622,-0.00010217237,-0.045454964,0.029255494,-0.045121208,-0.033277653,0.0059045707,0.0075027766,-0.029623562,0.033701006,0.04376705,-0.031004056,0.034456,0.03929259,0.036955427,0.041012283,0.029803442,0.0067623476,0.01378594,-0.025853006,-0.04480684,0.0333689,0.03093572,0.011498088,0.012702405,0.042659998,0.011597754,-0.033095866,0.028146066,0.013898101,0.02104459,0.01017026,-0.029105648,-0.037809256,-0.02149733,0.030009039,-0.017648682,-0.03918346,0.043890793,-0.01955908,0.0002715657,-0.029901005,-0.03110185,0.037144464,0.017994797,0.029961472,0.011078272,0.00028933384,0.024356678,0.024646109,-0.022927934,-0.030926818,-0.00069665856,-0.020559778,0.0052079586,-0.025249204,0.009527037,-0.035464674,-0.023822848,-0.02905478,-0.031828295,-0.008332601,-0.03399833,-0.019726435,-0.022285173,0.05329896,0.010724544,-0.030405246,-0.005788625,0.020126069,-0.0016941342,-0.008439577,0.012844147,-0.04880322,0.03112014,-0.029485388,-0.033204574,-0.014074077,-0.017636811,-0.034829605,-0.011449855,-0.037646797,-0.0013197556,0.054279298,0.01482523,-0.023224479,-0.011394384,-0.03057608,0.0017289898,-0.011843421,0.008827906,-0.023985082,-0.02857346,0.03746684,-0.019574227,-0.043367237,-0.048617113,-0.031244932,-0.018504182,-0.0010444085,0.03212386,0.039032977,0.028834121,-0.029311894,0.010371652,-0.04319244,-0.007190416,-0.0057339496,-0.05381718,0.03282771,0.0326191,0.018531077,-0.0040883035,-0.011165509,0.035165504,-0.022976857,0.04756092,0.004688788,0.022129854,0.014867436,-0.03514021,0.002643817,-0.04242768,0.046249468,-0.029277291,0.01506773,-0.03627585,-0.040398765,0.0066078086,0.033806078,0.043314535,0.043219805,-0.009392508,0.02418212,0.041618835,0.01393511,-0.017898392,-0.018126786,0.011900213,-0.0032757001,0.023018079,-0.002654694,-0.022344464,-0.0008614888,-0.05674931,-0.040964823,-0.0207662,0.04166851,0.03728402,0.017523762,-0.0121936435,0.03985191,0.008296546,-0.0053388807,0.0077415933,-0.010589211,-0.056338742,-0.02366872,0.043454368,0.0004169437,0.042513683,0.043452624,-0.014463581,-0.014896569,-0.03758815,0.033467542,-0.017895034,-0.024511494,0.0002894459,0.03280242,0.04557936,-0.015665598,0.010650954,-0.04324679,0.025180925,0.0063328533,-0.013421587,-0.038480673,0.02905125,0.050525773,-0.045272548,0.003987332,0.0025449398,0.0015947844,-0.036781453,0.04271829,-0.018919833,0.015255909,0.021773484,-0.0054658423,0.032586332,-0.026830643,-0.032703202,0.02670517,0.0121989455,-0.04351187,-0.012749461,-0.015293466,-0.02462659,0.02638681,-0.030883422,-0.04209743,0.013365247,0.0018033307,-0.021331184,-0.04790765,0.03392487,0.04305038,0.016562007,0.019486379,0.04228484,0.034856204,-0.005756962,0.034832228,-0.0073720934,0.03280352,-0.029201183,-0.024030419,0.012445444,0.0381504,-0.029881796,0.03188215,-0.036801018,0.016283961,-0.017951818,-0.0062724026,0.015002139,-0.0073473006,0.026563408,-0.011236454,-0.0038128537,0.023487868,0.0041642436,-0.03913725,0.02106288,-0.0072998684,0.00936673,-0.0015628701,0.010359689,0.008102652,-0.03940703
0.0069246604,0.040524047,0.054099083,-0.0123509485,-0.03228991,-0.0014755162,0.009140569,0.026766885,-0.0029725535,0.010214667,-0.010901925,0.0043766005,-0.04476526,0.02708659,-0.00091590645,-0.012459456,0.0107318275,0.007011075,0.0350934,-0.03305144,0.011515061,-0.041807074,0.025091039,0.033780895,-0.043445013,0.006760495,0.029493114,0.036524855,0.014403973,-0.03309918,-0.034103666,-0.0078458525,0.0033130292,-0.047638435,0.038189292,0.013341481,-0.007989981,-0.045763504,0.054744966,0.04152895,-0.025180152,-0.023210185,0.027457716,0.032389987,0.05122329,-0.009976772,0.0014445909,0.05024748,0.009343749,-0.006277898,0.04191507,0.013150775,0.00021430477,0.02478637,0.018062185,0.024977822,-0.023819298,0.014616484,-0.037696622,0.002746317,-0.007108439,-0.037158933,0.008270343,0.043346148,0.0076575517,-0.0063379053,-0.00080509036,0.017398702,-0.012822789,0.009673842,0.040324036,0.015804812,-0.038454335,0.0025684654,-0.021245163,-0.018736996,-0.012235236,0.03191898,0.0028083548,-0.042839907,0.0068841074,-0.013841606,-0.020593107,0.01294236,-0.026430223,-0.026223242,-0.0021701448,0.0054954663,0.020321082,0.017717918,0.029524643,-0.024806993,0.052257244,0.023058966,0.033604257,0.049922008,0.0441614,-0.030682273,-0.013440243,0.033798475,-0.0019230497,0.02914812,-0.009353274,-0.0014945084,-0.018478042,0.02079612,-0.04832721,0.024735956,0.052137084,-0.02288739,0.047994494,0.0066367434,-0.03504817,-0.012587036,0.02587838,-0.025220525,-0.004939971,-0.02468297,0.033934027,0.01213785,-0.0128913075,0.044657975,-0.0019485155,-0.023810066,0.010504299,0.042106044,0.007639073,-0.029783985,-0.02920568,0.010485659,0.016179107,-0.040241115,0.03463713,-0.006941879,-0.035915107,0.011684738,-0.03495369,-0.040959317,-0.008561995,0.006360875,0.020596584,0.047911476,0.006176205,0.034370404,-0.019253638,-0.011761182,-0.029074395,-0.011590991,-0.03842559,-0.01539231,-0.018270768,-0.041625064,0.039387316,-0.010554374,-0.020584144,-0.035713915,0.00044124588,0.010638226,0.028645337,-0.012497219,-0.027623612,-0.039270088,-0.0048877755,-0.04503147,0.037739106,-0.044878326,-0.03758123,0.035470862,-0.02434637,-0.0069520934,-0.02716622,-0.047911625,0.03188605,-0.02686903,-0.028737927,-0.014406661,0.0370276,-0.041013267,0.043622572,0.020725628,0.014553079,0.030088412,-0.0010083823,-0.011719573,-0.03470035,-0.034538724,-0.016057117,-0.019497138,-0.003987367,-0.043618202,0.025201075,-0.03537653,0.047038242,0.019083714,-0.013293884,-0.008982645,0.041080333,-0.019062761,-0.030741256,0.036302622,0.01849347,-0.056117166,0.029968282,0.01722344,0.012432769,-0.02209545,0.017140713,-0.044063687,0.024693662,-0.046928026,-0.016664596,0.022634886,0.04356624,-0.03392022,0.019026652,0.003223764,0.041733786,-0.019834079,-0.025208177,0.0066722427,0.028515434,-0.0040109353,-0.01058202,0.03281268,0.031326603,0.014361482,0.0126044685,0.03687024,0.012478223,-0.013876523,0.04082072,-0.017493626,0.026335968,0.009680338,0.021110678,0.014264043,-0.00759773,-0.009645201,-0.0077259177,0.036414023,-0.046628613,0.013693837,-0.013175403,0.012399473,0.0013362553,0.0014109482,-0.010740625,0.03785555,-0.019123692,-0.03981234,-0.031895846,-0.031375475,-0.01335584,0.03999619,0.02355393,-0.022149276,-0.009767729,-0.0022165,-0.04883367,0.027837267,0.0046126274,-0.047588263,-0.025421614,-0.024880903,-0.015793575,-0.0061229495,-0.031231407,-0.0033016847,0.0118163405,-0.044202708,-0.016904552,0.024077497,-0.031912554,-0.042210966,0.02609178,0.00015957303,0.025885152,-0.04217876,0.0067639127,-0.0088843275,-0.014068486,0.003886852,0.006495078,0.016332993,0.026109358,0.014781354,-0.034752637,-0.004899586,0.023139738,-0.046174284,-0.012483671,-0.019636204,-0.006267636,0.026137037,0.01855457,0.038213097,0.011899851,-0.0019371471,-0.029094258,-0.007854075,0.008151909,0.018151153,-0.020399716,0.02470901,0.041069187,0.021761913,-0.01523412,-0.02757615,0.01935175,0.034356005,0.012817407,0.018115997,-0.03534576,0.015343015,-0.017647319,-0.009323035,-0.0022429826,-0.008775878,0.013059895,-0.011078363,0.035669256,0.0024333696,-0.012966619,0.021423774,0.010052681,-0.024434168,-0.0005662201,-0.039010067,-0.028318012,-0.027092585,0.027605385,-0.009120885,0.011011571,0.0076974416,-0.032224763,-0.03243537,-0.006906649,-0.019102631,0.031874917,0.00033543317,-0.020472247,0.0014023368,0.0067897015,-0.0058285245,0.020714406,-0.00603173,0.02884961,0.01698484,-0.0013170245,-0.011783601,-0.026358744,-0.024208643,-0.019029818,0.008272022,-0.048488643,-0.014129656,0.014118584,-0.02025389,0.012002202,-0.010140013,-0.025701378,-0.028079854,0.025481245,0.0036377183,-0.0025898342,0.015474359,-0.025439654,0.036300514,0.022831408,0.029471163,0.020017361,-0.029918449,-0.053342056,-0.03785231,-0.024892472,0.019934045,-0.023469143,-0.029312335,-0.047590792,-0.019323213,-0.01552461,0.038955573,-0.00065698684,-0.02039377,-0.0025506227,-0.012042737,-0.007949022,-0.02030857,0.02881742,0.043051977,0.02387992,0.013498262,0.05065972,0.013918535,0.0221087,0.02156617,-0.04584136,-0.036751233,0.02763771,0.041201167,-0.04172068,-0.028627768,0.03495088,-0.025505416,0.017403502,-0.017595515,0.016078975,0.023899456,-0.016101127,0.0070983754,-0.034004137,0.0005783935,-0.024192382,-0.020882118,-0.007163552,0.0034287756,0.034634482,0.02700637,0.024031753,-0.05192149,0.018416967,-0.046899285,-0.028744366,0.004635423,0.0013078743,-0.026760448,-0.018371563,0.019991329,0.0128820585,0.023705013,-0.015385778,0.020598875,-0.021474455,0.027064554,0.0022721193,-0.04477996,-0.041483425,-0.04333612,0.017357232,0.018779371,-0.028386552,0.0047014714,-0.0147361625,0.029047308,-0.02216066,0.024542874,0.02217699,0.020242125,0.029984651,-0.047666617,0.011217974,-0.023506543,0.019247284,-0.002271796,-0.037967768,-0.031128293
0.019431341,0.0024864615,0.028600616,-0.0018573616,-0.013769318,0.012310926,-0.0065075764,-0.021492835,0.03642087,-0.03573701,-0.0052831196,0.024131592,-0.028836481,-0.01814933,-0.016963536,0.041995373,0.012778336,-0.0064383056,-0.043265752,0.03498228,-0.0029434285,-0.0131988535,0.034269612,0.0197467,0.03893783,-0.0068947934,-0.031515986,0.039008696,-0.009927785,0.024795476,-0.04204931,-0.000262141,0.02675883,0.0107000405,-0.0013418375,0.028816793,0.017461678,0.009711128,-0.040423207,0.015770424,0.03279218,-0.021298364,0.022116119,-0.010676695,-0.015243492,0.03005503,0.014506132,0.019259686,0.020208973,-0.030879283,-0.037557032,0.029175604,0.005320755,-0.003667614,-0.0029988382,0.004977976,-0.037414122,-0.014907443,-0.015747448,-0.0016455402,0.03302008,-0.023023875,0.034223717,0.017984297,0.017619122,-0.05606285,-0.02451093,-0.0034702162,0.0032072945,0.025874948,-0.035549533,-0.008642469,0.010307398,0.016531348,-0.027152631,-0.02637532,0.052426178,-0.04979753,-0.03645406,0.022544693,-0.025283622,-0.027804917,0.027678415,-0.01776433,-0.03141075,0.0032972519,0.0004767463,0.008346211,-0.0029781307,-0.035709657,-0.01776672,0.02718905,-0.015938085,-0.038990594,-0.045672026,0.006897986,-0.022014309,-0.0349313,0.0037800556,0.006271895,0.02510587,-0.00085279456,-9.494081e-06,0.04050113,-0.0014370568,0.01835345,-0.023202388,-0.0030444595,0.026219385,0.001194544,0.02024265,0.024456719,-0.00520913,0.05544439,-0.04613107,-0.017861165,-0.023266379,-0.025650978,-0.03493129,0.0014687164,0.027929775,0.00019016748,0.010256511,0.0045503485,0.009634051,-0.03111636,-0.021798795,-0.016020931,-0.0336097,-0.011369664,0.010407521,-0.038126566,0.029092629,0.038150378,-0.050770994,-0.0024970856,0.015906993,0.0072243293,-0.046523657,-0.004448593,-0.0005898376,0.029106338,-0.035519045,0.005936514,-0.01428337,-0.038271394,0.02449315,-0.031933,-0.038332112,-0.0021374214,0.03314796,0.030696277,0.013617612,0.04561316,-0.013447178,-0.013899253,0.009271541,-0.04710658,0.020370957,0.02433861,-0.040441733,0.006667363,0.017777069,-0.03248391,-0.0315734,0.035708092,-0.022569168,-0.009008865,-0.041747548,-0.022574011,0.021714618,-0.011479964,0.022123603,-0.05341128,0.0075261137,-0.02857984,0.03151739,0.031765066,-0.027548103,-0.017589431,-0.026443915,0.021143932,0.024866836,-0.010423313,-0.040168267,0.03146576,0.019708432,-0.041734193,-0.022126695,0.02642851,0.01196316,0.01102337,-0.0131803965,-0.041522708,-0.0008925136,-0.04203299,-0.02047523,0.0017576305,0.01013555,-0.012425084,0.005413266,0.04026404,-0.011960105,0.003249747,0.032795183,-0.010435661,0.033082187,0.021977609,-0.021621156,-0.015462401,-0.023404771,0.008551309,-0.013210844,-0.03677918,-0.013552006,-0.022705354,0.019270977,-0.034077793,0.0043876506,0.013956012,-0.029514896,0.047850847,-0.03889944,0.013043417,0.020400692,0.022345232,-0.03734782,-0.019199744,0.027597746,0.0045063514,-0.0032797502,-0.0028096149,-0.0170227,-0.028243283,0.031731058,-0.019418517,-0.015546784,-0.03228691,-0.013114952,-0.020515414,-0.0023233895,-0.0003675733,0.030159475,-0.050748803,-0.029213008,0.0018443272,0.0376866,-0.029952709,-0.02403002,-0.042214528,0.031568024,0.01650952,-0.04912069,0.044090036,-0.029321212,-0.021106983,0.021266446,-0.014478069,-0.0502719,0.0053801574,-0.033945344,0.027411908,-0.00047693017,-0.006398847,0.022577925,-0.01559224,-0.019017808,0.018502995,-0.045638505,-0.031259175,-0.052063003,-0.04114518,-0.010558238,0.02186384,-0.0037101626,-0.01580629,-0.053006873,0.012662853,-0.057326797,-0.006251179,-0.040176354,0.029168827,-0.016587177,0.009167006,-0.032838285,0.03489373,0.015403148,0.029988863,0.010449221,0.0047798385,0.027529432,0.050611753,-0.039093886,0.0026823177,-0.032998517,-0.025589734,-0.029029658,-0.036633857,0.009887906,0.029776996,0.031805854,0.01954165,0.014797446,-0.0149842305,0.014787584,-0.01724327,-0.043164115,0.016879803,0.02284417,-0.032662507,-0.024548117,0.0076048695,0.008338507,-0.021929273,-0.015688708,0.033743534,-0.0071410234,-0.04918823,0.026394233,0.024382466,0.02849105,0.03882551,-0.052235257,-0.005322989,-0.003756722,0.02613716,0.008415992,0.01559863,-0.001615852,0.019633159,-0.05416469,0.01031092,-0.058205303,-0.022550277,-0.022503108,0.017313542,0.011059888,0.026432995,-0.044177968,-0.03583306,-0.0049847164,0.0053865393,-0.023855215,-0.002956066,0.010060816,-0.021302111,0.039344992,-0.00050066283,0.01800682,0.0331883,0.0036082268,0.049800012,0.016686728,0.024597386,0.038002018,0.0056839986,0.0044200947,-0.018412966,0.032276865,-0.008076517,0.012280976,-0.018350767,-0.029252242,-0.02067105,-0.016079416,0.014698946,0.024050355,0.015513856,0.024783151,-0.011130188,-0.016197983,0.016533194,0.011183526,0.0020999787,-0.029592315,-0.021578044,-0.037724886,-0.017009683,-0.005250779,0.036525834,-0.054150794,0.025667004,-0.027807165,0.023826636,0.0353759,-0.041126393,-0.005167366,0.028951306,0.02843072,-0.010214354,0.031172996,-0.03607208,0.025681898,-0.034835584,-0.0023577537,0.0063995416,0.022339413,0.0062982934,0.017133819,-0.020189444,-0.014884631,-0.008843421,0.021868441,-0.043123405,-0.046686813,0.007193054,0.006088297,0.015971676,0.013806315,-0.010644032,-0.017276146,-0.022835746,-0.0068065063,-0.0066226334,0.019254168,-0.010505756,-0.04868132,-0.035746835,-0.0023377766,0.0039498853,-0.037670348,-0.027448459,-0.009416451,0.029878756,0.0062077297,0.042534504,0.01690173,0.020480165,-0.029513152,-0.013045591,0.008764161,0.019513836,0.037314013,0.0031947324,-0.008118948,-0.002931182,0.008912846,0.035912115,-0.00906455,-0.019293705,-0.036818635,-0.008433902,-0.058043353,0.034793522,0.024297047,-0.02809291,-0.030346937,-0.031644292,-0.029407771,-0.0002683201,0.03001464,0.04448511,-0.035931796,-0.033929627,0.0100930715,-0.035907466
0.010545229,-0.026747622,0.027159179,-0.015213513,-0.027559027,0.029812895,-0.024224097,-0.024700385,-0.032717768,0.01150315,-0.011545312,0.026230827,0.014078642,0.006121486,0.010323773,-0.006056281,-0.009536898,-0.019781882,-0.044541713,0.03584507,0.011021889,0.016112674,-0.030361725,0.031925667,0.010004576,0.0008962202,-0.011915309,-0.024954924,-0.03249341,-0.0207248,-0.032606643,-0.0323879,0.0023804004,-0.044648465,-0.008872084,0.009098156,0.01723875,0.024751758,-0.03427069,0.025835387,0.019207789,-0.035153836,0.013718411,-0.0011096145,0.024790341,0.035060275,0.030774254,0.040116444,-0.0008705339,-0.024355616,0.026367577,-0.054679792,8.328574e-06,-0.016230738,0.034209155,-0.039826594,0.03252454,0.043794315,0.034540318,-0.012034725,0.046546306,-0.050435856,-0.03446698,-0.029205158,0.009944811,0.017494498,-0.037335165,-0.03754036,-0.003127409,-0.036775157,0.033692025,0.032143068,-0.02496979,0.0013611855,0.048333272,-0.002967059,-0.010389908,0.015791498,-0.013587022,0.039146516,-0.008949896,0.04453943,0.0021177307,0.032728218,0.00041348094,0.011082219,-0.024465986,0.046567492,0.035146832,2.6876989e-05,-0.018075747,0.03759697,-0.03927379,-0.0061879717,0.0038192626,-0.02179705,0.029078495,-0.030849963,0.054176744,0.015299663,-0.0073506967,0.045893863,-0.004736466,0.039848536,0.0371978,-0.019943167,0.01058273,-0.014344456,-0.027185231,-0.037626203,0.010097842,0.03170569,-0.03672055,0.005459459,0.051678795,0.03391654,-0.030241925,0.038145762,-0.016947074,-0.016752943,0.014073185,-0.03735303,-0.024963072,-0.010405258,0.0032659564,-0.008457981,0.007018958,-0.0006016488,0.0009883828,0.060392495,0.013493872,0.0115169585,-0.038341686,0.016006896,0.05910324,-0.023381075,0.01663181,0.012996553,-0.032503564,-0.00916729,0.016238745,-0.02726086,0.034741458,-0.043614488,-0.031874306,0.027668877,0.00072343176,-0.028126663,-0.015409531,-0.025140176,-0.023504457,-0.032020833,-0.02781096,-0.02280506,-0.0020626965,0.012191396,-0.012643116,-0.026291601,0.029554471,-0.02740834,0.030514369,-0.042917334,0.035173602,0.014917941,0.0062071406,0.010702345,-0.003433911,-0.01936813,0.045630552,0.038713545,-0.022588907,0.019048411,-0.03500974,0.030305153,-0.04269755,-0.040982187,0.017729212,-0.051450204,0.025260575,-0.034904964,0.016661435,0.024623424,0.051426347,0.009997012,0.04069541,-0.04464111,0.025534514,-0.009014732,-0.031481832,-0.024615126,0.04850479,0.03385609,-0.021660034,0.010702707,-0.0061341505,-0.039407298,-0.02372415,-0.031583346,0.007814101,0.018317113,-0.02651317,-0.04584677,0.0060255504,-0.021409698,-0.0365366,0.011873343,0.005467209,-0.037129056,-0.016819337,0.022853658,0.014957239,-0.015939608,0.04835374,0.02988612,0.009624112,0.020587064,-0.021195106,-0.006423736,-0.035037085,-0.010545307,0.037016273,-0.031864136,0.001419085,-0.043777097,0.019908857,0.002198165,0.03212592,0.0006439288,0.013592791,0.0019123846,-0.0010323157,-0.0086692795,0.028945427,-0.024031656,-0.034916393,-0.002966928,0.018080434,-0.03578921,0.027862456,-0.04242572,0.042202335,0.012370418,-0.030671183,-0.034199547,-0.04976074,-0.038710468,0.03539737,0.026505167,0.017831694,0.044893265,-0.048211906,-0.00435855,-0.047228206,-0.022354983,-0.0071487036,0.050995503,0.0059412117,-0.0069531365,-0.028861212,-0.054009903,-0.006488716,0.010756379,0.014492504,0.011974627,0.0030824428,-0.010384276,0.03737342,-0.030544916,-0.0030694678,0.017098898,-0.025908412,-0.0027800878,0.032537967,-0.029369008,0.01457308,0.038609188,-0.040994536,-0.04308235,-0.0009411329,-0.028248712,-0.008686158,0.011847922,-0.002005846,-0.019262955,0.044725813,-0.028451849,-0.011436646,-0.012582931,0.037197992,-0.022354307,0.022156365,-0.043739174,0.021906022,-0.052617874,-0.03057044,-0.011632937,0.047289133,-0.029381203,0.019961966,-0.03358121,-0.049812477,-0.022379272,0.0069395164,-0.01968722,0.025467305,0.013751036,0.013581288,0.01844599,-0.03332806,0.038319048,0.030224008,-0.03255856,-0.03526862,0.04779926,-0.027205173,-0.027621785,0.030183189,0.029277865,0.0038086707,0.005735216,-0.001481641,0.040564526,0.041421507,-0.006423626,0.018536247,-0.0048658517,-0.014354326,0.008569045,-0.019766359,-0.04547311,0.024155322,-0.032202445,-0.016707944,0.008221515,0.05578337,-0.008535108,-0.024129951,-0.041175604,-0.023166737,0.0069689406,-0.034025762,-0.034382418,0.014539832,0.039264444,0.010086661,-0.022722388,-0.0029864716,0.0013882479,-0.0519743,0.032584693,0.0047141486,0.006886424,-0.004350464,-0.0277664,-0.039830513,0.04038128,0.017460488,0.023429718,0.052144747,-0.029258387,-0.034669563,0.033473432,-0.026924472,0.04320299,0.056220066,-0.0148418695,-0.0014040685,0.0036344016,0.008707489,-0.0029836157,-0.017090501,-0.055764593,-0.0519207,0.049314808,-0.030603252,0.010077352,-0.016321732,-0.016085085,-0.003142871,0.03588154,-0.021599809,-0.018317724,-0.012396179,0.014945325,0.03236835,-0.00026869102,0.042944048,0.047774136,-0.038465444,0.031279307,-0.039304215,-0.021890761,-0.0019133413,0.041672934,0.031033397,-0.0014016342,0.016687015,0.029497378,-0.0023658327,-0.029573396,0.029345106,-0.045805324,-0.008366954,-0.008747601,-0.021426814,0.0042534755,-0.024039917,-0.023435406,-0.023527706,0.047194947,0.029599736,0.031607237,0.023352472,0.052743718,0.0034439052,-0.033052914,-0.006719961,0.019702641,0.007948101,-0.009831721,0.010609302,0.038214948,0.036052346,0.023840148,-0.05897861,-0.028955415,-0.026837463,-0.004733065,-0.0019241426,0.004661321,0.026405074,-0.026623845,0.03608491,0.011461437,0.0024539803,-0.027349392,-0.042678006,-0.009763934,-0.045743905,0.010647346,-0.03405431,-0.032124326,-0.0028965992,0.036843367,0.001014165,0.050148603,0.026868751,-0.0004693892,-0.036893245,-0.015820099,-0.023957418,-0.031628653,-0.0018356564,-0.040433258,-0.03273758,-0.011994974
0.023963032,-0.042402584,-0.007574506,-0.049945258,-0.018516298,0.0009646924,-0.011328352,-0.01054421,0.017599147,0.009353943,0.0052447184,0.013261163,-0.02841326,-0.044925008,-0.005733792,-0.020084454,-0.016214883,0.008101975,0.035650656,-0.034319956,0.04460304,0.009814311,-0.0207679,0.012262786,-0.046422426,0.009915291,0.0216735,-0.005891051,-0.027360365,0.029494267,-0.04208886,0.010817849,0.0033130948,0.04569254,0.03433071,0.018275797,0.031891327,-0.00091607164,-0.015337121,0.010185272,-0.014429965,-0.048018526,-0.006577602,-0.016323753,0.010781943,-0.018868038,0.039170373,0.01859825,0.042184032,-0.029385764,0.041347418,-0.04091575,-0.026712537,0.0055035003,0.042839948,0.010244384,0.015741456,0.03602899,0.042449344,-0.04766086,-0.0402146,0.0034434155,0.008203713,-0.04224751,-0.011074243,-0.0072974274,0.023354504,0.035019748,0.0008974175,-0.026884152,0.018051878,0.022009315,0.04049989,-0.0027472484,-0.043212414,-0.005212469,-0.019366693,-0.015292544,-0.032347217,0.034917932,0.022165395,0.022271195,0.013787973,-0.041397884,0.0031427192,-0.015866872,-0.0010414211,-0.0109247565,0.015723646,-0.012062774,-0.03951197,0.012366336,-0.014157172,0.026916958,0.00033996502,0.03473676,0.024700567,0.028476417,0.015313478,0.018541142,-0.0054479274,0.005623454,0.04366106,0.00517953,0.009278937,0.00048619093,0.010501182,-0.043773334,0.03676183,-0.050460327,-0.0119303875,-0.02823903,0.015497236,0.039305143,0.0063090157,-0.02022921,-0.02592832,-0.025851931,-0.047557913,-0.04352547,0.02819033,-0.016463954,0.023260979,0.007256187,0.02916601,-0.04870648,0.039614264,0.034152184,-0.035111107,0.0054114764,0.006195911,0.039189495,0.0017738616,-0.021843921,-0.009205479,0.016335106,-0.029237777,-0.026138864,-0.03910713,-0.016065227,0.048191797,-0.023622036,-0.031182675,-0.028889872,0.035705667,0.026656106,0.0011052318,0.015267218,0.02867581,-0.020473633,-0.009027963,0.015134398,0.0444714,0.014814935,-0.010323458,-0.0027918299,0.009635331,-0.018473528,-0.0075612706,0.009841493,-8.0784994e-05,0.03557874,0.03363252,0.020954942,-0.01657286,-0.019298615,0.012872643,-0.02857925,-0.021155072,-0.004513943,0.0053081107,-0.013706665,0.029620593,0.039812766,0.029880075,0.019912219,0.028734384,-0.0048559564,-0.02392121,-0.024890192,0.019410133,0.040429965,-0.016263653,0.02984613,-0.030916004,0.027001498,-0.029967843,0.022143854,-0.019704428,0.02000337,0.01657915,-0.0038040408,-0.0023666632,0.025511663,0.009238234,0.035295416,0.03622606,-0.038622715,-0.0039373874,0.015065879,-0.012011698,0.03571845,0.023468656,-0.04537292,0.012168067,0.011299336,0.02891551,0.009171459,-0.014161351,-0.010758501,0.04075964,0.008237937,-0.008750927,0.0008696397,-0.009761838,-0.021467278,0.019389657,-0.022251837,-0.0448084,-0.032295987,-0.015829686,0.017537076,0.031499524,-0.016202997,0.016092531,-0.0014780521,-0.018523686,0.02369748,0.032375295,-0.030249601,0.013866474,0.03783176,0.01990775,-0.013451351,-0.020708174,-0.0125140855,0.03534491,-0.03283393,-0.017388523,0.03769797,0.037751038,-0.0057988833,0.028702026,0.0015307647,0.03885332,0.0040229512,-0.0013655811,-0.00022414979,0.0059735146,-0.001783284,-0.04501381,-0.030752681,0.026369428,-0.0013001638,-0.004170745,-0.02030838,-0.0074002226,0.015801024,-0.047370657,0.012597342,0.00841875,0.008643934,-0.01531367,-0.00084729615,-0.008277243,0.017350812,0.0027824992,0.016058883,-0.04537578,0.027369596,0.03566005,-0.034893975,0.02726969,0.0142402,0.027692085,-0.026814414,-0.039520547,-0.024781272,0.0018148472,0.009551614,-0.02732358,0.028008651,-0.0012192887,0.03746123,-0.047681693,0.03284304,-0.03564378,-0.026129613,-0.0053375056,-0.0046925563,0.029172515,-0.027016107,-0.0019489304,0.050232965,0.037278697,-0.04043855,-0.049941175,0.010772668,0.028204408,-0.03521942,0.04162594,-0.021924986,-0.029273873,0.048279095,-0.027381498,0.025650298,-0.029143829,0.027575063,-0.039802402,0.04903092,-0.038748395,0.015098623,0.0061497996,-0.031034516,-0.022596017,-0.02193505,-0.019445881,0.031906098,-0.00057561905,0.027916778,-0.0069175926,-0.025084902,-0.012262084,-0.012342266,-0.03098163,-0.024195518,-0.02319044,0.030252874,0.012202615,0.022463726,-0.01641903,-0.01500203,-0.0075996974,0.018265082,-0.052250657,-0.027488284,0.025040762,-0.030005045,-6.082967e-05,0.013519852,-0.00801694,-0.011218556,0.034766406,-0.047495835,-0.020155977,0.010623898,0.015038617,0.039522614,-0.04651635,-0.020573521,-0.010832847,0.00050455646,-0.023432774,0.03175799,-0.015114176,0.026839318,-0.046656817,0.047991473,-0.037467305,-0.03498307,0.03893737,-0.050691586,-0.015649816,0.018849624,-0.0003976694,0.03760818,0.0062757414,0.0069288327,-0.018375484,-0.0011910564,-0.0061931824,-0.017019574,-0.024091542,-0.035747707,0.0024618434,0.030375013,0.05122954,0.0269729,-0.041117392,-0.034577537,-0.05251945,0.031497076,-0.015508148,-0.01581865,0.010503134,0.0177476,0.02567271,-0.042910703,-0.010347206,-0.036107276,0.0420193,-0.031152299,-0.0037342713,0.0010926772,0.05393338,-0.044269793,-0.01717511,-0.001899889,-0.011674155,-0.016422138,-0.0017434455,-0.028964521,0.0204574,-0.042810965,-0.021329325,0.025973825,-0.009213343,0.03319776,-0.048085064,0.010364712,0.025593283,-0.03247145,-0.017182996,0.0206288,0.00863545,0.02447461,0.019021757,0.0114898905,0.0009837552,8.873182e-05,0.0052494053,0.033248268,0.028745266,-0.0042000664,-0.00080046005,-0.01995007,-0.04320235,0.04344183,0.022322806,-0.047509234,-0.00057260273,0.043506667,-0.046710234,-0.002141384,-0.029076014,0.016534802,-0.03138552,0.0092159575,0.014083041,-0.02283941,0.0068862806,0.015860448,0.006780508,-0.016771303,0.03761618,0.0012569844,-0.03456845,0.009332699,-0.007942462,-0.0014332401,0.0092589175,0.028311051,0.00087219983,0.004651589,0.021057744,0.030161355
-0.021034537,-0.038757954,-0.027361581,-0.022958485,0.010116878,-0.028267704,-0.024885047,-0.007099849,-0.017689386,0.028601903,-0.023539238,-0.03371122,-0.01189521,-0.013819921,0.018255752,-0.02995796,0.0046056025,0.0023008955,0.032892942,-0.033753145,-0.040558897,0.010656737,0.020601442,0.045868747,-0.03291571,0.040270597,0.020629797,-0.034539342,-0.0042753886,-0.022480963,-0.03568334,0.022116557,-0.027927939,0.026002284,0.022564135,0.038743008,-0.008857913,-0.0046765236,0.036831338,-0.03308787,-0.028902251,-0.0064530545,-0.031042986,-0.030172255,0.017769895,0.011260575,0.0063190437,0.024925195,0.032432444,0.011544584,-0.047881354,0.017142177,-0.038510732,0.018320186,-0.022055004,0.04015642,-0.04780134,0.0050689625,0.034615185,-0.00984047,0.020356614,0.037018225,0.021929927,-0.039410483,-0.03716199,-0.014486569,0.02023615,-0.043952905,0.026923439,-0.014705814,0.014481126,0.03091938,-0.032737706,0.009511627,-0.026164692,0.01923601,-0.009862075,0.03706066,0.011946594,-0.04317271,-0.00043532945,0.018631369,-0.0043355157,0.009365259,0.039153147,-0.028281815,-0.037201945,-0.029423816,0.040740672,-0.032367773,0.017059691,0.027075585,0.0068396456,-0.014826983,-0.013259285,0.007932604,-0.021258872,0.014292919,-0.025856096,0.0040844516,-0.016782658,0.029586758,0.017997282,-0.046771098,0.036112726,0.032788686,-0.012301053,-0.028985461,0.031597108,-0.0022987346,0.0115378965,0.03140903,-0.037278473,-0.0050480086,0.030595738,-0.015618626,0.01593827,-0.039109733,-0.03580932,-0.0135310395,-0.028540025,-0.03601614,-0.01150149,0.0137643395,0.04839074,-0.01442715,-0.027012993,-0.005126681,-0.0013891471,0.009862394,-0.00044137202,-0.017234128,0.046129998,0.02223039,-0.030078402,-0.01967964,0.017402954,0.027914636,-0.0034244333,0.0063959216,0.0056282575,-0.005690419,-0.011702225,-0.025711777,-0.007981187,0.01070482,-0.012609033,-0.03611922,0.0015325042,0.020114167,-0.017426236,0.010184787,0.023431657,-0.013780775,-0.029941505,-0.032938343,-0.03607433,-0.05002736,0.016904201,-0.013026833,0.009233011,0.0058591715,0.026313376,-0.00902101,0.022608485,-0.027059982,0.014438506,0.031632647,0.04003376,0.025854692,0.026128728,0.0060222475,0.0062001366,-0.023776071,0.044474363,-0.011640297,0.020954499,-0.022683563,0.025610859,-0.02477308,-0.02447049,-0.022999737,0.046776403,0.022987278,0.029407637,0.019258726,0.024058487,0.030253766,-0.016797634,0.013750419,0.0017114866,-0.0070650536,0.047473647,-0.043023158,0.00025074562,-0.04806963,-0.0033724231,0.0062155183,0.016893744,0.035211563,-0.042455226,0.022593647,-0.029296612,-0.041335862,-0.03413669,-0.0101019265,-0.014312723,-0.02596488,0.03347286,-0.009671083,-0.028015615,0.029963102,-0.03838433,0.012822609,-0.04876493,-0.04595184,0.042214528,-0.031241626,-0.006447594,0.007349496,0.014181375,-0.009291027,-0.0011236888,-0.013840902,0.037929323,-0.043415017,0.034190744,0.026117893,0.0140072955,0.010135877,0.004396547,0.026704364,-0.013167418,-0.032643765,0.0067454325,0.026156314,-0.040934965,-0.018811246,0.009374415,-0.016374204,0.018047351,0.023908786,-0.025371097,0.04497553,-0.005500145,-0.050233357,9.896897e-05,-0.008237565,-0.02315061,-0.012858333,-0.04474331,-0.03497682,0.039906487,-0.016736984,0.00880879,0.040803146,-0.0046969587,0.0035427592,0.020160623,-0.014097879,0.007900506,0.041977905,-0.03524072,0.019067597,0.012810171,0.041082412,-0.01576592,0.0028327913,-0.038649447,-0.0054871053,-0.011919761,-0.038973138,0.027714882,0.015781,-0.0070728627,0.016217653,0.023862349,-0.018119799,-0.0092825275,0.042812247,0.012618596,0.002904914,0.0043584914,-0.02328043,-0.04776267,-0.00030969348,-0.05019648,-0.015212944,-0.02440878,0.029211512,-0.006704723,0.031793717,-0.045486216,0.011023414,-0.0062928316,0.0044835317,0.0017559394,-0.012919481,0.010885744,-0.002937387,-0.04624786,0.023837907,0.022608133,0.019714264,-0.015075555,0.031084327,-0.017310109,0.0049318844,-0.03019572,-0.009117275,-0.002738941,-6.33148e-05,-0.012338353,0.018706268,0.036671728,0.01757565,-0.02058654,0.033199552,0.006031412,0.01353554,0.02252949,0.011951738,0.011488682,0.009613948,0.039845165,0.0043503908,-0.046874747,-0.010316194,0.020783644,-0.041245397,0.0012530463,-0.011787233,-0.04959474,-0.012211555,-0.008644272,-0.034684297,0.0144831175,0.032421127,-0.006498053,0.02779147,-0.00011297471,-0.042961612,-0.017141165,0.0027244934,0.03917862,-0.0041570994,-0.015642285,-0.010337205,-0.009003732,0.044304278,0.005623466,0.035105083,-0.026773429,-0.007389072,0.0026726886,0.020930205,0.0022435526,0.020791825,0.0096404515,0.023507858,-0.023001852,0.043136686,-0.029431414,-0.028524488,-0.019393886,-0.028132256,0.01946875,0.011249976,-0.017191775,-0.026645426,0.041614037,-0.004046699,0.005782648,0.040420733,0.0011871376,-0.035604782,0.025144937,-0.0015544632,-0.034249377,0.018082023,-0.017324151,-0.03526365,0.01893737,-0.03905485,-0.049886093,0.008570119,-0.048929665,0.020061355,0.028389053,0.052487165,-0.02645736,0.04424568,-0.05029588,0.029797945,-0.0075023593,0.06207655,-0.014334689,0.018362459,0.0031559973,0.01611516,0.005786711,0.04806045,-0.010612049,0.009315843,-0.0022476,0.022999048,0.008915216,0.031339485,-0.002902073,0.02034495,0.036199663,-0.018445972,-0.0055520996,-0.009925262,-0.037730522,0.050773043,-0.040907007,0.05724002,-0.024785424,-0.0073905447,-0.033440717,-0.0093281735,-0.013398421,-0.030893993,0.037855215,-0.0030913376,-0.02212914,-0.03642287,-0.035284925,-0.022285648,0.051655315,-0.05118101,0.0050061126,0.031095332,0.012802354,0.040166218,-0.03858664,-0.019220917,-0.016798608,-0.039609935,-0.047424745,0.054528438,-0.0059820507,0.028650582,-0.024283586,0.008671414,0.028249908,-0.01779512,0.02321022,-0.0018529543,0.011046674,-0.01299945,-0.03127627,0.025936902,-0.0030927036,-0.030657807
0.010520964,-0.041451298,0.019885108,0.03286655,0.030457212,-0.03738679,-0.015788779,0.0056672567,-0.009781074,-0.04485815,0.01801242,0.023740113,-0.015937338,-0.031791337,-0.00043600006,-0.021981332,-0.03425172,-0.0065887785,-0.0059340415,-0.02565264,-0.04992032,0.03133467,-0.00579585,0.017265074,0.0043254867,0.014054552,0.018757317,-0.0473713,-0.035297208,-0.012988126,0.023473896,0.019666163,0.00657729,-0.009839102,-0.0036979606,-0.028235182,0.011030218,0.020328682,0.044915386,-0.045575432,-0.007614511,-0.040183138,-0.0500686,0.020954913,0.037138272,-0.01342536,0.01176563,0.046689533,0.024814388,-0.016114786,-0.02150981,-0.025057962,0.015409967,0.0014303363,-0.014851805,0.021447921,-0.012324819,-0.018200008,-0.024259364,0.01750637,-0.03741253,-0.04946864,0.0053970222,-0.046269625,0.02190617,0.048795763,0.021787275,-0.03703967,0.030354345,-0.011406928,0.014424688,0.020268664,0.03461508,0.02059594,-0.01659498,0.048057977,-0.028840302,-0.01502048,0.021031192,-0.045359593,-0.026526738,0.007917032,-0.026827909,0.04226121,-0.029316552,0.004601649,0.0345304,0.003179654,0.03289817,-0.02511675,0.007716218,0.04132955,-0.016323939,-0.017361455,0.031179808,0.006202347,-0.018011773,0.02811675,0.041195557,-0.010275206,0.030388607,0.029754551,0.004171051,0.019895164,0.0008900962,0.0015859192,-0.019321417,0.044822145,0.031763364,-0.046189573,0.019308079,-0.0010526502,-0.0012404001,-0.013529616,-0.02414665,-0.02324309,0.035173986,0.039655253,-8.695062e-05,0.017086145,0.030649934,0.024717003,0.024417227,0.04595612,0.023793055,0.024709502,-0.023372944,0.04620283,-0.009458495,-0.023100946,0.00644324,-0.00028944443,-0.012750213,-0.021490918,-0.011853433,0.033616614,-0.023512913,0.018234428,-0.02969194,0.03336034,-0.020935178,0.0081332745,-0.017571358,-0.029009882,-0.003834317,0.024836456,0.024299901,0.012111021,0.012868594,0.030399377,-0.009110144,-0.024914708,0.004570646,0.029769383,-0.0022073826,0.0107446425,-0.032429695,-0.020396097,0.005656609,0.021895189,-0.004489592,-0.023465088,0.013093855,-0.016552014,0.015517976,-0.057187166,-0.043365736,-0.048281845,0.023179162,0.023338255,0.031187171,-0.034215484,-0.01938208,0.017498983,0.043416534,-0.032407533,-0.0338442,0.026054716,0.021803886,-0.06002434,0.047852747,0.010200677,0.033456653,0.027028749,-0.021124778,-0.048281137,-0.04155866,0.021723235,-0.037696134,0.02386604,0.046007752,-0.050192606,0.0043536676,-0.02623995,0.037278797,-0.0059613707,-0.023987507,-0.035634052,0.042116378,-0.010570719,0.028177693,0.027027084,-0.047540475,0.013026012,-0.009912237,-0.04323642,0.031699523,-0.043600056,0.026737893,-0.0016732162,-0.027841799,0.017301904,-0.040592346,-0.0024724456,0.017880308,-0.021249782,0.02737231,-0.03828663,-0.044233397,-0.020090016,0.008019323,0.015208236,0.023687936,-0.01110807,0.02984325,0.037331127,-0.0530555,0.014570265,-0.0355345,0.012058275,0.051010292,0.023620421,0.057133056,-0.032562282,0.01151762,-0.012658277,0.027032746,-0.052142445,0.0265961,0.027898915,-0.05278826,0.021866495,-0.040303543,-0.04076803,0.02131895,-0.041970503,-0.030638404,0.017006323,0.028133525,-0.046550505,-0.022425454,-0.05777927,-0.050597683,-0.011168063,0.037686322,0.030758062,-0.00881657,0.024999129,0.0029786609,-0.017735682,-0.034285232,-0.04768458,0.033665497,0.009288799,-0.028322546,-0.026885983,0.007918824,-0.051269654,0.051938456,-0.049870227,-0.023046264,-0.04052411,0.050250318,-0.04515447,-0.026696397,-0.023914168,-0.03185555,-0.051143892,0.052385762,0.009927791,0.047272313,-0.045753267,-0.0010898398,-0.050511766,-0.028197438,-0.033213813,-0.02393837,0.014771833,0.00084733544,-0.051196054,0.015636275,0.009012846,0.01857243,-0.040157903,-0.02776354,-0.056178514,-0.018707221,0.020010157,0.04328904,0.021936683,0.004198644,-0.04571854,-0.028131342,0.015672373,-0.02739262,0.036126178,0.0053974288,0.0204161,-0.009407567,-0.03289685,0.0326519,0.03159741,-0.031525724,0.016790804,-0.019827815,0.019798793,-0.057390966,0.036344677,-0.015983902,-0.010242666,0.039689492,0.005535832,0.030644026,0.00060050795,0.0016444986,-0.041616526,0.0035284227,-0.049186822,-0.03848839,-0.028545797,-0.03218716,0.029322775,-0.0016826575,0.020634012,-0.013660899,0.037515048,0.007083511,0.0044752606,-0.008075923,-0.048456304,-0.022682095,0.012294259,-0.055437442,0.0057103485,0.015188115,-0.019509757,-0.03069884,0.007624189,0.0012927284,0.024833547,-0.012788618,0.018798077,-0.0077512786,-0.008227717,0.009533769,-0.004792583,0.020883152,0.046634585,-0.043462355,-0.025340095,-0.0025169677,0.0008370177,-0.032362446,-0.015031364,-0.026066255,0.046642225,-0.019075185,0.0013505699,0.024871346,0.0551791,0.042657755,0.002484133,-0.0065482594,-0.026512166,-0.03322497,0.049062084,-0.035147097,-0.014664626,-0.057983078,0.0054022116,-0.030776056,0.034094576,0.0021985625,-0.028275914,0.004512452,0.0030526516,0.0010992399,0.04084483,0.021156482,0.037522826,-0.051029257,-0.033309087,-0.02926134,-0.016512223,0.027921613,0.0058642374,-0.05743959,-0.013612628,0.0104737105,0.001278596,-0.019240087,0.029309787,0.017683083,0.0026116678,-0.008144998,0.010218844,0.002767662,0.021545302,0.018572325,0.022192148,0.037145667,-0.012648728,-0.054549918,-0.040753726,0.0042842873,0.004361163,0.029702405,0.033359457,0.022257673,-0.004184759,0.0289507,0.025490874,0.0448097,-0.017842233,-0.047113962,-0.008863239,0.023251384,0.020341355,0.045410395,0.040163625,0.005114254,-0.016658096,-0.010534717,-0.012899717,0.052345127,-0.003122532,0.018228019,-0.027821,-0.046424367,0.03464781,0.02216264,0.023711244,-0.04529515,-0.021288276,0.033802137,-0.049744204,0.006266509,-0.02181341,0.012531464,0.046308037,0.024599649,0.019748528,-0.01264449,0.034981083,0.0023230633,0.012622089
-0.02642318,0.02307405,-0.027698776,-0.050415795,-0.012104711,-0.030071188,0.050316136,-0.0043513263,-0.047259748,-0.032178476,-0.003025897,-0.020685283,0.005622568,0.0035127995,-0.045623343,0.036070585,0.013113442,0.03313514,-0.026277775,-0.0040813154,-0.054307636,0.028845264,-0.046803407,0.027861062,-0.009252453,-0.009450077,-0.01384732,-0.0053342287,-0.0040123165,-0.014193914,-0.005572316,-0.002738193,0.01255682,0.008053261,-0.011994491,0.024560938,-0.037287306,-0.02966292,0.033455074,-0.02867783,0.011983703,0.006560042,0.024923092,-0.012181149,0.012562385,-0.014754326,0.03674642,0.0043374635,-0.015697997,-0.021710107,-0.014764895,0.060957436,-0.03235792,0.04964147,0.03486232,0.018449506,-0.031284295,-0.025982544,-0.02858087,-0.030795395,-0.046834297,-0.013521374,-0.016960097,0.017991446,0.025436537,0.014990544,0.022414507,-0.009586709,0.036046892,-0.042161953,0.0014240231,0.0009472411,0.0155884735,-0.040042024,-0.01519268,0.03983338,-0.043457855,-0.028420469,0.020179203,-0.04188805,-0.022067765,0.038783703,0.008504135,0.03042424,-0.017602561,0.04114917,-0.0054481155,0.040081482,-0.026308035,0.024593528,0.029443117,-0.043525264,0.0040840125,-0.01559328,-0.0024350004,-0.050763275,-0.017119702,-0.01733696,-0.015462135,0.044651028,-0.026835708,0.022837067,0.019631824,0.041857496,-0.00042173802,0.04843245,0.0072358656,0.00076880585,-0.024607817,-0.02651062,-0.008968619,0.02784917,-0.03505774,0.010433859,0.029857969,-0.04634127,-0.0016332584,-0.0015924742,-0.0031471385,0.033815764,0.0028054947,0.029441262,-0.0538214,0.012879461,0.053070724,0.004726048,0.016239159,0.039252914,-0.027109353,-0.0030289202,0.0075795096,0.03830829,0.051544808,0.0059288964,-0.036647424,0.005403174,0.017219607,-0.02605234,-0.014596805,0.024233175,0.00729849,-0.017879535,-0.021281676,-0.023816874,0.05294622,-0.038331237,-0.014619492,0.0036113693,-0.041698698,0.023174105,0.0085942615,-0.04442592,-0.002759092,0.029472185,-0.027576223,-0.028824627,-0.019664789,-0.026944723,-0.037111524,0.0047096736,0.002643139,-0.026662076,-0.01894135,0.0034607104,0.04833404,-0.015288993,0.029050615,0.008732586,-0.034524277,0.028569965,0.042952925,-0.01733747,-0.008824691,-0.035011366,0.04620748,-0.016700026,0.051345382,-0.008897638,0.029742166,-0.009354563,-0.033813126,0.027917301,0.00086100725,0.042797513,0.021609059,-0.02844433,0.028567065,-0.036558893,0.050800953,-0.023105582,-0.0110885855,0.016137421,-0.025646258,-0.036746275,-0.031017134,0.024308223,-0.007975202,-0.023252688,0.032036163,-0.008864961,0.020222072,0.026437795,0.02804756,-0.046095844,-0.011982909,-0.006210855,-0.030665817,0.034105986,0.012571771,0.033159543,-0.018387582,-4.9283844e-05,0.043017972,0.044824,-0.0035535477,0.013852543,0.051078886,0.019192714,0.012636569,-0.012370099,0.044424843,-0.015758941,0.0165686,-0.024070375,-0.022696016,0.026995752,0.029556207,-0.047665488,-0.0100249695,-0.008647794,0.04089494,-0.014813056,-0.031348925,0.051899295,-0.02422061,0.02413678,-0.032458372,-0.012286859,-0.03581328,-0.0336616,-0.038175967,-0.0108152805,-0.02558018,-0.029131098,-0.0139222555,-0.0042281235,0.030282812,-0.019252056,-0.03575208,0.04769777,0.034195635,0.0017164311,-0.017558817,0.0061133397,-0.0287992,0.007999277,0.01620019,-0.037732206,-0.018292319,-0.001116955,-0.0045538684,0.03133562,-0.027398366,-0.001812745,-0.028050171,0.023940677,-0.044754233,-0.024883699,-0.024262669,-0.032314405,0.013419098,0.0050356775,0.020984821,0.010369476,-0.0034768393,-0.029871609,-0.0041132662,-0.041069113,0.021918641,-0.030382343,-0.010965659,0.025915569,-0.02265125,0.01924967,0.008886065,0.042112816,0.03406885,-0.015000755,0.029763464,-0.03094154,0.013150241,0.02445708,-0.0069709844,0.020990642,-0.04237225,-0.020221045,-0.010325503,0.025843682,0.0073375604,-0.023828467,0.021256343,0.016502399,-0.04895325,0.052333582,-0.046927553,0.012756428,-0.04265019,0.04652551,-0.00894461,0.02673188,-0.010386219,0.009353763,0.014555024,-0.011122777,-0.034161918,0.040221322,0.012523049,-0.0045651435,-0.0040877243,0.019499747,0.021455562,0.0477484,-0.060481623,-0.052127983,0.028095262,0.035850603,0.0039073415,0.049443066,-0.019702768,0.014573299,0.008638875,-0.019860081,-0.043699555,0.04272589,-0.05007727,-0.046673328,0.0052217827,0.03601058,-0.050739273,0.021893017,-0.014240779,-0.034016334,-0.003953485,0.003937187,0.035034075,-0.0320824,-0.024575962,0.015850382,0.043088473,0.019589243,-0.046868253,-0.04084335,-0.02462424,-0.03620664,0.037477296,0.040993076,0.026090574,-0.019976227,-0.009965337,-0.0100705335,-0.017784819,-0.0031942395,-0.043159135,-0.026938139,0.03036625,-0.0215066,0.03965441,-0.038506404,-0.016860735,-0.008723434,0.0057517244,0.030683655,-0.001888229,-0.009181065,-0.01706558,-0.027335402,-0.039766673,0.034198347,-0.013201823,0.013737185,0.020853093,-0.04100184,0.0039322763,0.03251356,0.025027582,0.020543005,0.029859798,-0.03291653,0.03714632,0.0049124965,-0.04427977,-0.0037219464,0.031129139,0.0053843744,-0.0070392326,-0.034704003,-0.016357103,0.018591594,0.028201522,-0.045446906,-0.03438112,-0.031873003,-0.0035978586,-0.018591138,-0.045590367,0.034800876,0.0541243,-0.013404414,-0.022115055,-0.029636445,-0.05055753,0.03934102,0.015679749,-0.033249423,0.039986156,0.0110679865,0.0073328395,0.018387076,0.020152194,0.03371504,0.037724856,-0.015831854,-0.05043157,-0.03232052,-0.030528065,-0.024975594,-0.026094943,0.0071754423,0.0056635207,0.035682276,-0.0033858332,0.041040532,0.016641986,0.028632581,-0.052831504,-0.008366832,-0.011702807,0.033578213,-0.041162685,0.019627772,-0.00078190764,0.042502873,-0.034035027,-0.024703087,-0.028689014,0.0032457297,0.03706551,0.032189753,-0.009070989,-0.015883233,0.038252134,0.043467734,0.002357561,0.017450575,0.046804328,-0.007819987
-0.047564417,-0.01648367,-0.034770254,-0.02132078,-0.035655886,-0.047958065,-0.020861583,0.022160197,-0.040241238,0.010718059,0.027823519,0.012105441,-0.018893754,0.0019674946,-0.009614422,-0.011675299,-0.0009729998,-0.031210685,-0.030362293,-0.037414074,0.011284399,0.0021080098,0.001986338,0.030728215,0.0061683664,-0.047312096,-0.0044359197,0.041141074,0.00876893,-0.022891078,-0.030207667,0.0022046012,0.015179422,0.008105791,-0.005777474,-0.024538144,-0.015472576,-0.037439965,-0.014729895,0.017459994,-0.03600868,-0.0411232,0.025625415,-0.04093242,0.036916457,-0.0137232095,-0.017868519,0.03144451,-0.026854169,-0.016082115,0.006316486,-0.007833976,0.022997208,0.051350255,0.03183695,-0.003310975,-0.01267848,6.423492e-05,0.03762501,-0.01848942,-0.007763719,0.012416274,-0.0036149418,0.029905751,0.030303456,0.0119798435,-0.016260196,-0.05262011,-0.023517262,-0.013104939,-0.0011811709,-0.038592815,0.0057553104,-0.053625315,0.0149590885,-0.0043657273,-0.01316283,0.035506923,0.029921433,-0.008888228,0.016747857,0.033346836,-0.028308596,-0.017490815,0.013999841,0.022790875,0.04769402,-0.009861011,0.027634237,0.042105798,-0.028490787,-0.003616361,0.0015746917,0.020143392,0.023329254,0.049835093,0.025518352,-0.0011967164,0.013521397,0.0007726665,-0.036833413,0.00017507546,0.021015227,0.02807658,0.036222618,0.034006633,-0.023258256,-0.022561608,-0.021257445,-0.045477085,0.010148045,0.011224297,0.041492514,-0.031596716,-0.014807764,-0.01159761,0.008337005,-0.033459786,0.03127461,0.018887227,-0.020729013,-0.04995215,-0.007293202,0.006491143,-0.0132111255,0.017836438,0.02826798,0.0022144502,-0.008503972,-0.026880935,0.013273837,-0.0036836348,-0.041006293,-0.0034746819,-0.037318874,0.035961155,0.016268888,0.019213557,-0.04631094,-0.021614684,0.004720172,0.043356083,0.00068018783,-0.025033198,0.0054941396,-0.028201573,0.049299095,-0.032742873,-0.027382083,-0.009259413,-0.025323257,-0.028289681,-0.012307017,-0.04029522,0.028443342,-0.023952285,0.024003668,-0.029986411,-0.03337038,0.02119831,-0.010303653,0.023183635,-0.008797664,0.02542906,-0.027239809,0.0078039453,0.0191272,-0.008460916,-0.0032989578,0.011444345,-0.016751714,0.02374086,-0.010115373,-0.03104212,-0.0140397465,-0.029991291,0.028887099,0.0051092445,0.028063646,-0.052632745,0.02741896,0.037546847,-0.008375056,-0.006686457,-0.028044678,0.02414937,0.009384671,-0.012251576,0.025762402,-0.0030697046,0.035132095,0.043641936,0.032325488,0.010467336,-0.047197428,-0.003026378,-0.015113077,0.028606791,0.037981052,0.0086883465,0.0139618525,-0.054904778,0.032396007,-0.037043437,0.003680398,0.032100238,0.03195319,0.0011617407,-0.015141942,-0.039241828,-0.036289964,0.036124606,0.024525277,0.012746968,0.020179946,-0.027796192,-0.030861126,-0.013922549,-0.0047367075,-0.01986475,-0.0032067813,-0.011822743,-0.024887078,-0.0023054348,0.012790892,-0.0389258,0.021277146,0.008623436,0.018372612,0.006083979,-0.013462992,-0.045927163,-0.0027230044,-0.05720314,-0.020275583,0.035943583,0.04695022,0.021664998,-0.020260189,-0.028750986,-0.045688175,0.005835863,-0.02585429,-0.0018319291,-0.029361928,-0.017101686,-0.04274621,0.020587116,-0.007926362,0.025552675,-0.030475238,-0.025913756,-0.05357043,0.030541277,0.04623778,-0.03140283,0.03711602,0.03585083,0.031261366,0.007168464,-0.006508491,0.018048441,-0.009199206,0.0077518243,0.022073869,0.015864447,0.0040838704,-0.03221201,0.042302493,-0.022865644,0.022302495,0.023619488,-0.042772423,0.020573158,0.04767584,0.023889448,0.0048199417,-0.017462928,-0.0077944174,-0.02593413,-0.028100463,0.03526556,0.0064024255,0.03658851,0.0035735054,-0.05235203,0.03292338,-0.048907444,-0.04806736,-0.025513152,0.02910096,0.028152393,0.0401138,-0.034803618,-0.024054501,-0.039614182,0.007077453,0.0286327,0.04231792,-0.023705672,0.0065022814,-0.013430442,-0.015260399,-0.00522501,0.0029894449,0.007063379,-0.00464045,0.0036938607,0.03325122,-0.0027159043,-0.03163303,-0.019557906,-0.003421715,-0.0019060748,0.028685484,-0.025469592,0.002863144,-0.01589376,-0.049532525,-0.014452237,0.0059003937,-0.012740654,0.04216868,0.03729239,-0.021370469,0.041651636,0.046480075,0.020994594,-0.01065134,-0.03890243,0.02301209,0.009091487,0.034602303,0.05326483,0.01321723,0.012841307,-0.004126814,0.039513357,-0.039398637,-0.012007795,-0.025747882,-0.017323084,0.033741783,0.016204743,-0.013955902,0.02219351,0.039425235,0.043014765,-0.008175617,0.014697921,-0.016057793,0.05045668,0.022154015,0.012740577,0.0378888,-0.03005882,-0.014175388,0.006015137,0.024942506,0.0463991,-0.018634053,-0.04617489,0.020626632,-0.01834248,-0.033313096,0.029417763,0.031450342,0.028745523,0.001153747,-0.0067526842,-0.028631924,-0.011847199,0.012357196,-0.032519624,0.020127563,-0.032940492,0.00022467737,0.03901826,-0.045378227,0.032581393,-0.03606861,-0.0030324014,-0.04949504,-0.03370277,0.03810887,-0.023271589,-0.021229723,-0.009634566,-0.046380706,0.048380718,-0.009663032,-0.032841403,0.0002763431,-0.033129178,0.01184257,-0.016780421,0.011563148,-0.038397722,0.0020424703,-0.022987531,-0.04488909,-0.0052457396,0.003356548,0.021471847,-0.025025876,0.04750059,-0.04030602,0.0136226285,-0.039189048,0.03037561,0.018954528,0.048302926,-0.051231306,-0.007642453,0.0032549903,-0.0157423,0.032160647,0.0071779545,0.03164239,-0.03181762,0.022113014,-0.04734795,0.0042498843,0.02211492,0.00185621,0.05462872,-0.008475542,0.027556825,0.027179215,0.019285114,-0.029221464,-0.023371998,-0.007098979,-0.007035358,-0.027791174,-0.030520992,-0.025103226,0.023637122,0.03068162,-0.027255498,0.0043015294,-0.016633958,-0.0353357,-0.030570984,-0.031334467,-0.037785053,-0.0034043144,0.018208902,-0.0393697,0.017435495,-0.014958837,0.028180582,-0.019845251,-0.020015726,0.014035287,0.010912231
-0.042160545,-0.009197263,-0.043788802,-0.04075957,-0.020319259,-0.037443437,0.041343506,-0.014984788,0.0032383767,0.013470906,0.009388533,-0.020665765,0.04584003,-0.04331906,0.0005478411,-0.006176636,-0.025249185,0.052178975,0.037809454,0.012931305,-0.033368494,0.034851193,-0.030173132,0.047943085,-0.037897587,-0.030146629,-0.025560373,-0.011887498,-0.014644951,-0.016394753,0.013271292,0.04644147,0.011809743,0.0049709543,-0.026356075,0.029662674,0.020214539,0.023202792,0.028295787,-0.030658418,-0.030647727,-0.00349217,-0.0054996414,-0.04328321,-0.012431997,-0.0015014723,-0.008966789,0.018571666,0.039058063,0.009202279,-0.0033011383,0.00080082886,0.007501917,0.05160906,0.018553166,0.014232796,0.012355777,0.026375672,0.004842236,0.023619406,0.0035284709,-0.01847183,0.029441847,-0.028107451,-0.028530391,-0.024781583,0.006767369,-0.010307978,-0.044174157,-0.02781095,-0.013089623,0.047727514,0.012124136,-0.04748281,-0.012812656,0.005638568,-0.029792275,0.015276382,0.021927519,0.023896987,-0.02825829,0.036896102,0.017484615,-0.0323994,0.020641731,-0.002957713,0.02031951,-0.026740007,-0.008080012,0.026828026,-0.033682376,-0.00587771,0.0235627,-0.009448205,0.0467929,0.02440976,0.0018058476,-0.01728031,0.05277777,0.0051459465,-0.014020123,0.02390008,-0.030627888,0.02428151,0.02265526,-0.03664646,-0.016844178,0.03260039,0.023291277,-0.038463697,-0.036539022,-0.0002015439,0.039180093,-0.0005891568,-0.003009451,0.031237334,-0.020734563,0.018323725,-0.04590135,-0.020687507,0.0038854359,-0.028284177,0.0439379,0.0029734182,0.037984155,0.035966925,0.031312827,0.0042314166,0.043077633,0.0006748273,0.035136055,0.014610262,0.029450214,-0.018311348,-0.044137854,-0.0030240398,-0.032919303,-0.024185374,-0.027094455,-0.05389943,0.0075331703,-0.03216937,-0.0035002923,-0.027918048,0.007891819,0.023960652,0.009898123,-0.0005625586,0.025293527,0.017734326,-0.0045669656,0.0233519,-0.021251244,-0.023625687,-0.036180098,-0.014520174,0.0062489994,-0.032637466,0.018628553,0.048465688,0.018364092,0.02531333,0.04288726,0.007565387,0.022411888,-0.029754255,-0.0068459786,-0.05354452,-0.0067942794,0.00972094,0.024054496,0.036092155,-0.029882751,-0.017228914,0.0018027964,0.017654134,0.02274715,-0.0154762175,0.044972684,0.03227146,0.030547775,-0.021479659,-0.020970529,0.007881979,-0.033266187,-0.05054843,0.031526748,-0.02030927,0.0044329395,0.044435546,-0.03934226,-0.007894776,-0.039020546,0.012685068,0.027195178,0.04802301,-0.038229235,-0.05419255,0.041918065,0.01089477,-0.036415283,0.018733175,-0.02845653,0.025899323,0.018846154,0.02743073,-0.018813599,0.017308861,0.039593585,0.02534361,-0.04101712,-0.00019724006,-0.039226115,-0.010580116,0.00974768,0.035249062,0.015952013,0.0017065401,-0.020487508,0.019079989,0.0062926095,-0.012788645,-0.03907206,-0.048388943,-0.038803764,-0.036028367,-0.005114354,0.017603382,-0.047580313,0.018024174,-0.00027438925,0.023211582,0.009324545,-0.041287117,0.025238227,0.040192015,-0.049630452,0.04468232,-0.014457789,0.034596354,0.030430043,0.022243604,-0.0028162708,-0.023743413,0.020089742,-0.009676915,-0.026124476,-0.010417848,-0.032636188,0.03563344,0.029227233,-0.030683273,0.0264905,0.028208412,0.012904645,0.034916904,-0.036982246,-0.025839422,0.0059316806,0.016096402,-0.0075132693,0.041646753,-0.030034106,-0.016998598,0.03762063,-0.024496917,-0.023275511,0.014690807,0.05221549,0.007961006,-0.0141795995,0.035567764,0.0020464885,-0.007088556,0.047554933,0.031476967,0.029755969,-0.03544869,-0.027352987,-0.025476439,-0.007428646,0.0021414526,0.024649628,-0.025869021,-0.046725992,-0.041666728,0.031990767,0.00557277,0.001242211,-0.0010613959,-0.04020881,-0.04806198,-0.03438227,-0.030363316,-0.01932898,-0.027624035,-0.05396921,0.008012863,-0.009712022,0.0060535315,0.019885235,-0.03826987,0.015883239,-0.026394447,0.031011894,0.00040612926,-0.05391412,-0.040456306,-0.0017382657,-0.021263551,-0.035017494,-0.02765526,-0.03396432,-0.045128074,-0.052346785,-0.02000059,0.025078975,0.022351,0.008869573,-0.033450313,-0.038000092,0.03761457,-0.007393051,-0.0003701738,-0.044752676,-0.03612005,-0.037705008,-0.049545698,-0.0356527,0.007154693,0.013076545,0.01874929,-0.011524122,-0.011634276,0.04679065,-0.04109628,-0.007298744,0.03067351,-0.031285,0.0071704336,0.021336995,-0.0078056776,0.012189428,-0.050853476,-0.034858543,0.028623667,-0.032078583,0.043854807,0.023452312,0.0023786915,0.025467677,-0.04357675,0.005020905,0.018085016,-0.00019459192,0.016537149,0.01547941,-0.018138483,-0.02137388,-0.024782073,-0.021701407,0.014893602,-0.0204893,-0.00077941135,0.017185444,-0.03807463,-0.01294885,0.0116920015,0.037492037,-0.010412225,-0.0112530105,0.039331075,0.009090584,-0.042363264,0.003381234,0.038606167,-0.01114915,-0.001827692,-0.012232752,-0.0068630925,-0.04614491,0.01600179,0.010416511,0.004959171,0.0049680327,0.007020429,0.012341176,-0.0038918692,0.00802478,0.033757072,-0.0149158975,0.0335015,0.015089286,0.037797943,0.014378676,0.0111542065,-0.03666677,0.0075833504,-0.0517152,0.05078038,-0.039066322,-0.02977239,0.0350571,-0.04531397,-0.004819955,-0.020786991,0.023565281,-0.020183204,0.031401947,0.0043206885,-0.0355112,0.048088726,-0.053019263,0.022694472,0.033529613,0.03495379,0.03733149,0.008969259,-0.028775487,0.0086429715,-0.038513944,-0.054399326,0.014945288,-0.017899806,-0.006058483,-0.02103318,-0.04118234,-0.019013805,-0.038981207,0.03613201,0.021871533,0.041449364,0.009503686,-0.009236493,-0.010653209,0.03478934,0.036948714,-0.015155077,0.021472765,0.028602274,0.019631218,0.037333287,-0.03650926,0.014691058,0.037516795,0.023061879,0.016304005,-0.029813237,0.018904835,-0.043571174,-0.039277,-0.0049535627,0.008041271,0.010886375,-0.024777872,-0.033348378
