0.012324276,0.08976852,0.00737603,0.002510826,-0.083178036,-0.07461689,-0.045764804,-0.04194197,0.0035333692,0.015237811,0.048484582,-0.05920119,-0.08936676,-0.01923276,-0.06902312,0.06077303,-0.042075854,0.03412916,0.0069848397,0.033330347,-0.08722647,0.004675872,0.01959777,-0.066895664,-0.03717028,-0.002159895,0.068365835,0.075880915,0.047955602,-0.050784755,0.016275663,-0.03663326,-0.093198225,-0.04521584,-0.09081536,-0.045509327,0.0410015,-0.010430472,0.01003117,0.071825884,-0.047582008,0.026541779,0.023999646,-0.034235366,0.008592162,-0.056744426,-0.0043025627,0.046667818,-0.04726926,0.084665425,0.0568648,0.071905784,-0.069809325,0.0031852468,0.014410392,-0.027377637,-0.05040747,0.08544432,0.077333614,-0.01872994,-0.06379127,-0.04192114,0.0033166604,-0.0960873,-0.040103123,0.00033249363,-0.09166284,0.021265423,-0.014071243,0.06848474,0.06899765,0.052960575,-0.08214361,0.02221095,0.06425717,-0.059850536,0.045490723,0.005503285,-0.07632732,-0.05175989,-0.06711557,-0.0057042716,0.049806654,-0.0009028926,0.015258938,-0.086897366,-0.069067955,0.017263623,0.033988364,0.026652796,-0.022928154,-0.021197183,-0.0169011,0.006077178,-0.026600108,0.042060282,-0.08034671,-0.036575973,-0.09270537,0.016579961,0.007758005,-0.09091558,0.03944881,-0.024624692,0.0015579581,-0.08157509,-0.0015347814,-0.07757485,-0.05747038,-0.022927068,-0.070551775,-0.062312752,0.0077417055,0.092524685,0.052718453,0.03206701,-0.09649882,-0.058962453,0.06849986,0.06574216,-0.04131805,0.030165078,0.0069992435,0.011606573,0.0029196355,0.00615123,-0.008781537,0.055052057
0.06833714,0.04300643,0.027551193,0.018250959,0.05615229,-0.050200935,-0.06505805,0.029529884,-0.03952403,-0.015506554,0.006567014,-0.049155775,-0.041837834,-0.007249243,0.029536543,-0.0026096085,0.06201909,-0.07443012,0.04221312,-0.077234924,-0.028205995,0.01899695,-0.081665985,-0.01250451,0.053146206,-0.02696851,0.05018561,-0.043397635,-0.04238535,-0.08496493,0.049747363,0.03579561,0.02834906,-0.0132435085,-0.037812833,-0.0412391,-0.06326194,-0.053298034,-0.10275988,-0.024942359,-0.010609869,0.071390785,0.043884084,-0.01734543,-0.05062678,-0.09038264,-0.081024565,0.052381545,0.054533258,0.023707656,0.032315567,0.013232772,0.017739328,-0.049450032,0.025800725,-0.075584926,-0.07335737,-0.0549996,-0.0061629456,0.037994567,-0.074285336,0.065544724,-0.034023758,-0.07785174,-0.05509713,-0.013640167,-0.05224329,0.05549034,0.06486939,-0.02743449,0.016512224,0.07217717,-0.073396154,-0.027805977,-0.0035079068,-0.02404056,0.059587307,0.02238237,-0.078008875,-0.019450307,-0.037302565,-0.037848506,0.06806537,0.009034537,-0.07650442,-0.016526371,0.073423095,-0.059556272,0.070405036,-0.024325114,-0.08694138,0.008914822,-0.07196771,-0.066110365,0.03120904,-0.04518088,0.043204315,0.032391306,0.06640555,0.008433423,0.05145373,-0.021575574,0.07358858,-0.008642823,0.041922234,0.018575022,-0.07503069,0.09523086,0.028914308,-0.08832018,-0.0853555,0.07034079,0.051117186,-0.08788907,-0.08245598,0.027712129,-0.07271502,-0.084105074,-0.00763639,0.024130665,-0.00017129008,-0.03453693,0.07927282,0.053740986,0.09333033,0.0029671667,-0.048396915,-0.015065308
0.027657773,-0.06727192,0.010192563,0.015740586,-0.07099702,0.022933168,-0.012568274,0.028050529,-0.022691239,-0.04828244,0.08694191,0.06585087,0.08217916,-0.017860308,-0.013670199,0.03568793,0.08018715,0.0403652,-0.0003670737,-0.06546289,-0.07078608,0.079304226,0.020573063,0.059392426,0.07609383,-0.040033817,-0.06939731,-0.008356129,-0.022075227,-0.007030397,0.00904558,-0.08764202,0.026029184,0.08438417,0.076178014,-0.07001078,0.0090877805,0.06783325,0.07041224,-0.002725248,0.030085701,0.037169512,-0.07515414,-0.044710696,0.0047368146,-0.03481953,-0.037566435,-0.014866693,0.030707566,0.030504394,0.06321822,0.034622043,0.042546272,-0.028574843,0.085871324,0.016707545,-0.01615045,-0.0892887,-0.07730277,-0.029809508,0.03677418,-0.069677636,-0.0076666567,-0.05070152,-0.061451495,0.08497079,0.06393315,0.075991794,0.08763501,-0.015335448,-0.0018219645,-0.07189062,-0.07602434,0.047682963,-0.076502696,0.029303957,-0.039985064,0.048593115,0.025174355,0.026367342,0.020912591,-0.04386032,0.023969783,0.034897275,-0.017042935,0.0780169,-0.050837636,-0.013771453,-0.033971213,-0.05760505,-0.037517175,-0.014644221,-0.0014039067,0.042150438,-0.011263847,0.042579252,0.026889976,-0.040576894,0.082034454,-0.01871935,-0.018143272,0.089387625,0.048262343,0.043747313,-0.041462466,0.032235663,-0.056880314,-0.019060843,-0.041555,-0.07191944,-0.03036736,-0.064644866,0.05083373,0.046799324,-0.004276705,-0.06379409,0.00999121,-0.060055517,-0.0019857844,0.016221926,-0.09340885,-0.009781669,0.052395947,-0.052966055,-0.010806302,-0.0018548795,0.04730201,-0.026331693
-0.007857705,-0.06338423,-0.028077729,-0.000897321,-0.018406345,0.010130057,0.013397528,-0.03320657,-0.06646169,0.007990381,-0.005095728,0.081844725,0.027119132,-0.043636635,0.07197606,0.040420864,0.06682623,0.035636093,0.07897935,0.0028782366,-0.07243026,-0.05628243,-0.0306763,-0.064510524,0.06318535,-0.020570155,-0.07987277,0.015322326,-0.065860584,0.07271246,-0.047260128,-0.011172536,-0.08465365,-0.07188043,0.045779232,-0.03733423,0.04115454,-0.075320505,-0.035002705,-0.03552644,-0.04152613,0.0143668,-0.03757714,-0.0715025,0.021191977,-0.06322657,0.056027904,0.038564693,0.0043846327,-0.06254671,0.067433156,-0.026999155,-0.018998902,0.0034995917,-0.06085226,0.049629066,-0.01798558,0.051993147,-0.012208459,-0.008877375,-0.0400251,-0.09397213,-0.008036629,-0.07800849,-0.07858205,-0.026819112,0.033001944,0.008057561,-0.07255825,-0.040116344,-0.09480143,-0.03157831,0.060550705,0.0054046703,-0.06361393,0.051348653,0.006656104,-0.044578865,-0.05980877,0.037625592,0.008530336,-0.0033368873,-0.038043447,-0.087572895,-0.012552937,0.059794415,-0.06478132,0.063502535,-0.041219488,-0.02093772,-0.041010182,-0.014077874,0.010548459,0.06950744,-0.0023166183,0.055885337,-0.060492378,0.036436774,0.012450828,-0.05079771,0.052989393,0.049481206,-0.032402392,0.06902368,0.03918362,-0.08273174,0.06433171,-0.04074752,-0.06564742,-0.043271597,-0.022390895,-0.09415143,0.05923586,-0.077001326,0.050697546,0.039277706,-0.026284395,0.024700085,0.016284263,-0.0060768523,-0.09111563,0.033251245,-0.05017079,-0.04712395,-0.06046617,-0.061429903,0.010471422,0.029212482
0.0409957,0.047111284,0.025748549,-0.06887663,0.04413623,0.018992452,0.087754235,0.04915525,-0.017269274,0.064626426,0.07425403,-0.0921151,-0.01749127,-0.04285972,0.022156874,-0.016844912,-0.074324176,0.03940807,-0.084216475,-0.05571742,0.05372159,-0.06245762,0.038829952,0.0032105786,-0.07275785,-0.037287455,-0.039475404,0.050652757,0.02108648,-0.059641074,-0.07190985,-0.045385785,-0.03529101,-0.0108468495,-0.05159052,-0.042931173,-0.023588646,-0.023460982,0.048950437,0.040881474,0.05227953,0.004649025,-0.04890687,-0.049115736,0.024181351,0.07151201,0.063063145,-0.0715917,-0.08015086,-0.079281285,0.008992576,0.027925808,0.044848118,-0.08780866,-0.061158385,0.061492406,0.05719477,-0.060475968,0.031291064,0.011169835,-0.044447903,-0.09073369,0.037451502,-0.061558094,0.036184285,0.025637304,0.010491168,-0.0670649,0.053058777,-0.072310045,0.008246579,-0.03766168,-0.02625463,0.065753475,0.06017208,0.06430566,-0.046861738,0.06543313,0.0065028826,-0.07191798,0.034353465,-0.0014299429,0.0019832107,-0.026456496,0.01350431,-0.04863694,0.010984442,0.020151118,-0.017864762,0.07689561,0.07754664,0.051480774,-0.08696527,-0.017794,-0.021100502,0.08409517,-0.022513876,-0.009754273,-0.005910109,-0.020310717,-0.04036754,0.07098012,-0.045426555,0.061944034,-0.06256985,0.05002425,-0.057375286,-0.040872887,-0.026411211,-0.037252817,0.014863806,-0.016469404,-0.08267711,-0.05165729,-0.07714099,-0.06487152,-0.057126727,-0.025773799,0.01742542,-0.07594189,0.021744404,-0.055638544,-0.07739954,0.054701015,0.053118415,0.060773443,-0.01228003,0.028607216
0.029803786,0.029394181,0.029832343,-0.06385849,-0.0033343558,0.05478524,-0.046177313,0.011032184,0.025747482,-0.043732878,-0.039974995,-0.018521247,0.03545201,-0.070319556,0.03229573,-0.0078660045,-0.06489734,-0.06565594,-0.06996698,0.050236583,0.023069432,-0.08605223,0.059700284,-0.065386385,0.060751684,0.034315567,-0.021099966,0.060294367,0.009335311,-0.037377156,0.04456971,0.056132104,0.008357111,0.01873477,0.024440058,-0.051312488,-0.05608731,0.065418914,-0.01756845,0.032446187,0.06461108,-0.07379779,0.021038,-0.022021819,0.063386396,-0.047989376,0.0690032,-0.036585394,0.018773751,-0.08381718,0.068743624,0.07296407,0.04594193,-0.025490768,-0.07787697,-0.019315427,-0.042433158,-0.026339723,0.033142325,-0.060527842,-0.084274024,-0.052506614,-0.044230364,0.06550841,-0.003644194,-0.09107193,-0.056357205,-0.0630701,-0.03746668,-0.04580081,0.002619527,0.037973054,0.020539153,0.02633731,-0.072754815,-0.03155943,-0.061135232,0.0481876,0.08023981,0.033481654,0.01774125,0.06562399,0.07151144,-0.059720162,0.011751738,0.07416304,0.016133402,-0.055789515,-0.038213324,0.048084352,0.07789909,0.012666475,0.001428662,0.020936426,0.0051159393,-0.08335546,0.026291138,-0.038867712,0.03596714,-0.08707438,0.06496483,-0.053087145,-0.034182884,0.03432617,-0.055147927,-0.033610117,0.010553083,0.042672765,-0.07432876,0.03634444,0.011315554,0.076239474,0.0125732245,0.031082807,0.012523715,-0.042207435,-0.08787969,0.028713727,0.00421993,0.07095891,-0.008016234,0.07184467,-0.046347003,0.07493671,0.040361296,-0.024611654,0.034570187,-0.0056883283
0.07237477,-0.025231704,0.060907833,0.030478533,-0.060494028,-0.00889083,0.044452492,0.02359255,0.07636349,0.05935568,0.03632094,0.048799966,-0.032210886,-0.02825515,-0.036018763,-0.006285973,-0.0712036,-0.0026251315,-0.05331574,0.025898296,-0.061359797,-0.10641939,-0.01850806,-0.029238395,0.020179002,0.029527567,-0.025781596,-0.08410335,0.0029965895,-0.08259008,0.011635268,0.075874284,-0.073083326,-0.0033275883,-0.07409237,0.047137734,0.07404524,0.023105262,-0.08370163,-0.04759548,-0.059619106,-0.020246744,-0.07543596,-0.0723066,-0.048421886,-0.039995592,0.0012443438,0.089149594,0.032367676,0.04069232,-0.03461006,-0.054630138,-0.065055296,-0.0021446438,-0.032046463,0.059845123,-0.029160023,-0.08803221,-0.07609184,-0.037431218,-0.09180468,-0.05730651,-0.017451432,0.051660866,0.04114694,0.073203556,0.011660419,0.042729754,0.07278136,0.0601962,-0.037290692,0.091998555,0.04791768,-0.0074377586,0.028303923,-0.010996753,-0.083254784,-0.00041246603,-0.09481805,0.013390719,0.019151818,-0.014809063,0.05554882,-0.030400375,-0.01845703,0.029826714,-0.029552326,-0.046709023,-0.076179415,-0.037384268,-0.08484968,0.07325932,0.054941714,-0.073787786,0.048119374,-0.006467157,0.049767215,0.04862314,-0.055018984,0.06386096,-0.035402026,-0.014573529,0.09159658,-0.022865897,0.0024068174,-0.06653742,-0.053845827,0.0068215127,0.08521246,-0.0730827,-0.0657291,-0.014233259,-0.086115465,-0.02359034,-0.069658294,-0.0581689,-0.04384564,0.042066894,-0.061342124,-0.07766743,0.07767656,0.04494877,-0.07691129,0.025952004,-0.07309493,0.07006234,0.06584476,-0.07107223
-0.016845305,0.0062517147,-0.022493158,-0.034797065,-0.032849412,0.056456253,0.015210566,-0.069816805,-0.059331633,-0.008364905,0.0032268413,-0.08014091,-0.03549563,0.029626591,0.062172964,0.06860848,-0.008328462,0.02996604,0.04435983,0.072147004,-0.019654248,-0.032346115,-0.008876231,-0.049249627,-0.02838018,0.06891788,0.051708966,-0.05281199,0.06183383,-0.082896866,-0.07703074,0.0539153,-0.07648482,0.06587969,-0.015136268,0.06480028,0.039840315,-0.08606955,-0.012981703,0.06756576,-0.08877584,-0.067422785,-0.0074961386,-0.06845007,0.058488436,-0.04731897,0.053903777,0.067719914,0.07317019,-0.07950664,0.07539887,-0.04444246,-0.073862106,0.071598075,-0.049658988,-0.005403139,-0.049021766,0.015502134,-0.020376729,-0.012645077,-0.001199173,0.015248537,0.019107476,-0.030095475,-0.06858462,-0.09658008,0.043233298,-0.07682484,-0.09753159,0.07026023,0.07511189,0.05873972,0.021481425,-0.013202844,0.064459585,-0.045997415,-0.07065347,0.034795057,-0.012406957,-0.06707274,0.07120996,0.056201562,0.04519606,0.029456982,0.063879244,-0.084455766,0.004746978,0.06617563,-0.06136707,-0.003912426,-0.006225378,0.009765665,0.064474925,-0.07084086,0.011133568,0.028491532,-0.026994592,-0.021710966,0.05947124,0.010491904,0.043583654,0.05132531,-0.0028311082,0.027257485,-0.0023553758,-0.04793109,-0.044758793,0.022320544,0.04876058,-0.049476307,-0.062064726,0.06185188,0.018042674,-0.02355215,0.085771054,0.0558854,0.051108606,0.00861304,-0.023307677,-0.009072485,0.047413334,0.09141804,-0.074835844,-0.019681247,0.005581983,-0.034805674,-0.03450973,0.050566778
0.057833523,0.07098384,-0.05518064,-0.024412487,-0.008012644,-0.071424,0.02318174,-0.04324526,-0.0138723375,-0.071807794,0.041794244,0.0404328,0.036883947,0.07818631,0.048368186,-0.07083424,0.03185412,-0.019722689,0.06444605,0.01754894,-0.069214754,0.040303946,-0.06431423,0.017563874,0.07584139,-0.06340507,0.059851922,-0.050807532,0.0719421,-0.0021146494,0.024878468,0.07251775,-0.078479186,-0.03493513,-0.064215094,-0.08632665,-0.08331279,-0.06973131,-0.093718976,-0.020966927,0.028451998,0.06789332,-0.05311236,-0.08868206,-0.09067666,0.0055360748,0.026293656,-0.05980507,0.06973651,0.07864232,0.056277703,-0.037619185,-0.033586815,-0.085779555,0.042305753,-0.069948316,0.031953983,-0.07467207,0.051405445,0.033876847,0.07771057,-0.020721823,0.021527478,-0.018014414,-0.09137879,-0.032690056,0.0029066699,0.070940964,0.001499039,-0.016666545,0.03222111,0.066767775,0.019778516,-0.056990013,0.028918693,0.08091439,0.07099727,-0.0052294782,-0.08719456,-0.07113975,0.053571958,0.04078497,0.013448414,0.061678406,-0.056407932,-0.030488214,0.009807133,-0.0027473415,0.08130193,-0.009598914,-0.012311087,-0.008755826,-0.023607302,0.04823255,0.0048269797,0.03316118,0.061567668,-0.077634044,0.013071635,-0.07056007,-0.078832544,-0.025325922,-0.019203661,-0.014501509,-0.016802033,-0.038592868,0.06730792,0.07910388,-0.028029792,-0.03429924,0.06247331,0.0056515853,0.046595342,-0.07033276,-0.05120225,0.060075466,0.049146976,0.057520278,0.018598977,-0.0071914513,0.055554356,-0.06513161,0.07240339,-0.05289745,0.048243534,0.05712625,-0.012534314,0.01281146
-0.08006452,0.07177817,-0.09550625,-0.04119538,0.026355669,-0.089716144,0.0015896402,-0.011166496,-0.066535756,-0.045100972,0.029817734,-0.06383332,0.06974024,0.03608431,0.069751285,-0.09570707,-0.07171177,-0.06273594,0.009313043,0.04127025,0.029688928,-0.0043743425,-0.09256548,-0.014355352,-0.08640025,-0.0919546,-0.063382655,0.029510757,0.069329455,-0.066845044,-0.04065883,-0.048275027,0.037885062,0.027355304,0.072141334,-0.042835638,0.03999506,-0.013336622,0.02186494,-0.080125354,-0.0021734184,0.06383928,-0.086535536,0.063965894,0.020429851,-0.0759702,-0.095619194,-0.059903383,0.026127025,0.009407744,-0.04848448,0.052044764,0.043522295,0.033210963,0.007978236,-0.08176852,0.009546694,-0.05608035,0.01387178,-0.08190515,0.01768602,0.034343082,0.03252623,-0.05663542,-0.034466222,-0.045603212,0.029666895,0.010068291,-0.02762614,0.014540983,-0.021240884,-0.059653826,-0.029530527,0.04348673,0.07361343,-0.016807133,-0.08559584,0.05950591,0.063578166,0.006526089,-0.0803048,-0.016306072,-0.049333137,-0.055750757,-0.026641747,-0.061735928,0.058913432,-0.022170449,-0.030724993,0.04785097,-0.027769068,0.013909232,-0.03138633,-0.0018031574,-0.0041265516,0.07116354,0.016551595,0.014494782,0.055315673,-0.039183017,0.066029124,-0.031048594,0.011822874,0.07651327,-0.014597238,0.056081675,-0.012916182,0.0778714,0.080373,-0.0151724685,-0.021842863,0.032944307,0.07307601,-0.045910507,-0.0109996125,-0.02789017,-0.0032447116,0.041609727,-0.013271465,0.068709135,0.0045308415,-0.00970654,-0.020731494,-0.06565346,-0.013364756,-0.016649507,-0.006169769,-0.08552335
-0.05728055,0.068197034,-0.03275366,-0.0490344,0.03476868,0.0034080988,-0.057486124,-0.0379464,-0.034857024,-0.08229988,0.0017718668,0.006101439,-0.034369525,0.027629374,-0.039989747,-0.024300914,0.07448368,-0.013049321,-0.08550526,-0.01698684,0.0031848794,-0.07090023,0.06605267,0.050098207,-0.06161999,0.042980235,0.07231625,-0.050071385,0.05445029,-0.015062949,-0.024110923,0.04969189,-0.041654665,-0.0618291,-0.067139626,0.00022771161,-0.088205814,0.026007565,0.05381484,0.0023160721,-0.03566767,0.07605628,-0.04744404,0.024864078,0.076939985,-0.043510426,0.009228189,0.04694001,-0.08238357,0.049497142,0.024776189,0.051618382,-0.021436965,0.0642978,-0.05051903,0.06649107,0.07283635,0.06863152,-0.07861506,-0.08488657,0.07741192,-0.026759237,-0.021123732,0.054740995,0.024222098,0.0079452405,-0.06614193,0.03147892,0.06511649,-0.013527402,-0.048351094,-0.02280108,-0.045181446,-0.025848871,0.0315515,0.08536944,0.04975066,0.041591305,0.0030832419,0.066339284,-0.025835121,-0.050057556,0.043521572,-0.0030224577,0.068946704,-0.029696247,0.051259592,0.065709285,-0.026654627,0.045689274,-0.063870005,0.045738734,0.024594111,0.07844129,0.013282089,0.025318896,0.090510406,0.048139505,-0.0072488766,-0.04983207,0.014872186,0.08417153,-0.07484729,-0.036420535,-0.061460376,-0.08204174,0.0003998893,-0.04040272,-0.06689665,-0.0017655081,0.01819494,0.035455998,0.0038128528,0.059657015,0.02921454,0.030288555,-0.034964886,-0.0276652,-0.010144547,0.023238001,-0.09313238,0.016923627,0.08270028,0.0047178613,0.053128555,-0.068041526,-0.02942217,0.059126012
0.01338111,0.009907451,0.05545509,0.050184835,-0.062329903,-0.04483085,0.007635732,-0.016248967,0.08407207,0.018517006,0.007832254,-0.07347567,0.05546345,-0.07150007,-0.08029883,-0.06109654,0.052156653,-0.051889755,0.047134858,-0.022092357,0.0420241,0.04717223,-0.026891522,0.012774635,0.017403614,0.017307747,-0.016846236,-0.0027606178,-0.08357768,0.01740832,0.03961247,-0.020307954,-0.030911293,-0.03114957,0.04183258,0.081137806,-0.0015237308,0.03030817,-0.08205435,0.03883682,-0.062230065,0.05926698,0.04547171,0.07911338,-0.06842716,-0.017752415,-0.0169108,-0.053048104,-0.07040062,0.03348868,0.06575265,0.06048631,-0.04125527,0.005509706,-0.07224209,0.020758841,-0.048363525,-0.04401412,0.055009976,0.03283337,0.07872288,0.036046386,-0.024121972,-0.0027631386,-0.05015011,-0.042574123,0.015296934,-0.06416175,-0.054775294,0.001952994,-0.060790345,0.07261098,0.061608024,0.019487109,-0.04681601,0.048253912,0.06155732,-0.0027199718,0.033373598,0.07877992,-0.021961756,-0.042580497,-0.06035902,-0.005767596,0.001080459,-0.07081634,0.049818054,0.08110579,0.06924128,-0.058009792,-0.016331825,-0.0051202504,-0.009707192,0.07626275,-0.044155784,0.05703379,-0.050069816,-0.090458155,-0.043873116,-0.06127539,-0.06345361,0.027698135,-0.010615474,0.06438717,0.0762064,0.07737746,-0.003915264,0.063812174,0.03658189,-0.040764865,-0.06371219,0.07604245,0.009924059,0.035834476,0.035521507,-0.04876629,-0.021981765,0.04902074,0.04404727,0.011027827,-0.07275939,-0.0794249,-0.051951095,0.024432547,0.088980846,-0.021986578,-0.050135612,0.073561214
-0.024278712,-0.035095815,-0.085118495,0.030051013,0.013208546,-0.03624123,0.06955349,0.010444552,0.0020097962,0.06512472,-0.032449156,-0.04406082,0.009757797,-0.046019584,0.018954303,-0.058498845,-0.014952903,0.04889399,-0.0052695493,-0.08067945,0.004817727,-0.057549544,-0.016659603,-0.08378374,-0.03487834,-0.07957274,-0.04626091,0.010057704,-0.0037156087,-0.015013845,-0.08341438,0.0710753,-0.004380556,0.016538037,0.06570366,-0.03561662,-0.037629943,0.045837652,-0.07189397,-0.04837693,0.023751665,-0.0049410067,-0.050609276,-0.014220739,0.03880763,0.0295324,-0.06137991,0.008082738,-0.0102467565,0.0032913277,-0.0107221175,0.013788154,0.008884335,0.0022998005,0.07968229,0.055392247,0.027265435,0.014514367,-0.027961805,-0.037494436,-0.05810149,0.06027006,-0.0033866328,-0.07605958,-0.07312022,-0.02670269,-0.07791631,-0.004811285,-0.07612972,0.027386,-0.0043249563,0.013625167,-0.0171211,0.003817864,0.014688548,0.077594265,0.04433387,-0.08055423,0.012547849,-0.061057195,0.048456132,0.009607355,-0.051276464,-0.07439495,0.08029573,-0.054664716,0.0783652,-0.01079022,-0.0090327095,0.035763096,0.044561513,0.07418368,0.003405047,0.0114440955,0.07891698,0.049505465,-0.02613848,0.01984363,-0.07895652,-0.092775114,-0.019410329,-0.042466108,0.07718492,0.043896165,-0.004466681,0.06406157,0.048895728,-0.0082049975,-0.010050936,0.027903683,-0.043367144,-0.025986746,-0.050738435,0.061857406,0.031246513,0.0669769,-0.069898866,0.005313052,-0.018816944,0.024542594,0.07128632,0.03705363,0.059761614,-0.025644928,-0.0026386415,-0.013973155,-0.0834533,0.072337925
-0.02927595,-0.08882611,0.044653643,-0.050249226,-0.009669991,-0.041956075,-0.07145011,-0.0255036,-0.040959056,-0.042823832,-0.03858636,0.051249437,0.06577991,0.06927055,0.07504395,0.06629787,0.051565718,-0.02767532,0.027499827,-0.03497249,0.011881919,-0.063027605,-0.035398364,-0.042335838,0.04758588,0.03348299,0.010478622,0.006701584,-0.06710301,-0.03694081,0.07606187,0.012850354,-0.036891375,-0.04941468,-0.063635916,0.06816326,-0.08327541,-0.018006185,0.013319423,0.016403925,-0.011887791,-0.08431204,0.0005483094,0.06269433,-0.01328072,-0.034403265,-0.045038063,-0.016849332,-0.081741825,-0.033738796,-0.086146995,-0.081599005,0.046926163,-0.09589158,-0.0110051595,-0.05016873,-0.08454306,0.0509043,-0.049131222,-0.045888018,0.0028418791,-0.06494269,0.0114952335,-0.052355867,0.023310838,-0.06629386,0.04051292,0.011484134,0.07732687,-0.02435224,0.074059516,0.06918172,0.054811753,-0.085608676,-0.049586624,-0.07458595,-0.035519853,-0.0048980704,0.015618316,0.008064646,0.04849619,-0.020324228,0.100501396,0.04156453,-0.052811045,-0.07469425,0.066394754,0.09030032,0.019624569,9.966003e-05,-0.05873699,-0.018899512,-0.072030604,-0.08224757,0.031908296,0.0033072578,-0.07655845,0.07830411,0.014035562,0.03625358,-0.07728256,-0.030470429,-0.008489166,-0.08833102,-0.0025027986,-0.019226372,-0.08222491,0.0045092623,-0.0802029,0.056905072,0.055707715,0.040426567,0.023466304,0.042212307,-0.06166261,-0.07674838,-0.018513512,-0.06086692,0.0037741307,0.043901723,-0.04787463,0.015121949,-0.00090257847,-0.057867933,0.0685401,-0.006430439,0.02481556,0.068050586
-0.0676057,-0.033076655,-0.008199737,-0.071851544,0.06328044,-0.0023967149,0.023382967,0.007009425,0.047422167,-0.03658463,0.09138639,-0.037709456,-0.07386067,0.04625958,-0.04729249,0.08365124,-0.07001018,-0.012662923,-0.022682348,-0.024450677,0.051422596,-0.085546285,-0.069484994,-0.0032476669,-0.023678059,0.015179978,-0.04999322,-0.0082734125,0.083008476,-0.08012507,0.060926326,0.044214137,0.017328683,-5.3097723e-05,0.030199382,-0.0760169,-0.004420796,0.07792212,0.05430456,-0.026086546,-0.0451993,0.052125446,-0.08482121,-0.03751348,0.035022736,-0.057438318,0.080993235,-0.042831007,-0.035960283,-0.08322727,0.0033754986,0.047195673,0.0020833877,-0.016166344,-0.07234026,0.07474498,0.029939778,0.08870216,0.055563174,-0.02789041,0.02116438,0.034517102,-0.062915206,-0.06720322,0.061919253,-0.051818796,0.027140578,-0.042056147,0.054564368,0.08990767,-0.031301863,0.028494442,-0.029334288,0.09524208,0.055734325,-0.067159966,0.07618178,-0.06338156,0.07597185,-0.05165333,-0.01407688,0.007582428,0.033034068,-0.0019222363,0.008031294,-0.034281984,-0.0017062315,0.08168277,0.07414934,0.00013516005,-0.062428653,-0.04693189,0.038497318,-0.0024749867,-0.017259777,0.018388782,0.021744523,0.025878675,0.05665532,-0.049436558,-0.051700376,0.08293901,0.041308794,-0.02347371,0.055188008,0.026689531,0.004559601,0.037433013,-0.017376747,0.006177533,-0.023084935,-0.061071802,0.0058123195,-0.009060849,-0.046774376,-0.056240156,-0.06692061,0.0071286554,-0.06240933,0.09551505,0.022041194,0.005844406,-0.0055907797,0.049878083,-0.07068013,-0.05866532,0.010133451,-0.07613404
-0.063435994,0.033854183,-0.02075204,-0.027761491,0.057866715,0.047759365,-0.023239506,-0.0076503074,-0.07329104,-0.054848228,-0.069946535,-0.03337734,-0.091054484,-0.042663842,0.05511541,0.0387061,-0.08173273,-0.03963122,0.005241485,0.0045513893,0.01648001,0.0055231038,0.028664025,0.08853116,-0.08156069,-0.070336334,-0.08328377,-0.02797997,0.048748612,0.047736645,0.059804548,-0.06932186,-0.059152905,-0.027991109,0.043307617,0.032526158,0.059140287,0.054752827,0.06285727,-0.038263615,0.048220295,-0.01858136,-0.056146424,-0.0008439012,-0.055593684,0.08007542,0.09793752,0.07545025,0.058714755,-0.03287928,0.068703674,-0.07587819,0.027386352,-0.030018367,0.077737406,0.03944049,0.032672316,0.019343121,-0.010560867,-0.029518336,-0.036468517,-0.029965434,-0.026252942,0.09002045,0.012823413,-0.059018645,0.003989201,0.006454532,0.0062557575,0.00071237684,-0.037912738,0.036942333,0.0076692584,0.032932326,-0.061734788,-0.021567686,-0.022764409,0.021759575,0.023997033,0.07210497,-0.03233638,0.06736992,0.07185838,-0.09544948,-0.021040676,0.023640959,-0.04255248,0.032741975,0.075467505,-0.004813735,0.024173323,-0.029082296,-0.012938267,-0.079940975,-0.055574704,0.033911932,-0.053372093,-0.0030039395,-0.044517588,0.015230674,-0.0834349,-0.06423981,-0.06184001,-0.051005073,-0.011187166,-0.028452877,-0.062464472,0.07327428,-0.04921208,-0.010516028,-0.031167397,-0.09521703,0.0035175895,-0.045896947,-0.09380221,-0.06716946,0.03217283,0.0590293,-0.029083982,-0.070890345,-0.030926686,-0.08156523,0.03325384,0.04778407,-0.0343934,-0.04852103,0.002719946,0.039803028
-0.08558019,0.07204488,0.06901083,-0.015248153,0.059918195,-0.016685557,-0.01162889,-0.048671003,-0.016331533,0.024863834,0.03407953,0.076586224,-0.06134828,-0.008072044,0.025800757,-0.0658407,0.004587942,-0.020467661,-0.015602646,0.00948938,0.069461815,-0.008952145,-0.07922165,-0.028794466,-0.038006905,-0.035225954,-0.00043323773,-0.011551035,0.06749178,0.05712543,-0.05422309,-0.033359535,0.086354285,0.032670457,-0.0050851265,0.08491656,0.0028982072,0.072118744,-0.06621707,-0.044792566,0.036942486,0.056947522,-0.015667962,0.0146718845,-0.0013763907,0.08758271,-0.03556663,-0.022942623,0.07359827,0.03366251,-0.05971189,0.017348718,0.022632262,0.05135554,-0.08607355,0.035924964,0.08044399,-0.023970641,-0.015522712,0.062391624,-0.074761555,0.048494965,-0.056477696,-0.05962618,-0.06462346,-0.04082814,-0.08535587,-0.04200953,0.06224335,0.018258702,0.04872209,-0.045264613,0.008194862,0.06971704,0.05225675,0.072069034,-0.009226071,0.027243407,0.06281129,0.06434728,0.016488371,0.005500398,0.02792692,-0.043552935,-0.074104056,0.023728713,0.08389989,-0.08518571,-0.043310877,-0.027634487,0.04246422,-0.06336462,-0.07261427,0.049865708,0.08208888,-0.018313257,-0.052643634,-0.014868762,-0.045889385,-0.07038804,-0.059588216,0.022759892,-0.019718487,-0.07360891,0.06806003,0.05740263,0.019857386,-0.05042434,0.049746286,-0.057620626,-0.028222667,-0.029167527,-0.022251146,0.07691581,-0.0025370463,0.027509836,-0.032722462,0.07899834,0.07137001,-0.08593975,0.0073092096,0.05543493,0.062642865,-0.023201233,-0.06197142,-0.063435994,-0.03382566,-0.0842538
0.077286005,-0.067803614,-0.061339404,-0.055359203,-0.09049755,-0.06421916,0.05220833,0.026504463,0.03923012,0.045582116,-0.0043484946,0.022643227,0.0444532,0.05733065,-0.05424137,0.026146624,0.05286258,-0.023413127,-0.07540217,0.05893461,0.022533214,-0.029472142,0.006717709,0.06724509,-0.05399317,0.0031173981,0.03713097,-0.015099138,0.05890955,-0.08341344,0.0201026,-0.019967915,0.0039286707,-0.089017116,-0.06664648,0.052845594,0.044118732,-0.0576433,-9.586615e-05,-0.06709112,0.03850504,-0.07118202,0.013023711,-0.058318686,-0.002153488,0.074761555,0.029657708,-0.043142185,0.018045602,-0.06777279,-0.04427831,-0.054753445,0.003110497,-1.8840265e-05,-0.087953754,-0.050245266,0.0123518035,0.015626697,0.05792263,-0.045148443,0.0673122,-0.021936303,-0.00877373,-0.0437834,-0.062689744,0.00540395,0.025390634,-0.049628347,-0.012719154,-0.07951788,-0.074756995,0.050016824,0.06581288,0.062186465,0.047551997,0.04081185,-0.011585669,-0.060157213,0.051079683,-0.015802633,-0.07987637,0.065046825,-0.08513371,-0.03638192,0.01991432,0.03043988,0.043761075,0.029752858,0.022851793,0.07983024,0.060604718,0.037603166,-0.018106801,0.04099596,-0.039158933,-0.0021558276,-0.054709908,-0.021635104,0.026058517,0.016549269,0.061082505,0.07876178,0.071915545,-0.04099698,0.0076401206,0.055622038,-0.0046856077,-0.038277745,0.008285563,0.06669239,0.050604817,-0.02522887,0.05788243,0.052148163,-0.065938,0.06496877,-0.07791663,-0.07071248,0.07805762,-0.09415303,0.030551538,0.055152018,-0.07580221,-0.0045198994,0.018504394,-0.0432514,0.06744299,-0.093616456
0.041354977,0.00092296576,-0.06744242,-0.07149245,0.032020584,0.031113915,-0.05569043,0.06058879,-0.026934994,-0.07442631,-0.049103778,0.04092203,-0.0077492218,-0.044470206,-0.06912165,0.046772927,0.040481433,-0.07139385,0.01924017,0.037934653,-0.03878681,-0.02441147,-0.029506579,-0.01523234,0.08476026,-0.013127509,-0.010131994,-0.024873437,-0.0605956,-0.028723607,-0.05793664,0.065929614,-0.03416798,0.0106903715,0.07950383,-0.0143317515,-0.06390485,-0.040149827,0.11117543,0.057209633,0.061753143,-0.014514126,0.08096864,0.06683294,0.021755584,-0.017825756,-0.024814188,-0.005059153,-0.057479795,-0.030368766,0.034249324,-0.058398616,-0.05226673,-0.043598182,0.0109760845,0.06897934,-0.015901335,-0.021471387,0.00074820535,0.06454324,0.04039335,-0.008214907,0.041773785,0.032453842,-0.086631,-0.07276779,0.016238645,0.07224121,0.05425206,0.08421702,0.013186925,0.0232197,0.056758884,0.008839054,-0.015829735,-0.04902318,0.04291901,0.06560406,-0.0151894605,-0.06829658,-0.051765583,0.00909878,0.038587708,0.075529486,0.0668702,0.03668702,-0.06969356,-0.06597092,-0.07764165,0.040079426,-0.027699906,0.028104724,0.026538854,0.066251844,-0.05694619,0.03246906,0.11416267,-0.0039259777,0.010867663,-0.033007618,-0.024822136,0.067228094,-0.07671607,0.06249706,0.06028281,0.03935507,-0.07906433,4.0420182e-05,-0.033069097,-0.0016815884,0.007660763,-0.051180758,-0.032599743,-0.02924774,-0.02193983,0.018528149,0.031978134,0.005632168,-0.006528543,-0.032383393,-0.031606127,0.058750864,-0.032378487,0.020047903,-0.025234336,-0.028747223,-0.014966147,-0.035566226
0.006761691,0.02617106,-0.0029988566,0.07431259,0.037882607,0.020252269,-0.021735638,0.049800843,-0.07131668,-0.017728904,0.07799675,0.06050361,0.041498218,0.0012560576,0.038391326,-0.07200806,-0.019680334,-0.06850935,-0.008290724,-0.047971234,-0.07181809,0.018319936,0.044658527,-0.08040856,0.014492547,-0.07306168,-0.022870611,-0.0063047004,0.015149894,0.01896097,0.033259366,-0.0275353,0.0014149898,0.029098913,-0.06339199,-0.06638591,-0.07481623,-0.07131771,0.04981412,-0.09088087,-0.054297335,-0.008512934,-0.012713639,-0.010612901,0.015072106,0.013939504,-0.050199777,-0.0060567968,-0.021439686,-0.087075315,-0.0824756,-0.04950748,-0.06310573,-0.046501126,0.06899676,-0.022252213,-0.03644656,-0.026858531,0.018399974,0.020570729,-0.063282564,-0.03565469,0.008700666,0.014248184,-0.083853364,0.030272588,-0.039456178,-0.050091363,-0.014574152,0.062351603,-0.029955227,-0.0152963055,0.044396482,-0.07136103,-0.057566404,0.06430931,-0.02626272,0.020824024,-0.06944545,-0.031199282,0.021476751,-0.09255749,0.06672752,0.021831833,0.075293794,-0.050387446,-0.024536392,0.025324564,0.013166084,0.03176658,-0.05698392,0.06385414,-0.06749554,-0.059364464,-0.0062843426,0.026516506,-0.0032933324,0.034176506,-0.08531919,-0.05765998,-0.06838768,0.022123119,0.004003898,0.023174917,0.060975637,0.072281666,0.08120593,-0.08954903,-0.07231282,-0.026744839,0.047323886,0.016109375,-0.0008215984,0.08595071,-0.004350052,0.053729944,-0.002694396,-0.014635034,-0.02794649,-0.01988863,0.034294054,0.052112974,0.06711041,-0.058670387,0.049776718,0.006537446,0.053391654,-0.0018600272
-0.0036588071,0.09966194,0.050277926,0.023053832,0.017358745,0.069174305,0.054660607,0.060133696,0.015639784,0.009984282,0.022302777,0.017071128,0.05364357,-0.017054591,0.018855924,0.06899813,0.06397274,-0.06219014,0.088912435,0.005435657,-0.0033445447,-0.062333632,0.06634518,0.007200729,-0.02757759,-0.061028015,0.080171905,0.026662638,0.04188272,0.009131074,-0.021217529,-0.053390123,-0.013348487,-0.029229207,-0.034131408,0.011612655,-0.027071187,-0.041744664,-0.007632771,0.058812425,-0.063635975,-0.05891029,-0.07220542,0.07579428,0.029601088,-0.045227025,-0.071368285,-0.038509812,0.008354407,-0.037948854,-0.025177782,0.03367956,0.0016677051,-0.0052893898,0.061328482,-0.016457152,0.0112693515,0.03322808,0.03095162,-0.038944967,0.045750864,0.04809414,0.07329593,0.017090062,0.017422736,0.015334927,-0.07452349,0.02526509,-0.06399147,0.033353098,-0.059848793,0.012139941,-0.011931934,0.026502434,0.0592828,-0.05849623,0.06330025,0.058405228,0.04190517,-0.054596163,0.08143746,-0.0541513,0.047865286,0.058231354,0.0598856,-0.0029956058,-0.09127488,0.016877007,0.04283113,0.00014734639,-0.06449192,-0.05272384,-0.041278355,-0.030154252,-0.007303902,0.010389774,0.036911447,-0.0081958,0.0045905896,0.06063879,0.06695916,-0.078709394,0.051514737,0.07217879,-0.04842032,0.04556398,-0.057905193,0.01374413,-0.0031004762,-0.05044066,-0.045629635,0.019093964,0.03984393,0.05767076,0.053111643,-0.012342214,0.05377873,0.021176057,0.05581966,0.07772789,-0.023104986,-0.00388571,0.00365523,0.0080243405,0.048972636,-0.066872306,0.020684399,0.073590085
-0.02059787,0.01550022,0.081859946,0.07581681,0.04888428,0.04480935,0.017686328,0.06947959,-0.012571095,0.016124107,-0.06870016,0.06058306,-0.052143138,0.07994365,0.042379238,-0.07610806,-0.019226328,-0.0002447093,0.06645676,0.062489685,0.010686423,0.05514757,0.069464825,0.037462693,-0.09832802,0.0017507278,-0.0002684462,0.04138412,-0.090746745,0.011233196,-0.061148945,0.07676133,-0.07553892,-0.07152508,-0.07088405,0.0650838,0.0029121817,0.060353823,0.008872179,0.012307922,-0.023914972,-0.055738427,-0.0036112547,-0.0137193715,0.024145441,0.040225595,-0.019962236,-0.03590017,-0.07964105,-0.010432296,0.061600477,-0.08983721,-0.06788403,0.027428659,0.060137447,-0.055155933,-0.07318059,0.021563495,-0.024206057,0.015747048,-0.03261739,-0.0828904,-0.08677281,0.068518616,0.018913284,-0.013742164,-0.02293717,0.047281872,-0.086601086,0.046760973,0.05246522,-0.05640054,0.05289465,-0.018185167,0.02180725,-0.058886684,-0.052586976,-0.019574145,0.022365563,-0.027575703,4.122012e-08,-0.05697621,0.06766971,0.023295214,-0.07401187,-0.035273124,0.06567706,0.07783658,-0.06567096,0.07436278,-0.08222376,0.048688486,-0.04162175,0.017983276,0.0530572,0.076275215,0.042098276,0.03519518,-0.010080663,-0.081708066,0.048478086,0.08393166,0.056466945,0.05655012,-0.07668594,-0.035215907,-0.041772854,0.00033602017,0.043604895,-0.06826642,-0.02685546,0.06008312,0.08409023,-0.06355813,0.06881136,0.07731592,0.057959706,-0.01589687,-0.015885111,-0.041392036,-0.07230199,-0.0043401932,-0.07158841,-0.08829951,-0.07129992,-0.07269046,-0.060006116,0.03135939
0.020077407,-0.03472802,-0.0485052,0.05474805,0.026921818,-0.07123287,-0.006245417,-0.06538128,0.027775357,0.012385124,-0.08092699,0.016928436,-0.063618496,0.03993227,0.00014557845,-0.033521697,0.0129805105,-0.00085058727,0.06327919,-0.064044826,0.0041844393,0.074441954,-0.08269385,0.0041002636,-0.03578748,-0.07776031,-0.022982242,0.061848305,0.030169917,-0.09332776,-0.060877915,0.06937099,0.023310576,0.07656976,-0.07790433,0.05365211,-0.041891217,0.024459315,0.05172969,0.021374518,-0.0729927,0.048488185,-0.042671353,0.01950725,-0.077760264,0.0044702,-0.07004282,0.047910195,0.03597975,0.011516795,0.009623111,-0.019164627,0.052640837,-0.060028464,0.020473102,0.0037682333,-0.07473346,0.065743774,-0.069751635,0.010087533,-0.04409063,0.050028782,0.06487797,0.0031145096,0.028946577,-0.02133812,-0.018827418,0.0064286278,0.0070896745,0.027530426,-0.032030977,0.059644707,0.023437137,-0.07171538,-0.07313921,0.06912785,-0.04979023,0.028168762,0.07598663,-0.059170906,0.05999309,-0.04838031,0.034444068,0.083292596,-0.052294195,0.06002949,-0.022931904,0.07330174,0.07476306,-0.05853639,0.05526537,-0.00092211773,-0.030350646,-0.03186285,0.04984186,-0.064311355,0.029400831,0.07548465,-0.0938949,0.052133963,-0.027807837,-0.033923067,-0.0001181068,-0.01941149,0.060124952,0.010943896,0.058282457,0.0786084,-0.03823829,0.051273208,-0.002633669,0.050960593,-0.015055787,0.0048795934,0.026048405,0.025832275,0.017012661,0.056127004,0.0021796694,0.026440114,-0.06273431,0.04898903,0.0499411,-0.033927705,-0.031797364,-0.07821216,-0.029829655,-0.005386527
0.062108666,0.05683972,0.082892425,-0.074878216,0.0022032678,0.042979073,0.08493616,0.049747027,0.003706325,-0.032995235,-0.044300918,0.015993606,-0.018610967,0.05784676,0.020582194,-0.027842617,0.053227972,-0.053100985,0.035001952,-0.0014365248,-0.044391967,-0.06181585,-0.057625808,0.035127494,-0.025527671,-0.05561785,0.05150189,-0.042558625,-0.062174212,-0.06413062,0.074917525,0.040146824,0.044128656,-0.02086419,0.06763626,0.07487166,-0.049275827,-0.009294889,-0.015321589,0.059094656,-0.065411896,-0.05179088,0.070460044,0.0882102,0.047570277,0.0034759017,-0.0062706876,-0.015424163,0.01026463,-0.042064264,0.06827068,-0.084790334,-0.062345024,0.05330813,-0.07376416,0.03535944,0.055255685,-0.024366189,-0.0356583,-0.012010458,-0.08536809,0.056546293,0.05143711,-0.01028492,-0.015644135,-0.021220822,0.006331834,-0.043468174,-0.053196456,0.0054788296,-0.083568215,0.04982919,0.031074598,-0.04240037,0.06007733,0.016659778,0.019573102,0.038862724,0.075745955,0.094863094,0.032038532,-0.027183782,0.037119027,-0.006842834,-0.04302227,-0.005275788,0.09427685,-0.035954602,0.077471815,-0.06636383,0.040212266,-0.028670248,0.023238601,0.04336431,0.080418974,0.02654399,0.013805307,0.055571813,0.09037893,-0.025159152,0.013312138,0.038365293,0.01886532,0.08272074,-0.01486412,0.08024965,0.008732593,0.037958067,0.05445845,-0.055203024,0.021659957,-0.06978481,0.046127692,-0.045986302,0.028755018,-0.0411037,0.024199132,-0.047324695,0.0670032,-0.05691716,-0.041652575,-0.060222235,-0.058314633,-0.014720556,0.0800636,-0.037830614,0.022147687,0.009364714
0.016144771,0.013819599,-0.08455204,-0.0012620734,0.061213523,0.047347266,0.008320531,-0.047011834,-0.006529878,0.07544558,-0.021608707,0.06691042,0.014431249,0.009369922,-0.06015409,0.0041419845,-0.0059917155,-0.001975162,-0.05510677,0.04494593,0.070142224,0.049634,-0.02106648,0.07483955,-0.027427755,-0.033363633,-0.028724637,0.036800966,-0.037230473,-0.0040328526,-0.073176585,0.029521974,-0.029822795,0.08160842,-0.006780904,-0.0748765,0.0726402,-0.058620837,0.029555298,0.083025135,-0.04520679,-0.0014913128,-0.011531556,0.0575858,-0.0707243,0.057888824,0.0016235298,-0.05318329,6.347458e-06,0.08293507,-0.080694936,0.0022499328,-0.048073977,-0.017014926,0.07891779,-0.07394128,0.05546544,0.006836789,-0.039341006,0.040023956,-0.057959333,-0.06208668,-0.028738568,-0.02651292,-0.083984874,0.016586322,0.10097167,-0.06704397,-0.08166663,-0.08805028,-0.062079977,0.07176765,0.013807848,-0.07786973,0.052374307,0.03457329,-0.08525909,-0.027133292,0.001064377,-0.060657445,0.017154694,-0.0020282317,0.02597536,-0.080787085,0.03625387,-0.052585073,-0.07687506,-2.2565868e-05,-0.029573904,-0.013222362,-0.0028724268,-0.015466757,-0.0494995,-0.04896194,-0.00829589,0.05288893,0.04961985,-0.046025757,0.027701188,-0.078017525,0.05634599,-0.080566674,0.054425173,-0.08686892,0.040139124,-0.033643045,-0.061056565,0.008226793,-0.07742363,-0.07317825,-0.052160636,-0.061032668,0.05695052,-0.017143177,-0.059172817,0.00068089156,-0.009363422,0.08161955,0.046675865,-0.059744712,0.079901874,0.09051653,-0.035327714,0.005595705,-0.015732443,-0.042731572,-0.047743518,-0.048841547
-0.024170518,0.058826458,-0.09093595,-0.06513821,-0.046263594,0.019601066,-0.03368204,0.050930098,-0.060869046,-0.07204528,0.0069591915,0.05534774,-0.076117374,0.081241556,0.071639925,0.022796772,0.06845806,-0.09362986,0.04349755,-0.05594734,0.01950777,-0.020218864,0.04457078,0.042940874,-0.03718757,0.006296513,-0.06641041,0.06776637,0.036846396,-0.012457571,-0.031293776,0.0039542546,0.040667497,0.07492489,-0.06907572,-0.03712586,0.030179208,-0.05937747,0.008827881,-0.018384852,-0.027114991,-0.09185951,0.030657561,-0.00023067609,-0.025886461,-0.046828754,0.04947885,-0.090836674,-0.080987476,0.027273245,-0.037409443,-0.054262836,0.0037902535,-0.08217945,0.06303272,0.00075003045,-0.023487171,-0.07259459,-0.06261335,0.07863708,0.06795022,-0.037591457,0.0650993,-0.03761003,-0.0042546536,0.06583549,-0.03854276,0.079806075,-0.066772714,0.04205777,-0.012755878,0.03293178,-0.07995477,-0.01922039,0.030537397,0.00023374807,-0.028149687,0.06925247,0.058062125,-0.018412318,0.015651919,-0.088650614,0.069021046,0.014945543,-0.0068978863,0.049141593,-0.077262536,-0.044676285,0.04381629,0.0023563923,0.057734005,0.031760518,-0.018178819,-0.011320845,0.046814002,0.032353982,0.041935433,0.08245307,0.04932372,-0.038786944,-0.0006941384,0.05358289,0.080998935,0.028868647,0.005636797,0.019263417,0.07952305,-0.043334547,0.0066450704,-0.08015657,-0.053949166,0.0131176915,-0.0012609921,-0.08269183,0.07455202,0.065197535,0.07604679,-0.057776615,-0.03186835,0.025067072,-0.032922234,0.016184354,0.0683156,-0.07374596,0.065245636,-0.08939293,-0.06663266,0.047236435
0.01010382,0.0038239057,0.0075373547,0.078416936,-0.044488195,-0.04446257,0.0485631,0.07040925,-0.04556535,0.058257017,-0.027734919,-0.068464905,0.005624124,-0.0053003924,-0.040702768,0.04210626,-0.04728928,-0.019223742,-0.052736536,0.06296924,0.06894742,0.009951323,0.041453775,0.03517314,-0.016999112,-0.0019583763,-0.0820523,0.050852202,0.057087455,-0.023682617,0.006700565,0.038912285,0.045541927,-0.029809996,0.025424773,-0.005485434,0.038079325,-0.039746147,0.054610506,-0.032654084,-0.016181763,0.05522404,-0.03453506,0.048536286,0.016882021,-0.055890698,0.026490347,0.06345497,0.028372956,0.0047100172,0.036127158,0.061726,0.06015932,-0.040988665,0.06560315,0.08287318,0.09580157,0.07483917,0.0046784305,-0.0006956698,0.0666778,-0.09024254,-0.044623684,0.044645667,0.01922054,-0.065133475,-0.019154714,0.0030412208,-0.05201174,0.038698904,0.033881713,0.050192095,0.02502917,0.036119528,-0.065787375,-0.0913427,-0.042749446,0.05612937,0.0701385,-0.0037845578,0.028713385,0.0026017663,-0.08583851,0.011506884,0.0072705243,-0.09213649,0.0134723075,0.029272975,-0.0050760778,0.0840326,0.08890687,-0.07027524,-0.010480538,0.03428997,-0.04262401,0.033628955,-0.037119243,-0.024630161,-0.018226914,0.047846217,-0.033716813,0.0688593,0.048039757,-0.03416088,0.059397094,-0.07796567,-0.058050137,0.0023258098,0.008074495,0.0076750303,-0.010552606,0.059311498,0.055057686,-0.0005350951,-0.01944822,0.026661467,-0.08591667,0.008826404,-0.076394945,0.02282264,-0.0021613876,-0.03094513,0.07189914,0.079723574,-0.0017413547,0.03375283,0.079013,-0.07125418
-0.03774814,0.021195117,-0.02464517,-0.06174916,0.056046266,-0.08140382,0.00082420703,-0.0025308914,0.068399854,-0.022477811,-0.0038417247,-0.011044044,-0.050469104,-0.068130046,0.0007226351,0.08866592,-0.022452036,-0.02532532,0.04164106,-0.07033063,-0.043524757,0.0034129913,0.021469528,-0.011294362,0.06431568,-0.046062328,-0.02155953,-0.0048400294,0.0090992125,0.059660893,0.048098788,0.06537241,-0.06788289,-0.043051776,0.038036313,0.00054001075,0.019640401,-0.048191186,-0.006452521,0.028775424,0.06121805,0.026970463,-0.063657895,0.008702744,-0.041315638,0.0031353498,-0.042816702,0.051299557,-0.025482947,-0.020313462,0.07191827,0.08936247,-0.01918594,0.07146648,-0.054800767,-0.049490765,0.048015475,0.04345761,-0.03709717,0.0128510175,0.041536074,-0.02197026,-0.016334727,0.0164355,-0.01686745,0.07606182,-0.07226594,0.010095173,0.08329636,-0.08076313,0.0630159,-0.06687565,-0.004751655,-0.051846422,0.07996412,-0.0034439485,-0.0016690057,0.040171526,0.03912741,-0.07161911,0.019017447,0.05319997,0.0707664,0.01691158,-0.043431703,0.028944548,0.026860636,0.05378084,0.050806664,0.042603515,-0.01314098,-0.03419152,-0.014917785,0.057204697,0.036624547,0.076841205,0.08971654,0.004056299,0.0021067404,0.06534159,0.020408394,0.016561622,0.044005096,0.071614675,-0.04603565,-0.031694647,0.012730478,-0.048802614,0.06685374,-0.06482771,0.0074996594,0.059247278,0.042338032,0.0440264,0.0835791,-0.057127923,0.017379183,0.05658207,-0.053509016,0.017702362,0.08036951,0.030569777,0.0019276877,-0.089289814,0.07448199,-0.078343876,0.028692199,0.06270645
-0.090430275,-0.0206448,0.029089086,-0.050804157,-0.026324265,0.022545675,-0.091693595,-0.044713914,0.037339304,0.070316486,-0.022097595,-0.035336822,-0.076244116,0.07150407,-0.08448121,-0.07573527,-0.0013591074,-0.04916873,0.037964508,0.0740514,-0.0089412555,0.028667156,0.006706012,-0.008063316,0.0481812,0.03784982,-0.06058986,0.010033668,-0.08907224,-0.08581611,-0.016165772,0.04906418,-0.05476712,-0.038337346,0.073594965,-0.0654045,-0.03511154,0.007340728,0.03226095,-0.02735465,0.061821926,-0.030134613,0.06690977,0.036540143,-0.03171396,-0.06114648,-0.075950116,0.0047425507,0.07734535,0.0023259579,0.02891005,0.07484327,0.05493774,0.027531222,0.016391959,0.05856654,0.005177571,0.009331925,-0.02936841,0.0027396919,-0.03807236,0.060583312,-0.0049830824,0.027654786,-0.06767589,-0.07770547,0.050361928,-0.0061847754,-0.009323382,-0.06371299,0.039538644,0.06793618,-0.08056159,-0.06961542,0.029132202,0.017927144,0.047406934,0.085720666,-0.027530557,0.025815377,0.006541104,0.023158528,-0.0491925,0.0011551213,-0.029045295,-0.07487859,-0.092365615,0.027993962,0.06801151,0.06339175,-0.0675927,0.06840474,0.052960962,-0.014956332,-0.088578194,-0.0870262,0.095471255,0.054693956,0.013285184,-0.018798523,-0.026504505,0.077243425,0.052290514,0.049437687,0.04775733,0.05825418,0.061215173,-0.055580392,-0.063916415,-0.040164594,-0.051665016,0.07360676,-0.03174789,0.06809872,0.03360061,0.06560532,-0.06924628,-0.09137108,-0.021298489,0.0028048132,0.06306283,-0.06604751,-0.06888275,-0.08131949,-0.08021761,0.018624315,-0.03179214,-0.09280813
-0.074534476,0.037531193,0.062017877,-0.027137654,0.047410335,0.04739439,-0.009936982,0.037530288,-0.06021573,-0.024447443,0.07264084,0.0518626,0.042759288,0.044536103,-0.047411624,0.06821738,-0.0075826147,0.033344995,0.032569375,0.077369675,-0.025545541,-0.016557852,-0.10191386,-0.08439056,-0.012942967,0.008246552,-0.07786996,-0.080942586,0.004238366,-0.036335453,-0.07672731,0.027951427,0.06444901,0.009477328,-0.021251284,0.006330802,-0.03580281,-0.05897379,0.019571614,-0.012178572,-0.07585919,-0.09386837,-0.00075048814,-0.03152646,-0.03314404,-0.03547848,-0.031767726,0.075818755,-0.06815168,0.05354976,0.02550647,-0.033871777,-0.06363623,0.07064582,-0.089484,-0.023612471,0.0149438735,-0.035502434,0.0022612554,-0.037759095,-0.09525765,-0.048206072,-0.04693456,-0.041193105,-0.037887868,-0.03567013,0.0705746,0.019309374,0.084195234,0.047401633,0.01811875,0.019614745,-0.04334914,0.05161218,0.07203286,-0.017495994,0.063975014,-0.011191096,0.05484186,-0.014295827,0.036865078,-0.026475633,-0.05537689,-0.08006658,-0.067982234,0.0259812,-0.0729129,-0.0796044,0.029630698,-0.08936041,0.036366455,0.043258056,0.01079108,-0.022288138,-0.09142552,-0.09283293,-0.0032549733,-0.07237015,-0.04452569,-0.0003903773,0.0117917955,0.06905278,-0.062463053,-0.03933242,-0.041371357,-0.08834847,0.0775889,-0.030281281,-0.03269716,-0.08459718,-0.007978612,-0.06749151,-0.025519704,0.03252548,-0.04367849,-0.029812858,0.03576049,-0.0065695816,-0.053929277,0.06359799,-0.042499233,-0.05724046,0.030126115,-0.09339177,0.0031194438,-0.05652497,-0.06642586,0.012908065
0.06438366,0.05571044,0.028113233,-0.06464728,-0.03785215,0.036342032,0.011221729,0.0029184816,0.06743386,-0.06235996,0.07162102,0.036326483,-0.05419412,-0.04432655,-0.046415795,-0.06951582,0.042648442,-0.03726011,0.05954965,-0.018473422,-0.014141452,9.052512e-05,0.059220944,0.051117077,0.050979014,0.02344244,-0.05813611,-0.027325336,-0.06531974,0.043718264,-0.0551396,-0.04221392,-0.06886618,-0.0799465,-0.062659934,-0.093136236,-0.028121805,-0.08635338,0.013741083,0.068608895,0.05040283,0.005809806,-0.018020403,-0.046116065,0.033655204,0.057318617,-0.01326409,0.014972791,0.06469414,-0.032326013,0.021061083,-0.020619046,-0.010346647,-0.038180724,-0.00022802684,-0.037656967,0.038220875,-0.08251517,-0.033645958,0.049419083,0.044245414,-0.0059950924,-0.013429759,-0.04157962,-0.045596812,-0.017414367,-0.047882877,0.050760355,-0.04227992,-0.0944707,-0.0473359,0.041244864,-0.07416661,-0.08148768,0.060942814,0.005942768,0.026147109,-0.051317055,-0.046208683,-0.082535505,0.0404604,0.035633374,0.028015863,-0.092972554,-0.03657229,-0.042706653,0.066691235,0.0657947,-0.07275988,0.016437756,0.008051952,-0.04110041,0.019420417,-0.03953126,-0.051596094,-0.0881152,0.019145258,-0.002908728,0.05078325,0.041974638,0.0427059,-0.0890647,0.015873674,-0.08469265,-0.019417925,0.073638216,0.058588896,-0.011063081,0.024806619,0.023777116,0.05310115,-0.0899646,-0.044293296,0.00092300226,0.016274834,-0.06343867,-0.023484644,-0.0021636032,-0.04002946,-0.035500932,0.043952987,0.024404144,0.04628693,-0.09109276,0.03303846,-0.03796926,-0.014553728,-0.09474037
-0.016893404,-0.013327559,-0.06119417,-0.07592392,0.019380037,-0.05313337,-0.018278806,-0.050501946,0.0097407,0.027538473,-0.013477268,0.06669921,0.04664993,0.012861607,-0.0075252983,-0.002298862,0.028281827,0.0020179485,0.06128272,0.023380216,0.012616222,0.05250688,-0.03576544,0.06524534,-0.071772896,-0.011930719,-0.014579744,0.045601893,-0.056051593,-0.011165005,-0.0017652262,-0.06266026,0.038113058,0.037099473,-0.049649186,-0.025753668,-0.08098525,-0.027586052,0.03864843,0.050142106,-0.049394187,0.016165944,-0.07422841,-0.00075373077,0.016286194,-0.049345598,-0.0048286654,0.05838368,0.00029774758,0.07181955,-0.03907625,0.064102605,0.0011355968,0.049470887,0.061230067,-0.033981256,-0.090644695,-0.07277656,0.035021532,0.001771885,-0.024852611,0.040677402,-0.08023345,0.03945519,-0.07201939,0.064521775,0.033700272,0.05704122,-0.04954497,-0.03046429,-0.006642031,0.049041122,0.071232915,-0.06469736,-0.0828244,0.008827522,-0.0049428972,0.015763592,-0.074124515,-0.08989712,0.074214816,0.039793044,0.063167885,0.0136615,0.047240265,-0.015931977,-0.018443352,0.072020926,0.033958465,-0.017153528,-0.06365658,0.060239784,-0.023818247,0.04036798,-0.0068682046,0.020746212,-0.015361324,0.006280846,0.048036754,0.028992584,0.054447852,0.0004429201,0.052224614,0.015341986,-0.019985188,-0.09146655,0.021115098,0.021012792,-0.008043795,-0.021937974,-0.069643974,0.038899586,-0.05109527,-0.06556339,-0.07540074,-0.065939575,0.0028382624,0.0145995775,-0.00055344263,-0.071514316,-0.020114487,-0.01914092,-0.07184341,0.071492285,-0.06966057,-0.031202016,-0.078927554,-0.079620205
