0.051991116,-2.2748836e-05,-0.012187188,0.04458906,0.018746339,0.045063205,-0.04216298,0.029746491,0.052321855,-0.009604958,0.018450491,-0.089538924,-0.025815243,-0.064318635,-0.033941943,-0.013309439,-0.06349635,-0.08906539,-0.06998128,-0.073202655,-0.0038003398,0.0345765,-0.047326706,-0.076666646,-0.08241571,-0.027224386,-0.02884192,0.0029491354,0.07227182,0.059329003,-0.019819176,0.01846311,0.011478875,-0.038729873,0.039880317,-0.0557232,-0.08079908,0.052015178,-0.08841201,-0.017852599,0.013004925,0.021462291,-0.06267738,-0.08451287,-0.028302692,-0.064360306,-0.08791251,-0.035204664,0.058329914,0.050717283,-0.09244589,-0.042417023,-0.08072363,-0.08729196,0.04587777,0.045535013,-0.06961732,0.05020729,-0.021883685,0.06266355,0.018962301,-0.017868694,-0.02242959,0.015807396,0.022615755,0.017980637,-0.018731253,-0.06726316,0.06183965,-0.059504002,-0.022468032,-0.021065893,-0.0393605,0.032978944,-0.004210521,0.004997746,0.019068215,0.05230354,-0.07680074,-0.07703608,-0.083518125,0.05645968,-0.04184765,-0.070685424,0.07092093,0.006351312,-0.0010183532,-0.048738968,-0.064299665,-0.0019142854,-0.06686779,0.065711215,-0.0005259096,0.04865642,0.034893066,-0.017668353,-0.020145934,0.023451762,-0.033927683,0.05324479,-0.039906047,-0.0872615,0.032753658,-0.03850193,-0.016432345,-0.018268619,0.04137406,-0.0472519,-0.03317053,-0.083431676,0.0028409215,0.0026866049,-0.041890424,0.023677504,0.05304979,-0.07073403,-0.07660874,0.030816346,-0.094243206,0.0072076963,0.009480878,0.027023766,-0.039521985,-0.013625252,-0.009918082,-0.054260835,-0.061427847,0.009207612
0.07189969,-0.03316184,-0.06472202,-0.09064418,-0.054750707,-0.07412564,0.019190716,0.0058709467,-0.050446756,-0.013877108,0.040652648,-0.05630537,-0.024490165,-0.041433357,-0.08023859,0.066724956,-0.02808778,-0.0039125355,0.051500186,0.021141347,-0.08828428,-0.08193742,-0.042468045,-0.057883047,-0.06919415,-0.07251736,-0.02010139,-0.08207176,0.0530907,-0.009474123,0.08187938,0.04950261,0.057682097,-0.09590933,0.06269791,-0.046971958,0.088374436,-0.038232163,-0.03472998,0.06909849,-0.03414451,-0.09029131,-0.01661833,-0.07330831,0.023144353,-0.017702848,0.005084699,-0.035941835,-0.026857143,0.0824767,-0.0024166317,-0.038839363,0.017248627,0.07250445,-0.07522607,-0.07928954,0.051459566,-0.057467714,0.006986792,-0.05210054,0.077147976,-0.06318088,-0.09200121,0.002878861,0.08345259,-0.079685606,0.02486045,0.08371823,-0.06269425,-0.08225543,-0.0816953,-0.063237764,-0.012275516,0.0476928,-0.04089034,0.041911613,-0.02043229,0.087564945,0.029057756,0.017004114,-0.040841676,0.047639433,-0.06369508,-0.036750957,-0.037445188,0.047594264,-0.047693692,0.055256948,-0.053357057,-0.07833151,0.06894836,-0.030551244,-0.04190895,0.08572334,-0.03491078,-0.0023816356,-0.052559823,0.032148074,-0.02718282,-0.004746068,0.04773186,0.051781543,0.02570973,0.038576633,0.04867428,0.0509525,-0.0118661355,0.06137292,-0.03240396,-0.056052893,-0.08201437,-0.019185727,-0.011877829,-0.030787423,0.07751555,0.04168835,0.07491321,-0.007666565,-0.08530487,0.027232533,0.071034916,-0.07291624,-0.05757439,0.014637953,0.08107886,-0.040444594,-0.06694519,0.021620695
0.012777825,-0.065737344,-0.011618715,0.05116705,0.056207906,0.040724274,0.031269964,-0.014475267,-0.08190653,-0.022597788,-0.07698854,-0.08634813,-0.021574594,-0.03624971,0.060110804,0.011467071,-0.050026737,-0.086320445,0.02047524,0.060954142,0.011516946,0.0072326427,-0.015097965,-0.07553738,-0.038914975,0.012979202,-0.025806624,-0.08747143,0.07662671,0.06405565,0.037670128,0.0025386573,0.008871916,-0.010378157,-0.054903686,0.04024031,-0.0048956187,-0.04551877,-0.042624917,-0.082200244,0.07661695,0.05112686,-0.012151874,0.04107817,-0.03763538,0.07913093,-0.019614886,-0.07271197,0.049846273,-0.050866503,0.033126984,0.06860556,0.0380276,0.079903744,0.08176503,0.05265557,-0.06261596,-0.051000103,-0.06921599,0.05078129,-0.047722198,-0.10182648,-0.03207256,-0.024764769,-0.00094767136,-0.096068524,-0.016051793,0.047646295,0.009648011,0.030313337,0.061888237,-0.097975865,0.07286681,-0.04234887,0.02010206,-0.04820775,-0.051713042,0.045331147,-0.04025081,0.0057148538,-0.014361577,-0.071937844,0.033768184,0.041330542,-0.016285634,-0.009463193,0.08069274,0.061969936,0.06375701,0.033813726,0.07553691,-0.0062442776,-0.04669575,0.050962586,-0.014748239,0.058856692,0.019255929,0.018105052,-0.074796826,-0.024631971,-0.08124404,0.017214194,-0.06926893,0.014276209,-0.07034421,-0.044515584,-0.03233703,0.07359922,0.032774284,0.0027175215,-0.072143644,-0.020607067,-0.00032637565,-0.08388657,-0.016228698,0.025244357,0.04456879,0.04715572,-0.06885011,-0.08579543,-0.017614104,0.055940796,-0.03974416,-0.055399828,-0.052742507,0.028160755,0.010252594,-0.0003088971
-0.05226095,0.07395636,0.053188488,-0.05969825,0.012814921,0.016478192,-0.056733716,0.0100226905,0.0025399816,-0.078016356,0.06563634,-0.06894751,-0.07097729,0.052701417,-0.050948408,0.028077738,0.059580065,-0.017835312,0.0006034187,-0.0688886,0.015929108,0.05724368,0.018753858,-0.08522302,-0.037524663,-0.038553443,-0.043476015,0.07005123,-0.0042389147,-0.08571996,-0.07277386,-0.03598608,-0.08925258,0.045333326,-0.055258878,0.06868784,0.05385115,0.05455992,0.0005942075,0.06731635,0.044987634,0.03752335,-0.03786558,0.00864351,0.04412433,0.07539565,-0.03275463,0.031064913,-0.022209657,0.03085531,0.063694656,0.06739398,0.031926583,0.07406189,-0.019621365,0.06128469,-0.013867739,-0.06296229,0.045408405,-0.00631829,-0.096468635,-0.102434486,-0.072891764,0.046721715,0.044398736,-0.05807841,0.024544284,0.047975577,0.046913173,0.035877284,0.04073108,-0.044190504,0.036749817,-0.021302719,-0.02655204,0.021440398,-0.05195033,0.02715008,-0.0151252225,-0.07967885,0.05776212,0.004491247,0.02891294,-0.004310611,-0.09447306,-0.034821376,0.023550708,-0.07606771,-0.06818448,-0.070513435,-0.03472793,-0.017174708,-0.038628697,0.08075791,0.02320591,-0.07800926,-0.027870417,0.04490692,0.019633785,0.02078925,0.052695535,-0.055085555,0.012912666,0.011103239,-0.045468282,-0.025049308,0.02842396,0.0049435995,0.07550618,0.027843539,-0.022971971,0.056336474,-0.011303693,-0.05942054,-0.08608602,0.049815886,-0.0688821,0.033697728,-0.06555756,0.016579283,-0.0886976,-0.038071614,0.022785023,-0.0818947,-0.013114961,-0.033116337,-0.038277052,-0.024381014
0.053951155,0.0347773,0.024306752,0.06966058,-0.05882721,-0.060374554,-0.0065030395,-0.03506745,-0.082168706,-0.06591085,0.02900207,-0.030212738,0.061788138,0.04169843,0.065659516,-0.046130683,0.07665592,-0.064763024,-0.027078848,-0.057274435,-0.0572145,-0.040774964,-0.078597665,0.020973152,0.008555264,0.017080154,-0.03320228,0.009590952,0.038618095,0.074123144,0.064195074,-0.078638345,-0.0074597504,-0.0154455155,-0.028822023,-0.0029497354,-0.08774388,0.027904792,-0.0062683956,0.011297139,0.05157192,-0.0018177666,0.010261007,0.007220493,-0.03346201,0.0023542333,-0.08848057,-0.010214894,-0.04130347,-0.008296204,-0.08083861,-0.03662261,-0.08216424,-0.09432368,-0.09031943,-0.0054025226,-0.015502615,-0.07131349,-0.015734928,-0.049960133,-0.010943754,-0.069433056,-0.029650195,0.049684793,0.03273426,0.009265965,-0.037416045,-0.06935216,0.008822517,0.026272058,0.02836917,0.0020127739,-0.031306934,-0.03748672,0.029693328,0.010926644,0.017353196,0.037380513,0.07547496,-0.05600958,-0.085508406,-0.035761196,-0.025860487,0.0748081,-0.08412214,-0.07064005,0.033786323,-0.0576992,-0.0036107718,-0.07720778,0.049126413,0.034717374,-0.06481188,-0.07772609,-0.039248824,0.07184406,0.062900566,-0.08276149,0.036490705,-0.036547624,0.0316384,-0.032103095,-0.005265447,-0.049236033,0.002945381,0.008174226,0.04849701,0.07321706,-0.07931936,0.0013091587,-0.014200904,-0.0607791,0.019222612,0.07811286,0.016878197,-0.011605008,-0.017419668,0.029615529,0.012752875,-0.010938342,-0.07941041,0.0108886985,0.0385326,-0.016992316,-0.04755518,0.038131744,0.0009359624,-0.07747641
-0.077117145,-0.03865077,-0.051756453,-0.0015898683,0.07411364,0.074066386,-0.046602856,-0.03765971,-0.0031691052,0.011030078,-0.08378543,0.061616253,0.06774966,-0.09351079,0.0068740062,-0.017146569,0.029289551,0.03270402,-0.054532547,-0.03222292,-0.06687445,-0.03951544,0.050965555,0.0040036794,-0.06918894,-0.090613574,0.029021382,-0.09130371,0.07614664,-0.001842786,0.076255314,0.040845748,-0.014544295,-0.06579419,0.030819945,-0.07852114,-0.03436011,0.031573705,-0.0806022,-0.06814991,-0.050943557,-0.08211192,0.036024712,0.0581701,0.080796674,-0.029657863,-0.03452707,0.024280977,-0.027656248,-0.09906195,-0.030994186,0.06348791,0.009782838,-0.05016167,-0.002711355,-0.014395251,-0.010931762,-0.01725938,-0.036784988,0.008754942,-0.025278253,-0.028719977,-0.007654958,0.04194848,-0.044807352,0.008856534,0.008061539,-0.034551606,0.022377992,-0.021961417,-0.00060197664,-0.09047781,-0.07807749,0.064455464,-0.06661075,-0.044429515,-0.03027925,-0.051071767,0.029289851,0.053196825,0.011517261,0.07362829,0.031113429,0.0639951,0.016683612,-0.06576691,0.062003255,-0.028973866,0.01266321,-0.0053145527,0.06854915,-0.011407257,-0.030545024,0.04867386,-0.013086999,0.038356047,-0.059068326,-0.075593226,-0.023943853,-0.06966183,-0.074983336,-0.07337258,0.05194153,0.02678042,0.0395755,-0.05527375,-0.05654237,-0.0047590556,-0.053783853,-0.05061236,-0.01336773,0.06753141,-0.08722676,-0.03241675,0.08168356,-0.04567527,0.07174792,0.053408366,0.035961602,0.022566989,-0.036657494,-0.06691016,0.0063848835,0.029198065,0.019461017,0.021480693,0.08361953,0.010753794
-0.06789083,-0.07649252,-0.025876075,-0.043312874,-0.038235657,0.04637612,0.07249118,-0.0054245354,-0.015648054,0.058546484,-0.02369939,-0.091509104,-0.06965339,0.009573123,-0.047425658,0.0034546452,-0.086485356,0.04004352,0.015956458,-0.038783688,0.056819633,-0.043507647,0.031311885,0.06787444,-0.06293266,-0.036703292,0.027202634,-0.010733216,-0.045508847,0.03278388,0.01809842,0.02297558,0.061254025,-0.028334344,-0.040648736,0.0016689643,0.037627384,0.05415724,0.009922078,-0.09163723,0.0085288305,-0.055615354,-0.009454472,0.060877096,-0.08481932,0.01476225,-0.0018998656,-0.082653165,-0.09177129,0.037360583,0.018278135,0.05143178,-0.075146444,0.022763448,-0.08290947,-0.08551658,0.047988176,0.069765985,-0.03814673,-0.038123332,0.039241582,-0.0046135425,0.0660666,0.05894292,0.07991405,0.0064750263,-0.051624343,0.013993913,-0.09051802,0.03985748,-0.02292974,-0.0732262,0.046365276,-0.009013253,0.0046212003,-0.08144821,-0.046572212,-0.020278394,-0.07615311,0.008629887,0.06813307,0.07200871,0.04301304,0.079577655,-0.07840787,-0.024792757,-0.009575661,0.01103118,0.053182174,-0.03713076,-0.057079144,0.02202937,0.057617906,-0.04975881,-0.06714012,0.0118658235,-0.037785076,-0.034738325,0.06025613,0.0068309275,0.051720377,-0.07933236,0.07769176,-0.035902385,0.0032784329,0.060760085,-0.08257345,-0.04700342,0.043588296,0.0561318,0.039727677,0.02635995,-0.06596603,-0.03331563,-0.09095839,-0.05522731,-0.06753103,0.04114137,0.04388079,-0.028677354,0.0032360738,0.0212629,0.032084085,0.05254072,-0.017393816,0.0053387852,-0.08856883,-0.03793722
0.031286623,-0.0635356,0.026287511,0.060033683,-0.07559238,0.07635649,0.045568287,0.008915043,-0.09082899,-0.08495197,0.03261484,-0.08589682,0.074191004,0.008658711,0.0010591119,0.03400978,0.043382935,0.017002,-0.064214416,-0.050120544,-0.08440869,0.07410533,-0.02169326,0.076299116,0.005252233,-0.04880132,0.017098462,0.036726266,-0.007873668,0.04386003,0.0576367,-0.074855804,-0.05379215,-0.066483475,-0.012795236,-0.09699696,-0.0116020655,-0.083534166,-0.018732686,-0.07887957,-0.033850938,-0.071339056,-0.05551705,-0.08400131,-0.051478896,0.0035585405,0.030423699,0.0054698195,-0.031766504,-0.076136105,0.08661045,0.03950095,0.013378349,0.040217835,-0.026364248,0.028049111,0.008828757,0.07425575,-0.066343084,-0.023980005,-0.029947912,0.043616235,-0.07946701,-0.059862763,0.05889717,-0.0876855,0.049178913,-0.0863925,0.041788507,-0.07699243,0.006161704,-0.09546411,-0.046021726,0.014154102,0.08151305,-0.0072670747,0.04560495,0.050108843,0.035250824,0.07310149,0.06110089,-0.06715207,-0.097882815,-0.08304278,-0.08431849,-0.049744397,0.063848495,0.05411948,0.00089761696,-0.0799329,-0.040718663,-0.089020856,-0.050201446,0.05380381,-0.043396153,0.03094874,-0.039117422,0.07203543,-0.07185906,0.029982362,-0.029173467,0.00026517257,-0.00656449,-0.027210236,0.03845114,-0.03589381,0.038195577,-0.0007159133,0.0193454,0.06554288,-0.09356592,0.0008338552,-0.085151635,-0.055711698,-0.075124994,0.019508999,-0.055101883,0.0064755483,0.029414976,0.013165095,0.019157054,-0.03371043,-0.06357822,-0.0063334433,0.06908271,-0.03435298,-0.048451185,0.006950034
-0.007767215,-0.0656039,0.04380128,0.0036994184,-0.066722065,-0.00766867,0.008902537,-0.067457296,0.07658266,-0.035276465,-0.045029525,-0.033266798,-0.06730937,0.04877362,-0.044471674,-0.021221016,0.059047736,-0.08420723,0.031398155,0.025298752,-0.02156656,-0.08979591,0.021835662,0.032187305,0.0068728444,-0.03457365,-0.020768622,-0.021700857,-0.07048319,-0.00427959,0.06973852,0.04897942,0.013262628,-0.0633389,-0.043467037,-0.066647425,-0.003614016,0.030898714,0.052842665,-0.09298018,0.07767331,0.022737551,-0.06104658,0.070551924,0.09792794,0.07781589,0.035450976,-0.026646303,0.07401226,-0.07065391,0.039117604,0.043435343,0.02011943,0.017190376,0.07500488,-0.0229538,-0.0107090585,0.06833293,-0.0461997,0.023627494,0.003877155,-0.045126442,-0.0054531093,0.03614484,-0.033070225,-0.042618897,-0.02793933,0.067974806,-0.011868043,-0.049387667,-0.033226192,-0.0641804,-0.033999197,0.01248384,-0.030588536,-0.008681459,0.03376617,-0.057392593,-0.057864487,0.084748164,0.051118173,0.04246656,0.017758964,0.08754291,-0.019584285,0.1133127,0.06831146,-0.008981716,0.001923654,-0.07432632,0.076202385,-0.060138315,0.05270646,0.005875967,-0.07959692,0.02004053,-0.055839792,0.093931735,-0.01634007,0.06559159,0.055053696,0.0008682257,-0.073195525,0.06664732,-0.031328775,0.07839119,-0.06968165,0.075538374,0.07656942,0.0756618,0.034964446,-0.059279267,-0.039097644,0.015025271,-0.013868283,-0.055560987,0.0008018267,0.02851193,0.0074796667,0.029034652,-0.005179974,-0.0076288483,-0.06399237,-0.057235077,-0.012531299,0.025225492,-0.053972613,-0.048648886
0.036890592,-0.06137925,0.024079984,-0.05751707,-0.008598178,0.058384538,-0.022235679,-0.008383524,-0.08653375,-0.07949288,-0.048742853,0.0695001,0.044763014,-0.067096554,-0.047448486,-0.06295306,-0.08539456,-0.02916061,-0.06800568,0.010755738,-0.0760929,-0.08307493,-0.021102486,-0.074583635,-0.04591219,-0.09113202,-0.091391005,-0.06387612,-0.08627623,-0.025009476,0.0013524576,0.01585514,0.08234741,0.012970193,-0.028629476,0.062654555,-0.01979423,0.025521409,0.04053239,-0.02669225,0.05150171,0.052575275,-0.07131366,-0.018187003,-0.035012614,-0.05712762,-1.8436014e-05,-0.040819004,-0.024438968,-0.036247324,-0.08804671,-0.09086209,-0.04564698,-0.08221579,0.07419566,-0.04236651,-0.0176537,-0.0032376947,-0.06762355,0.016213525,-0.09011624,-0.05780267,0.060341466,0.06465569,-0.004439512,-0.092103094,-0.08023242,0.022005128,-0.09203693,0.021585362,-0.029218188,0.024415812,-0.061941657,-0.088635825,-0.041230686,0.0064068446,-0.052967016,0.038817972,-0.027369002,0.048917543,0.05316449,0.07235164,-0.0700037,-0.087092414,-0.070313185,-0.056632966,0.07737776,-0.006513135,0.031982113,0.043631755,-0.04460719,-0.021383096,-0.08143591,0.038251296,0.04525502,0.0075333617,0.049672805,-0.050964758,0.026890567,-0.063376956,-0.0727873,0.03725432,-0.08257295,-0.007371386,0.020224439,-0.013039687,0.008408363,-0.073057644,-0.07083354,-0.06090205,-0.03938401,0.024302898,-0.031763926,0.030482458,0.063128345,0.01113296,-0.02794853,-0.008557038,-0.072137214,0.06123798,-0.07606414,-0.039628416,-0.06231395,-0.05570987,0.040329922,0.058702894,-0.09822658,-0.014167913
-0.029253757,-0.028889993,0.070436314,-0.039087214,-0.07508243,-0.072101794,-0.0891284,-0.029963307,-0.022469178,0.011560724,-0.05036163,0.021231588,-0.092590734,0.044564016,-0.053012833,0.00018583392,0.019756364,-0.008966792,-0.00085386407,-0.061557792,-0.030231,-0.06748666,0.067700714,-0.011205057,-0.025473222,-0.06644054,-0.05843126,-0.020219602,0.051766835,-0.05962609,0.049374916,0.086556956,-0.08113911,0.014082992,-0.035908304,0.004256973,-0.082850516,-0.010425219,-0.055147033,0.016747389,0.03818327,-0.036091026,-0.052343078,0.050734155,-0.07673483,-0.050754122,0.069333635,0.018979805,-0.05929353,-0.060313642,0.028184555,0.014028983,-0.020938814,-0.014588908,0.042613443,0.023908528,-0.013541437,0.0021669255,0.059201606,0.07377793,0.036574233,-0.077900544,-0.075751,0.016349858,0.08049236,0.053317107,-0.016134657,0.034615252,0.051216356,-0.07631611,0.01579811,0.055235796,-0.053294446,-0.025501512,0.03475534,0.05196614,0.058601666,-0.0641429,0.001045894,0.017128516,-0.010785251,-0.041592363,-0.056979224,0.08832494,0.042366154,-0.04497542,0.009523419,0.038679585,-0.05987819,-0.059803758,0.059748203,0.00740905,-0.086426914,-0.040977776,0.041836474,-0.03903436,0.01654522,0.06880494,-0.059162363,-0.06501736,0.09552416,0.05843642,-0.008491953,-0.024675302,0.059749056,0.07625962,0.0089809,0.010791676,-0.05635688,0.057435825,-0.0065468624,-0.009511388,-0.088733144,0.049578186,-0.014720478,-0.051447086,-0.08456275,-0.029908752,-0.027453862,-0.019795753,-0.085792504,0.055319343,-0.05890468,0.052788507,0.04111837,0.04412136,-0.0010295531,0.007756109
0.029704513,-0.01639663,-0.031445973,-0.016365647,0.06693991,0.038185067,0.039107632,-0.0688884,-0.055420347,0.023260811,-0.019949308,-0.023977596,0.03338458,-0.075250134,-0.06433977,-0.057830762,0.024166202,0.0650096,-0.04554859,0.042188764,0.044908747,0.068691105,0.039564375,0.055246778,0.034869596,-0.0155149195,-0.055293627,-0.0018469556,-0.046809793,-0.007889562,-0.02095805,-0.0876599,0.035126567,-0.013202511,-0.00086131867,0.0079197595,0.073392875,-0.04291839,0.019806912,0.04274368,-0.09143676,0.020095266,0.049356256,-0.044071674,0.05352579,0.061350424,0.017726414,-0.002718328,0.0037131594,-0.08691077,-0.02355869,0.045353908,0.010174046,0.033994377,-0.0858773,-0.01833466,-0.013393662,0.029004017,-0.0042893304,-0.026185112,-0.05421713,-0.085541666,0.016617585,0.03483934,0.060035124,-0.006602657,-0.032082606,-0.020478265,0.07143121,-0.0010738868,0.060847472,0.010834084,0.07995853,-0.0051889787,0.028210774,-0.002247723,-0.085936315,-0.06161329,0.03601002,-0.031691927,-0.030114794,0.05531178,-0.046421465,-0.022541486,0.0014424606,0.010740562,0.04891484,-0.05864329,0.032074813,0.015935034,-0.04927969,0.077969596,-0.044360466,0.07275823,-0.010670123,-0.023003213,-0.030843662,-0.016751826,-0.03710509,-0.040436335,0.012969045,0.021754125,0.012858566,0.034697272,0.071837135,0.05959928,-0.06850605,0.019542,-0.08140744,0.06400533,-0.07644131,0.069425054,0.029643068,-0.047953624,-0.0863374,0.02276946,-0.08756776,-0.07709878,-0.04962154,0.022217771,-0.04940258,-0.011757961,-0.070100196,0.07143351,0.048791636,0.00602393,0.06747366,0.01744488
-0.026678564,0.05140729,-0.07382724,-0.05682715,0.021856844,0.07349129,-0.041387502,0.049267266,0.06623006,0.020142613,0.023995336,0.007901181,-0.033437155,0.030372689,0.041660298,0.033616465,0.010728701,0.08154837,0.04529713,0.06956023,-0.022705173,0.034314632,0.006870208,-0.084128015,-0.09303549,0.041881274,-0.017252535,-0.07346529,-0.019287094,-0.0010722524,0.06185307,0.069926135,-0.0795851,0.04229352,0.06119952,0.05485534,0.04279005,0.05296546,0.053810187,-0.05244477,-0.031915013,-0.075344466,-0.07618237,-0.092370324,-0.090658665,0.015437567,-0.09966578,0.05313701,-0.06378455,-0.022923362,0.03549523,-0.06321326,0.030670006,0.04505551,-0.04129086,-0.08539745,0.02626553,-0.04265181,-0.05954619,-0.05151428,0.058365833,-0.056829907,0.021759557,-0.08451788,-0.015172846,-0.019712137,0.0035347154,0.024055306,-0.08145256,-0.038399808,0.07950287,-0.061658114,-0.009100332,0.062616125,0.026289942,0.06633144,0.011692564,0.07805697,0.04788651,-0.014130521,0.009539687,-0.027552782,-0.0970198,0.065118894,-0.07483714,-0.0128009105,-0.084701635,-0.07983907,0.006697769,-0.033078704,-0.061967865,0.028239314,0.034560576,-0.051648606,-0.0051741325,0.0040269806,0.055029053,-0.050287344,-0.08798053,-0.073641926,0.05259249,0.054558773,0.0035711378,0.076107465,-0.0712274,-0.06858558,-0.07318395,-0.02464362,0.003799283,0.03559519,-0.07211819,0.06131274,0.024278577,-0.028453,-0.0004946318,-0.007225803,0.06369724,-0.0010371092,-0.0824901,-0.005420551,-0.04929191,-0.08253642,0.015811555,-0.040191308,-0.07182535,-0.0144122625,0.05597225,-0.053521328
-0.05655349,0.06519246,-0.08503055,-0.09251105,0.06861441,-0.030643556,0.015401549,-0.084448814,-0.021522224,0.066708796,-0.0355594,0.06316471,0.011002671,0.02788138,-0.06487444,-0.04232315,0.04587698,0.03236886,-0.06326033,-0.068765044,0.052089494,0.015647335,-0.0270216,0.059925377,-0.028439648,-0.007651372,0.06374042,-0.061936148,0.014436443,-0.06496692,-0.014164519,0.021444747,0.001802827,0.024755124,-0.033642694,-0.0797384,-0.009604707,0.029583812,0.05905273,0.06259127,-0.087733656,0.03708776,-0.024254782,-0.017433148,0.031047601,-0.022632258,-0.017949022,-0.0573647,-0.06532132,0.040164664,0.07212644,0.038229793,-0.09666675,-0.008050517,0.07224896,0.003271422,0.053360276,0.006709715,-0.07302057,-0.026926706,-0.03354047,0.05572054,-0.017000785,-0.07610322,-0.084890805,-0.08293531,-0.03005227,-0.06588949,-0.011001062,-0.06671935,0.037458222,0.025323812,0.06212944,-0.04435827,0.06743524,0.023445439,0.07597118,-0.093251795,-0.01983797,0.008391559,-0.0021149702,-0.02531102,0.036962055,-0.0518439,0.059718363,-0.086387224,-0.046215907,-0.0070752255,0.048067015,-0.012573623,-0.04202621,-0.06979471,-0.02853569,-0.062941395,0.038767636,-0.07076328,-0.060195882,-0.054626245,0.012063047,-0.01997193,0.056718215,-0.06272611,0.074927665,-0.028166924,0.0041297125,0.007475582,0.067512065,0.057759006,0.0641493,-0.0024456882,-0.06433481,-0.076856546,0.002857329,-0.04792012,0.062904775,-0.0071397573,-0.032032564,-0.023165697,-0.015002589,0.013340553,-0.003995225,-0.045113806,0.029681679,-0.05292082,-0.060248327,0.009619542,-0.084248185,0.06869689
-0.06976103,-0.029862763,0.019030776,-0.018983282,0.039555825,-0.05927048,0.07011782,0.041188005,0.075121164,-0.06825028,0.069242075,-0.042191792,0.02656789,-0.047856703,0.058430396,-0.058018338,-0.013081137,0.05555354,-0.029450689,0.07262038,-0.07297498,0.035200737,0.07062784,-0.07648127,-0.08344597,0.05275366,-0.06444135,-0.07747832,-0.053222537,-0.004166337,-0.08820632,-0.066352725,0.0077979607,0.04920053,-0.015446561,-0.07045485,0.026833823,-0.065858506,-0.00746777,0.01605856,-0.053119626,0.036411252,0.054627206,-0.04643828,0.051804967,0.046527002,-0.06513643,-0.024887675,0.0032913552,-0.047306366,0.024545906,0.013497783,0.027503705,0.028695919,0.04360507,0.038138174,-0.036316995,-0.00600027,0.061984472,0.0074450593,0.07695005,-0.008703708,-0.07680539,0.052021667,-0.0074096587,-0.060586534,0.06393154,-0.05581998,-0.024820793,0.014057132,0.04450683,-0.043137398,0.057326067,0.007815312,-0.08745174,-0.07108556,-0.009406213,0.053651582,-0.02277825,-0.07809358,0.07495386,0.059179552,0.0653963,0.022387981,0.03254398,-0.04611999,0.043976966,-0.05645735,-0.04936315,0.06819295,-0.06752652,-0.02425514,0.022225391,0.04503073,-0.088923685,0.008947048,-0.08350388,0.0108273225,0.06629859,-0.05860038,-0.0731155,-0.060178366,-0.046674144,0.06408965,-0.0044269646,0.03336211,0.028839575,0.020296996,0.033200208,-0.0885942,0.07103969,-0.07217021,-0.07163402,0.008559113,0.060522035,0.032284684,0.05998283,-0.03368902,-0.019552303,0.050834637,0.054699533,-0.067701474,0.023430442,0.006262156,0.0014386672,-0.03606828,-0.037841372,0.024173314
0.030945335,0.030452777,-0.08474811,0.059544377,0.0066205417,0.06659494,0.07282945,-0.00051084656,-0.08961324,-0.005599418,-0.07331198,0.06940938,0.060392924,0.07427001,-0.06786456,-0.059247646,-0.09528514,-0.082906485,-0.065968014,0.020960934,0.013022229,0.044625983,-0.04576769,-0.09615545,-0.087799065,-0.10006904,-0.056508783,0.05159562,-0.067666,-0.06832331,-0.07726359,-0.06570349,-0.08236017,-0.052045032,0.03764348,0.05194352,0.0052150423,-0.05979981,-0.0862533,-0.05992199,-0.07776384,0.00969136,-0.022495845,-0.09720711,0.014879693,-0.0489622,-0.031641155,-0.005645436,0.032403335,-0.043027405,-0.030119639,-0.05959055,-0.076399386,0.040090714,-0.010440377,0.009528888,-0.07035682,-0.08293705,-0.06382434,0.032940697,0.031171344,0.008829717,0.028337225,-0.065612145,-0.051508952,-0.091257446,0.03468954,0.016063295,-0.0052824006,-0.0153804915,-0.027937407,-0.08737193,0.04861976,-0.07024103,-0.0057892906,-0.000970806,-0.007075125,0.08017841,-0.021482684,0.015781553,-0.03866387,0.08767816,-0.0022401556,-0.053647976,-0.0371583,0.023220165,-0.037475348,-0.04341568,0.0752763,0.012902526,-0.032344732,-0.024434369,0.033493858,-0.0079603875,-0.05935925,0.055552557,-0.019692728,0.0037391176,-0.007317348,0.010358824,0.047268253,0.031492263,0.037161592,0.05128027,-0.06388726,-0.013319246,-0.036006026,0.03394761,-0.022189593,0.038453415,-0.08947926,-0.059968907,-0.03136187,-0.025906747,0.030407403,0.028343067,0.024890132,0.010872378,0.050455973,-0.025649237,-0.08896652,0.042282525,-0.07969665,-0.07289384,0.0003196657,-0.079109274,-0.06575692,-0.05473386
-0.024339492,-0.0011310895,-0.062164407,0.037193347,0.016158566,0.004243222,0.013886707,-0.08528896,0.01154958,-0.026862971,-0.059595767,-0.019073844,-0.011848613,-0.07569437,-0.027200127,-0.016895877,-0.038705133,0.08117277,-0.060253177,2.3082921e-05,-0.00076560414,-0.094232574,0.008186488,-0.065240756,-0.0709164,-0.02535283,0.011407903,-0.07130875,0.06878315,-0.03647434,-0.019498361,0.074888065,0.0031873712,-0.04795249,0.053858727,0.045190707,-0.0013685474,0.0065443516,0.018438617,0.0037088562,-0.09335972,0.007903581,-0.073568285,0.059391968,-0.022332586,-0.092596374,-0.07105495,0.045747638,0.049270928,-0.03872634,0.04172324,0.03420353,-0.09368591,0.016692529,0.074345976,0.07510061,-0.06934314,-0.0050929426,0.0682121,0.03453675,0.07900563,-0.0663403,-0.018520165,0.04837045,-0.01614352,0.060618155,-0.046872336,-0.034915797,0.06947577,-0.07135557,-0.027163519,-0.032229707,0.0013086139,0.010703765,-0.012562286,0.05422966,0.069092765,0.013298753,0.0012251398,-0.047682688,0.043146998,0.00072931446,0.015235451,0.0128846485,0.04424793,-0.038342513,-0.047120564,-0.07267682,0.083657086,0.014176085,0.06969761,0.064865254,0.01780763,0.075368,-0.0679885,-0.063835055,0.048268843,-0.028539496,0.042891234,0.07988446,0.03899993,-0.09148788,-0.0856,0.0073379125,-0.06469601,0.061445948,-0.091866486,-0.03492185,0.08434015,-0.044356648,-0.06135461,0.05654655,-0.047032863,-0.013166646,-0.03774596,-0.00020946939,-0.038148716,0.022993853,0.03963344,0.0753586,-0.04013429,0.06368797,0.06042604,0.04342044,0.057371933,-0.008247654,-0.0057383417,-0.021954887
0.074825294,-0.03640924,-0.055130906,0.070693396,-0.010643367,0.0044132406,-0.08802757,-0.018444525,-0.06014196,0.053628866,0.0045512402,-0.03603949,0.05685687,0.024930958,0.041961763,-0.027091743,0.0860357,0.03882545,0.01822549,0.08246716,-0.036280897,-0.0006605729,0.042335417,-0.014546966,-0.016524177,-0.013786687,-0.00045312854,0.008302038,0.008485352,-0.03240008,-0.035297304,0.07493803,-0.0013881755,0.06721212,0.067520894,-0.0026628056,0.0043011527,-0.06623588,-0.06411171,0.06250254,0.07877365,0.0058404016,0.07774509,0.084742606,-0.008419719,-0.015123711,0.019472191,-0.05254688,0.08539941,-0.019220537,0.028719835,0.011275559,0.08718609,-0.04755962,0.04455607,-0.056079168,0.05693269,0.023541858,-0.009631824,0.05666726,0.021630751,-0.058098014,0.049305033,-0.04935451,-0.07789452,-0.040118806,-0.061040133,0.0032156513,0.06981915,0.05934529,0.053496063,0.059316523,0.033094507,-0.05476367,-0.050676506,0.05576294,0.05060421,-0.063719064,-0.08718003,-0.034402635,-0.035899553,0.044583466,-0.08732698,0.014095775,-0.052614674,0.035744715,-0.04900669,-0.030108603,-0.06559026,0.0019511215,-0.01297811,-0.10220272,-0.0076382486,0.013105022,-0.05072729,-0.037285876,-0.047930155,0.036706444,0.063465536,-0.08545418,-0.08469465,-0.0056087323,-0.06425384,-0.070785895,-0.027692057,1.6920463e-05,0.06871422,0.07119601,0.0075792936,0.043047857,0.09067343,0.05703084,0.045454208,-0.024542179,0.05865668,0.031218594,0.026548099,0.009730772,-0.0035969983,-0.011648768,-0.0063324207,-0.0763214,-0.020507114,-0.015023313,0.012327682,-0.018972477,0.099179305,-0.015971148
-0.076547295,-0.023134856,0.07628519,0.071212314,-0.091552325,-0.07335408,-0.079076916,0.014297629,-0.041448906,-0.079548754,0.030058706,-0.016489025,0.061338536,0.021606771,0.07908699,-0.048376936,0.00061805465,0.0633908,0.02450485,0.022597767,0.039731182,0.07474746,-0.04245069,-0.059632,-0.014543908,0.07210314,-0.09257872,-0.01577517,-0.0077187354,-0.069558844,-0.074062385,0.020024003,-0.020463644,-0.08677213,-0.0012312497,0.071023494,-0.08563907,-0.020743934,-0.033870965,0.0466337,-0.04619396,-0.034490153,0.087600395,-0.033935674,-0.0019315594,0.03338886,0.047252875,-0.025880633,-0.016310025,-0.035568215,0.064723454,-0.00833994,-0.09337704,-0.04726499,-0.0924812,-0.08082179,-0.04378255,-0.07659744,-0.051477056,-0.07293751,-0.0921544,0.045376122,0.046871312,-0.061427746,0.048149936,-0.09432981,-0.10223077,0.02899469,0.014716563,-0.088605925,0.038437527,0.046158668,-0.014292453,0.07150228,0.07440332,-0.04335918,0.004440114,0.065841965,0.03861448,0.04700708,-0.0456813,-0.019889515,-0.031837963,0.061379466,-0.0037465338,-0.047282655,-0.068936825,-0.009410378,0.043813854,0.010697752,-0.008463574,-0.045376144,-0.07330858,0.019925559,0.01917028,-0.026646176,0.0008815566,0.022434141,-0.008470057,0.100320995,-0.06742081,0.017366957,0.048447825,-0.009846294,0.070791125,0.03213276,-0.06932089,-0.071260266,-0.012636758,0.018592376,0.03523246,0.03249686,0.021722147,0.048526976,-0.004347256,-0.0049859593,0.046892818,0.02869339,-0.044526197,-0.029627386,0.017262857,-0.031497546,-0.025249433,0.06360858,-0.068051286,-0.0898514,0.057491936,0.06048285
-0.06438527,0.015979437,-0.068744294,0.05738184,-0.078983985,0.06940622,0.0735916,0.020994447,-0.0047057653,-0.032098725,-0.09477784,-0.010960183,0.07165258,0.023104934,0.07070145,-0.064799376,-0.033586606,-0.011912967,-0.09139183,0.003585771,0.077948816,0.04771737,0.012628051,-0.037961222,-0.05965393,0.015937366,-0.017682811,-0.04378294,0.049304426,0.023902714,0.04037046,-0.030279916,-0.071856186,0.023461899,0.009239412,0.07206636,0.06513446,0.017213423,-0.024278106,0.03659479,-0.013272378,0.051315565,0.06957441,-0.036085982,-0.060832262,0.07585424,0.06205465,-0.086989656,0.04399916,-0.027374314,-0.0031226499,-0.03923201,0.05539144,-0.0440678,0.055331014,-0.029354317,-0.044357844,0.019960484,-0.04308707,-0.04728789,0.037063636,0.021573352,0.041575707,0.028646959,0.01104881,0.00037110274,0.050882697,0.014102147,0.07949723,0.009442496,-0.0807629,0.018484335,-0.04795592,-0.036286004,-0.096265174,0.032362208,0.053421833,-0.07807285,-0.03719878,0.023958711,-0.06881536,0.04780906,-0.0965662,0.014447848,-0.030034658,-0.10490281,0.07971993,-0.06663819,-0.09086583,0.0173585,-0.061584976,-0.07649697,0.032753456,-0.002591582,-0.024663989,0.018907834,0.04449823,0.07336102,-0.08123173,0.012207467,-0.043035157,-0.00848193,0.01618638,0.047219556,0.032965664,-0.05116417,-0.029038105,-0.060604908,0.02425702,-0.060373742,-0.07408887,-0.040782206,-0.059278592,-0.079329,-0.093438976,-0.08800185,-0.027476527,-0.03380124,-0.05631326,-0.036948867,-0.0881361,-0.027063832,-0.03474515,0.06186782,-0.03844226,0.01422059,-0.056489244,-0.044164874
-0.05931298,0.07217287,-0.031688597,-0.07334921,-0.055189263,-0.0049021468,-0.08012622,-0.03224504,0.02370025,0.036685534,-0.05869764,-0.08355043,-0.018200725,0.052579068,-0.025034538,0.06150324,0.014344884,0.07692485,-0.066730544,-0.025592139,0.0677014,-0.04087761,-0.0049696593,-0.07712251,-0.0044395886,0.023386061,0.034299802,-0.06617729,-0.014838222,-0.016598936,0.018724652,0.08209834,0.05484251,0.04064989,-0.07408506,-0.042751864,0.08201267,-0.015314835,-0.081186526,-0.07421476,0.020589132,0.01851896,-0.06934768,-0.081107534,0.00887244,0.07989962,-0.053289685,-0.0709065,-0.026286332,0.023671968,-0.078933984,-0.08935635,-0.08208106,-0.054653265,0.031065192,-0.06296604,0.0017722168,0.045052987,0.03876735,-0.030638913,-0.056039732,0.022499051,0.0036991572,0.06762341,0.009210518,-0.059562102,-0.0971767,0.010074347,-0.03216183,0.034484927,-0.0066084336,-0.019347807,-0.009368256,-0.01762483,-0.049976915,0.010134542,-0.010979686,0.05606018,-0.047482572,0.013028657,0.05811592,0.07098104,-0.045278806,-0.01151278,-0.031465895,-0.021620758,-0.029523296,0.035491925,-0.016199397,-0.08372057,0.034578454,-0.033431143,-0.07264324,0.0814717,-0.03526604,0.0023616264,-0.023845425,-0.04083199,0.03090594,-0.024760015,0.043502443,-0.016129946,0.034117095,0.0036180082,0.028307894,-0.05019776,0.032736268,-0.04673343,0.06451847,-0.090020485,0.009324757,-0.025990283,-0.014760056,0.029458124,0.04131587,-0.08096561,-0.048596997,0.0721828,0.055201527,0.021992298,0.0025109963,-0.0249443,0.019771421,-0.04817697,-0.019724067,-0.042265654,-0.0044760862,0.031788483
0.0057627205,-0.07568234,-0.020713402,0.0066089677,0.027127378,-0.05116793,-0.01439985,0.019812737,0.072120704,0.06963922,0.026473474,-0.016302,-0.05935962,0.095266774,-0.07957985,0.034159616,0.009559229,-0.012476489,-0.019029722,0.047606684,0.014936084,0.035880078,-0.079739034,-0.03611635,-0.003832558,-0.016671468,0.045737803,0.021224197,0.047763906,0.03297114,0.049551863,0.001998701,0.017003793,-0.06379531,0.030288646,0.025883026,0.0064783045,-0.020508736,0.04123621,0.00081440405,0.02289034,-0.05204389,-0.021195242,-0.050925132,0.048735466,-0.042628013,0.019159125,-0.038862787,-0.060750887,-0.0142273875,-0.07282846,0.071957625,-0.04957575,0.09466538,0.07748007,0.095763184,-0.043674108,0.0038651428,-0.06990105,-0.05664699,-0.0043133693,0.07616917,-0.011958955,0.090003945,0.061742052,-0.014010158,-0.03389415,0.032524806,0.024192112,-0.05091313,-0.087346576,-0.004928314,-0.049869318,0.06371854,-0.04518425,-0.044349205,-0.020444239,0.07686966,-0.080011435,-0.013223987,-0.07431221,-0.025925936,0.006280108,0.08768503,0.025201643,0.006755584,0.065157086,0.002178851,0.0028731949,-0.003219934,0.010714927,-0.06430367,0.06293073,0.035371743,0.042017825,-0.007679434,0.073625535,-0.00023171198,-0.06867407,-0.071942836,-0.010388369,-0.06472061,0.091613345,-0.027647847,0.062485587,0.0704512,0.081718005,-0.02118122,-0.0075625204,0.02647226,0.03247326,0.071972206,-0.050230056,-0.016507776,0.036342133,-0.027972378,0.085210435,0.07766695,-0.04708902,-0.0654283,-0.034800027,-0.004118351,0.057289474,0.04331319,-0.0077993944,0.02112913,-0.0035156757,0.029858734
-0.0022927134,-0.060954098,0.048482828,0.038573593,0.017793834,0.046476346,-0.07541115,-0.0583793,0.021249708,0.042884238,0.040040255,0.061948635,-0.06856085,0.099757195,0.06138574,0.031925503,-0.033558693,0.04595827,-0.048944257,0.0036353336,-0.010882706,-0.055055212,-0.050589394,-0.03067002,-0.05519326,-0.023321284,-0.027208079,0.005209584,-0.08910224,-0.08843417,0.07871969,-0.070670724,0.04827266,-0.051869873,0.032487296,-0.035078987,0.04964502,0.08170936,-0.0009188821,-0.066148646,-0.009734501,-0.053291224,0.0035746156,-0.050027326,0.07977701,0.0621392,-0.008433326,-0.086716816,-0.016640723,0.01669985,0.048565473,-0.010414785,0.028571904,-0.039544187,-0.011248175,0.06022871,-0.07062653,-0.021777326,0.05058102,0.04349779,0.0066454564,-0.088697836,0.0530789,-0.057177275,0.057397466,-0.022835828,-0.020850306,-0.006394181,-0.0616244,0.022006003,-0.07785095,0.03822034,-0.0067914915,0.058665648,0.079181,-0.061751325,0.044488423,-0.06956769,0.03257101,-0.037524115,-0.08087051,-0.009539524,-0.06613467,0.005209465,-0.031398498,0.028176736,-0.0019282835,-0.06576143,0.0061279275,-0.06675351,0.043277804,0.03935677,-0.035026427,-0.056460395,-0.015508095,0.01672523,-0.10395462,-0.051936388,0.06546289,0.04059755,0.02569169,0.057589278,-0.03488367,0.009685859,0.043512568,0.042543836,-0.051940642,-0.016358217,0.048887223,-0.061740804,0.017372753,0.019496962,0.06215867,0.015934834,-0.064074144,0.07099657,-0.03201996,0.058787964,0.017539846,-0.092575565,0.06706792,0.03443277,0.09068048,-0.07480573,0.08899584,-0.055512507,0.012651549,-0.021882504
0.009386141,-0.0031622427,0.010627046,-0.032295093,0.027407216,0.03205182,-0.0077268253,-0.034901977,-0.049650438,-0.041298952,-0.0010972999,0.03064301,0.033173613,-0.039374996,-0.07648994,0.061864432,0.07987579,-0.0038213392,-0.009356253,-0.0048056915,0.080521934,-0.08576534,0.052429125,-0.051048186,0.024497671,-0.033722267,0.04706769,-0.08138695,-0.07623962,-0.054456495,0.056016367,0.03741176,-0.057120513,0.059536185,0.05484909,-0.052557904,0.0347879,0.0056434567,-0.0070069265,-0.080563255,0.06074968,-0.004196964,-0.019596782,0.07037347,0.051627453,0.07864965,-0.09807506,-0.008027982,-0.03817243,-0.0527522,0.06598918,-0.045004882,0.02164004,-0.09086692,0.026090795,-0.0057286685,0.034574494,0.077945255,-0.071763106,-0.06429142,0.022707347,-0.08257684,-0.016777964,-0.07689311,0.026923046,-0.072794415,-0.062127765,-0.01406595,0.07540966,-0.07369316,0.06237255,-0.039147556,-0.061777744,0.031279575,0.01177562,-0.07160138,0.026333362,0.00877546,0.048593476,-0.008121283,0.024883388,-0.019121548,-0.05588482,0.083740406,-0.045637116,0.045067437,-0.033833824,-0.08914264,-0.046743624,0.0789528,0.006649352,-0.02990001,0.052489817,-0.08340285,-0.047902886,-0.023859998,-0.033001214,0.08612027,-0.0046022814,0.0096882535,-0.069058985,0.06286902,-0.0909959,-0.057817925,-0.039726574,-0.049422815,-0.017549962,-0.08804247,-0.088293076,0.0015701925,0.011829438,-0.018382166,-0.041345906,0.034797955,0.0031324066,-0.019827534,-0.004601272,0.044762302,0.058010988,0.071371816,0.074434295,0.051440183,-0.043606084,0.057423595,0.041144397,-0.08005467,0.022958025,-0.09209886
0.051904757,0.00874578,-0.09911027,-0.019498056,-0.065187044,-0.040919762,0.07437078,-0.024405003,-0.024494853,-0.005349423,-0.08435695,0.0046821507,0.0523345,-0.09946567,0.01510417,-0.09196038,-0.030680262,-0.05412239,0.041369077,0.06984315,0.07544223,-0.06604537,-0.06515135,0.05854534,-0.018641287,-0.09340739,-0.020458225,-0.024992954,0.06588979,0.0063348333,-0.02946815,-0.0291627,0.060166642,-0.020163428,-0.07718091,-0.017941415,-0.005752946,-0.02716358,0.01596424,0.0735903,0.053893693,-0.008721214,-0.010129072,-0.055349614,-0.04601315,-0.026865896,-0.05017145,0.043016125,-0.09193335,0.027865198,0.057213325,-0.08474706,0.04555124,-0.05253088,-0.032808825,-0.038998865,-0.08544915,0.07012435,-0.07033287,-0.08182226,-0.032682676,0.029805014,-0.0031036125,0.023713084,-0.08678244,0.057878338,-0.003801968,0.05572142,0.054089416,0.032448962,-0.036533948,-0.0030283062,-0.08350583,-0.080243595,-0.022026313,-0.09159769,0.012101191,-0.04413915,0.06675241,-0.06457219,-0.05464199,-0.032741472,-0.008042606,0.06858702,-0.077721864,-0.0282955,-0.017279996,-0.008763131,0.06647084,-0.029902203,-0.0883941,0.008929517,-0.061761085,0.025952067,0.03597107,0.034735836,-0.043179736,-0.07721416,-0.0038312385,0.015834522,-0.04215277,0.025486277,-0.04910702,-0.04716516,-0.06008651,-0.002956626,0.07372851,-0.05380415,-0.0013805444,0.03645939,0.020396462,-0.07112242,0.04610071,-0.030436652,0.009310207,0.07213613,0.048767533,-0.03255261,-0.08513387,-0.06860697,-0.08361832,-0.0097038895,-0.083327174,-0.012378298,-0.027686095,-0.08857703,-0.008829388,-0.014664013
0.07481458,-0.019371478,-0.043280493,-0.07837891,0.0686433,-0.056263775,-0.0038103298,-0.051192794,-0.05044743,0.04325199,0.06216028,-0.09464173,0.0072729476,0.016227439,0.07720086,-0.037384823,0.037246957,0.080714755,-0.08496072,-0.04708893,0.03746941,-0.08514072,0.0024743993,-0.030652324,0.04686999,0.06320586,-0.025754422,0.0005467269,0.042816535,-0.06847202,-0.09414677,-0.026032435,-0.025103435,-0.086171106,0.06656972,-0.068130076,-0.08274361,-0.015455251,0.024627248,-0.0003142443,0.008571826,-0.08477307,0.014547863,-0.06923496,0.036698446,-0.071907915,0.010604378,0.05643808,0.04836086,0.019092422,-0.07317752,0.030300217,-0.0538351,0.02204824,0.031256355,-0.0148250265,0.07799486,-0.09351963,0.050139885,0.060311597,-0.02612932,0.05651935,0.044798244,0.06509659,-0.051674295,-0.04593858,-0.06298559,0.065562285,0.0032347073,-0.059504256,-0.018818162,0.050350502,0.04594626,0.044039257,0.03582371,-0.08007705,-0.02553174,-0.06878664,0.038714603,-0.0018997294,-0.06956877,0.08547558,0.029315446,0.06377819,-0.0116644455,-0.04143394,-0.012529867,0.0016497761,0.002552121,-0.04693488,-0.017082518,-0.09309738,-0.024823263,0.0410851,0.0012620073,0.063474014,0.0066050305,-0.029825563,-0.029868623,-0.04744833,0.026941782,0.056161743,0.06929871,0.05270049,0.042633478,-0.023173494,-0.056860313,-0.09213989,-0.065061554,0.02276218,0.06667672,0.0715669,-0.054659296,0.0410263,0.047685187,-0.0369672,-0.051017057,0.026080849,-0.027397644,0.017649146,-0.06890552,0.028158117,-0.059159767,-0.06283202,0.025771832,-0.015651817,-0.015368885,0.0046092942
-0.08641206,-0.09209465,-0.029681528,0.034236763,-0.031630725,-0.040821053,0.000889033,-0.034528844,-0.06646409,-0.07044511,0.035063773,0.03128046,-0.016904458,0.07271034,-0.083115466,-0.08894915,-0.05216175,-0.055549916,-0.048622593,0.04501158,0.081098154,-0.05658115,-0.07971654,-0.019825744,-0.054803796,-0.003928072,0.03995719,-0.06933999,-0.07975083,-0.071272016,0.03459422,-0.049694028,-0.06536801,-0.05801877,-0.042400144,0.04139857,0.05295873,0.03344359,0.057547294,-0.0501125,-0.074985705,0.07513665,0.023021908,0.016259698,-0.020187534,-0.02011942,0.027988033,-0.037142653,-0.059934612,0.0072570257,0.01785394,-0.06321128,-0.037458844,-0.037744593,-0.027479814,0.03412626,0.008893639,-0.07704119,-0.09007166,-0.04418729,-0.054642398,0.06809581,0.019712457,-0.08531368,0.008586526,-0.0061082123,-0.09547275,0.03833124,-0.03733471,-0.079386085,-0.042504273,-0.08649034,-0.0923811,-0.037581775,-0.05829298,0.06262432,0.023184976,0.0053987377,-0.052935433,-0.094522886,0.06902548,0.015409806,-0.08922874,0.051364247,0.04862154,-0.07480665,0.07389429,-0.022050938,0.08049099,0.022712465,-0.010964669,-0.005047022,-0.006280128,-0.0082282685,0.035988864,0.051364332,-0.02316926,0.0727252,0.07092973,0.0082990015,0.052171294,-0.08822731,0.061494168,-0.00056449795,0.012122115,0.05940042,-0.07993406,0.0036980489,-0.020934913,-0.03170271,0.06759125,-0.03258701,-0.03375277,0.069128364,0.08055713,0.06271293,-0.054935213,0.059098616,-0.059280224,-0.015987443,0.03234652,-0.044142734,0.065621726,0.06852835,-0.021840641,0.020654796,-0.09008111,-0.061623443
-0.021565935,-0.052121148,0.029311469,0.07538533,-0.0033271487,-0.0055573927,-0.007659448,0.058978926,-0.048882425,-0.018810222,0.07817493,-0.069605984,-0.03999709,0.10100749,-0.08269742,0.010875359,-0.022946637,0.0099938195,-0.050057173,-0.016333124,-0.058925923,0.0680328,-0.006612749,0.041375782,-0.014624969,-0.06757539,-0.080184236,0.013950387,-0.097954735,-0.0271473,-0.06012807,-0.07629165,0.022224672,-0.010172444,-0.032617033,-0.050760437,-0.0047273627,-0.008063526,-0.000455919,0.029151632,-0.053134236,-0.033627138,0.03664799,-0.085707374,0.03937851,0.028933758,0.018638603,-0.039278053,-0.06099442,-0.039702393,-0.056053776,0.018205909,0.06476212,-0.0018673899,-0.029799651,-0.03607429,-0.0040785125,0.044366647,-0.01062417,0.042658336,-0.031418663,0.0680224,0.030790804,0.07529897,-0.061122008,-0.06742738,-0.08088237,-0.016848952,-0.061083883,-0.01843075,0.019260274,-0.07984042,0.048204757,0.008557042,-0.08739416,0.035246734,0.06103585,-0.08360137,0.06942803,0.08378176,-0.060605578,-0.002306968,0.015393986,0.015442265,-0.065097764,-0.030667525,-0.09349282,-0.046271913,0.069015525,0.07704278,0.057886664,0.012787114,0.059087504,0.04725921,-0.085029975,0.03709999,-0.013644727,-0.089065954,-0.018945266,0.07262002,0.025251709,0.026587604,-0.062010273,-0.022483565,-0.0011568778,-0.07073567,0.03333539,-0.069294594,0.06998377,-0.0071276203,0.013862955,0.016178375,0.05944969,-0.052716274,-0.07844307,0.0027864852,0.052631542,-0.05736458,-0.04084985,0.01798151,-0.0017490882,0.061607014,-0.056889053,-0.04466733,0.061568074,0.07154969,-0.008452585,-0.07690171
-0.034880072,0.027400296,0.030432597,-0.058517028,-0.04814184,-0.06709608,-0.052610196,-0.00018241294,0.04730428,0.013026961,0.0013305785,-0.036293443,0.0065155257,-0.036117308,-0.07335864,-0.08819083,0.07001919,0.05606328,-0.05697278,-0.04231178,0.012517048,0.08581001,0.029953556,0.052612286,-0.032997943,0.029004462,-0.04189268,-0.027264562,0.011921503,0.021431236,-0.060712785,-0.0024872662,0.080576114,-0.07513225,-0.056165054,-0.08225889,-0.04065319,0.023678003,-0.058621697,-0.0136533175,0.032431107,-0.008661167,-0.076061174,0.0036039446,-0.09304913,-0.062020984,0.02857368,0.021468788,-0.03313361,0.07834104,-0.019266542,-0.03315427,0.042548105,-0.010363021,-0.01148166,-0.08160479,-0.0810101,0.05815232,0.004022945,0.012239879,0.07522208,-0.059298087,-0.026990848,0.0730492,-0.06624168,-0.044243384,-0.016484752,0.08665684,-0.021647636,0.029106107,0.05921974,-0.06258271,0.045875397,0.08329141,0.056850344,-0.00721283,0.095990784,-0.082863085,0.06429782,0.05307529,-0.002155049,0.028428238,-0.04204961,-0.008569074,-0.07889607,0.0073368587,0.011505974,0.0012113953,-0.014087436,0.05050317,-0.06420828,0.031562757,0.04602896,0.03120323,-0.02755536,0.017370421,0.005115852,-0.02546378,0.021635123,-0.09378757,-0.008024973,-0.07159761,-0.045937106,-0.043398976,0.001819713,-0.0049038776,0.06784468,-0.0083276415,0.020435724,0.06892713,-0.006117254,-0.064482726,0.05256075,0.021189446,-0.082554795,0.023936177,-0.06667585,0.002751501,-0.08287804,-0.042358622,-0.014341193,0.03965847,0.060707103,0.019653423,-0.017530741,0.09644359,-0.041917164,0.03743948
0.05247597,0.020961763,-0.05878602,0.048778147,-0.096990384,0.03932829,0.019689184,-0.009251144,0.027756492,0.014988364,0.037678648,0.025655014,0.051579945,-0.045580562,-0.08914645,0.026095122,-0.07208157,-0.06874072,-0.027170599,0.08405149,-0.016410891,0.034237925,0.022952564,-0.05645709,0.05438477,-0.0803836,-0.062291972,-0.04879236,-0.06530754,-0.0013029109,-0.0036571752,0.009801876,0.026877377,0.01760717,0.04710724,-0.0041788896,-0.037475724,-0.023160342,0.0407376,-0.04542615,0.011464246,-0.028725747,-0.0786099,0.03480934,-0.034271613,0.07643344,0.06446878,-0.070345335,0.02520772,-0.08371799,0.03659345,-0.011699993,-0.04936155,-0.066528074,-0.097773746,0.06449828,0.0026465969,0.0683928,0.0724893,-0.019877449,-0.071584046,-0.045595262,-0.051891956,0.080189355,-0.008818655,0.008685102,-0.02093124,-0.04679102,0.078760974,0.074575044,0.07461236,0.054436702,0.04356388,-0.035635248,-0.05642497,-0.06208842,-0.014241303,-0.06922776,-0.009087316,-0.09166335,-0.04020982,0.034190193,0.08031315,-0.049341653,-0.019959457,0.05698584,-0.066409044,0.023887461,-0.029973546,0.06721933,-0.021360612,-0.053254962,-0.018512707,0.07371519,0.019798102,-0.009294963,-0.07106817,0.061094616,0.04945592,-0.072769254,0.07438456,-0.082170725,-0.057728,0.056845035,-0.05001949,0.02581558,-0.00563318,-0.058345843,-0.08976179,-0.070045866,-0.078093216,-0.04176204,-0.042262536,0.007212818,0.066998,-0.08381043,0.08186317,-0.082855545,0.037184935,-0.034963585,0.020770727,0.07935744,-0.012928473,-0.014704744,-0.033473622,-0.07153821,0.053732898,0.04865235
-0.004700408,0.019118853,-0.06308216,-0.089760706,-0.08421547,-0.083439626,0.03143317,-0.06727533,-0.08775507,0.041492157,-0.027625639,0.064214654,-0.012444523,0.034069348,0.046417546,-0.019414296,-0.09431209,0.04828368,-0.0047735735,0.041228108,0.027845895,-0.05568669,0.0011246013,-0.06262016,-0.037482042,-0.0069356384,0.029635493,0.017823193,0.03438491,0.03650694,0.08146993,-0.06010057,-0.01891816,-0.0742988,0.05664537,0.055995964,0.006222733,0.004442154,0.031485055,-0.012999423,0.04511007,0.037995353,0.074842654,-0.006493265,-0.0389668,-0.06410949,-0.048690036,-0.018094502,0.07157002,-0.009724836,0.07321473,0.02729924,-0.0077447924,-0.075672984,-0.06431867,0.038536366,-0.026689887,0.030305192,0.01836148,-0.02119655,-0.01890637,-0.06892073,-0.08417435,-0.053544,0.06943941,-0.054620847,-0.056411605,-0.030159065,0.025446462,-0.0051684873,-0.04492631,-0.09420969,0.082247876,-0.08680033,-0.030791236,-0.06008341,-0.06506265,0.05947514,0.062217988,0.04846014,0.050758,0.024032257,0.0057728626,-0.0620069,-0.010859071,0.013598806,-0.09288965,0.030534048,-0.08860545,0.04728057,-0.014105644,0.013586964,-0.053878546,-0.08375341,-0.0033247566,0.043296218,-0.09011874,-0.04126549,0.004134006,0.006493868,-0.028686337,-0.08064932,0.055961814,0.045764815,0.08127658,0.015381561,-0.021150699,0.032890305,0.043837573,0.015713736,-0.07278126,0.044043507,-0.061241534,0.013405394,0.013307398,0.027442014,0.04885336,0.0046229544,-0.07750926,0.0034232603,0.06768681,-0.076633185,0.020604497,0.042643633,0.007490905,0.027471842,-0.034632307,-0.02740076
-0.08428954,-0.042190544,-0.07704814,-0.06548937,-0.035046637,0.05905625,0.026311435,0.047511745,0.00891135,0.073792964,0.018851144,-0.07296803,-0.052494787,-0.07083928,0.010900354,-0.03558518,0.04033228,0.001556973,-0.06590827,-0.06977454,-0.043929406,0.025810186,-0.030915566,0.04356101,-0.06521711,-0.004211032,-0.01239975,-0.09752707,-0.063516416,0.009236824,0.07972114,0.05035227,-0.044660058,0.07020098,-0.088043444,-0.042584736,-0.07007073,0.021786641,-0.0025419109,-0.05167837,0.016011098,0.014040565,-0.068361625,-0.04721183,-0.015113887,0.00086363597,0.064450786,-0.05698878,-0.08922743,-0.021984087,0.03082902,-0.0053670662,-0.05681293,0.020104805,0.081057504,-0.038146358,0.0028301503,-0.010144022,-0.035867345,0.005316978,-0.03557177,0.026386702,0.021167316,-0.08198084,0.033972077,0.053461228,0.015662184,-0.022451082,-0.03425719,-0.051826034,0.060406707,0.04073111,-0.058080513,0.0031566638,0.07497255,0.0018657424,0.08440389,0.0015355214,-0.053138316,0.037316058,-0.0766802,-0.044504967,0.059894826,0.0050335717,0.06826984,-0.019493332,0.0030853224,-0.036435295,-0.008394803,0.022316627,0.0043985373,-0.056473006,-0.08824941,-0.0019282654,-0.019053763,0.053446632,0.09902479,0.025741551,-0.055952705,-0.016987028,-0.041442625,0.015437681,0.0068020443,-0.043599606,-0.051764607,-0.08375042,0.028345173,-0.08851136,0.06760877,0.078109816,0.017768629,0.08197754,0.023379296,-0.05963667,0.07028221,0.01753429,-0.0735862,0.027839573,-0.08581607,-0.09044069,-0.08384588,-0.025647996,0.0026513683,-0.07472874,-0.08094715,0.036950693,0.10016128,0.01271685
