0.04590631,0.04002982,-0.0024807511,0.0059363646,0.034182083,0.052668728,-0.033163667,0.033339422,-0.011542305,-0.00810195,-0.027701112,-0.02156395,0.03854439,0.0059594456,0.0013248253,0.030537028,0.028464738,-0.035187658,0.044563156,0.02760284,-0.026793575,-0.011953456,-0.0098234685,-0.02997218,-0.032449678,0.034571875,0.0028771693,-0.045103166,0.042057447,0.003682801,0.03552584,-0.045076285,-0.020910561,0.028519595,0.03853353,0.027567137,-0.028767897,0.018280078,0.050121438,-0.008415548,0.0026472125,0.0124354325,0.050797492,-0.02253014,-0.009087143,-0.014936689,-0.025629858,-0.043109693,-0.031919323,-0.010722234,0.03156576,0.03375204,0.033349626,0.024536703,0.012710824,-0.005393647,0.034703128,0.029561462,-0.019039461,0.010239914,-0.014877894,-0.00068950333,0.035145152,-0.010584785,-0.023033872,-0.020037519,0.015417372,-0.0025954032,0.017659577,0.0043144864,0.030249005,-0.02283647,0.011215793,-0.01136279,0.016919151,0.03665852,-0.016611997,0.03636052,0.0194973,-0.0506132,-0.017566668,-0.0068869963,0.012241752,0.004435076,0.027388146,0.036144655,0.022069348,-0.031303655,-0.005774296,0.040031437,-0.012322364,0.037402853,0.047943283,0.0010099463,-0.023048854,-0.01582149,0.011830714,-0.026523001,0.00476265,0.020619739,-0.02947863,-0.03040397,-0.038814865,0.034912743,0.05339967,0.010315332,0.04288033,0.030917162,-0.011110188,-0.03551529,0.044670157,0.007118898,-0.00086452125,-0.03242936,-0.031242905,-0.0052273534,-0.022208516,0.03159098,-0.004305406,0.016571488,0.040514793,-0.008690549,-0.021834591,-0.02349654,0.01578686,0.011929169,0.03367278,0.04106098,0.042126194,-0.020134974,-0.040797215,0.028385343,-0.017259039,-0.03749546,0.045217067,-0.014510918,0.042361338,-0.005091877,0.038461518,-0.0034063307,0.027998295,0.016291218,-0.02931213,0.034119245,0.027585784,0.025549322,0.02510033,-0.025707263,0.0062094284,0.0333948,0.030277517,-0.03286412,0.0048248232,0.018073058,0.027477417,-0.0016950545,0.0029349853,-0.037940238,-0.003107403,-0.029989516,-0.019856237,-0.0011546069,0.017284337,-0.0023771708,0.030291094,-0.031056896,0.046726935,0.019751882,0.02047832,-0.043695413,0.010485079,0.04683376,0.025041876,0.044814467,-0.020290915,-0.03172629,-0.03076309,3.273975e-05,-0.02453258,0.00201599,-0.046216387,0.036275305,-0.041033186,0.023434361,0.034362625,-0.02535893,0.03702288,0.024794603,0.021269092,0.03242676,0.04227867,-0.014666253,-0.0294095,-0.0060459846,-0.051233456,-0.0007272045,-0.02158854,0.012781965,0.03825732,0.007031189,-0.031285796,-0.034277655,0.00684424,0.0027049216,-0.0154632125,0.037608597,0.0046882513,0.037849743,0.02476696,0.020825302,0.009130632,-0.047125157,-0.03145385,-0.003931712,-0.021257509,-0.025360875,-0.041766446,-0.0070022177,0.030991076,0.022541057,-0.020851415,-0.00033940127,0.005127533,-0.043041557,-0.0057825423,-0.020045621,0.026073182,-0.032057893,0.0056083403,-9.56457e-05,-0.0033968578,-0.028956136,0.019322203,-0.011744553,0.026833788,-0.024596281,0.033993103,-0.021831833,0.03768858,0.03717896,-0.03302001,-0.0116474675,-0.030881064,0.013240392,0.0024494128,-0.028311752,-0.051166665,0.0042944434,-0.024313556,0.028262017,-0.014072979,0.041000627,0.03107229,0.012655718,0.018279742,0.0046381843,0.014727627,0.027017148,0.023956228,-0.037926544,-0.038099915,-0.011959088,-0.036229692,0.01809638,-0.02686522,0.014883359,0.03990111,0.027880084,-0.046827547,0.0015780701,-0.006173499,-0.021088548,-0.047634076,0.052160975,-0.051619735,-0.024656974,0.009741813,0.022539068,-0.016578795,-0.0005161759,-0.016843466,0.018580405,-0.015658762,0.010069806,0.020920912,0.017111726,0.029176267,-0.02054982,-0.034283075,-0.05019645,-0.010992555,0.028614294,-0.031741202,-0.0036197598,-0.008128316,0.026531752,-0.041034322,-0.033793513,0.00046407222,-0.0012626249,0.023180248,-0.035119843,-0.0062333005,-0.00040325988,0.02006405,-0.024168843,0.036966838,-0.01881777,0.0119928615,-0.003925428,0.038238708,0.03234801,-0.024308832,0.0053832247,-0.041480854,-0.025732845,0.0046174736,-0.012295899,-0.010076625,-0.0076432065,-0.03017773,-0.030214792,-0.024433017,-0.016141208,-0.00018572903,-0.00085802376,0.013420743,0.03755355,0.011638043,-0.00231228,0.03614234,-0.0013561297,0.02502731,0.013790738,-0.0010657823,0.0018276244,-0.017536037,-0.04228259,-0.036759738,-0.008009782,-0.03829808,0.008169667,-0.016384907,0.041348655,-0.023740554,-0.02931493,-0.008918392,0.032892194,-0.04209447,-0.03517888,0.038051534,-0.0033998627,0.014144663,0.023662526,-0.036831845,-0.024770599,0.027612478,-0.007879216,-0.0024098163,-0.0061503826,-0.025925465,-0.021701537,-0.022210052,0.024268093,0.039090324,-0.03800346,0.038069393,0.023156812,-0.0074586817,-0.0053430903,0.05149902,0.05185051,0.0042489883,0.042726696,-0.048990227,0.032406714,0.037365198,-0.0020102123,0.030983903,0.025232246,0.006115046,-0.010412906,-0.026718564,0.024842251,-0.0013086619,-0.017371193,-0.03549443,0.015509378,-0.031097336,-0.015099912,0.008686881,-0.04056718,-0.02339804,0.04295359,-0.034215283,-0.01748655,-0.018875444,0.03912261,-0.024324208,0.0145194195,-0.004079198,-0.018780056,0.027977107,-0.0149521325,-0.016874794,-0.0052127624,0.053221907,0.03293474,0.010406483,0.046780847,0.036556415,-0.035473734,-0.03436624,-0.019113516,0.011180376,0.019113772,-0.025709452,0.035626713,0.054664973,-0.045692526,0.01664828,0.038771864,-0.050566602,-0.016933572,-0.017143877,-0.022061745,0.004827563,-0.009270018,0.03361281,-0.018217798,0.03880877,0.03161093,0.0040121055,-0.002694081,-0.051233742,-0.0091295745,-0.009746877,0.017306816,-0.03107041,0.036524747,0.0029758818,-0.016219988,0.02058023,0.0021022146,-0.014453251,-0.016290292,0.015862027,0.0117310565,0.017214,-0.0001631036,-0.011026042,-0.04207509,-0.024628252,0.020605024,-0.017239956,0.016636653
0.0020426433,-0.014407739,-0.05157908,-0.017231973,-0.03677531,0.034527298,-0.040321153,-0.040020533,0.028453661,0.015319963,-0.023881925,-0.041200962,-0.035464305,-0.029858321,0.017291121,-0.009570421,-0.020153932,-0.029967492,-0.023383982,0.031599928,-0.020234462,0.02063334,0.045871463,0.04223837,-0.0018880357,0.02269428,-0.0076667313,0.001969558,0.04247347,-0.007704238,-0.010037914,-0.02343493,0.019339807,0.032365017,0.041911844,0.019152127,-0.00087914884,-0.020041022,-0.021221297,0.007190129,-0.040314227,0.055737566,-0.022119693,-0.019549066,0.04901798,0.038507488,0.03748801,0.024484547,-0.037137557,-0.020626208,-0.029136041,-0.03772398,0.035383843,-0.046141535,-0.022790467,0.029037979,-0.01858953,0.032607257,0.021245882,0.04124478,-0.007362227,-0.033549428,0.02385206,0.03358676,-0.02877349,-0.006894287,0.0066871247,0.021292355,-0.0015440525,0.037497215,0.008169997,0.025208768,0.043206956,0.029128937,-0.033313897,-0.0115034375,-0.042747058,-0.0022727242,-0.022200065,-0.04216595,-0.033716798,0.03954993,0.052866887,0.016260168,-0.0069455947,-0.023359595,0.037749704,-0.024631381,0.05129945,0.036370847,-0.021695891,-0.0106086675,0.02934993,0.032839112,0.01300397,-0.004090181,-0.012952065,-0.014352064,-0.038379706,-0.01151847,0.050466333,0.00812683,-0.018908957,0.03352951,-0.04032132,0.0063135955,-0.024745123,-0.040639877,0.047409967,-0.0028667818,0.003375993,0.008696877,-0.0017144786,0.01264475,-0.008585082,-0.04330104,0.029340304,-0.018061182,-0.02472947,0.012487415,-0.02098501,-0.036315173,0.034151513,-0.019172192,-0.016913287,-0.03285583,-0.020062014,-0.0071518435,-0.0013319431,-0.03851844,-0.00014235332,-0.025597949,0.044218972,-0.001300962,0.018536497,-0.023690566,-0.011878526,0.005377657,-0.017371476,0.011137819,-0.027410135,-0.010903267,-0.0036607129,0.028465217,0.017406112,-0.049561005,0.021213165,0.048554976,0.01945995,0.007591358,0.037412014,0.0030606922,-0.021688988,0.023598319,0.001778968,0.0065995664,0.011370645,-0.030599533,0.029558783,0.016792415,-0.03374087,0.011115109,0.036473613,-0.0037862821,-0.05073003,-0.027366089,-0.0071330927,0.04080517,-0.036002506,-0.03518482,0.011473429,0.05765164,-0.037915494,0.035424843,0.017993169,0.017146831,0.020017555,0.04769588,0.029123385,0.031917755,-0.04348337,0.014903877,-0.019324934,0.020468593,0.02816135,0.0016317933,-0.041565042,-0.003967053,-0.004086327,0.0030739415,-0.045784086,-0.025418043,-0.009617928,-0.005821471,-0.0451476,0.025699785,-0.00914593,-0.008353288,-0.00932661,-0.032944772,0.013622646,0.017971005,0.03469661,0.03862532,0.012113745,0.021452727,0.01915645,0.016425395,-0.008898781,-0.031370036,-0.0016700043,-0.047208082,0.016292045,0.0014545869,0.024060577,0.054550022,-0.05296212,-0.031418417,-0.053031385,0.0523383,0.004411772,0.04133219,-0.034068424,0.026024954,-0.046077527,0.022257047,-0.007822314,0.04602435,-0.024441913,0.025912004,0.022947004,0.025901452,0.0059687835,-0.012369712,-0.045825437,-0.0005711351,-0.011729466,-0.05462732,-0.0045858934,-0.018120605,-0.03715259,-0.021262597,0.008895977,0.01093983,-0.0090176845,0.013246085,-0.05267245,0.024975136,-0.010514134,0.03023925,-0.018926995,0.002774243,0.02435,-0.015282255,0.0071676113,-0.02671251,0.021301948,0.0006636866,-7.698072e-05,-0.012103722,0.017723225,-0.031193327,-0.021989416,-0.042061705,-0.028635848,-0.038372915,-0.028818835,0.0038943535,-0.032952096,-0.026388403,0.023089273,0.017687457,0.01801211,-0.013702015,-0.017649958,0.021259805,0.018180452,0.03797658,-0.041434582,0.017349971,-0.0015302788,-0.015369574,-0.0040026675,-0.014850642,-0.04435568,0.014449005,-0.027141174,-0.011401093,0.023385994,-0.008554282,0.007280693,0.02298937,0.015434145,0.017350785,-0.004370685,0.013945367,0.038388815,-0.0048896093,0.00041366054,0.012450653,0.0043264753,-0.019435275,-0.03219811,0.0072389417,0.029020416,-0.032576606,-0.011952135,0.039276112,0.0044591175,-0.007824954,-0.022347847,-0.047274295,0.005131264,0.031233238,-0.03894185,-0.018501552,-0.050705086,-0.0302873,-0.037390154,0.009006946,0.0028324875,-0.018732851,0.017653676,0.009048099,0.004963011,-0.02495602,0.016793223,-0.025773276,-0.014592393,0.015645962,-0.018269416,0.04990655,0.027675081,-0.0073429756,-0.051082976,-0.043172404,0.013426487,0.018432923,-0.0015970442,0.0050129793,-0.05437749,0.005256447,-0.017953295,0.0493021,-0.029433792,-0.003385325,-0.020194434,0.011418218,-0.005419043,0.03719571,0.009586674,0.009515637,0.0175252,-0.025097746,0.01907835,0.018471738,-0.03273751,-0.030108659,-0.03189722,-0.007426981,-0.0014864355,0.031160042,0.009067597,0.047811154,-0.04565537,-0.04424391,-0.04954262,-0.026184268,-0.020658016,0.006834717,-0.042456448,-0.032355987,-0.022180162,-0.015388612,-0.007029841,0.014058855,-0.0055223187,0.04028492,-0.0062743463,0.047081143,-0.0027969405,0.032350358,0.03498052,-0.03811191,-0.017847516,-0.014391242,-0.02160501,0.014582623,-0.016835632,0.005911099,-0.015530576,-0.001791341,0.033546116,0.04623311,-0.012776154,0.02499308,0.037658874,0.014425123,-0.01974673,0.043894418,-0.037810896,-0.030352557,-0.041010864,0.029747829,-0.019102937,-0.037587367,0.018324682,0.051743288,0.034876477,0.046235405,0.029346308,-0.0059434064,0.0012395784,0.0011895288,-0.015828306,0.029893722,-0.022347573,-0.016592149,-0.025543487,0.058999866,0.004398448,0.027862007,-0.024181057,0.03462169,0.029161585,0.047124743,-0.040667456,-0.01810217,-0.041123673,0.027979897,-0.05302525,-0.009161848,0.020517875,0.0319687,0.018481454,0.051602032,0.028359264,-0.006778336,0.032254104,0.004076873,0.027619151,0.02483169,-0.006914688,-0.03503737,-0.014409816,0.0029750122,-0.040882643,0.01116832,0.021142112,0.040122647,0.0020071296,-0.022709172,0.020876516,-0.010152094,-0.0064260075,0.047567416
-0.033485375,0.03929422,-0.0011849381,0.030604353,0.029370725,-0.0013465578,0.013238866,0.026911618,-0.04571723,0.04419192,-0.018955654,-0.010992034,0.0329416,-0.02114002,-0.049840223,-0.038468678,0.0037415107,-0.027086921,-0.0067569544,0.01762912,0.0012758246,-0.02124935,0.032402564,-0.038351096,0.008464357,-0.03498868,-0.0059412043,0.034704056,-0.030540481,0.022947447,0.029522354,0.039906226,-0.010378865,-0.0018151716,0.027496343,0.0070570414,0.020206548,0.0036186145,-0.013734404,0.013524504,0.03824094,-0.037673242,0.024956346,-0.048673466,-0.035513476,0.0078026373,-0.039078973,-0.0017044072,-0.01673206,0.013144906,0.012621432,0.022234403,0.01818899,-0.033708796,0.042636886,-0.043973316,0.02452144,0.03259728,-0.03173605,0.012555671,-0.0064378125,-0.0213764,0.025795197,-0.021156298,-8.802516e-05,0.021041024,1.8107185e-05,-0.0210207,-0.0056962688,0.03898172,0.03814188,-0.04505625,-0.005364051,0.020576205,0.0022711945,0.04338551,0.027491849,0.033694986,-0.021626063,0.014112271,0.025176607,0.009408816,-0.0019768502,0.010588993,0.014248396,-0.0211694,-0.04614059,-0.038726512,0.036563616,-0.00666223,0.001147615,0.024474628,0.02608736,0.01987162,-0.03779167,-0.023072166,-0.020030517,0.023086341,-0.04499453,0.0007519468,0.015346804,-0.0064697526,0.04797369,-0.03740435,0.014640659,-0.04016387,0.0007138013,-0.028672416,0.036094863,0.008484518,-0.0221967,-0.016167594,0.025949253,0.028970359,-0.028515568,-0.046143495,0.027108531,-0.018488709,-0.033382725,-0.01211832,0.007310488,-0.029143274,-0.03170552,-0.011147461,-0.00068325497,-0.009123732,-0.0022704476,-0.013584559,-0.0232109,-0.013320318,-0.044002745,-0.024645751,0.043221395,-0.011832353,-0.031374503,0.021455273,0.042252276,-0.03018617,-0.03579097,-0.038565867,-0.02474319,-0.036695924,0.0032607168,-0.050103154,-0.013114247,0.03458477,-0.043729473,-0.028925236,-0.04749516,-0.0059440914,-0.009685925,0.02952864,0.022121523,-0.02212491,-0.042073224,-0.014152486,0.04196508,-0.045586012,-0.050541244,0.03595302,0.037226427,0.023166241,0.02765021,-0.015808484,-0.0040245634,0.03657399,0.03567826,0.04547845,-0.04503103,-0.034953948,-0.01806281,0.0063450555,0.020159176,-0.018164426,0.007481606,-0.045631766,0.031912226,-0.027927786,0.035620708,0.029569438,-0.015281458,0.02471957,-0.015730724,-0.037670486,-0.00786688,0.044192683,0.015200456,0.03782338,0.019325739,0.020562636,0.007989501,-0.028988533,-0.036527246,-0.025555454,-0.05203789,0.020839585,0.0051999246,-0.034505315,-0.013536889,-0.040079545,-7.7177654e-05,0.015872804,0.026075399,0.040993586,-0.03202709,-0.011663771,-0.038153168,-0.035642497,0.0095192855,0.039743327,0.014979516,-0.033167843,-0.014517253,-0.033090115,0.034802,0.022896819,0.0083331065,-0.020454464,-0.011655767,0.014619851,0.0005643802,-0.0053027915,-0.0112895,-0.028225569,0.0167422,0.008483681,0.016494837,0.0074805017,-0.014420831,0.050841767,0.0044998303,0.025839793,0.017144082,0.053495526,0.019003479,0.045898445,0.022025691,-0.007964308,0.017723387,0.04432718,-0.019417536,0.045123823,-0.026104188,-0.01967851,0.019313077,-0.025845138,0.030609092,-0.03728342,0.014174299,-0.04321998,0.009320692,-0.029092304,-0.032685187,0.033159163,-0.052460004,-0.032473385,-0.03976928,-0.029520925,-0.006264518,-0.0149666155,-0.039547667,0.027832793,0.019061852,0.009544596,0.019239347,-0.04042611,-0.034403227,-0.02014753,0.014786765,0.017439079,-0.030328128,0.021005036,-0.0104682,-0.023860577,-0.0272557,-0.020882541,0.0045046043,0.0314112,0.028156668,-0.02494762,-0.0031342795,0.02645949,-0.037912756,-0.0068987254,0.02752157,0.016080767,-0.024851732,0.022785809,-8.347027e-06,-0.03855548,-0.023605565,-0.003080956,-0.022150053,0.003933536,-0.03556343,-0.010686496,-0.0290404,-0.035048664,0.0011609197,0.010689712,0.027011195,0.048238296,-0.049387574,0.012565868,0.019292563,0.039243102,0.039984196,0.035141557,-0.004946432,-0.019827276,-0.009948583,-0.03809477,-0.02206906,0.0438282,-0.05134358,0.009822936,-0.0069374624,-0.007370502,-0.0006824525,-0.0056544044,-0.008725271,0.021121146,0.02092736,-0.0058893925,0.030073568,-0.022939874,-0.01261356,-0.0059305136,0.005608252,-0.013799226,-0.04154522,0.029231222,-0.027597692,0.029179221,-0.0293715,-0.02814373,9.173354e-05,0.002519968,0.03763613,0.0028616074,0.052407295,-0.05217403,0.032996308,0.003534949,0.008818805,-0.030056115,0.019958826,-0.0104715135,0.043507185,-0.007887803,0.0073513454,0.026209306,-0.009048251,0.033660337,-0.02308069,0.03697388,-0.043817516,-0.012143671,-0.029979598,0.0036615469,0.027085938,-0.036410093,-0.011161169,-0.05145144,0.021733897,-0.010347794,0.0155486055,-0.0204821,0.0056472355,0.013952977,0.0144216465,-0.05184403,0.03699998,0.034674928,-0.016582234,0.02459261,0.018660301,0.021156209,0.042765044,0.010687554,-0.049729053,-0.0065486813,0.021824848,0.047322944,0.034177795,-0.036396354,0.040105548,0.0027979005,-0.002368613,0.002714066,0.03614055,0.02258797,-0.019543683,-0.01941296,0.022950266,0.012180749,-0.037455443,-0.028273376,0.03421867,-0.009792536,-7.410908e-05,-0.03710306,0.030397259,0.022170331,0.032524437,-0.011861614,0.015897745,-0.008723748,-0.0037327982,-0.023882652,0.034952257,-0.038966868,0.022533216,0.044929054,-0.031594824,0.036459543,0.03978188,0.019658955,0.013245147,-0.012118222,-0.034413602,0.023354607,0.021340014,-4.308239e-05,-0.032252535,-0.025996882,-0.04106293,-0.0014845922,-0.021399254,-0.029461116,-0.021082994,0.01689875,-0.04268086,-0.032483667,-0.022413729,-0.017913233,0.04613299,0.0068635405,0.015330972,0.026104834,0.0075979116,-0.036407556,-0.0018650896,0.0120209195,-0.018289393,-0.02761759,-0.018508444,0.0027009316,0.0020976944,-0.010638522,0.018534293,-0.015946234,0.026229756,-0.00056268834,-0.040970817,0.006371281
0.024033325,-0.04485347,0.02998562,0.0025224707,-0.004187575,0.035377834,0.041779038,0.011383241,0.034257438,0.040022314,0.030551724,0.011904452,0.017102709,-0.03766788,0.041566204,-0.0055820267,0.006507646,0.0077599217,0.013271697,0.01221338,0.03287009,0.012307335,-0.03451575,0.014151072,-0.0034632094,0.042383637,-0.012120713,-0.00377427,-0.043172125,0.040437657,-0.009648917,-0.02709062,0.028129596,-0.010936478,0.021215146,-0.025317835,0.026262637,-0.022480292,-0.008136208,0.03489929,0.003282279,-0.017993975,0.0011671701,0.040162835,-0.007802629,-0.013507039,-0.027584068,0.03662731,-0.026407951,-0.015307381,-0.034344114,-0.02716634,-0.015422848,0.047422063,-0.039873157,-0.02994528,0.037660133,0.024476612,-0.032277275,-0.014702836,0.03400661,-0.026631195,0.014277874,0.036062546,-0.02780669,-0.030050635,0.0012267333,-0.022695396,-0.028220467,0.03750158,0.044808418,0.042364046,-0.003954674,0.0058844653,0.015818233,-0.021521201,-0.025622224,0.026614958,-0.013166135,0.0010032277,-0.02190645,0.043018274,-0.029240299,-0.008327918,0.044776067,0.03047996,-0.0073079923,0.0052238917,0.03513971,-0.0035529672,0.008386944,-0.046504386,-0.018282851,0.03270324,0.036621537,-0.008530539,-0.0077615054,0.006458608,0.031766817,-0.014188409,-0.032163396,0.025416605,-0.025291726,0.030053342,0.030405685,0.020930674,0.02957752,-0.003696401,0.0062627927,-0.040165424,0.017442828,0.040064596,0.0076376447,-0.025413806,-0.008589895,-0.0040182085,0.017129084,-0.019048179,-0.019520033,-0.02281365,0.012416922,0.021668518,-0.033326793,0.022454368,0.008661322,0.027392343,0.0019851632,-0.013320864,0.00505948,-0.036583763,0.028999846,-0.006599864,0.013064673,-0.010523004,-0.022359295,0.018927645,-0.026831208,0.032421324,0.038936634,-0.050989445,-0.0019633526,0.0058342395,0.0058752457,-0.052325476,-0.017115548,0.0031227376,-0.037356827,-0.03929007,0.02361163,-0.0022411973,0.01744602,-0.005417498,0.011441135,0.01601718,0.008300434,-0.0064495276,0.03796374,0.0047001312,0.019667346,-0.025573296,0.013692901,0.0047091465,0.033347037,0.033699725,0.021346653,0.01717513,-0.021721777,0.023765277,-0.039212897,0.035266526,0.039834574,0.0126002915,0.019201018,-0.01130489,0.03489801,-0.011715614,-0.021842575,0.048017867,0.035660893,0.031865742,-0.020749396,0.019390266,-0.005495245,0.035702907,0.00082425005,-0.035327155,0.010213522,0.006352622,0.03910396,-0.021613708,0.010428421,-0.015947105,0.032023415,0.020358821,0.028258186,0.01681189,-0.009517068,-0.023101876,0.028111754,-0.006843413,-0.015549333,0.03502998,0.017687455,-0.0141830975,-0.023860568,-0.012213046,0.0054775826,-0.015785009,0.038880326,0.028261404,0.037550103,0.011376108,0.00584243,-0.014476183,0.041711863,-0.052197155,-0.01151326,0.024614591,-0.03140604,-0.022364186,0.028751401,-0.011068857,0.004047058,0.008016601,0.039857022,-0.03905629,0.0050229332,-0.013103391,0.0056834463,-0.009357669,0.010986554,-0.023029922,0.007834616,-0.017640729,0.008225848,0.014869328,-0.03984032,-0.02153656,0.028946951,-0.010014693,-0.035099402,0.042788386,0.02112164,-0.011115689,0.03377907,0.043612506,-0.04956956,0.0014452136,-0.037985794,-0.009690021,-0.03382678,0.013422449,0.039246645,0.034194432,-0.006210446,-0.006486569,0.011491292,0.02400321,-0.0036737525,-3.8035952e-05,-0.02543536,-0.0067004357,0.053603016,0.022087969,-0.051788792,0.038829613,0.033137243,-0.014568086,-0.0018918884,0.018551458,0.002544954,0.0125631755,-0.014015608,-0.04785007,-0.029786794,-0.0354528,-0.051073898,-0.04266947,-0.0032532695,0.030911969,0.01757923,0.0024494794,-0.03660576,0.031796463,-0.03337288,-0.03407565,0.008186796,-0.008558811,0.028925182,-0.008266832,0.037545983,-0.007142921,-0.003291888,-0.04970804,0.016824827,-0.026750468,-0.010540247,0.01124044,0.022735786,0.034352913,0.0029749284,0.026824651,-0.03857228,-0.0048487056,-0.0030298256,-0.014871747,-0.007044976,0.022906672,0.03639875,0.0073231054,0.015187292,0.0037340848,0.02137971,-0.023429817,-0.0064053442,0.005355917,-0.03530878,0.02266314,-0.024014987,-0.048528116,-0.031806186,0.047367316,0.04023544,-0.00028070534,0.027304592,0.02640705,0.034711976,-0.011117926,0.026604561,-0.0016104096,0.022233626,0.028419366,-0.017527694,0.0481698,-0.03586213,0.0024696137,0.040036306,-0.0034365428,0.044908967,-0.026347252,0.01137835,-0.027983822,-0.0023781196,-0.03850901,0.025292777,-0.01888961,-0.052839868,0.042919863,-0.0014200363,0.007866509,-0.03788467,0.033148337,0.023960464,-0.04490609,0.009170343,-0.042422824,0.00885991,0.01425217,0.029131796,0.016175939,-0.043566145,0.03209849,0.012039507,0.039798718,-0.02739065,0.04532664,0.03899668,-0.050335884,-0.004226055,-0.032976903,-0.025824433,0.037947237,-0.042404372,0.009656712,0.03288973,0.015763484,0.011334885,-0.011598268,0.026274946,-0.050409887,-0.03460739,0.039995316,-0.008138082,0.045416486,0.028005807,0.0341693,-0.021479346,0.039102256,0.012105868,0.053443648,0.007016093,0.013458904,-0.009968738,0.022638557,0.044847548,-0.023343856,-0.005314837,0.027435794,-0.050297342,-0.022433355,-0.008867219,-0.021360261,-0.015630348,0.003829492,-0.014286552,-0.006354399,-0.017888853,0.010841828,0.028571624,-0.038614206,0.022580627,0.042385712,-0.009305826,-0.03801037,-0.040573414,0.013007652,-0.03211321,0.042114094,-0.04282401,0.00941293,0.0047023706,-0.0099427495,0.0011570954,-0.0075265006,0.026651027,-0.020738421,-0.04284707,-0.007884803,-0.0031071557,0.045365352,0.036820345,0.033518285,0.03320729,0.033813015,0.0317381,-0.01962412,-0.042355523,0.007682101,0.028628906,-0.03256168,-0.012710805,-0.01007464,-0.025322046,0.014823255,-0.03165122,-0.016424892,-0.001606634,0.016791515,-0.043474834,-0.0075900573,-0.010366685,0.026839748,-0.005294393,0.030741397,-0.007131116,0.04414089
0.021809263,0.0144457985,-0.016958762,0.03834796,0.04174773,0.0017517143,-0.024269212,0.017505024,0.022816433,-0.03534874,0.0045765876,-0.03179713,0.024983453,0.04229253,-0.010846317,0.03376353,0.003958034,0.033678487,-0.046896406,0.004638939,-0.052153308,-0.014324222,0.027836341,0.006720307,-0.0061113066,0.0231342,-0.051710602,-0.024539765,0.016950974,0.014285737,-0.0027984888,0.009779073,0.014605845,-0.033787895,0.024635775,-0.0076735723,0.011220118,-0.010692716,0.015658703,-0.00081139896,-0.0076284963,-0.02915695,0.004844585,-0.007358347,0.0058145155,0.020515583,0.018421834,-0.030284168,-0.056903683,-0.012458857,0.012823328,-0.03376633,-0.027242683,0.039724533,0.033527113,0.02468948,-0.003249518,-0.025494676,0.0076425374,-0.037502,-0.0188561,0.04827757,0.023350285,0.051829945,0.016469272,-0.03967148,-0.01315643,-0.018189145,-0.0034352962,-0.024948886,-0.0031416586,0.03640493,0.017749172,-0.02080745,0.00042345884,0.05407965,0.020784741,0.0049294946,-0.0449931,0.028410064,-0.017012578,0.017931832,0.016951604,-0.036001436,0.014512241,-0.03036173,-0.011342132,0.009833687,0.055426594,0.037091386,-0.043637734,-0.05365874,0.03777813,-0.0014791368,-0.010544818,-0.024045026,0.02417902,0.004988192,0.01981337,0.009129845,-0.009656373,-0.008201295,0.01342332,0.018327683,0.027715381,0.0055214274,0.049338955,-0.016919192,-0.043685056,-0.01142867,0.031204598,-0.012462239,-0.028777936,0.01875122,-0.0070943395,-0.029962145,-0.014912438,-0.013358936,-0.01949375,-0.012110672,0.046305712,-0.019211026,0.037809223,0.03018024,0.024366768,0.01579784,0.00025533885,-0.00321778,0.043041624,-0.009477828,0.010377048,0.0067757345,0.035616547,-0.04762965,-0.049847428,-0.042861007,-0.016316343,-0.009276178,0.025721528,0.0076337657,0.0061945803,-0.015384092,0.02410678,-0.03801633,0.03962325,0.017064517,-0.04219311,0.03342085,0.0070285015,0.0021461116,0.014014862,-0.030438071,-0.050982215,-0.04865544,-0.00093347975,0.01381247,0.02218107,-0.026043782,0.03625984,-0.006768813,-0.043048915,-0.026537469,0.003945783,-0.045440502,-0.046034414,0.0014833205,-0.040899117,-0.024945723,-0.018234467,-0.013283674,0.0015863028,-0.03240593,-0.0004709286,-0.014883566,0.04202187,-0.009078645,0.006940068,-0.041612346,-0.04434261,0.037063777,-0.0054157428,-0.008313327,-0.012583939,-0.010193908,-0.043597437,-0.034146167,0.020267451,-0.05054291,-0.041705355,-0.023124121,0.0055565233,-0.036954906,-0.029869923,-0.051445868,-0.048351496,-0.00042599242,-0.023096252,0.044307105,-0.046349354,-0.027930308,-0.006943357,-0.022846079,0.039547507,-0.0031900308,-0.047100145,-0.0092512965,0.0014450594,0.03308507,-0.020521542,0.029382652,0.041675117,0.01864231,0.0060951784,-0.03717482,-0.008976301,0.01900629,-0.007777114,-0.03417979,-0.0074431947,0.0071021146,-0.05075448,-0.011756648,0.01836122,0.011473424,-0.027837073,0.028388405,-0.0018164155,-0.024981627,0.008076439,-0.04233889,0.0007001229,0.041452605,-0.043216873,0.0012982879,0.02687075,-0.0064328886,0.02070133,-0.0009477361,-0.0320292,0.005940425,-0.0026824148,-0.011010455,0.01937017,-0.004211609,0.006314002,0.041497372,-0.03837487,0.02691414,0.029200055,0.006583887,0.031245716,0.0015391039,0.029227836,0.035913903,-0.010332413,-0.03719902,-0.023402452,0.013265798,0.01528603,-0.03795896,0.009322817,-0.005072573,-0.011873537,0.009346074,-0.053927492,0.03419635,-0.04405457,0.019235773,-0.04638055,0.022063877,0.00043992602,0.0018113556,-0.02571761,0.0106066605,-0.01229896,0.016423395,0.029100599,-0.039553925,0.02358348,0.035862308,0.015497511,-0.029972529,-0.010993428,-0.031428523,-0.051076118,0.024897655,-0.012294232,0.034742754,0.021072008,-0.013413573,0.002263703,-0.0026967071,0.022767019,-0.015592381,-0.043862514,-0.038422465,0.018742168,-0.03676727,0.030685402,-0.032268677,-0.05272723,0.010958248,-0.0058852327,-0.038144927,0.011829136,0.01633789,0.005985139,0.022121357,0.030838216,-0.025311481,0.017759265,0.05380126,-0.014648099,0.013064432,0.011882912,0.009443795,0.02062788,0.036272,-0.014974599,-0.00299728,-0.016611679,0.031776972,0.03820897,-0.014375617,0.017552108,0.021078471,-0.015773905,-0.042116426,0.021242823,-0.007967576,-0.020560011,-0.016406333,-0.03155863,0.036898583,0.04769797,-0.0072039617,-0.04581415,0.026413864,-0.051365647,-0.038792025,-0.020036489,-0.018422013,-0.009613561,-0.035567082,0.008953205,-0.0005495388,0.027862307,-0.032297976,0.009281533,0.030485714,-0.032038365,-0.029082583,-0.032405768,0.009857406,0.010618346,-0.012495894,-0.040048555,-0.019274473,0.020720841,-0.023298774,-0.05813015,-0.012431464,-0.032575257,0.030685361,0.012308682,-0.012772631,-0.045950264,0.027570412,-0.0027207492,0.0004488846,0.017646296,0.022485744,0.007487385,-0.045979388,-0.033374775,-0.005183173,0.0019799042,-0.040304407,0.0028070973,0.025935214,-0.007700782,-0.030200925,0.026494917,-0.039193038,0.011495741,-0.014946574,-0.0071788398,0.021866104,-0.02278517,0.033776905,-0.03618188,-0.0059249466,-0.020437224,0.00087909313,-0.0014527754,-0.0023342345,-0.013550104,0.03866101,0.017209526,-0.032075517,-0.0007518337,-0.007692365,0.012005346,0.014436448,-0.018861555,-0.0049779387,-0.0036504387,0.024117962,0.012632629,0.014134928,-0.027088372,-0.024501104,0.021526568,0.006679742,-0.004591471,-0.012529513,0.019769555,-0.0404541,0.014123604,0.019006038,0.010798114,0.0020370306,-0.018380417,-0.005283514,-0.024454957,0.012145984,0.00083782536,-0.007782104,0.0089630075,-0.05151712,0.04842244,-0.024698414,-0.026818492,0.04096071,-0.029236645,-0.045258507,0.0314314,0.020446869,-0.022618506,-0.0084588565,-0.0064147417,-0.033517182,-0.0060970075,0.023027781,-0.057987984,-0.0018741861,0.003389191,0.035967927,-0.004837841,-0.036664307,0.0012624767,-0.0164657,0.03435623,9.824153e-05,-0.022920473,-0.030830052
0.021406628,-0.016602635,0.0047716107,0.022183824,0.011953973,-0.015330246,0.014845981,0.03477546,0.030545702,0.03350646,-0.038971957,-0.009198111,0.018464154,-0.015767464,-0.02263879,-0.030880937,-0.020533198,-0.008880098,0.015247175,-0.027430903,-0.0284866,0.026853714,0.012167136,-0.028565904,0.020939449,0.023058457,-0.017831724,0.045604125,0.02186101,-0.023667062,-0.0059008426,-0.021195646,0.043218553,-0.018928856,0.0024848944,-0.03998949,-0.018631147,0.0151968,-0.04551626,0.00096469466,-0.007825231,0.042374,0.03715466,-0.037629753,0.016753005,-0.03215974,0.004107467,-0.0020382898,0.053051632,-0.0060717063,-0.04282924,-0.034521982,0.012601837,-0.029023703,-0.027017392,0.008118462,-0.004168775,-0.04057223,-0.018635215,-0.015065778,0.058254242,-0.01688786,0.014683215,0.029255588,-0.029635973,-0.043291785,-0.02543611,-0.0007077737,0.017155427,0.0017037622,0.025337234,-0.030438805,5.9483627e-05,0.03135108,0.034187093,-0.014241957,0.011223432,0.0211667,0.055301633,0.02408678,-0.043754943,-0.02812657,0.025416812,0.012437615,0.03424874,-0.024131447,0.021967875,-0.016114298,-0.02102317,-0.024395619,0.011294283,0.0138072055,0.020009099,0.015527143,0.020575797,-0.0032744252,-0.019914588,-0.00010496165,0.0267544,-0.043098297,-0.012583275,-0.033382196,0.0133284945,0.0047555882,-0.039430033,0.037360113,-0.031572994,-0.015547373,0.047621895,0.0042023226,-0.03960263,-0.014062241,0.03951228,0.03171167,-0.006762679,-0.042556617,0.029219573,0.013863185,-0.04953321,-0.023905478,0.013156473,0.024363415,0.016329912,-0.04240419,0.032834705,-0.020824106,0.035192415,0.03660251,0.005531478,-0.025046345,0.017744062,-0.012772845,-0.009761293,0.020035041,0.037290867,0.0035160114,0.02603768,0.031890165,-0.0059202053,0.0004732218,-0.0031596336,-0.027968371,0.028560663,0.011374543,-0.022504693,-0.006761241,-0.04919346,0.025575178,0.031864356,-0.0026884505,-0.027554784,0.01984556,-0.0048886756,-0.036652602,-0.025842462,-0.01579873,-0.006827125,-0.026056215,-0.029090986,-0.033695046,0.04369624,-0.010999994,0.031581964,-0.028297327,-0.00246689,0.004986086,0.022385983,-0.017137246,-0.013586617,0.02583348,-0.012677254,-0.029085176,0.04472667,-0.006398758,0.0377581,-0.0056693205,-0.020130873,-0.00041069894,-0.034723427,-0.03918203,-0.008195226,-0.008899163,-0.03085315,-0.021662347,0.028159818,0.012633288,0.037727937,-0.019390045,0.017336052,0.0045899404,0.01095539,0.021064466,-0.02616269,0.039105754,0.028929742,0.009736626,-0.025516305,0.0048596202,0.023537818,0.011984356,-0.003663588,-0.0036674084,0.025906889,-0.036231603,0.023723537,0.044961087,-0.0274613,-0.022567978,0.020650297,0.011178035,-0.029587796,0.018021615,0.016269566,-0.014550398,0.03383123,0.0019972285,0.0278513,0.0055069895,0.057079777,-0.010204698,-0.019556157,-0.003378129,0.010796646,-0.017353458,0.025389556,0.032252513,0.013575481,-0.03432506,0.0060326834,0.03571234,-0.040208433,0.03219896,-0.00078224385,0.017451977,0.035838187,-0.044702176,-0.02627045,-0.024803478,-0.011920276,-0.015593019,0.04032755,0.03236771,-0.044835877,0.053491306,0.0071628895,0.037068,-0.039577484,-0.049538523,-0.045209568,0.0038038825,-0.012233856,-0.02385195,-0.03250908,0.0044186837,0.0016009848,0.034485027,0.04169369,0.046871252,0.005037999,-0.049218275,0.0067920266,-0.027498985,0.00010749318,0.0076007815,0.01613453,-0.046792816,0.027573494,0.031003611,0.017082607,0.0132378945,0.0047145505,0.013113227,0.024386508,-0.04545134,0.012612069,-0.0029947076,-0.03870955,-0.0006076918,0.03368813,0.0136814,-0.02955547,-0.028921591,-0.039537057,-0.0037431542,-0.022707837,-0.035534594,-0.015354528,0.009918201,0.014073059,-0.025416851,-0.05091992,-0.029390793,0.008667834,0.021296576,0.037946537,0.0003509727,-0.018580057,-0.036838554,0.051560324,0.01425059,0.005943951,-0.012364723,0.024923334,0.0056429515,0.048457928,-0.019001076,-0.009933613,0.013917587,0.033172652,-0.017275244,0.042294286,-0.046185054,-0.04677073,0.0019179563,-0.043631647,-0.032311667,-0.0018266542,0.0326256,-0.023491615,-0.023912737,-0.041683275,-0.004262767,0.05014528,0.028289096,-0.022874556,-0.0013990969,0.012988727,-0.03905489,0.011143647,0.028985806,-0.022104667,0.020683,-0.04460212,-0.0062018787,0.04686405,0.021234555,0.025301857,-0.0431277,-0.0439523,-0.0043935054,0.046041142,-0.020684827,-0.026181739,0.018273933,-0.031022042,-0.06379245,-0.018687773,-0.007959011,-0.045629766,0.0019802132,-0.0017795275,-0.012214933,-0.007979437,0.024250187,-0.0031136775,0.026303766,0.012346605,0.020777086,0.039776295,0.016507722,-0.024347503,0.0023573646,0.023884324,-0.019555705,0.013688671,0.0067930464,-0.034444474,0.030108076,-0.017468527,-0.009997232,0.010300372,0.008666473,0.024919257,0.045034155,-0.035858423,0.034559026,-0.04208533,-0.0013594532,-0.0065168776,-0.02744716,0.027712923,-0.00209414,0.014359183,0.027472476,-0.00832594,-0.016361168,-0.011607138,-0.04310002,0.019763228,-0.009182496,-0.0019677992,0.04795976,0.020880256,0.012264062,-0.01340307,-0.008452446,0.02249885,0.039345957,0.037553158,-0.031425584,0.010687308,-0.020086607,0.03625045,-0.009111157,-0.010480456,-0.022860242,-0.024772314,-0.006343797,0.0059470697,-0.008120117,0.035238445,-0.028059337,0.021717653,0.045854334,-0.040457338,0.003764546,-0.00091705355,-0.0292517,-0.050705053,0.019511336,0.012376713,-0.014776855,-0.012651666,-0.0066957166,-0.009708047,0.038986098,-0.0075029368,0.009974735,0.00987087,-0.00743405,0.04185393,0.046307903,-0.018036136,0.04817127,0.012991292,-0.026749626,0.008357307,-0.016849205,0.008788193,-0.024642276,0.029399984,-0.00025160104,-0.028259514,0.00023765586,-0.017391652,-0.021699235,0.0026934508,0.015590999,-0.005419487,0.048622254,-0.035792563,0.009492988,-0.036751438,0.03166349,-0.032331552,0.005974955
0.014783322,-0.034552123,-0.028873865,0.045776766,-0.023462228,-0.014072674,-0.02674024,0.01899808,-0.014003175,0.0108586205,-0.02122904,-0.024614356,-0.03080163,-0.045179147,0.004729179,-0.017875966,-0.02137655,-0.026892459,0.03536079,0.03208564,0.01827904,-0.026863365,-0.029573169,0.0078022922,-0.0104439575,0.016907772,0.042105146,0.01887878,-0.008908956,-0.009200121,0.0026900368,-0.050716273,-0.018290468,0.0059079234,0.01242242,0.03370152,0.016292322,-0.0059790057,0.014973501,0.004316138,0.033343006,-0.011328547,-0.013550131,0.032125395,0.032866668,-0.010394472,-0.012012879,0.020823244,-0.04858894,-0.052654598,-0.011128752,-0.0017042179,0.028264027,0.017012838,0.026976775,0.0010792989,0.0058675553,0.026525782,0.030469636,0.010257481,-0.019784685,0.016190806,0.04227519,-0.012325263,-0.026802825,-0.023327414,0.009680524,0.02819466,0.035039984,-0.030005684,0.020643158,0.04624745,0.022553515,0.008222948,-0.025891133,0.039024174,-0.047560763,-0.036882978,-0.03937113,0.032850303,0.0075277123,-0.04498141,0.020665748,0.013552974,-0.03839462,0.02104541,-0.016050508,0.0011032339,0.014532443,0.005021543,0.0022922503,0.013533366,0.029245136,0.033974275,-0.003102397,0.0025922263,-0.023057068,0.0024924816,-0.024868658,0.032749515,-0.03303478,0.011674828,0.001147836,-0.0025520774,-0.035571493,-0.0449408,0.01703502,-0.035764646,-0.017544016,-0.04002065,-0.012920425,-0.05064697,0.011450393,0.0051055346,-0.022449262,-0.0017725705,-0.020250838,0.016953196,-0.024866436,0.007683281,-0.0012091382,0.010798767,-0.0018333393,-0.019323375,-0.008203812,0.014802087,-0.03366951,-0.012400386,-0.0029487675,0.029932829,-0.04911376,0.041277383,0.030479198,-0.039092403,0.013479653,0.004173349,-0.01065806,-0.016772617,0.019098425,-0.03583125,-0.021802757,-0.008250673,0.0017346666,0.017109275,-0.021130357,-0.04280238,0.047647733,0.0028832513,0.026718568,0.0005651059,-0.034478765,0.013155888,-0.038082916,-0.012081805,0.015275204,0.030362654,-0.03327234,0.012927612,0.011048864,-0.030645937,0.024841411,0.03280245,0.012706725,0.012815504,-0.030358857,0.015393302,-0.0069545605,-0.018151136,-0.021714961,-0.017098797,0.006675905,-0.012523153,-0.030331464,0.0249573,-0.017111564,-0.054465353,0.013298317,0.0015745023,-0.0012795422,-0.008212883,0.021399215,-0.052276585,0.031747255,-0.032623675,-0.029277734,-0.018846322,-0.03673761,-0.032398522,-0.012997608,-0.016996782,0.02076628,0.018681983,0.0025346503,-0.013273169,0.0481254,0.005814943,-0.00694808,-0.024084631,0.03948261,0.009501294,-0.02467624,0.033939462,-0.009138786,0.01895588,0.050822895,-0.022422768,-0.026213393,-0.0012498612,-0.031367846,-0.02634425,-0.039405473,0.0056925374,0.0422346,0.017479368,0.034611046,0.023046616,0.010611452,0.027382316,-0.03281648,0.00524513,0.0033068599,-7.6108976e-05,-0.027083518,-0.033352885,0.047544923,0.022536295,0.01327931,0.012956865,0.0033623872,-0.022100754,-0.0039526774,-0.045433313,-0.028429894,-0.0047324793,-0.024444483,0.04131513,-0.02953715,0.027650028,0.027552484,0.024350915,0.035969526,-0.020856902,-0.029252721,-0.027808538,0.031298563,0.026106903,0.011904647,-0.0016100057,0.030647952,-0.005931306,0.008084255,0.027274456,0.033972397,-0.04495498,0.020152485,0.005456838,0.00034743044,-0.038081557,-0.043874215,0.0061453516,0.01366852,-0.01275353,0.025379688,-0.02837571,0.033884287,-0.0268247,-0.009360803,-0.013058403,-0.013029118,0.036250893,-0.009295399,0.034524668,0.012961449,0.009894407,0.008182117,-0.008482205,-0.025603585,0.009191213,0.008370474,-0.031046992,-0.019865,-0.025049333,0.032582097,0.004253528,0.039876882,0.03718335,0.02081631,-0.02082075,0.0115920855,0.0088092955,-0.016691992,0.01884598,0.006459662,0.051966935,0.0024591007,-0.03172913,0.007901185,0.044956565,-0.030143645,0.02339653,-0.05142185,-0.0063454593,-0.045316137,-0.028992392,0.005769966,-0.013403862,-0.045268174,-0.04309073,0.034653388,0.050152827,-0.02130273,-0.02597836,0.0014918153,-0.0443438,0.042919904,-0.009935749,-0.048223738,0.0071653035,-0.015003069,-0.05558503,0.008319114,-0.016917055,0.037236936,-0.016834268,0.03517402,-0.022275804,-0.039511222,0.0298639,-0.03286959,0.03339514,0.028772945,-0.042839132,-0.043673515,0.04292438,-0.047060553,-0.024927905,-0.0072786785,0.016761338,-0.032876093,-0.008259859,-0.003845639,-0.036300775,0.034300346,0.034310125,0.013185138,0.027227493,0.0030399116,0.040980536,0.005590056,0.016804688,-0.013359241,-0.014285349,0.005136423,0.011109825,0.026968895,-0.05088277,0.013719751,0.014669741,-0.047783922,0.056649398,-0.054496236,-0.014575712,-0.04532218,0.016342638,-0.023204295,0.0077683935,-0.001192969,-0.043869182,-0.025985437,-0.011639688,0.046074096,-0.00470258,-0.0056385538,-0.053126987,-0.040700052,0.013737721,-0.009180278,0.017821586,-0.055000834,-0.039400656,0.024937458,-0.04992345,-0.025727903,0.039126497,-0.014651915,-0.028487006,0.037229206,-0.041227113,0.04733144,0.0091178855,0.025251875,-0.051991634,-0.04785735,0.022213135,0.01972035,0.039189532,-0.0013266372,0.0021191563,-0.0061849067,0.039643504,0.008582584,-0.05635699,-0.0061440594,-0.0033755312,0.03564125,0.01855614,0.004320425,-0.008327011,-0.024634812,0.003526728,-0.0092829345,-0.006712588,0.007530237,-0.018385647,-0.041349996,-0.05105052,-0.018945701,0.016145017,0.010706105,0.0068705305,0.0089365225,-0.002033572,0.009340121,0.0048088045,-0.0215693,-0.009525397,0.020122942,-0.038987294,0.035557445,-0.008048689,0.024378031,-0.031410247,-0.028660296,-0.036126982,0.018477956,0.0074363337,0.007138849,0.016145697,0.007881322,-0.0009366242,-0.036830872,0.0030501217,-0.007130957,0.0023769776,-0.041672546,-0.024871552,-0.024281085,-0.029776089,0.018003749,-0.011103932,0.021975562,0.017902588,-0.03417055,0.0014824911,-0.022652581,-0.006219208
0.02012536,0.020233683,-0.032042053,-0.017543595,-0.039523937,0.015812982,-0.030396754,-0.047199074,-0.0114226965,0.01608399,0.01882108,0.0449601,0.032482382,0.0049877386,0.042837456,-0.012392807,0.018575482,-0.01422638,-0.0065996596,-0.011347922,0.014217501,0.031322714,-0.053371366,0.01724099,0.0385961,0.035077706,0.04634975,0.030455822,0.0134888925,0.019562703,0.007565252,0.025246186,-0.025395278,0.03957215,-0.030665344,-0.0061677867,0.030268397,0.027548969,0.012569153,-0.02142899,0.02185624,-0.00942297,0.022166716,0.022706853,-0.005870108,-0.009642345,0.030081425,0.03551078,-0.0041375714,0.006257739,-0.02060311,-0.018471844,0.017930504,0.04000231,-0.042026613,-0.0068449304,0.039735522,0.039554466,-0.01343924,-0.021566728,0.029276999,-0.032330737,-0.016926555,0.006353341,0.012075282,0.0007545032,-0.035317767,-0.010281784,0.011624201,-0.043256886,-0.0017869781,-0.014928169,-0.040799804,-0.039799396,0.050173238,0.03304995,-0.016050862,0.03402994,-0.03360618,-0.044196136,0.0028740102,0.030280722,-0.038305175,-0.020538751,-0.028989619,0.029239586,-0.012238671,0.0041990895,0.0038087496,-0.028279396,0.025264941,-0.03579027,-0.0025861033,0.048769902,0.013788219,0.039097734,0.014435649,-0.03190386,-0.029473606,0.005472716,0.025114672,-0.020652376,0.0067562084,-0.006260124,0.020470208,0.03341428,0.0011344011,-0.025753187,-0.014128222,-0.044555027,0.009768234,0.03954778,-0.01834991,-0.04538966,-0.019345688,0.0011184693,-0.023312258,0.0064369454,-0.02084006,-0.036839277,-0.0105622485,0.033444185,0.01393524,-0.0074996157,-0.019511782,-0.024914786,-0.043563474,-0.0313215,-0.015483056,0.029812027,-0.03555064,0.040062603,0.032220334,0.03495454,0.053362165,0.012970771,0.031622045,-0.026570085,-0.026722992,0.04418632,-0.0075152405,0.008311604,-0.028902465,0.013041409,0.03406945,-0.04516525,-0.02673178,0.0417688,0.014947293,-0.0095110545,0.018908508,-0.023852726,0.03729031,0.02238345,-0.03175038,-0.009233386,-0.0073903417,0.007693463,-0.009357431,0.004526027,0.019455137,0.040487196,-0.0019213179,0.043168627,-0.01127301,0.0460588,0.027447963,0.006973966,-0.009893381,-0.005238146,0.036959983,0.011214275,0.02217416,-0.012641571,0.012101133,0.020145783,-0.032327533,-0.014845148,-0.0011019822,-0.03318429,0.01923939,0.018857375,0.0009633771,-0.0229915,-0.019562501,-0.009900137,0.018278215,0.027687788,0.0020873179,-0.00051683554,-0.0011803802,-0.015730118,0.050457064,0.02100701,-0.029164152,0.01873403,-0.024684029,-0.034296237,0.06636092,0.001295108,-0.017110592,-0.011348595,0.0087536825,0.031790916,0.042790186,-0.01568592,-0.009808542,0.051667348,0.0036695704,0.026391167,0.029228726,-0.042530462,-0.030922346,0.035225246,0.040034898,-0.039251328,0.013557476,-0.010949085,-0.027608654,0.024912713,0.040855974,-0.043317243,0.06824054,-0.020048773,0.014235053,0.0059605585,0.015450694,0.019505491,-0.03420415,0.031055294,-0.045041572,0.042364642,-0.009668964,-0.056192838,-0.023792464,0.016006012,0.016313782,0.0062554744,0.014808546,0.02669456,-0.015068019,-0.008993408,-0.0011908622,0.06380257,-0.0027643705,-0.003951054,0.020719387,0.04529026,0.013038173,0.009145034,-0.0132709695,-0.060284805,-0.034869164,0.013926925,0.0035648292,-0.005752904,-0.022485036,-0.015603318,-0.008540236,-0.046263654,-0.028748011,-0.00041526754,0.025797358,0.043272313,0.009380462,-0.03220141,0.003680638,0.036442615,-0.0080259405,-0.013959045,-0.00319699,0.04001756,0.0024687557,0.05045048,0.03160305,0.046925664,-0.03415356,-0.021144738,0.039801605,-0.04276849,0.044536874,0.042327374,-0.034802396,-0.024474047,0.017088449,-0.02849869,0.019503895,-0.0287145,-0.0063367314,0.011567548,-0.0151254805,0.019548161,0.04743159,0.025000775,0.032734275,0.009317963,-0.043142807,-0.04557147,-0.024645125,-0.009757691,0.039206125,-0.01021405,0.024782171,0.022776261,0.05331727,0.024095472,-0.012576287,0.03458517,-0.0057247994,0.021605851,0.027762715,0.020781364,-0.040402867,0.033628933,-0.0039959336,-0.026157008,-0.0285215,-0.00042438073,-0.02040638,0.014300602,-0.0066498453,-0.041369412,0.030486329,0.02543995,-0.03750496,-0.011455013,0.03163494,-0.029031526,0.052339975,-0.052937146,0.026160905,0.029383237,0.017980263,0.016009672,0.045182444,-0.017425118,-0.009339491,0.0010348241,-0.04400352,-0.04245814,-0.010250108,-0.045791045,0.032306693,-0.04151145,0.011958506,-0.01379051,0.013787228,0.023311999,0.023441793,0.02910349,-0.02205253,0.015541338,0.023153499,0.005891062,-0.007758435,0.03759958,-0.038136814,-0.0012436188,-0.012004648,-0.032303017,0.025909936,-0.019738827,0.002773246,0.029938454,-0.01826426,0.02014232,-0.01408418,0.033238165,-0.013967398,-0.012281339,0.035689022,-0.0083863875,0.013740807,0.0014708155,-0.04441275,0.008683365,-0.016470201,-0.024401441,0.028260428,0.016820041,0.0015193605,0.032993633,-0.0317558,-0.012880979,-0.027132133,-0.012105733,0.042620767,-0.03189624,0.012052103,0.013272043,-0.025619544,-0.013590651,0.033850897,0.013179241,0.03312522,-0.017628906,-0.012575689,0.02710908,0.029762555,-0.027373547,-0.020359766,-0.010159185,0.039706882,0.01642425,-0.021830933,0.04827587,-0.04537223,0.018428337,-0.029494686,-0.028531522,0.036300108,0.04376579,-0.027037488,-0.016516896,0.013636381,0.039835773,-0.028366705,-0.022246838,0.0106372265,-0.028717985,-0.023389902,0.030948685,-0.049249172,-0.031551328,0.03047461,-0.051275298,-0.0070209173,-0.018277291,0.01816415,-0.020828834,0.037885465,0.010331271,-0.035044443,0.0029832572,0.039450873,0.0089907,-0.010814684,0.008476451,0.039285548,-0.038399294,0.040013693,-0.0064367517,-0.0058287852,-0.00063096476,-0.009875093,-0.029256672,-0.02817578,0.026282975,0.010426409,-0.02352019,0.008964881,0.007774491,0.029359732,-0.047711894,0.028474925,-0.044195622
-0.038338643,0.044053808,-0.048722606,-0.00039317962,-0.053545102,0.012168477,-0.0060325796,-0.02755958,-0.05749118,-0.041257653,-0.017427148,0.030870806,0.024008822,0.00083761447,-0.014453055,-0.03602038,0.023387145,-0.054500356,-0.0011178188,-0.043883532,0.030060416,0.03815734,-0.045343745,0.03193019,-0.04240885,0.0044725817,-0.0037951374,-0.00985928,-0.025603175,-0.03514923,-0.025984079,0.046717443,-0.0036625185,-0.03776588,-0.016608415,0.026538545,0.02899199,-0.0440926,-0.007187208,-0.008224445,0.019233529,-0.047666315,-0.013285831,0.0335797,-0.04290956,0.040693827,-0.0094698155,-0.01558976,0.03410129,0.018732093,-0.033462837,0.0065807356,0.00014168187,-0.014973862,-0.035080273,0.03497057,-0.030911222,0.029049594,0.030356338,0.03896417,-0.02148664,0.03291589,0.0013976895,-0.02991955,0.019838154,-0.043847326,-0.055898704,-0.020682788,-0.04151927,0.0041424325,-0.019186549,-0.0040097055,0.008091881,-0.039391566,0.033842646,0.008887775,-0.020462966,0.021604791,-0.00023825528,0.046925377,0.03813806,0.036858678,0.048329547,-0.024759261,-0.044534728,-0.037650377,-0.011426112,-0.0028301408,-0.028785491,-0.044384006,-0.02499917,0.038110435,0.02223245,0.034266368,0.028928302,0.02326959,0.048463345,-0.0053170086,-0.007178757,-0.024870217,0.04231236,-0.04088239,-0.0043947487,-0.025545543,0.036776237,-0.0051700487,0.015918704,-0.002210191,-0.026847938,-0.051472902,0.02808031,0.025200993,0.022591226,0.016826967,-0.018356193,-0.056497056,0.033981815,-0.006943722,0.021983517,-0.029049536,0.04923744,-0.014708476,0.021262674,0.026905743,-0.038037777,-0.03826653,-0.007313515,-0.04606153,0.022696475,-0.047653463,-0.012616938,-0.012103601,0.029735696,-0.014535906,-0.024353301,0.011083044,0.02863583,-0.026514705,0.041758485,-0.024441158,0.004055828,-0.01555016,-0.037353355,-0.008375064,-0.005474832,-0.02886341,0.019824522,-0.045781326,-0.011390486,-0.04273531,-0.014587787,-0.0528092,-0.015203081,0.012833377,-0.020065593,-0.053963568,0.03769856,0.002671733,-0.012249343,0.025875889,0.01922976,0.012528112,-0.028977975,-0.02762684,0.03660355,-0.0028544622,-0.03082245,0.006294515,0.03405143,0.0019247701,0.027914431,-0.053253982,0.000629047,-0.03024662,0.025259424,-0.004237415,0.03351067,-0.009368087,0.022847695,0.024565626,-0.0367649,0.026312117,-0.035670523,-0.038079806,-0.007990809,-0.021417411,0.016099798,-0.025170615,-0.03489933,-0.026704378,0.011168966,0.001978683,-0.005277446,0.03490967,0.017010644,0.0035877996,0.013148795,0.01656532,0.010938154,-0.03905195,-0.0092128655,-0.020518282,-0.0016737764,-0.035724953,-0.037340857,0.0034988364,-0.0067592342,0.0075196573,-0.03965618,0.019320259,-0.00237319,0.034820154,-0.00813133,-0.046937957,0.0030131713,-0.034219034,-0.02101518,-0.0017565769,0.03250313,-0.045333713,0.019738838,0.02518224,-0.022567436,-0.02637565,0.0059320354,-0.01121702,-0.0051791836,0.019453827,0.00081587775,0.04307434,0.004548534,0.03391486,-0.011144771,0.017786067,0.03907431,-0.009738361,0.009158768,0.0016788873,0.012460692,0.006456981,-0.011948671,-0.032412462,0.0122416075,0.0036510106,-0.03443567,0.042984705,-0.045705333,-0.018820332,-0.04745561,-0.044301074,-0.023635482,-0.025507383,-0.013072141,0.041002445,0.010197775,0.0118047865,0.049995907,-0.02758113,0.01625525,-0.026996825,0.01804423,-0.009330002,-0.0023401328,0.03185898,-0.0367616,0.050110206,-0.04563384,0.026350962,0.0034490142,0.039561402,-0.0046674157,0.01358766,0.039652638,0.0066783107,0.0032901857,0.015981194,0.03587658,-0.013028532,-0.052324094,-0.05244616,-0.0065838294,-0.002185612,-0.019451858,-0.0068685445,-0.02050713,-0.018044563,-0.009731292,0.016685117,-0.024876809,0.03571836,-0.0061487476,0.017846003,-0.010729434,0.02337631,-0.028290782,-0.018899713,0.03621558,-0.0011872444,0.0069292067,-0.010514367,-0.02163545,-0.015507943,0.010074572,0.018978804,-0.01626173,0.007835842,-0.027051453,-0.007377509,-0.024152955,-0.002485306,0.015451705,-0.0027536447,-0.0211822,0.020515008,-0.009961963,0.051859006,0.004891025,0.0155279655,-0.0041106194,-0.019323373,0.028845273,0.02543483,-0.013851498,0.033786356,-0.013114641,-0.043425694,0.029914707,0.0055476082,0.007811449,0.0355065,0.018515792,-0.010537835,0.047178023,-0.0071950248,0.02729526,0.05872234,-0.02449205,0.036688577,-0.006157626,0.013591712,0.006447861,-0.02766873,0.031527266,0.016449787,-0.037442293,-0.021560194,0.023479814,-0.026460344,0.020676088,0.016313286,0.03697811,-0.016095076,-0.01937673,-0.034494836,-0.022859992,-0.028761528,-0.018329766,0.020450294,-0.03237084,0.03413087,-0.01692816,-0.015686993,0.028609535,-0.0117981825,-0.046813324,-0.00889686,0.014706957,-0.03927146,-0.023901552,0.012650211,-0.008905071,0.010918282,0.014468192,-0.03632613,0.0025010046,0.016301226,0.013414826,0.017768791,0.013063675,0.019007102,-0.028472671,-0.04541974,0.048979048,0.03355893,-0.041577987,0.025681673,0.004980753,-0.029180823,-0.02469109,-0.027983323,-0.025465006,-0.0102339145,-0.016474813,-0.023920225,0.012901796,-0.0021917438,0.0026764977,0.046511713,-0.01088683,-0.024794612,-0.02483801,-0.016895141,0.03359128,0.013859557,0.005656436,-0.057031915,0.03585795,-0.044683546,0.009775046,-0.048596576,-0.027666932,-0.05262384,0.015452778,-0.028898766,0.0012136652,-0.035609573,-0.017255072,-0.008637263,-0.0010137686,-0.021491194,-0.040400006,-0.029018672,-0.020399677,-0.04352342,0.0033122476,0.009111702,-0.017693302,-0.03924958,-0.046032816,0.025385533,0.06007456,0.033560455,0.019038219,0.03175434,-0.014976909,-0.016825465,0.039118253,-0.017977145,0.012366878,-0.018809842,0.019399669,-0.037007444,0.05273956,0.002844928,-0.036223173,-0.0017956855,0.026755719,0.025193335,-0.012940863,-0.034132548,0.016112296,0.025999185,-0.043049928,0.02160034,0.034328893,-0.018962895
-0.016742894,-0.033298794,0.014011579,0.0011780411,0.033338055,0.0204613,-0.035305943,0.012066082,0.04073826,-0.040386178,-0.04466188,-0.019689998,-0.0010043075,-0.015160605,-0.038213875,0.025847519,0.035196178,0.039072875,0.020805625,-0.0020362632,-0.017385993,-0.045970127,0.02275378,-0.0019130014,0.024781857,0.015894378,-0.052516192,-0.024722133,-0.026326511,-0.015813453,0.033459738,0.0016150277,0.019067446,0.012414728,0.008013775,-0.0096680885,0.023320273,-0.009811188,-0.0014075593,0.013294735,-0.022807268,0.040232703,-0.009521624,0.02623221,0.019951863,-0.030564398,-0.018757721,0.0029012468,0.01019955,0.024753261,-0.051743608,0.006541917,0.013567912,-0.023869282,-0.048360724,0.02002985,0.010599459,0.025675766,0.004702006,-0.0015578781,-0.04795126,-0.055792723,-0.0020677238,-0.016461557,-0.044829126,-0.009828402,0.007274586,-0.0005250313,0.028875107,-0.002857347,-0.036187034,-0.012162057,-0.023514887,-0.0037565469,0.0127086155,-0.038376976,-0.0030185082,-0.0052172635,0.03425293,0.029857391,-0.03541601,0.044744164,0.013533854,-0.031236757,0.017503252,-0.049786128,-0.027252326,-0.024067238,0.044554092,-0.034723736,0.01802477,0.002292691,-0.0059514437,-0.031196384,-0.025049364,-0.040287066,-0.045632284,0.019949153,-0.004232259,0.014997818,-0.0013493048,0.01564358,0.0066481396,-0.032211475,0.020017158,0.038317908,0.005745318,0.013729536,-0.0061407182,0.03132314,0.037407503,-0.03254269,0.022223681,0.01139659,-0.04138243,-0.0054049143,-0.036024727,0.013900395,0.034934502,0.03345933,-0.016091969,-0.0022333039,-0.0037242959,-0.009438336,0.041300405,0.0046825786,-0.015080801,0.024785608,0.005346363,-0.030618634,-0.024504,0.024665415,-0.0052416287,0.025592942,-0.0047373194,-0.030369591,0.016827114,-0.0056435885,0.018344495,0.033262666,-0.041707642,-0.023228884,-0.0037360536,0.014555831,0.016105942,0.021780483,-0.039498616,0.016806683,0.025684007,0.024516217,0.010158946,-0.05459026,0.04940509,-0.030095205,-0.002127084,0.017183403,-0.044495787,-0.018770976,0.0028124636,0.05195964,0.03728135,0.011352822,0.0012854048,-0.012395896,0.054448403,-0.03488612,0.010003288,-0.009222214,0.024042787,-0.031702608,-0.028190358,-0.0008411903,-0.016178414,-0.0024502142,0.03466814,-0.051318962,0.038291615,0.0047165835,0.011311697,-0.012269624,0.011922428,0.03538935,0.017131202,0.045064032,0.008251396,-0.023715347,-0.025776487,-0.04478934,-0.00062704453,-0.012828557,-0.026358208,-0.041360453,-0.0030588964,-0.045707364,-0.017614862,-0.040404834,-0.018880485,-0.017422374,0.03376376,-0.047657706,-0.007896386,-0.006615459,-0.04045275,0.004092053,-0.003038448,-0.033478223,0.003645926,0.022802036,0.007703496,-0.023301981,-0.013567264,0.010664182,0.03807383,-0.039019804,0.0018181396,0.03281445,-0.034869455,-0.027309714,0.00882768,-0.016210554,0.042360917,0.035628315,-0.028889999,-0.04565829,-0.026351688,0.031401724,-0.03795092,0.015897667,-0.029961543,-0.021861542,-0.027118154,0.032534897,0.04917799,-0.010662456,0.02523764,-0.033686638,-0.016636102,-0.03752545,0.041569814,0.045333702,0.01758132,-0.018318227,0.034722812,0.03701815,-0.00047165094,0.016974645,-0.003328568,0.025943363,-0.015105783,0.03779485,0.020668695,-0.0028902513,-0.00010908455,0.024616009,-0.050654814,-5.86554e-05,0.013949932,0.0015964279,0.016998844,0.0028136573,-0.0074817305,-0.018652754,-0.01297526,-0.04000647,-0.05021657,-0.021352103,-0.030199964,0.004119924,0.0129929185,0.030481663,0.019201184,0.009814788,0.0033661905,-0.016099762,0.042010233,0.0023727808,0.008061589,-0.03249755,0.006696568,-0.01589069,0.0015973587,-0.03183158,-0.022604777,-0.037586737,-0.03354387,-0.03174075,-0.05022362,-0.0121768145,-0.032576766,-0.032498352,0.006864895,-0.013053374,0.03264976,0.0043105893,-0.04850683,-0.0057288515,-0.024122698,0.017733801,0.00015232131,0.007050868,-0.022611665,0.027241636,-0.047668435,0.020182328,-0.04922537,0.028823582,0.03368959,0.009363596,0.013708705,0.043769795,-0.033158656,0.002103671,0.015250327,0.029842725,-0.007805521,0.03432154,-0.03290883,0.00045998863,0.035183046,0.02760572,0.0056606997,-0.011418495,-0.00085551117,0.05482219,0.0047413246,0.023200227,-0.018207625,0.055669356,0.02227503,0.001567594,0.03173311,0.015819581,-0.050472073,0.056667104,-0.012462415,0.05663157,0.03054883,0.030921612,0.0067497874,0.00089477433,-0.022250429,-0.018975656,-0.003665023,0.012957518,-0.0044509163,0.052940875,0.0015220974,0.034234237,0.03551114,-0.0036044098,0.008262786,0.018668504,-0.023614325,0.0013280476,-0.019222949,-0.020099754,-0.020228673,-0.018591989,-0.018019726,0.040440854,0.035633024,-0.04101881,0.0039503206,0.017679526,-0.009632782,-0.025854321,0.02421076,-0.034174416,0.037894674,0.0034933062,-0.03647631,-0.014860935,0.004639001,-0.008912664,-0.009369219,0.038119435,-0.029615343,0.00037918886,-0.02082497,0.038687814,0.038092773,-0.028260991,-0.021592714,-0.048839077,-0.030272542,-0.046570327,0.031754702,-0.008785332,0.019025927,-0.06010841,-0.013410037,-0.039736915,0.025578788,0.011643166,-0.020369865,0.0013123899,0.018346265,0.016370438,-0.0058051697,0.01856292,-0.024170835,-0.025982745,0.035765238,-0.04560355,-0.008564835,0.038659386,-0.02444247,-0.033917952,-0.033094786,-0.034351613,-0.05460487,0.042216033,-0.001485013,-0.05851413,-0.037778202,0.035168115,-0.04344801,0.05475051,0.029312322,0.01643816,-0.0486139,-0.04115644,-0.027333023,-0.011343443,0.037032984,-0.028643517,0.002434644,-0.04116451,0.0043163165,-0.0061196894,0.058539435,-0.003082107,-0.03011417,0.02903299,0.023700863,-0.014982802,0.03669214,0.023189873,0.029132895,0.01702663,-0.006482744,0.011585595,0.019004593,0.026626254,0.021324854,-0.037547268,-0.050077267,-0.04147769,-0.021795593,0.000997341,0.019670583,0.0039930036,-0.014391867,-0.007185714,-0.026767058,0.035864703
0.008183176,-0.031638756,-0.02167785,0.01680414,-0.006209493,0.002821037,-0.025216619,-0.037975542,-0.0062555876,0.018268084,-0.027629502,-0.03750898,0.010775725,0.031033298,-0.057325892,-0.021911712,-0.03717541,-0.011178003,-0.003380198,-0.042307492,0.00086177746,0.03136509,-0.011260544,-0.014931955,0.049864244,0.039255396,-0.052825335,0.036995284,0.0041711656,0.0010238417,0.02820777,0.03379863,-0.015132881,-0.025327887,0.0061341156,-0.006003423,0.010547989,-0.05304931,-0.05771701,0.023556177,-0.031030618,-0.0040060617,0.041726254,-0.006154049,-0.017570851,-0.0039271936,0.011066737,0.03179234,0.05047814,0.0011663063,-0.0079509895,-0.0018234726,-0.0066978484,0.033560313,0.02241565,-0.013193826,-0.033716783,0.01774827,-0.0010463145,-0.018606016,0.022650247,-0.05280701,-0.014448924,0.0030228717,-0.0066259652,0.035865404,0.029996518,-0.023945605,-0.015042173,0.028174622,-0.00855032,-0.003836862,-0.02523119,-0.022506032,-0.033095945,0.0032859154,-0.0008888667,-0.0192778,0.052186508,0.037753925,-0.0050447877,-0.020212932,-0.032095257,0.004510706,-0.02784909,0.020475348,0.0047979015,0.0433917,-0.030580334,0.0150107425,-0.021242833,0.014095114,-0.030530637,-0.03874164,-0.025301106,-0.021722069,0.021477437,0.034532543,-0.047638234,-0.023566267,-0.019195484,-0.042793512,0.009650706,-0.00014556317,-0.048371717,-0.006376141,0.031255357,0.0021465877,-0.0051329224,0.015958656,-0.008164423,0.01584134,0.03536779,-0.03933055,0.03232744,0.020199692,-0.012814393,0.009386971,-0.021792978,0.030347835,0.024718346,-0.013025008,-0.012089049,-0.021402221,-0.001782542,0.005931777,-0.0021510217,-0.015856028,0.019661224,-0.012150898,0.043217435,-0.03389528,0.054579984,0.024293948,-0.03613731,-0.02994435,0.0020962257,-0.017255615,0.0018732839,0.017852584,0.034794666,0.009776082,-0.024290793,-0.035567027,-0.015397909,0.03423138,0.025994346,-0.0066669136,-0.032253552,0.026964398,0.012632991,-0.03200132,0.03324182,0.033338632,0.024607977,0.039371792,0.02381396,0.012214318,-0.035162903,0.0007307228,-0.036500737,-0.010710079,0.038557023,0.006924198,0.006973981,0.029989434,0.025789408,-0.03235244,0.025871497,0.013641239,0.04102001,0.04048047,0.023350557,0.030112432,0.04343709,-0.009747484,0.051578544,-0.009322915,-0.00066526025,0.0013494233,-0.0117377825,-0.033428397,0.014741111,-0.03835807,-0.032346446,0.059527352,0.022185195,0.02641834,0.027368063,-0.027599327,0.0013744092,-0.020509437,-0.012528863,0.027594918,-0.03498331,0.023771511,-0.04103383,0.0264547,0.018900806,-0.0030351293,0.011688549,0.019894669,-0.05173705,-0.027557524,0.04061815,0.0065070847,-0.019713594,0.036519222,0.03685923,0.013709672,0.020094397,0.036273383,0.0490285,-0.041232117,-0.0007276215,0.047041308,0.02235695,-0.044897404,0.051455613,0.01922025,0.036418587,0.016772792,0.030878566,0.0050702896,-0.008750804,-0.04235306,0.024379354,0.0071067926,-0.038000572,-0.0045640296,-0.015595032,0.016730893,-0.010349069,0.018462634,-0.039987672,-0.045494728,-0.029832618,-0.0020044025,-0.029198969,-0.018498478,0.015792727,-0.045108438,0.01980051,-0.016934099,-0.003508731,-0.02649806,-0.04572864,0.039870366,0.012438006,-0.00217913,0.034772996,0.025638884,-0.00562522,0.028448036,-0.03735974,-0.030113282,0.028921425,-0.024919719,-0.04165226,-0.047674518,-0.031158313,0.030647999,0.011813985,0.030374154,-0.028332897,0.021274032,-0.017523402,-0.0028300632,-0.045707688,-0.019182231,0.025511907,0.009257712,0.028222587,0.043377157,0.016486766,0.020559298,0.008149983,-0.011996101,0.022864502,-0.00096951134,0.0057113217,0.010497702,-0.023992673,-0.038806796,0.0022297616,0.034319296,-0.015716894,-0.013241478,0.024022887,-0.017610049,-0.04585259,0.0031568448,-0.011678764,0.024248807,-0.020772742,-0.007672716,0.008258382,-0.031212093,-0.013098606,0.013697405,-0.024752934,-0.024872614,-0.009116493,-0.009833477,0.0072992984,0.029483587,0.03604215,0.04475955,0.020725051,0.022093972,-0.015253325,-0.018071702,-0.016402174,-0.0018312413,-0.0023820458,0.03099995,0.040363614,0.021409025,0.016517987,0.010269171,0.0055580963,0.017691607,-0.03811911,-0.02026311,-0.0005748412,0.0023501825,-0.0049733394,0.03980264,0.014225889,-0.021711506,-0.03956208,0.010323068,0.017748585,0.0140208695,0.034917865,-0.037904568,0.010418479,-0.010632111,-0.024441935,-0.026089225,0.035466395,-0.02327169,-0.031289455,-0.0012850508,-0.003724219,-0.036335748,0.029566398,0.0058236527,-0.04128221,-0.009626455,-0.025807932,-0.011871246,0.007030966,-0.007927294,0.0010866071,-0.03703083,-0.0344269,0.037980437,0.0020299829,0.0014328965,-0.010125484,0.00046849574,0.014225269,0.015701782,0.016239196,-0.014580982,0.00788384,0.00012783741,-0.0053231823,0.033696745,0.033672083,-0.03509084,0.003706152,-0.023180872,-0.018651886,0.030814145,0.033584062,0.021679593,0.008622226,-0.033888493,0.003379728,0.030198418,0.021043878,-0.023345275,-0.016979396,0.031118782,-0.0032264062,-0.03758105,-0.052880686,0.046615355,0.017260186,0.04097742,-0.027297415,0.006865888,-0.004336042,-0.022608137,-0.024443481,-0.03491695,-0.028847286,0.027155912,-0.013900659,-0.017421208,0.03702,0.04485184,0.028438149,0.02319989,0.012070953,0.027076531,-0.02705295,0.046935566,-0.041841168,-0.012659765,0.016655058,1.27850835e-05,-0.013729544,0.020851202,-0.026034616,-0.015604969,-0.002195292,0.021432428,-0.031743627,-0.03311662,0.030258965,0.021475522,-0.024686446,0.048333257,-0.031888466,0.013061613,0.007185007,-0.020040682,0.0260491,-0.038181975,0.015601075,-0.034352854,0.033159092,-0.0012673427,0.007128756,0.0010579502,0.009824971,0.012357557,-0.005236024,0.019019626,-0.0211007,-0.029420184,-0.001004075,-0.047472484,-0.012304033,0.013014834,-0.047092605,-0.018031718,-0.040488407,0.041908063,-6.454411e-05,-0.029000513,0.0042504896,0.02319592
0.049375772,-0.015641915,0.017432427,0.044351336,-0.0081298845,0.02094468,0.014115326,0.025919484,0.005701431,-0.011705536,-0.023783073,-0.031772137,0.011843164,-0.032304633,-0.035626143,-0.009419057,-0.00808237,-0.0061343927,-0.0053763334,-0.0072914897,-0.053808708,0.023356281,-0.026293492,-0.01775633,0.047657922,-0.0115201315,-0.05531159,0.017100878,-0.0459218,-0.023827378,-0.024985706,0.032686476,-0.021594932,0.02823625,-0.0096168,-0.0018890208,-0.033024274,-0.011109551,0.028459366,0.034508716,-0.0018987231,0.018138297,0.02151015,-0.0028151849,0.0204648,-0.030237226,0.008591836,0.03553163,0.0033018624,0.03897059,-0.01583754,-0.040522356,0.01028556,-0.010427107,-0.017760418,-0.048428223,-0.05412885,0.037902184,-0.027314808,-0.0053344136,-0.010960724,0.034659825,-0.021959279,0.012908658,0.0063303243,-0.036802158,0.025415558,0.011260808,0.027284414,0.025040934,-0.016048942,0.015481464,0.01717862,-0.032003522,-0.03270078,0.01098789,0.00076923723,0.023177505,-0.0005600182,0.027880467,-0.03546856,0.0013724583,-0.02624466,0.0188233,-0.0016740677,-0.020497514,0.0054783947,-0.021212492,0.009089663,-0.0020072267,-0.009892115,0.0035760067,-0.0033551992,0.039047085,-0.012567787,0.035613153,-0.03857089,-0.018148683,0.030933227,-0.022947835,-0.0074195093,-0.025688244,-0.008190073,0.00058361277,0.03488401,-0.024816224,-0.018028164,0.01816081,0.04677395,0.015556937,0.031886406,0.012741168,-0.0074523524,-0.0056648795,-0.00089037366,-0.019054973,-0.02869155,0.03629221,0.0415219,-0.042976882,0.0070995186,-0.027318727,-0.006655709,0.023588205,0.001002308,0.03337407,-0.009288392,0.031103032,0.034951657,-0.008118247,-0.03318315,-0.0070096417,0.0110879615,0.0021507675,-0.029611923,-0.03195689,0.05648005,-0.03590222,0.01923325,-0.010053025,-0.013137299,-0.038877115,-0.011544931,-0.015286376,-0.036332674,-0.024403166,-0.049370605,0.019037854,0.008881188,0.02068712,0.009023711,0.021202473,-0.026020959,-0.0011244831,0.01771933,-0.02837911,-0.010070287,-0.04963205,-0.03583849,0.043584354,-0.027251562,0.021621786,0.010567593,-0.047913123,0.009006509,-0.016264852,0.026101653,-0.03312844,0.025523039,0.0017969325,0.015779445,0.012407732,-0.011617938,0.048218265,-0.01434386,0.024086611,0.00016206616,-0.02187878,0.037304524,-0.038751096,0.05129234,-0.03898744,-0.040090382,0.026727453,0.034141235,0.0019505735,-0.008508716,-0.04056022,0.029574538,0.04508774,0.046045206,-0.048501663,0.012088175,0.039250623,-0.0099417735,0.02551624,-0.024170406,0.024037382,0.012904646,0.0036973367,-0.00657362,-0.005359128,0.0037250384,-0.0024335834,0.0077596214,-0.009772711,-0.00469318,0.03507659,-0.00379002,0.027425611,-0.0066392757,-0.006397202,0.022380814,-0.0073761297,-0.03392895,0.031904392,-0.00030839894,0.039225664,0.0008703389,-0.005601781,0.017376008,-0.049273584,0.004325473,0.0044934815,-0.014236403,-0.022446794,-0.014894359,0.03673451,0.018259043,0.009664327,-0.0410801,0.013823587,0.022802655,0.03111072,-0.010420413,-0.034213506,0.027079988,-0.014347292,0.037994158,-0.024451999,-0.009712434,-0.02998359,0.029646397,0.0031391673,-0.020012407,-0.014826586,0.02423388,0.03693226,0.0141448695,-0.021115242,-0.011244987,0.049423687,-0.0055243433,-0.045881763,0.024093451,0.033035416,-0.023349121,0.051976267,-0.028881881,0.03812021,-0.005488297,0.03129536,-0.0096318405,-0.032608885,-0.016734479,-0.037128463,-0.018251542,-0.022774542,0.016849583,0.04543945,0.012686509,0.0018672904,-0.039371427,-0.00420221,0.008055306,-0.015973412,0.03195619,-0.021709057,0.034384675,0.015073524,0.02047275,0.031995863,-0.01103084,0.03157484,0.028116977,0.01420265,-0.046968438,0.028272362,0.002273521,-0.030850833,-0.036571488,0.0046247696,0.018929286,-0.026036015,0.01906665,0.026687248,-0.01883641,0.029250655,0.0025832385,0.0290108,-0.04757273,0.028661033,-0.002994325,-0.010468953,0.007885239,-0.015173559,-0.047403663,-0.026970534,0.0026275534,-0.033828247,0.017596407,0.05017824,-0.01936973,0.04334145,3.169112e-05,0.046648655,-0.020136366,-0.00040434234,0.011865581,-0.002896725,0.031488065,0.041500855,0.030672895,-0.00038490735,0.0068071117,-0.037749767,-0.025344322,-0.024234416,-0.03233536,0.026120398,-0.053149797,0.01756177,-0.048143923,0.02619248,-0.028262533,-0.011440636,0.02395014,-0.014781137,0.0117082605,0.04046756,-0.021731082,-0.017981919,-0.03035339,0.02453842,-0.036243588,-0.03522894,0.035738833,0.001639544,0.03392608,0.03188871,-0.022544969,-0.02933387,-0.015513607,-0.021113161,0.033259105,0.0015313965,0.021843847,0.02440228,-0.031667747,-0.0046361517,0.000290096,-0.041872595,-0.0066681025,-0.0403546,-0.033090897,0.04638909,0.038402405,0.013369637,-0.0223362,0.038288165,-0.03247233,-0.034200776,-0.03691664,-0.0030367507,-0.007417098,-0.008417851,0.050402354,-0.02260295,0.020546937,0.028558481,-0.05268053,0.02531308,-0.03014283,-0.025921466,0.03508698,0.028591909,-0.04194062,0.027042236,-0.03136803,0.040288027,-0.016793462,-0.023450695,0.0055381865,-0.029401597,0.014405011,-0.010649177,0.018422442,0.03586259,0.03008937,-0.007273565,0.020604933,-0.011182532,-0.0028506466,-0.0105731515,-0.016072784,0.010820648,-0.02086741,-0.010413551,0.008472991,0.0061051846,-0.034511797,0.02248514,0.040681377,0.011983728,0.03462296,0.030676898,-0.038504884,-0.038369205,-0.01054092,0.019548718,-0.037643146,0.03178737,-0.016433569,-0.008749588,-0.03304077,-0.043881446,-0.0052899867,0.009182583,-0.0129932845,-0.00874659,0.0013998203,-0.03348153,-0.006658664,0.002685727,0.013564721,-0.0056472234,0.021121932,0.0015971727,0.01710519,-0.013409753,-0.022260655,0.013408122,0.0076741762,0.039364018,-0.0309132,-0.022823717,0.03329073,-0.03130584,0.030250411,0.040333826,-0.023765022,0.026611427,0.039163284,0.019325525,-0.036184542,-0.008695185
0.016526362,0.0268527,0.030964458,-0.032884147,-0.017581336,-0.031661313,-0.027822252,-0.04871368,0.012802576,0.017777488,-0.030247562,0.048124343,0.0050293105,0.042151492,-0.012999797,-0.024395682,0.021550601,-0.036293536,0.0076759784,-0.016877169,0.044252716,0.045966417,-0.016532805,-0.0075093573,-0.014868348,-0.036688555,-0.007748629,-0.046173926,0.011258258,-0.016575726,-0.0003615451,0.0018732805,0.029234033,-0.009186479,-0.04678497,0.026900139,0.03454085,-0.03449761,0.009753768,0.0018282343,0.027368149,-0.029552303,0.005406981,-0.010092202,-0.012119338,0.023774475,0.0167276,-0.028531197,-0.0029548414,-0.016311213,-0.045312088,-0.02783408,0.015575053,-0.00478886,0.03434599,0.026453905,0.008244866,0.028090268,0.02666086,0.017719826,-0.027078927,0.020587852,-0.019251445,-0.043384325,-0.038990293,0.03932694,0.032583315,-0.015179998,0.040395588,-0.0070391498,0.041543454,0.03789398,-0.039984703,-0.0131928595,-0.023264693,-0.0024166838,-0.022712136,0.048903335,0.013149507,-0.014845553,-0.029793719,-0.007713812,0.04935354,-0.023116134,-0.053025257,0.04895834,0.0049574603,0.00068280526,0.049780793,0.00506782,0.018224634,-0.031870317,-0.030345805,-0.03583798,0.039832935,0.041053303,0.022001168,-0.037923206,-0.014107547,-0.030327829,0.048152097,-0.03378909,0.034972195,-0.039908655,-0.011321043,0.029227259,-0.011163111,-0.014803491,0.027661012,0.040579632,0.018432876,-0.011386515,0.024475845,-0.029138943,-0.012412252,0.041960914,0.050145186,-0.024412721,-0.0058593187,-0.034951907,0.048882913,0.039964717,-0.014020067,0.027436508,0.032613337,0.031386506,-0.0017069626,0.025498109,0.04603754,0.011181411,0.038934983,-0.006992981,-0.007011835,-0.04467856,0.024099255,0.03351712,-0.020929446,0.0056640767,-0.047534373,-0.02721342,0.017873012,-0.0339496,0.02247036,0.0058377674,0.008752614,0.03103547,-0.030262886,0.038976293,-0.014909528,-0.010792778,0.002068079,-0.00960678,0.04724046,-0.026886223,0.02626643,0.030999022,-0.041983128,0.04143549,0.006402929,0.00012601617,0.022390524,0.022709914,-0.035244614,-0.037378255,0.04853132,0.011575519,-0.013051608,0.027687743,0.015806451,-0.0405694,0.0049431473,0.02465613,-0.032059185,0.025623638,-0.020967484,-0.0074441107,0.036661565,0.027456516,0.0043199765,0.011809656,-0.032722052,-0.009097326,0.008048224,-0.007495867,0.02003388,-0.028875882,-0.022936344,-0.015062964,-0.024839476,0.052794367,0.0030784262,0.039830897,-0.018233687,0.01007758,-0.0074767848,0.04242942,-0.022901677,-0.020876575,-0.011099171,-0.034228984,-0.00029726434,-0.01453805,-0.008540597,0.0010672946,0.011854465,0.028503519,-0.021754425,0.025381165,-0.031382937,-0.022830205,0.022164976,-0.0046934644,0.01032516,-0.0056718793,-0.03459181,0.025213603,0.014891239,0.0015919751,0.03127958,-0.018055523,0.030497227,0.014721867,0.012668458,-0.021731704,-0.020858267,-0.024275245,-0.016418925,-0.026310531,0.017388688,0.0055559115,-0.045992486,-0.013359299,-0.021961508,0.02934114,-0.041121718,-0.021444378,-0.013581271,0.018085303,0.027999442,0.04847989,0.019403243,0.015171037,0.023190755,-0.013879824,-0.014047391,-0.0005797194,0.034966234,-0.028540384,0.025259377,-0.045818362,-0.019270848,0.047878094,0.03740993,0.017173858,-0.0036964354,0.0010886258,0.017359652,-0.0009547447,0.032087483,-0.030017614,-0.037151407,-0.011798119,-0.026434144,-0.011961868,-0.026771717,0.0026716653,-0.04444084,0.045514125,-0.028948871,0.026990475,-0.03204811,-0.023760164,-0.030048955,0.01119588,-0.0094015505,-0.03042785,0.0059234207,0.037292253,0.015941221,-0.010518254,0.01149692,-0.042989653,-0.011444641,0.0406869,0.0016431068,0.030937163,0.032011963,0.03514783,0.0064915842,-0.016892117,-0.052985076,-0.013145588,0.013814141,0.01642402,-0.016911017,-0.0053314096,0.011160035,-0.022182927,0.034119572,0.038537223,-0.047909915,0.0011863541,0.032235265,0.036942277,-0.042088658,-0.040525734,-0.046116434,0.020424359,-0.011420565,-0.039986227,-0.043652814,0.011973786,-0.04012604,-0.04691923,0.01980946,0.039178498,-0.033831634,0.0016079488,0.030418348,0.0034901572,-0.004804513,0.010583279,0.002361159,-0.03505321,0.024925992,-0.034071896,-0.0008460697,0.028472072,0.025795793,0.055251047,0.0057063065,0.0060808966,-0.022806486,-0.00090997195,-0.05967083,0.05908216,0.027233215,0.010364158,-0.03439563,0.0146876145,0.013116928,-0.0013829428,-0.041063927,-0.016856719,-0.042749878,0.035033878,-0.06497949,0.04468556,-0.010056824,0.00095545064,-0.050135557,0.035603005,-0.007686333,-0.024480518,0.015942955,-0.01811307,-0.02840571,-0.016068589,-0.017121222,0.037924096,-0.0275984,-0.014368687,-0.027385954,0.010066632,0.00092594617,0.018655458,-0.04533314,0.0058241305,0.030476552,-0.046238422,-0.029915381,0.029714787,-0.007834962,-0.04245092,0.03319822,0.005319459,0.033740517,-0.026321622,-0.030472446,0.023441784,-0.047285903,-0.013038163,0.021852713,-0.01793894,-0.021919535,0.0006342733,0.034380607,0.0141271185,0.032669973,-0.04543892,0.029871479,0.011713167,0.010284077,0.025598822,0.03679317,0.015132064,0.02494913,-0.022427073,-0.0074394853,-0.037540473,0.030442907,-0.01824994,-0.0050099585,0.010590687,-0.026484787,-0.046386614,-0.00052051473,0.0059876116,-0.034203894,0.0256874,-0.05657235,-0.024449177,0.018690046,-0.0052088345,-0.02922422,0.018247,-0.038890943,0.019605704,0.020353,0.039943773,-0.026092805,0.006377946,-0.029021913,-0.028161407,-0.019138856,-0.029977966,-0.036157012,-0.04906154,0.0017595994,-0.030681137,0.05166523,-0.0032061345,-0.01992443,-0.0045997417,-0.010196502,0.027819194,0.0024975846,-0.020996055,0.039814465,-0.034001328,0.02699573,-0.009586718,-0.031423464,-0.024543213,0.011325144,0.028622467,-0.012131668,-0.026826289,-0.034101617,-0.03459964,0.032019798,0.0028248865,-0.04157859,0.008245266,-0.029695949,0.006186596
0.014538606,0.015710926,0.011264961,-0.024931092,0.00334994,0.016316285,0.03168309,-0.040666617,-0.03598323,-0.0013451368,0.004496607,-0.008383584,-0.006348611,-0.015498492,-0.028941665,0.012818787,-0.014992489,-0.025526252,-0.02699493,0.00488886,0.024747396,0.005426779,0.0017446129,0.049751583,0.031256404,0.008840149,-0.019355588,0.024835426,0.023917621,0.036421467,0.033787668,0.0078202095,-0.003313874,0.005401416,0.0016717482,-0.028779723,-0.039801657,-0.014524841,0.040558714,0.0267306,0.0345539,-2.6913262e-05,-0.017308643,-0.023337461,-0.013549864,-0.015191305,-0.030214513,0.04685791,-0.01741651,0.027616926,-0.007719722,-0.044980053,-0.026617724,0.014068802,0.04471736,0.002743071,-0.022596918,0.009110908,0.005925604,-0.028391775,-0.019426538,-0.026138077,-0.0035571049,0.033321463,-0.049573366,-6.491128e-05,0.004166783,-0.0009046677,0.0019527613,0.030877274,0.029173426,-0.009845894,0.04700688,-0.0053121885,0.001516865,-0.0098296795,-0.023398412,-0.039231192,0.0041171997,-0.0010015562,-0.010189514,-0.012924033,-0.04320666,0.00026916605,0.038363513,-0.0068376116,-0.032942906,-0.02679911,-0.005630629,0.03461822,0.008836107,0.016489107,0.043693718,0.0034615512,-0.032324526,-0.0018040121,0.01622244,0.017029803,0.023704536,0.006145043,0.021709643,-0.04261637,0.03444739,-0.0021343336,-0.020940106,-0.005661966,-0.03645226,0.04261776,-0.006909486,0.038921524,0.046935234,0.024784379,0.00602486,0.018268354,0.004912112,-0.026925987,0.03175694,0.041195508,-0.0090050865,-0.025253208,-0.026664214,-0.038957067,-0.005525562,0.034102093,0.014382869,-0.040757943,-0.00291869,-0.025888685,0.0010966039,-0.019703696,-0.00026730684,-0.011761502,-0.037952665,-0.010711926,0.022276117,0.0017045154,-0.033647865,-0.013664543,-0.022019561,0.0009257675,-0.0063499343,0.012093789,0.04329031,0.023773024,0.004987507,-0.0063052718,0.03282977,-0.00813419,0.04391448,0.03373265,0.031509392,-0.037821364,-0.010198117,-0.027877986,-0.03831197,0.021583121,0.024559576,0.02782833,0.012992085,0.0005712983,0.008773052,0.023894418,-0.003517247,-0.032451823,-0.032637734,0.020344388,-0.03790029,0.0013087407,0.010473506,0.002617356,0.034179315,-0.0014540252,0.019256467,-0.039979637,0.009593944,0.032462046,-0.03620131,0.04186034,-0.009690037,-0.034391545,-0.022291666,0.032898836,-0.02654741,0.019067893,-0.01410009,-0.018152835,0.03896704,-0.04058533,0.039126012,-0.021204997,-0.010722667,0.0027721552,-0.04100145,0.0073689423,-0.042686213,0.049365364,-0.030812489,-0.022070948,-0.034795586,0.021914696,0.035694286,-0.029620944,-0.0077059707,0.035829335,-0.0033596733,-0.01383733,3.8101378e-05,-0.015456366,0.008278127,0.037323013,-0.0013911001,-0.044506244,-0.0077228625,0.011084603,0.049130954,0.008698601,-0.024745263,0.0014351514,-0.0001918159,0.045313273,0.0044797435,0.015935332,0.014341453,0.005705005,-0.012161729,-0.027479567,0.0013601027,0.01844595,0.027508032,-0.044651933,-0.009628716,-0.0022626368,-0.029269654,0.04770752,0.0040120794,0.031608522,-0.0006445919,-0.012775374,0.0006659174,0.010351296,0.033628512,0.034377545,0.012797227,0.030061835,-0.030088982,-0.034997806,0.031908024,-0.014944019,9.76114e-05,0.018035319,0.05177486,-0.03032404,0.015114025,0.003992731,-0.035867378,-0.018177548,0.0372575,0.008194101,-0.026036559,0.011236886,-0.042014237,0.022904975,0.03319601,0.018554421,-0.001314528,-0.029312309,0.031315874,-0.015766228,0.020065889,0.0393276,0.004569438,0.031640425,-0.045812182,0.044650923,0.027101904,0.0016935217,-0.049297396,-0.019963544,0.040533453,-0.011534786,0.014298514,-0.0030137463,0.0016797943,0.009998796,-0.016249483,0.039855603,-0.040678054,0.028723799,0.021416986,-0.047712944,-0.015650485,0.04928621,0.03473232,-0.016741864,-0.028439358,-0.029824331,-0.016442787,-0.0185403,0.021985129,-0.05156113,-0.018407186,-0.009930342,-0.019852875,-0.022396337,-0.008887183,0.0055827256,-0.03340481,0.02114735,-0.027361304,0.017886063,-0.030984372,-0.02861945,0.0020603125,0.0254361,0.0030418714,0.0040898067,-0.006866727,-0.022495719,-0.052247897,0.034780208,0.007199025,0.033260822,-0.043590494,-0.017882988,-0.01043058,0.020641014,-0.028064702,-0.0098525835,0.0063229813,0.010781608,-0.008747063,0.018924633,-0.016653983,-0.010481059,0.0131609915,0.017834479,0.031818908,-0.01971575,0.008435581,-0.0053819492,0.00852814,0.011851931,0.013868024,0.0021497542,-0.021167865,0.028539507,0.0053552133,0.0032711085,0.028349476,0.031942546,-0.04545343,-0.02638881,0.001165527,0.014285812,0.03576078,-0.04018369,-0.03747382,0.05356447,-0.01034964,-0.008222054,0.00838538,-0.029419877,-0.022141289,0.028284088,0.037136205,0.0047605126,-0.007968866,-0.025031306,-0.008637753,-0.0146993315,-0.021375341,-0.011192958,-0.04877091,-0.04215062,-0.031465042,-0.042762924,0.03081974,0.0009977922,-0.00081812224,0.020846076,-0.0010017192,-0.004484083,0.038605426,-0.033317376,0.023299063,0.018667748,-0.023944708,-0.023444649,-0.03587186,0.009628042,-0.019743072,-0.012367125,-0.039028693,0.006120127,0.040939976,-0.005538276,-0.020294694,0.032522995,0.035574604,-0.04774167,0.042688698,0.015251936,-0.03259737,-0.03393722,0.032075692,0.03606226,-0.005582248,0.003488313,-0.011120121,-0.03683065,-0.03376533,-0.019439725,-0.014165799,-0.053536322,-0.022995073,-0.010942327,0.002140476,0.015890986,-0.014604495,-0.034342773,-0.0012636,-0.046101175,-0.03036885,-0.04569771,0.05659178,-0.041050065,-0.039753135,-0.039071634,0.02786161,-0.01434272,0.028558122,0.021082224,0.033603504,0.039087854,0.026643468,-0.04118225,-0.0010854607,-1.7681625e-05,0.0092766285,0.03311245,0.038620528,-0.017013386,0.008549749,-0.012293061,-0.02557539,0.00044507117,-0.015974065,-0.010264959,-0.0062452247,0.03215228,-0.0510071,-0.014942483,0.023919398,-0.04317046,0.014874422,0.024348343
0.0508173,-0.030844271,-0.0015016289,-0.03715596,0.053675435,0.0006650095,0.036536098,0.02155127,-0.007655804,0.02019738,0.024694195,-0.03446705,0.029316878,-0.035391487,-0.017591668,0.008839571,0.013507924,-0.040077545,-0.005732204,0.011228785,-0.031623367,0.017417535,0.0071778353,-0.03060518,0.0177649,-0.014080287,-0.012706298,0.029485103,-0.002077521,0.003118141,-0.016913239,0.015584884,-0.018998854,0.024822645,0.02950751,0.023900293,0.045842078,0.020699322,-0.03436648,-0.040574405,0.036885798,0.022317663,-0.022204341,-0.010977489,0.034965456,0.031021042,-0.0012826865,0.016056791,0.023487505,-0.009661062,-0.03153474,-0.04842543,0.0065943454,-0.021878,-0.03484551,0.019789552,-0.028296547,0.052434966,0.022070216,0.015848843,-0.030337336,-0.031820197,0.005213896,0.019290175,-0.012710008,0.037183642,0.024419026,-0.014047219,-0.021367276,0.015115478,0.0071709445,-0.022523403,0.020489156,-0.032860488,0.03236373,-0.026469506,-0.043202028,0.029585011,0.002924433,0.02970506,0.01981265,-0.030443016,0.016820692,-0.023748145,-0.026608422,-0.024429072,-0.009430648,0.013497542,0.023440273,-0.026491962,-0.023267772,0.04138923,-0.023516929,0.014193284,0.0054803533,0.04879365,0.0065892553,-0.024058376,-0.039647344,-0.038641617,0.036244504,0.031109463,0.023622563,0.033258874,-0.03309769,-0.03521858,-0.040841907,0.014114423,-0.035499625,-0.032210086,0.029584184,0.039240517,0.0076813814,0.026872326,0.01148885,0.00061607396,-0.030864133,0.011795102,0.017798113,0.03165907,-0.018692607,-0.048124716,-0.028497217,-0.020834332,-0.0012037997,0.025620935,0.020177657,-0.030693542,-0.0026922198,-0.029777812,0.025154859,0.035043333,-0.015720204,-0.011879237,0.002347643,0.007949605,0.01761745,0.019333214,0.03774775,0.007770349,0.024197701,-0.006274483,0.027224595,-0.01884826,0.041039187,0.0041511822,-0.039861746,0.033022076,0.03706515,0.011716629,0.00047163077,-0.042508688,-0.0530692,0.03127738,-0.025004338,0.01970671,0.016601732,0.041587513,-0.009105599,0.0019562286,-0.008873481,-0.027749637,-0.002848965,-0.013140987,-0.021871664,-0.007517804,0.035581242,-0.0058175754,-0.022415562,-0.022033814,0.017840665,-0.01034914,-0.011450171,-0.013942434,0.019675117,0.043005016,0.007088234,0.032761835,-0.03353398,0.04503713,0.02711944,0.045208525,0.0009565003,-0.0329119,0.025826894,-0.007461995,0.026074301,-0.010370014,-0.015439987,0.03641814,-0.029786788,-0.026951533,-0.042032156,0.012518971,-0.018717322,0.039519865,-0.04583269,-0.017501347,0.036621295,-0.036875416,-0.019535184,0.0010565986,-0.033559773,-0.03568465,0.025929363,-0.03852778,-0.052523684,0.021005005,-0.01863844,0.0072101294,-0.034017954,0.01673437,0.015904054,0.01715112,-0.0014853694,0.004562516,-0.004887934,0.0022006894,-0.0015828656,-0.030752331,-0.028556548,0.014998374,0.006295648,-0.0233198,0.0015746531,-0.02854955,-0.010146192,0.031078944,0.037951365,0.019962179,-0.03581422,-0.029458925,-0.021488419,0.023472114,-0.027149113,-0.007874207,-0.051030647,0.02519435,0.004760616,-0.036298014,-0.04194651,-0.025905808,0.0007173109,-0.020331524,-0.014773863,0.041192215,-0.00090395496,0.006955087,-0.047834788,-0.013077146,-0.033715956,-0.033417527,0.02143128,-0.007423378,-0.0029949117,0.0061107767,-0.01565151,0.03729281,0.031360514,0.03826428,0.00907806,0.0088839345,-0.030193524,0.03492566,-0.046921786,0.03473241,0.011136784,0.028824912,0.033249125,0.014708095,0.004552075,-0.0075162933,-0.02681606,0.026562996,-0.013634961,0.023482934,0.007918222,-0.0020402647,-0.030317826,-0.017115597,-0.03469947,0.030271575,0.01680677,-0.011182898,0.03786861,-0.031267364,0.034343854,-0.040657766,-0.0151665555,0.039717603,-0.021230996,-1.1780189e-05,0.021571808,0.036473196,0.016542913,0.030046532,-0.025282867,-0.005228717,0.024263443,0.0061560418,0.023333449,0.0051744683,-0.010360864,0.02235793,-0.033272732,-0.01686628,0.015670748,0.018156778,-0.0067441445,0.044397566,-0.015705999,0.021776905,0.019535974,-0.031133672,0.0015236987,0.011265566,-0.01020711,0.029595235,0.010227907,-0.044140175,-0.041637123,0.0051962915,-0.0016647726,0.036492858,-0.033543028,-0.04314403,0.028138638,0.02910522,-0.009619391,0.021661386,-0.0037211361,0.011683161,-0.02912523,0.020438517,0.006701075,-0.03177754,0.010198392,-0.0066230595,-0.025979774,-0.036669273,0.011824783,0.009120325,-0.04130111,0.03531443,-0.018564058,-0.0042618723,0.015287825,-0.03669914,-0.006042311,-0.041167937,-0.041625045,-0.04046206,-0.011413708,0.009916281,0.004700729,-0.00083422224,0.033596665,0.03054213,-0.013067275,0.00884693,-0.0098018525,-0.0036324093,0.023625908,-0.021142578,-0.020047858,0.050652415,0.012558922,0.03988419,0.00072061026,0.016532792,0.045809537,-0.026356952,-0.016469173,-0.010881731,-0.047648557,0.0408913,0.038664076,-0.008235815,-0.028256591,-0.034275945,-0.028132474,0.011715565,-0.040468596,-0.015412191,-0.005986481,-0.010640686,0.012896428,0.012880877,-0.001259853,0.039299123,-0.015904231,-0.04368677,-0.05320255,0.041828014,0.04886719,0.03033074,-0.040229995,0.043204796,0.019530514,-0.015336849,0.053783163,-0.03598389,-0.0043758634,0.042996146,-0.050065897,0.008594495,-0.037684865,-0.020891022,0.0056977044,-0.042078238,-0.021922743,-0.013084876,0.024269776,-0.025165103,-0.018617062,0.038789716,-0.012936195,-0.0041860673,0.008876848,-0.011040566,-0.0048838025,0.030954283,0.025559073,0.0024723914,-0.036265895,-0.001156082,-0.032865107,-0.025292726,0.032393135,-0.017128242,-0.02269652,-0.022687709,-0.01478973,0.0070594586,-0.021425618,0.010016532,-0.007332373,0.019926857,-0.000998007,-0.0059653795,-0.0036396794,0.005198484,0.0475403,-0.03676164,0.0016710177,0.03622741,0.023861982,-0.04430488,0.03684605,-0.019241625,0.03628307,0.010077103,0.0038444654,0.026516218,0.016678888,0.013922213
0.04366297,-0.04070618,0.024695668,0.031856827,0.009744683,-0.030107083,0.01030494,-0.02026614,0.00810556,-0.0049540894,-0.005116694,0.037691202,0.027391365,-0.04300925,-0.016406296,-0.012740063,0.0017518513,-0.017922128,0.034275778,0.024775662,-0.018805929,-0.031617757,-0.04717137,0.04473999,0.0016581377,-0.041489027,0.01789557,-0.032816734,0.003221328,-0.022708623,0.009941041,-0.012926748,-0.013947758,-0.042845454,-0.0060062488,0.020720756,-0.022420568,0.016450815,0.0013561674,-0.038556147,0.014471803,-0.029369611,0.038240448,0.02152983,-0.001836144,0.021449463,0.030169046,-0.023166975,0.013788566,0.0045565404,0.029134052,0.02920691,0.0029918905,0.036249336,-0.042436954,0.03876701,-0.037089337,0.034802277,-0.033960667,0.011916174,0.030339433,-0.032062322,0.03288549,0.023407437,-0.0048814197,-0.029864475,0.040464975,0.011605403,0.027703524,0.04876284,0.03698615,0.055558044,0.009503965,-0.019264812,0.04203391,0.04296938,0.014548219,0.0057733157,-0.036179,-0.012562442,-0.0028790897,-0.033575714,0.057163384,-0.030221635,0.045515582,0.028218308,-0.004108422,0.01733849,-0.011991217,0.051196188,0.008746034,-0.0003931557,-0.0055109467,-0.028398108,-0.0045006154,-0.034822587,-0.007266245,0.023715785,0.032770798,-0.03570456,0.006168892,-0.04086759,0.0066356934,0.006839111,0.027139114,-0.0076831756,0.024736287,-0.022001432,-0.036303423,0.02248007,-0.011454093,-0.032109912,-0.0042767604,-0.030114442,-0.0048861816,-0.047806796,-0.02131482,-0.03545892,-0.008543127,-0.0273482,0.0075405217,-0.019825354,-0.022649627,-0.0020965799,0.028304847,0.00026441156,0.039141115,-0.010579446,-0.011631552,0.014459158,-0.0081730215,0.006716969,0.05244569,0.022940906,0.001082706,0.023212375,0.013375764,0.02859965,0.047149826,0.026638044,-0.0031797846,0.0074976413,0.033773176,-0.037027504,0.03929512,0.0057313186,0.027817566,-0.024794476,-0.0062670154,-0.03595398,-0.033589955,0.03879724,0.0093965065,0.03577067,0.035457905,-0.031614434,0.024222013,-0.042909164,-0.04367296,-0.025092527,-0.015778901,-0.03415327,-0.033838138,0.023607945,0.010055303,-0.036283556,0.03785485,-0.043076754,-0.007189328,-0.012195404,0.020917559,-0.01838086,-0.019711558,0.0011795372,-0.033248466,-0.029670268,0.03661219,0.022322673,0.0010782718,0.029890426,-0.012194022,0.021812676,-0.038218137,-0.026850242,-0.029536441,-0.0061176633,0.033235796,-0.027835958,0.0136733875,-0.03749208,-0.038132586,-0.022267414,-0.038931195,-0.03895479,-0.02820325,0.01313057,-0.022326065,-0.048747357,0.012831247,-0.00338846,-0.0010732552,0.01428267,-0.022118459,0.03959622,-0.036862724,-0.05208702,0.032768324,0.014842136,0.031453054,0.013261566,0.051133826,0.013198115,0.01911439,-0.013651258,0.00729031,0.036722068,-0.031993035,0.010193107,-0.033810906,0.041320544,0.037887603,0.04182104,-0.012316407,0.007076479,-0.004370202,0.04667722,-0.007000183,-0.0066797356,-0.032373313,0.019771961,-0.011515308,0.050593372,-0.024673253,0.018669274,-0.01246164,0.010642315,0.04103987,0.04128585,0.008901757,0.0010183507,0.006799336,-0.011953687,-0.02596088,0.057644032,0.0021790497,-0.024123663,0.02341476,-0.042361572,0.03770159,-0.00036677596,-0.020695802,-0.028839404,-0.041855708,0.0064483327,0.001809212,0.03847899,-0.02146669,-0.04400704,0.027870275,0.03574373,-0.0055834367,0.056628123,-0.031540103,-0.021563565,-0.002525034,-0.0030236195,-0.04603894,-0.018452039,0.03744385,0.01284644,-0.003226718,0.030131735,0.018711077,0.004830777,0.03844796,-0.03363487,0.019232769,-0.014968065,-0.014036583,-0.030145003,-0.0032613357,-0.01137304,-0.024699321,0.005061363,-0.019945782,0.027872697,-0.016991537,-0.037309024,-0.0044357907,0.024872618,0.03874103,0.018067531,-0.026653709,0.028729146,0.000107224085,-0.019635167,0.0244006,-0.02466942,0.01907231,-0.015308222,0.00278964,-0.0059027844,0.03302391,-0.044219874,0.047893405,0.015169615,-0.030033657,-0.047886502,-0.0022363523,0.0026599024,0.046171945,0.0149509795,-0.032339938,-0.00010711932,0.0065540117,-0.037595674,0.028804652,-0.016117943,0.04568951,0.013562214,-0.022480544,0.0038213474,-0.0074715526,-0.008682892,-0.030334713,0.0026813478,-0.03328935,0.0007160134,-0.015766976,-0.027320825,-0.02456242,-0.028137486,-0.050353304,-0.04866178,0.024587704,0.006254233,0.0016104544,0.00053078064,-0.052575905,0.025030611,-0.0155658005,0.021149987,-0.018262357,0.030552818,-0.032265857,0.013853871,0.0728531,-0.0044997777,0.0026314054,0.03482748,-0.047000468,0.0066075986,0.00978234,-0.058871504,-0.017891888,-0.024542304,-0.030822584,0.023302935,0.016815765,-0.026907323,-0.038831156,-0.045434635,0.010799211,-0.049893133,-0.017790845,0.026369039,0.042758033,0.026680043,-0.00729556,-0.040428102,0.018120674,-0.021627795,0.013756577,0.028250521,0.031668875,-0.034285754,-0.047128174,-0.021976529,-0.030025195,-0.017167676,0.022394624,-0.022842454,0.010961208,-0.0034609465,-0.012476015,-0.047681276,0.04266457,-0.017459383,-0.012897731,0.009090396,-0.04530039,-0.006234586,0.013993963,0.038557038,-0.045006126,0.02207701,0.0393141,-0.042757906,-0.047931034,-0.016635038,-0.02095623,0.041382328,-0.047848947,0.02886034,-0.03546514,0.012071596,-0.0070873895,-0.025963511,-0.0018086733,-0.042181637,0.020508617,-0.009542773,0.012974141,0.03411853,-0.033974636,0.013483211,-0.0491218,-0.020942573,0.020775149,0.014855078,0.02740389,-0.0008951367,-0.029002048,-0.046639554,-0.021087727,0.041780856,0.024904039,-0.048778024,-0.025340445,0.00803064,-0.034224246,-0.034899123,0.018785516,0.0051062563,-0.017987493,0.019535298,-0.015972264,0.041655425,0.02259075,-0.046380483,-0.013524901,-0.019035762,0.03390125,0.011209197,0.037768994,-0.04746066,-0.004069717,-0.0042991354,-0.040834494,0.0005576806,0.039121646,0.019207492,0.0016667297,-0.044847902,-0.002742794,0.021401573
-0.03782534,-0.048450973,-0.014503289,-0.036366176,0.020240033,-0.011761464,-0.025222445,0.03841083,0.0122630065,0.01231206,-0.03518595,0.0078189215,0.042700224,-0.013090425,-0.037422415,-0.037789464,0.035830807,-0.0135383345,-0.021943998,-0.004353063,0.038331628,-0.041343927,0.008570716,-0.0062837997,-0.014362747,0.023143282,0.015918287,0.03610109,0.0011550814,-0.0042228093,-0.040408947,0.014931219,0.040593784,0.041605886,0.015906284,0.0191006,-0.034150694,-0.017797502,0.0034979698,-0.0025592912,0.010326222,-0.0017954352,0.007153731,-0.020517316,-0.00596772,0.005774305,-0.029002622,-0.0014708264,0.026704447,-0.04249887,0.008072547,0.003599726,-0.008626324,-0.0046403664,-0.0004209345,0.041016392,0.0148073295,-0.023220913,0.010727367,0.030836252,-0.014783819,0.016676508,-0.036164984,0.039343588,0.038549155,-0.044814844,0.030174432,0.0030329162,0.00057113933,0.0060617686,-0.040111013,0.026894648,-0.0005629921,0.011056508,0.018951226,0.0021129067,-0.025913913,-0.044288106,0.022533143,-0.010439476,-0.03523423,0.03620145,-0.01272278,0.026281513,0.004493584,0.023467828,-0.027821278,-0.04220415,-0.020762386,0.010086054,-0.022259977,-0.038468994,0.00085737504,-0.010559897,0.03405192,-0.026123604,-0.032801576,0.01873992,0.023956295,0.0008559196,-0.0401237,-0.0058641457,0.011927891,-0.03542434,0.00661635,-0.0013912214,0.01982236,-0.041592814,-0.010327657,-0.042520244,0.04391175,-0.0038494046,0.036233753,-0.011876085,0.035713397,-0.027813923,0.04081576,0.027138745,-0.028199729,0.036003694,-0.030143108,-0.0038208878,-0.03884578,0.033832982,-0.014404326,-0.030307008,-0.009289493,0.028122555,0.002437247,0.0064799646,0.0116834,-0.033044335,-0.041118085,-0.04841506,-0.005446341,-0.042202387,-0.012927903,-0.0058016917,-0.0014613931,0.006648517,-0.019921876,-0.018310538,0.0365063,0.024554826,-0.0036235708,-0.017210973,0.030056994,0.033021238,-0.022131277,-0.034189943,-0.042225547,-0.020790245,0.038265493,0.01641308,-0.009382256,-0.030977383,0.04196891,-0.046199623,-0.04074422,0.014994098,0.05034483,-0.036961153,0.04225825,0.022777125,0.0046895165,0.03213046,-0.005036325,-0.021541582,-0.036267765,0.034135316,0.00847625,-0.022020578,0.005277059,-0.035769936,0.031187372,0.041661605,-0.038403198,0.022625078,0.022318004,-0.04305489,-0.01793439,-0.0064563164,0.00091312354,0.025433026,-0.0154196555,0.022737838,-0.006528776,-0.036159378,-0.047593284,0.049212877,0.04445044,-0.04748593,0.008740455,-0.04283598,-0.023057576,0.016932562,-0.014400592,-0.029850606,-0.01287202,0.0051668887,0.00072764396,0.011269601,0.0432749,0.0020825749,0.0135501055,-0.03314162,0.04058254,0.039264843,0.012492327,0.03457798,0.00039350346,0.02129864,0.017459093,-0.037055247,-0.01622239,-0.041727595,0.02254083,-0.017676627,0.0042651487,0.0030138774,0.04535227,0.018606387,0.022720786,0.015239586,-0.03961358,-0.007909851,-0.023902936,0.03900897,0.03234826,0.035986096,-0.026981961,-0.04165023,-0.018118132,0.01675531,-0.0066725714,-0.040695604,-0.0153479455,0.01191881,0.049917206,0.0055098324,-0.021678036,-0.00058722455,-0.008141642,0.03204806,0.040536862,-0.023766672,-0.009472853,0.015638888,0.0030861406,-0.0038427815,0.035679866,-0.033947203,0.035426676,-0.010055615,-0.045791507,0.024121024,-0.0237896,0.039967064,0.037089217,-0.010934438,0.019535964,-0.01486063,0.0033173834,-0.024652122,0.034146138,-0.028747438,-0.03772649,-0.033683058,0.043854043,-0.011150597,-0.014534523,-0.033746205,0.0011333396,-0.015143725,-0.024993092,-0.028349143,0.037234034,-0.02962748,-0.018503506,0.027563976,0.010410851,-0.0010370134,-0.0189143,0.032979507,-0.047696665,-0.004884926,0.008283276,-0.025926648,0.011076762,-0.0050149024,0.03367676,0.004905451,0.032955106,0.0061406,0.038739532,0.04556198,-0.015237193,-0.024813801,0.023314517,-0.028662598,-0.033829354,-0.023347368,-0.009072192,-0.038738355,-0.032579,-0.04261552,0.039832953,0.043862347,0.026615793,-0.037265167,0.035096258,0.03600613,0.038542006,-0.032223273,0.0024729325,0.019510785,0.03258923,0.004348061,-0.049160153,0.01146667,0.03466232,0.05195975,0.028366948,-0.012102908,-0.050416853,0.016199099,-0.0029785398,0.0075019132,0.023968477,-0.021135623,-0.0067986622,0.018013185,-0.029568614,0.042015348,-0.025052406,0.035332743,-0.0023578096,-0.03256752,0.028291255,0.019630851,0.038002186,-0.005453109,-0.02288469,0.0044293073,0.031432178,0.03950141,-0.043690898,0.017972333,-0.035557117,-0.0054441267,-0.04019421,-0.028321082,0.0014012085,-0.011385766,-0.0024046726,-0.021127632,0.0006709466,-0.019641027,0.044232897,-0.030137282,0.004935422,0.045838438,-0.004268989,-0.029097227,-0.033506457,-0.008686147,-0.0071898396,0.015094898,-0.038176056,0.029330684,0.046422794,0.038698684,0.024604818,-0.017491082,0.0006467154,-0.0071691377,0.006386478,-0.037715837,-0.008337928,-0.019432213,0.037935354,0.041997813,-0.008245201,0.048764516,-0.041212067,-0.017969886,-0.030039893,-0.016785359,0.03510204,0.020714056,-0.0020518578,0.0031634846,-0.0074651386,-0.04080533,0.012300704,0.0162655,0.017016957,-0.021982817,-0.02978951,0.012719894,0.049111884,0.01360337,-0.04828794,-0.017030312,-0.0038978038,0.031040706,-0.005707131,-0.0074180355,0.0009288304,0.030056577,0.024891054,0.011208855,0.02842157,0.0042928085,-0.04725337,0.02505901,-0.015476569,-0.029115565,0.01235404,0.033236843,0.0073968656,0.018560523,0.007484884,0.030895347,0.024041062,0.03919197,-0.049508438,-0.009503926,0.0039838045,-0.04879696,0.02385331,-0.049298134,-0.0523469,-0.027011571,0.038833857,-0.055580717,-0.03407494,-0.03660515,-0.0264663,0.0013227075,0.015657857,0.008831971,0.04727701,-0.0010680552,-0.008964266,0.01524579,-0.04266014,0.045547232,-0.009558157,0.002438178,-0.019490924,0.042651568,0.008070217,0.020700658,-0.025911132,0.03543551
