#include <fstream>
#include <iostream>
#include <cstring>
#include "hls_stream.h"
#define NUM_OF_INPUT_NODES 456
#define NUM_OF_OUTPUT_NODES 10
#define NUM_OF_LAYER1_NODES 128
#define NUM_OF_LAYER2_NODES 32
#include "ap_axi_sdata.h"
#include <string>

// new libraries added for temp scaling
#include <vector>
#include <cmath>
// Define constants

//struct AXIS_wLAST{
//    float data;
//    bool last;
//};

typedef ap_axis<32, 2, 5, 6> AXIS_wLAST;
union fp_int {
	int ival;
	float fval;
};

float weights1[NUM_OF_LAYER1_NODES][NUM_OF_INPUT_NODES];
float biases1[NUM_OF_LAYER1_NODES];
float weights2[NUM_OF_LAYER2_NODES][NUM_OF_LAYER1_NODES];
float biases2[NUM_OF_LAYER2_NODES];
float weights3[NUM_OF_OUTPUT_NODES][NUM_OF_LAYER2_NODES];
float biases3[NUM_OF_OUTPUT_NODES];

void loadWeightsAndBiases() {
    // Load weights and biases for layer 1

    float weightsFile1[NUM_OF_LAYER1_NODES * NUM_OF_INPUT_NODES] = {
    		-0.0060358946,0.011458112,-0.012874651,0.019130759,0.00030834685,0.03844326,0.050642345,0.020867791,0.016338853,-0.024050923,0.007787451,-0.009501402,-0.014121502,0.03961351,-0.0038306979,0.0051476685,0.001264264,0.041270413,-0.030218499,-0.04863693,-0.016609931,-0.023375142,0.030608447,0.043327507,-0.0363035,0.030716512,0.04042103,-0.018458968,0.01874192,0.03482768,-0.036934406,-0.016127413,8.56736e-05,0.0034424174,0.03582834,-0.005555116,-0.02194895,7.393872e-05,0.05101348,-0.029419102,-0.008049613,0.031401813,-0.009536952,-0.039311416,0.053910874,0.009236381,-0.050864186,-0.0076844404,-0.011523414,0.016130982,-0.021533709,-0.004501809,0.009213247,0.04994539,0.040238287,0.0031470107,0.00953983,-0.015162478,-0.033939324,0.044515714,0.049000517,-0.05491347,0.0047787353,0.03418789,0.01050204,-0.012555464,-0.00945523,0.03645891,0.053349696,0.04315278,0.031351786,-0.03938929,-0.010047532,0.0045787436,-0.039090354,-0.0113456175,-0.009570672,0.04577785,0.013705446,0.03106441,-0.02800448,-0.027755534,-0.023299295,-0.019293739,-0.03738352,0.003170504,0.00965425,0.006397403,-0.014622685,0.01645233,-0.031785738,-0.010025186,0.0010259056,-0.03668339,-0.00838382,-0.024396254,0.050020933,-0.041596703,0.0058791162,0.04437414,-0.0054137683,0.03709512,0.020275025,0.036710046,-0.02375033,-0.035147235,-0.04193823,-0.012694097,0.018727863,0.039409466,0.0053519886,0.04599528,-0.013434835,-0.03226532,-0.022997908,-0.0008847516,-0.009076958,-0.03837651,0.031010434,0.020674115,0.023885163,-0.031945135,0.00055945705,-0.013466024,0.008306788,0.013768504,0.025961194,-0.043152664,-0.037988007,0.019517904,-0.02763326,0.0011289436,-0.011849036,-0.052584026,-0.0013991753,-0.011181428,-0.032141123,-0.029196896,-0.007442634,0.008203518,-0.021131927,-0.007987252,0.006816557,-0.00999817,-0.016440505,0.021411506,0.039195467,0.019137405,0.0092710005,-0.014697909,0.042925067,-0.006287126,0.04145261,0.03007111,0.023434322,-0.046540294,0.046153016,-0.01809276,-0.0049046357,-0.020888554,-0.01760776,-0.044491086,0.00059616845,-0.025883239,0.013166876,-0.01477946,0.0046636797,0.011533823,0.04916867,-0.025625112,0.032885306,-0.0043104356,-0.009969027,0.0373163,-0.02930968,-0.04849905,-0.005014851,0.0451774,0.046147242,-0.00071298477,-0.026174802,-0.036755726,0.03535704,0.044412464,0.012274037,-0.048629615,0.018194908,0.03619318,0.03158964,-0.016749615,0.0019515533,0.0012066162,0.025492808,0.032283884,-0.0034889695,-0.034187075,0.021753952,-0.020231307,-0.03242458,0.017261613,0.030456053,-0.021100268,0.0042765723,-0.018872978,-0.00026212,0.03831424,-0.022654844,-0.00075866777,-0.018807422,-0.048810266,0.016595852,-0.024727909,-0.010489879,-0.009455901,-0.00062207936,0.00836454,0.023676835,-0.027960163,0.017369198,0.022384081,-0.026593063,-0.053809542,0.049267396,0.020840114,0.028426168,-0.006701916,-0.033427842,-0.01079074,0.032302782,-0.023535829,0.0018529774,-0.0049485713,0.044611864,-0.003620651,-0.045043662,0.042981602,0.0044519496,0.044843093,-0.043652173,-0.0010613007,-0.010552687,-0.008013561,-0.01711025,0.018739061,-0.026134092,0.018394293,0.030012453,-0.008496618,0.026861876,-0.036175903,0.013820484,-0.00199099,0.017230853,0.03564236,-0.0077767456,0.020555113,0.009545063,0.017817566,0.030045638,0.03107374,0.0152477315,0.040638905,0.043400656,0.011698177,0.032281566,-0.02408703,-0.04305346,-0.036105663,-0.012863873,0.018197723,-0.038057905,-0.009417811,-0.016451903,-0.039473094,-0.0049212305,0.026075043,-0.03244846,-0.037782416,-0.0068545626,0.018733766,0.021829393,-0.018794103,-0.021738492,0.016539602,0.014245989,0.0051951883,-0.015533473,-0.02176141,-0.025147345,0.007866469,-0.00853719,-0.042561024,-0.021778632,-0.010260685,0.03926195,0.0028691096,-0.044910997,-0.012605699,-0.003817025,-0.023048155,-7.868734e-05,0.029111078,0.037237022,-0.03832891,0.025269425,0.06186574,-0.022447485,-0.01862951,0.011278414,-0.03172226,0.037439268,0.013326969,-0.0333332,0.026095558,0.0072165183,0.00977344,0.037802346,-0.02647194,-0.0007023546,-0.031175658,0.03944674,-0.012122767,-0.009618792,-0.024147388,-0.028968513,-0.039445795,0.033135355,-0.004445788,-0.017783722,-0.0074916985,-0.034304168,-0.012779091,-0.04750608,-0.036594536,0.015094274,-0.03335131,-0.041405745,-0.014918141,0.03244903,0.05084557,-0.01941553,0.023167389,0.03827249,0.0060499,0.03339961,-0.009062053,0.022820283,-0.0024373732,-0.010219823,0.014366419,0.0031965552,-0.008877694,0.04255142,-0.0124316625,0.016076816,0.0143893305,-0.03583795,0.0043123066,-0.034502592,0.013435998,0.013325641,0.03671075,-0.04131435,-0.008795348,0.014755119,0.022546066,-0.043619398,0.028344173,0.019973703,0.02115936,-0.039854504,-0.032464642,0.014899125,-0.032090478,0.026326578,0.026948543,-0.002503698,-0.027869701,-0.009514841,-0.045230433,-0.008676118,-0.008147069,-0.009165819,0.018618431,-0.036424033,0.04208919,-0.0036649914,-0.025973227,0.006570393,-0.05002763,0.009322211,-0.040742677,-0.04562534,0.013538695,0.0054537687,-0.012301213,0.03937819,0.027528854,0.015531095,0.011224452,0.02763971,0.013346869,-0.013140239,-0.051086508,-0.020613957,0.009546034,-0.02532929,0.018871699,0.016427942,0.00069943187,-0.019864097,0.029418098,-0.030549876,0.016042694,0.008275957,0.004779305,-0.032758024,0.015238079,-0.011828215,-0.024119945,-0.029382251,0.033619,-0.016898055,0.005492671,0.012951034,-0.019799985,0.024177609,-0.0037168418,0.03325703,-0.007233782,0.036603138,0.0058513456,-0.025810484,-0.03288446,0.0053219986,0.025383897,0.018843794,0.03501057,0.009734569,0.0064314962,-0.048046634,0.018523637,-0.0014926094,0.013085771,0.021187553,-0.0042746635,0.020628199,0.022817833,-0.023789572,-0.0070799855,0.025266198,-0.03267392,-0.017015416,-0.0038003642,-0.0034560633,0.028478913,
    		0.019329216,-0.04824899,-0.03908544,0.028661443,-0.02487367,-0.029425876,0.036250174,0.032611843,0.02941629,0.018720224,0.0051845405,-0.00012115651,0.023803996,-0.03154363,0.011304385,0.010987301,0.022438787,0.049482364,-0.017223075,-0.02260496,-0.01625972,-0.009965236,0.006336156,-0.008560041,-0.023148326,-0.02255235,-0.031811103,-0.02225254,-0.052831616,0.023950089,-0.002186145,-0.022147926,0.03977478,0.017287211,0.0125009455,-0.008013155,-0.04376837,-0.0043116296,0.035419736,-0.01814422,0.005122567,0.06175118,0.023635322,0.032283925,-0.021649402,0.05231336,-0.01243936,0.03682015,-0.029751712,0.0008542308,0.012411402,0.0022710494,-0.035433426,0.016008368,0.035341397,-0.0395276,-0.0015236344,0.010382753,0.046737414,0.033087958,-0.008690711,0.04057309,0.048301753,0.04918894,-0.028499203,0.041524976,-0.036045462,-0.026385732,0.0028720153,-0.007253718,0.010647251,-0.025830423,-0.01565767,0.02614225,0.029981356,-0.0041709025,-0.011010677,0.050894048,-0.028045243,-0.043984953,0.03498,-0.025048988,0.010729358,0.04332459,0.00032757898,0.04284959,0.036675934,-0.007325084,0.009149615,-0.015709369,-0.032575775,0.007559459,0.03832436,0.040466204,0.0028074663,0.0039911685,-0.015606272,-0.004681874,0.026419153,0.01831394,0.010683698,0.030450623,0.018121438,-0.019203609,0.02357873,0.03571094,0.012773155,0.022930684,-0.02224467,-0.033906788,-0.03504357,0.04081485,-0.05352246,0.030874072,0.026912877,-0.0018516161,0.035314973,0.029464554,0.020923266,-0.025923586,-0.025832355,0.042198487,0.03199056,0.007633752,0.009171358,-0.008265299,-0.0030599947,0.0024603945,0.03704514,-0.006617898,-0.048965573,-0.038113657,-0.02236333,-0.018252067,-0.03203643,0.030177938,0.04161818,-0.011541299,0.03904866,-0.02936516,0.021969736,0.02650421,-0.016465148,0.007964234,-0.012703999,0.030444102,-0.046838697,0.013608319,0.0034503506,-0.052471876,0.03203644,0.030155642,-0.029650202,0.0074913255,-0.029106943,-0.018517047,-0.032107737,0.04403383,-0.012937826,-0.022596683,0.022189202,0.013930344,0.043603674,0.00967117,-0.015561808,0.034300596,-0.045292873,-0.0121395225,0.021628842,-0.040008537,-0.0008077782,0.0081168,0.044564642,-0.04047733,-0.012259669,-0.013039496,0.023013037,0.02228831,0.021653049,0.021324206,-0.033331476,-0.03275819,-0.01621914,0.020960469,0.009714122,0.022926547,0.04596235,0.010468563,-0.02651527,-0.023754692,-0.020325493,-0.024972687,0.0034222624,-0.038359217,0.002475872,0.038089782,0.044879187,-0.05629857,0.002596037,-0.016338674,0.017752877,-0.030932711,0.015816396,0.03589585,0.03302761,-0.01822549,-0.015805665,0.009113019,-0.025256572,0.00019373363,-0.0011358454,0.012801426,0.037027072,-0.015062807,-0.023775037,0.0035810967,0.04177614,-0.039647523,-0.023705196,0.0046675536,0.01993189,-0.021010976,-0.027120119,-0.00970436,0.035293877,0.00898439,0.014274145,-0.03856638,-0.0054853447,0.032157585,0.009744056,0.023649413,0.018863074,0.007542139,0.027120009,0.013847042,-0.031950876,-0.047211412,0.012048833,-0.025468148,0.029513706,-0.022246225,0.005103508,0.010706904,0.010526457,-0.006209474,-0.027509797,-0.012432188,0.032389663,-0.008263194,-0.015647335,-0.018731844,0.036646526,-0.043273095,-0.011018639,0.0005729254,-0.0036090098,-0.01608478,0.030403182,0.012852433,0.0041471883,-0.021227777,0.0067302003,-0.011737289,0.02877933,-0.028603377,0.0045712036,0.018655038,0.025544276,-0.03156895,-0.028407786,0.024852768,-0.0012749811,0.005126287,0.038369074,0.034174424,-0.0068814387,-0.012501833,0.0037438737,-0.041005712,-0.037781026,0.022667406,-0.04489547,0.013533255,0.038791273,0.047010534,0.018800655,-0.026672553,0.0029045339,0.0059246477,-0.022856558,0.012165196,0.015838329,0.034756117,0.031818803,0.0075190193,-0.020930907,-0.026296774,0.05809181,0.02041293,-0.049164902,0.019670403,-0.04464453,0.029310012,-0.017975852,-0.017632566,-0.007994451,0.0030629125,-0.0075387056,-0.03798586,-0.020627102,0.034246292,-0.019742513,0.018730469,0.04634424,-0.04300455,0.021207731,0.0095272185,0.009874585,0.032290004,0.0073198117,0.014372356,-0.026071591,-0.0405496,-0.019899454,0.027033126,-0.028145073,0.0035886744,0.020449698,-0.022239689,-0.051085833,0.025667114,0.043956254,-0.05497825,0.0019211842,0.02311066,-0.017153703,-0.0033643283,0.03945144,0.017218258,0.024717284,0.044349056,-0.048960786,0.026656447,-0.037617367,0.019022752,-0.014971232,0.02064263,0.038938094,-0.023566734,0.017986972,-0.028554508,0.003986741,0.02421579,-0.03351121,0.0032445616,0.019159596,0.016225334,0.0052401703,-0.025471209,0.035098955,0.01838983,-0.020286305,-0.01039082,0.02702237,-0.017742127,0.037659835,-0.011236053,-0.010250878,-0.008005485,0.019179024,0.043059148,-0.047208868,-0.03853444,0.004780359,0.035397314,-0.011524534,-0.0032000234,0.0264533,-0.02819273,0.039415494,-0.0017015879,-0.01997515,-0.03131364,-0.030162428,0.01890233,0.050990406,0.043955825,0.00017825862,0.0021259566,0.0028148235,-0.011355186,0.042680565,0.009376343,-0.012525565,-0.032620016,0.012715035,0.022328852,0.023536017,-0.013066309,-0.036528885,0.046575844,0.021901071,0.02322295,0.039789453,0.049027417,0.016827706,0.00017596899,-0.021325916,-0.0060539674,0.019954199,0.010215252,-0.032154106,-0.005900023,-0.035151843,0.039578088,0.013287653,0.024492724,-0.014933771,-0.027683606,-0.04749026,-0.053297564,0.021709315,-0.008945973,0.008145353,-0.025691414,-0.00069848984,0.0030331411,-0.005916689,-0.008548644,-0.026498705,0.027052572,0.04049287,-0.0439331,-0.0076208273,-0.001936337,-0.044784427,-0.01898767,-0.03210303,0.03162921,0.0034606543,0.03778968,0.03486596,-0.021360664,0.012365793,-0.008495963,0.009888166,-0.030624999,-0.016162885,-0.021599878,-0.024971645,-0.04726796,-0.037359625,0.049689848,-0.03258745,0.04267045,
    		0.0016271896,-0.0026253518,-0.047975127,-0.055676833,-0.017350918,-0.0115425475,-0.038458787,-0.012684668,-0.021079818,-0.013992558,0.0417938,0.049377643,0.04224859,-0.0089527555,-0.055429675,0.008573566,0.0020289505,-0.029399967,0.020434175,0.04484414,0.014870832,0.013349235,-0.009046671,-0.012607113,0.010528081,-0.019197056,-0.011088411,-0.050200365,0.016448682,-0.017834531,-0.04382835,-0.01571862,-0.04708501,0.03214728,-0.019444812,-0.006035284,-0.019968493,0.019534342,-0.009299069,0.022392359,-0.016871497,0.012982106,0.033773642,0.016844518,-0.04724129,0.00092781114,-0.030250201,0.042338606,-0.035730805,0.018038837,-0.048006542,0.014104462,-0.04813685,-0.00022333013,0.042396553,0.0237523,-0.04820436,0.040356733,0.00862708,-0.020838283,0.040259443,-0.026014319,-0.02155676,-0.0021327639,0.011392772,-0.024808869,0.033303224,0.03946189,0.018111836,0.0025231156,0.03185029,0.019387096,-0.034162443,-0.005779845,0.0055693835,0.030957583,0.006264549,0.007297662,-0.008371167,-0.015823938,-0.04813415,-0.026721822,0.028483238,-0.022987494,0.03409574,-0.03293714,-0.050135624,-0.0050484706,0.034627695,-0.0027391298,0.04892823,0.011197782,-0.0066052005,-0.012185721,0.014177514,-0.02886915,-0.016762648,-0.048986323,-0.0049739247,0.01045008,0.022093667,0.012550134,0.03488752,0.011172089,0.0071975915,0.023409873,0.0347757,-0.032396317,0.0033154406,-0.035983216,0.021687435,-0.0051601254,0.042443138,-0.04907823,-0.038424704,-0.050853945,-0.0042930534,-0.0056750337,-0.014875859,-0.010176393,-0.026767606,0.005235804,0.022506071,0.005698533,-0.020604847,0.0039689485,0.024913432,-0.050335534,0.018894497,0.01512573,-0.011423574,-0.04812822,0.0036832509,-0.031642158,-0.008135877,0.03183377,0.046669353,-0.016846607,0.04769488,0.023940105,-0.055506583,-0.01112239,-0.03264827,-0.008575852,0.03296142,-0.0111593865,-0.043141034,-0.010098362,-0.040234208,-0.01183245,-0.036640134,-0.029819453,0.013391538,-0.0022053712,-0.03640711,-0.01827146,0.03509008,-0.0015287345,0.030846952,-0.02736861,0.030563938,0.027695324,-0.008421086,-0.015960757,-0.040746238,-0.0056217234,-0.001846469,-0.0005867484,-0.019603962,-0.03541113,0.041747045,0.025863096,0.0048449617,-0.03493909,0.014742194,-0.029493475,-0.01942052,0.03923926,-0.013760443,0.008133406,0.0010248834,-0.033305716,-0.005415546,-0.010793332,0.01924717,-0.0056613823,0.028804785,-0.016106453,0.02748561,0.0042697233,0.0024185996,-0.00027267006,-0.0034921865,0.042740334,0.039212026,0.03382556,0.0070216386,0.03248376,0.0048925383,0.01733284,0.033967767,-0.0025570658,0.04297419,-0.020736333,0.0058686235,-0.043176826,-0.01512577,-0.023222638,-0.0033152886,0.030675853,-0.03716414,-0.025808044,0.013282534,-0.012582977,-0.018845016,0.028141698,-0.027004102,0.008436667,0.024122365,0.00422191,-0.03106951,0.024770578,-0.021383042,0.016377782,0.018587818,-0.017765008,-0.025983779,0.0112222945,-0.013938524,0.004226846,-0.0070266947,-0.023633154,0.02729881,0.021386094,-0.016393304,-0.040426552,-0.01992676,-0.0011819779,-0.039473824,-0.031368624,0.000989803,-0.018151496,-0.0037075921,-0.02557926,-0.055773538,0.030743426,-0.038281158,0.05060161,-0.03572623,0.04323581,0.032888044,0.0049054734,-0.039702784,0.048876002,-0.023825126,0.0047383304,-0.020779423,-0.018928764,0.025282038,0.027059237,-0.029308775,0.00413623,-0.0018870098,0.015801283,0.023588665,-0.025984325,0.030017117,-0.01086444,-0.03214017,-0.016400224,0.022138294,0.022803752,0.041120436,0.01389251,0.017288173,0.01672424,-0.010526472,-0.0144336205,-0.040333953,0.027974721,-0.008253459,-0.018650306,-0.014695318,-0.0047119493,-0.051773075,0.03158065,-0.028276214,-0.025658682,-0.019222526,-0.008792648,0.013905206,-0.049177136,-0.011232535,-0.020813929,0.02347984,0.041707538,0.030343072,0.015183801,0.0072131827,-0.0051645255,-0.010283579,0.045549214,0.01974049,0.020501714,-0.020479692,-0.03683178,0.04007956,0.029400207,-0.04270979,0.028311545,-0.021247182,0.03670191,-0.012635898,-0.013158407,-0.03827072,-0.04021246,-0.004423363,-0.005406696,-0.0047058286,0.03208278,0.032076165,0.054081675,0.0033066801,-0.04326406,-0.017057503,-0.006033103,0.009511299,0.046320528,-0.005390475,0.018969182,0.021222148,-0.030353671,0.0060241916,0.029833829,0.035708837,-0.039968863,-0.006815014,-0.028103188,0.02232358,0.023004062,0.019826984,0.005816599,-0.022467706,-0.0056199483,0.02473001,-0.035925243,-0.042408656,0.012051167,0.03249783,0.009051907,-0.04831139,0.017961755,-0.016857218,0.04070674,-0.012910596,-0.019576773,-0.04099819,-0.011693891,-0.0022843296,-0.012923959,0.007667001,0.008448601,-0.015037241,0.0027150023,-0.021304904,-0.024466334,0.021493677,-0.031622443,-0.013734854,-0.012179898,0.038698617,0.00750891,0.0036167158,0.035687283,0.036267664,-0.025892278,0.05317885,-0.007348144,-0.039397333,-0.030139044,0.005478749,-0.04961899,0.05241012,0.048570912,-0.01371179,-0.017478138,0.020348217,-0.025254074,-0.022386387,-0.030557416,-0.013714563,0.019551992,0.0376401,0.029364808,0.03472432,-0.025211114,0.021947412,-0.0065184464,0.039545078,-0.049878508,0.046374563,-0.005048876,0.026893273,0.024294352,-0.038830597,-0.024832586,0.034963377,0.04115881,0.03968998,0.03182966,0.024256479,-0.0004593735,0.02439302,-0.019339316,-0.04510188,0.00281313,0.009702395,-0.030427832,0.022497574,-0.02698186,-0.018672846,0.024992071,-0.02234506,-0.018883461,0.007582143,0.013661422,-0.00937036,0.02264224,0.006405511,-0.024368012,0.030158201,0.008852139,-0.036486838,0.04010468,-0.010225103,0.024416963,-0.034649365,-0.013707608,-0.032978337,0.016963422,-0.01127325,0.037445102,0.0005422554,0.008579107,0.021042222,0.014744036,0.0079523865,-0.032967247,0.02200049,-0.024001459,-0.010473201,-0.015516325,-0.026617467,0.0022162774,0.02260344,0.037362266,
    		-0.001493047,-0.025126418,-0.026836734,-0.006911734,-0.02174463,0.036814407,-0.0020022423,-0.040104337,-0.042537708,0.03416823,-0.021680398,0.035125915,-0.017974468,0.033920325,0.0021903047,-0.0188999,-0.015412826,-0.029097747,0.04366507,0.040744085,-0.060116846,0.0026225932,0.023600848,-0.014521741,0.046347115,-0.04264908,-0.014809772,-0.0038518943,0.011308862,-0.027275039,0.03664213,0.02071917,-0.0005752413,-0.021675816,0.029596675,0.004948954,-0.026582705,0.025566485,-0.0044683497,0.013162952,0.011477272,0.016306674,0.020549329,-0.008425064,-0.05126752,-0.02623587,0.02042975,0.018931093,-0.007694183,0.038849074,-0.04700138,0.008188199,-0.029484631,0.021459384,0.014451987,-0.039785523,-0.057375394,0.036137167,-0.006778079,0.03304382,0.031219801,-0.033111095,-0.04621985,0.0098031005,-0.037022684,-0.040872645,0.042611845,0.044668213,0.021209797,-0.037564136,0.010937258,0.039930545,0.011192812,0.010888191,0.031967506,0.03191845,0.03152516,-0.0043639643,0.031448342,-0.02769735,0.010351027,-0.035057757,-0.022338027,-0.032659654,0.00469907,-0.01889991,-0.005987538,-0.0479102,-0.032643475,0.049175676,0.035086926,-0.022835745,-0.03850819,-0.011052094,-0.012981178,-0.022908764,-0.0019840326,0.005868926,-0.02267835,0.047628958,0.03465634,-0.008410177,0.02131653,0.029826924,-0.038255658,-0.016102241,-0.028336551,-0.024547106,-0.037830543,-0.019452931,-0.02781177,0.01021258,0.04130197,0.028514868,0.024480503,-0.02656086,0.031202285,0.028678086,-0.030911788,0.025348973,0.03283198,0.03837422,-0.016967792,-0.027827939,-0.009537832,0.008026774,0.024068987,-0.026213154,-0.0024514943,-0.00026874148,0.004550721,0.020167228,0.02712311,0.023090513,-0.0062507982,0.053687148,-0.018233784,0.031749398,0.017680056,0.031892613,0.025578268,-0.008330608,0.027468828,0.00500962,-0.009914938,0.016347688,-0.04589081,0.013283453,0.02797827,0.025226997,0.024405502,-0.0017961853,0.012616877,-0.01947323,0.04139481,0.02140547,0.018771416,-0.017173348,-0.015152349,-0.019777315,-0.02512482,0.009410423,-0.028400177,0.0046526887,0.024685526,-0.009455689,-0.0201112,-0.035365447,0.0047450755,0.046593025,-0.026445992,0.01937569,-0.0036432627,0.012925148,0.04987135,0.004144684,0.014838575,-0.009209694,-0.01014649,-0.014944578,0.001346414,-0.019822411,0.0008423143,-0.017153295,-0.030535916,0.0111409575,-0.002716769,0.02745881,-0.044169653,-0.0043536862,-0.025727838,-0.020170152,-0.041008726,-0.022476023,-0.039024033,-0.0167901,-0.03734792,0.020492174,-0.006623144,-0.010864377,0.0013618128,-0.041190106,0.029598355,-0.023857594,-0.010809586,-0.03809002,-0.04381548,-0.04279161,-0.009064165,0.024938922,-0.015875986,-0.008390719,0.036990914,0.041933887,-0.029282091,0.022926282,0.043441657,-0.040147133,0.024080526,-0.0050850245,0.0028406952,0.031291403,0.00080162485,-0.034809783,-0.025719613,0.0074643544,-0.016780702,0.0019073393,-0.0074368278,-0.04572998,-0.01342957,0.025152968,-0.0045969537,0.032035466,-0.03678043,0.038788248,-0.047534417,-0.042054534,-0.027200865,-0.015400332,-0.012651135,0.016983828,0.0046135923,-0.04997166,0.029236449,-0.03249068,0.0015448836,-0.04665032,0.00087675004,0.032563977,0.005966779,0.048068766,-0.01726601,0.03485314,-0.037838932,-0.012638789,-0.035202168,-0.033694923,0.02917788,-0.046435542,0.014900708,-0.02607607,-0.003350024,-0.03648112,-0.03404371,-0.029399412,-0.03072212,-0.0013138712,0.025459949,0.0032095655,-0.0002586444,-0.0292894,0.016686134,-0.039241567,-0.043772183,-0.037259385,0.0032339739,0.046505183,-0.038466647,0.021881683,0.0027921107,0.024012513,-0.01688951,0.031935424,-0.052641463,0.036960404,-0.020112796,-0.0182007,-0.023536319,-0.0011260496,-0.017106818,0.034942526,0.024715148,-0.0299649,-0.006115528,0.041105967,-0.04326379,-0.012499091,-0.014606209,-0.0056779794,0.009306007,0.03798733,-0.004975638,-0.02694327,0.019027587,-0.017951163,0.0046032504,0.00094564736,0.022216162,0.036455058,0.02276371,0.028761951,0.022584243,-0.018019617,-0.0057019764,-0.018046599,0.018113924,-0.0055349683,0.027463522,-0.022339348,-0.026205458,0.041257445,0.009118585,0.021990955,0.018600333,-0.013685421,-0.011137829,-0.03429182,0.023290025,-0.0044908766,-0.0462245,-0.025179278,0.01449061,0.028393978,-0.018446388,0.03091951,0.016625777,-0.031186754,0.0118140355,0.024991876,-0.030835284,0.035293736,0.0049937745,0.031794325,0.0048515736,-0.00027128492,0.04117637,0.0008414327,-0.0019253993,0.0126302745,-0.025319919,-0.03186787,-0.023005668,0.008882104,-0.038818363,-0.017566849,0.013692538,0.0029752697,0.029960355,-0.025186138,0.036074262,-0.006804868,-0.002303013,-0.0071202572,0.011751198,-0.034159955,0.009858133,-0.03513186,0.023531517,-0.0017508105,0.0034556661,0.022181034,-0.049530003,0.018313954,-0.013420189,0.030516287,-0.016795333,0.04183336,0.033402406,0.044732127,0.023855267,0.04933387,-0.021698363,-0.0040628156,0.016499324,-0.016490655,-0.04624093,0.046582412,-0.0079120165,-0.0044155917,-0.03814598,0.031789385,0.013850494,0.03652786,0.0033629285,0.029038275,-0.020899788,0.030639742,-0.040730648,0.036238626,-0.026356535,0.039515346,0.0143006705,-0.019913726,-0.043699402,0.04940053,0.030514764,-0.026206857,-0.020476598,0.025896711,-0.02558058,0.04306914,-0.022545079,0.02575782,0.026747016,-0.011940065,0.019924708,-0.022913923,0.021594169,-0.029516438,-0.020009654,0.0015678683,-0.008665613,-0.03130149,-0.0189941,-0.0062396023,-0.0032284637,-0.021975145,0.031312983,0.0032705548,-0.024119416,0.021254675,0.031024016,0.026697924,-0.014872817,-0.009437045,0.0024433013,0.04838143,0.032910205,-0.034771252,0.035123535,-0.008473471,-0.029099643,0.04098938,-0.0018130848,-0.018189507,0.019049393,0.03756098,-0.025683751,0.03910094,0.008838167,-0.04589444,-0.0010049022,-0.029726813,0.029387098,0.013439502,
    		-0.003498431,-0.039115954,0.008780099,0.043672167,0.051706783,0.032393936,-0.036678903,-0.0016414704,-0.014497897,-0.028497543,-0.03100997,-0.021684654,-0.035731506,0.020105269,-0.048775405,-0.021341195,0.019398177,-0.015183691,0.0031094635,0.030819291,0.030170426,0.022183634,-0.02802869,-0.004315783,0.008401577,0.02953253,0.0009161591,-0.020780316,-0.013854039,-3.435637e-05,-0.03642418,-0.002211672,0.009833316,-0.037229206,-0.052223507,0.043590106,0.0024403941,-0.00752541,-0.023731342,-0.021825178,0.0019774516,-0.028196009,0.029793685,0.032228354,0.009930333,-0.04471847,-0.04136947,-0.02936546,0.037451133,-0.029808635,-0.008764182,-0.0006612755,-0.017315945,0.013336333,0.033502746,0.0069052014,0.026524115,-0.026615769,0.019445976,-0.015914153,0.01614999,-0.001295615,-0.026497988,0.035861786,-0.031693585,-0.032116476,-0.030112214,0.028989686,-0.041885957,0.04386683,-0.013380048,-0.0063857804,-0.035086747,0.0102619445,-0.023490286,0.023484437,-0.025602048,-0.029039672,-0.029414771,0.009192201,-0.015705423,0.05524374,0.023480197,-0.047457222,0.016617775,0.01354059,-0.035443157,0.016443325,0.02124326,-0.0047287014,0.015729276,-0.02070577,-0.030514667,0.016229946,-0.01626722,0.026658954,0.009539042,-0.0074687772,-0.016802244,0.021006318,-0.0105814,0.021321574,0.041363373,-0.030518658,-0.02876888,-0.031467564,0.032581773,-0.047603935,0.012988894,-0.033287942,0.034810804,-0.02499013,0.039629214,-0.014595884,0.0073236,-0.020996446,-0.006771666,-0.053021166,0.027453624,-0.021968754,-0.012978479,-0.055810466,-0.0349535,0.007152541,0.011403701,0.026465181,-0.0018846751,-0.049972028,-0.03329149,0.038424455,-0.01944231,-0.022573419,0.01913702,0.00074736896,0.043924943,0.031595375,-0.028488524,-0.06052985,0.017228102,0.03197349,0.047372643,-0.02080456,0.027186116,-0.022550413,-0.03294383,0.032584626,-0.018265912,-0.023852939,-0.006915113,-0.033702623,0.04011241,-0.018316554,0.036820173,-0.017497545,0.0045814975,-0.049142413,0.023808919,0.021537626,0.020961633,0.02802277,-0.03981109,-0.01130162,0.020304853,-0.017263832,-0.0485912,0.024101865,-0.015873676,0.019679433,0.008523042,0.012033818,-0.043021068,0.02692853,0.021021977,-0.0272818,-0.013730368,0.008344235,0.016573746,-0.03779999,0.013333195,0.026487563,0.030360179,-0.032098766,0.025701342,-0.026546696,-0.028897611,-0.014443834,-0.0139982635,-0.012687075,0.021947425,0.029417546,-0.018815294,0.01047552,0.027183514,-0.004365058,0.02403986,-0.022988232,-0.0153561765,0.017526342,-0.038284715,-0.010533716,0.016295535,-0.020039953,0.0014430204,0.030760849,0.027674992,0.013993741,-0.013713373,0.04930534,0.010744595,0.011216111,-0.018783182,-0.002888363,0.0046655247,0.00012781896,0.021008257,0.026885098,-0.01606868,-0.033524193,0.0102820145,-0.045256156,0.027700255,0.02785925,-0.033769332,0.03809651,0.032236654,0.02451682,0.015782941,0.04049816,0.033215508,0.0189017,0.02030026,-0.02145133,-0.03522994,0.049107626,-0.015544812,0.031810332,0.0036223496,-0.039356414,-0.0011326489,-0.019647988,-0.022107702,-0.004552209,-0.043580804,0.028137473,0.0098008,0.02789566,-0.009787221,-0.03294746,-0.008486436,0.008229056,0.016420491,-0.018733667,0.0059654284,-0.010296461,-0.042814758,0.047543067,0.0052040615,-0.02511074,-0.0020886748,0.046010435,-0.024696123,0.030344766,0.016027499,-0.035494134,0.0011780598,-0.028877866,-0.04041403,-0.009471288,0.0051836194,-0.004587629,-0.025983572,-0.021252647,0.015244034,-0.0038868387,-0.0018539329,0.017590564,-0.0076823747,-0.044989873,-0.016173875,0.0439677,-0.041247457,-0.043434426,0.015459933,-0.041192073,-0.025902284,-0.04634695,0.02395391,-0.018606622,-0.04436013,-0.04228955,-0.017222479,-0.025431793,0.0241537,-0.037462626,-0.039015815,0.04037178,-0.03359451,-0.055808377,-0.03526756,-0.03207885,-0.031016404,-0.02391371,0.010570587,-0.0068711485,-0.013201332,0.018391367,-0.01642216,-0.016454581,0.041728947,-0.048274916,-0.0079908045,0.019932454,0.017619075,0.02884202,-0.012585486,-0.035422176,0.06136188,0.0032856313,-0.03211257,-0.020903103,0.0465903,-0.025842266,0.010056773,0.025439223,0.0063349754,-0.03226119,-0.0009500176,0.0047401343,0.05065255,0.018685346,0.04343286,0.021487895,-0.038732916,-0.04442335,-0.029885156,-0.035756893,-0.011494532,0.008262448,-0.035288982,0.027297419,-0.037255317,-0.03558808,0.027488748,0.027495455,0.017851347,-0.049070656,0.0046209046,0.025689004,-0.04026391,0.033956327,-0.014043411,0.01868317,0.0015079272,0.041658565,-0.022322712,0.046664923,0.04226643,-0.011697611,0.03272754,0.0038839353,-0.03894736,0.024569742,0.01012142,-0.04066261,0.036975134,-0.03202848,-0.00748567,-0.015661735,0.018036896,-0.023937574,0.0027584482,-0.021214798,-0.019677525,0.00039337898,0.04481947,-0.032251194,0.0028157777,0.0374992,0.036847986,0.037632383,-0.020629678,-0.03613788,0.0021682903,0.01290439,-0.018820325,-0.018925676,0.024672238,0.02969052,0.01802746,-0.018023785,0.01331164,0.045145746,0.012018435,-0.037098322,-0.029163163,0.017993113,-0.032336377,-0.030728344,-0.022177309,-0.014592804,-0.040952973,0.04300894,0.021089537,0.004391941,-0.037130162,-0.044107478,0.030170321,0.035100024,-0.0038687077,-0.014425888,-0.01842308,0.012736622,0.034440976,-0.035018947,0.00077807467,0.04816042,0.026741425,-0.014170543,-0.025574423,0.01661517,-0.038413458,-0.00020211811,0.016775992,0.0013699649,-0.027412074,-0.008406481,-0.007956831,0.028226225,-0.012378606,0.029057814,0.025111267,-0.029239677,0.017083526,-0.03227126,-0.023152912,0.044495333,0.03733656,-0.031428136,-0.034434434,0.0318929,-0.03766747,0.005235817,-0.016965058,-0.0015135114,0.0383213,-0.043642238,-0.043627888,0.028181389,0.031826094,-0.042264245,-0.039158985,-0.004312945,-0.043557733,-0.03428623,-0.0097424975,-0.049914356,
    		-0.006416615,-0.041755743,-0.049831603,0.017655404,0.01920789,-0.050848287,-0.007975371,0.0043886406,-0.025001692,0.026304267,-0.026404558,-0.027720379,0.044373218,-0.011223468,-0.03990094,-0.040975157,0.022888372,0.008803962,-0.015956625,0.018806161,0.008625738,0.019937703,0.032596912,-0.007895958,-0.034062073,-0.013124722,-0.0058011697,0.022605114,0.013911274,-0.0010341161,0.047181394,0.03299681,-0.018323803,0.007502637,-0.03147364,0.022044817,0.01386268,0.032283355,0.027403211,-0.0146000385,-0.024654893,-0.033805493,-0.013163141,0.022408098,0.018003084,0.024530353,0.049555253,-0.010357053,0.005829925,-0.01690389,0.04704041,-0.02346996,0.007427077,-0.014431746,-0.012926028,0.0028162196,-0.030112686,-0.014224099,0.028028652,0.020884473,0.0075583328,0.029958699,0.04175553,0.026494104,0.031040387,-0.031274848,-0.027731152,0.0017920294,-0.012740775,0.012725174,0.015481735,0.008907274,0.03435199,-0.020201247,0.054467432,0.034533814,-0.019320602,0.018530222,0.009795101,-0.006769503,0.02469724,0.006137986,0.009892693,-0.019836113,0.022908632,-0.039744478,0.0006279123,0.0112694325,0.03903415,0.031122427,-0.0044654817,0.025743702,0.0433816,-0.021500815,-0.051804654,0.03631416,0.010293956,0.0016880322,0.048229106,-0.017978832,-0.018871188,0.0065329853,0.024242533,-0.04089604,-0.03647559,0.009619032,0.032930616,-0.031208973,-0.020597067,-0.03827278,0.031741325,0.0050875116,-0.025745375,-0.019096121,0.028576242,-0.036937095,-0.0025448161,0.02263259,0.027350958,0.010958492,-0.033786844,-0.026445048,0.04054306,-0.024898963,0.01188817,0.02400344,0.02610778,-0.037619267,0.014940651,-0.03344711,-0.025939161,-0.03558734,0.0047761383,-0.018955411,0.009387913,-0.013080965,0.010834554,-0.02954755,0.021692267,-0.04296838,-0.03971395,0.022941729,0.0028954414,0.036567044,-0.035934914,-0.033555806,-0.044881806,0.009964127,-0.038229093,0.020700136,0.045938928,0.008452845,0.028005458,-0.0054633883,-0.023594674,0.029633068,-0.036840085,-0.022625428,-0.040920172,-0.034365565,0.0356878,-0.05517541,0.038355604,0.0074686073,-0.05113537,-0.00561244,-0.027581517,0.029102622,-0.016267994,0.031921476,-0.046901498,0.005720473,0.0073634,0.023757294,-0.027617462,-0.033122815,-0.042840227,-0.030116577,-0.00243519,-0.0037016969,-0.030893521,-0.04938945,-0.042125333,-0.0025891173,0.009476018,-0.0061210482,0.0053457543,0.0007567008,0.008047192,0.03705805,0.025541602,0.0029981134,-0.032999747,-0.024926491,-0.0048361635,0.045367185,-0.004313907,-0.008823315,-0.020328462,-0.035699267,-0.018691232,0.017463252,0.016558062,-0.039615925,-0.042654775,0.036136672,-0.016521629,-0.03974048,-0.019831944,-0.040621664,0.005066068,-0.01981563,-0.018527746,0.044016097,-0.014275558,0.025930697,0.019826006,0.026629442,0.03390051,0.018209336,0.020611078,-0.01999601,0.011674885,0.00067689107,-0.05299699,-0.020425795,0.018825222,-0.026611386,0.0015232391,-0.00469345,-0.036452927,0.0067554396,0.039908957,0.01964036,0.0039880127,0.046164155,-0.0020499888,0.029967904,0.009919092,-0.0050106216,-0.021186793,-0.027716756,-0.00824687,-0.03195042,-0.028201409,0.012489456,-0.042046107,-0.020849522,0.03055486,-0.0031749376,0.007284714,0.011613047,-0.02229509,-0.022273673,-0.023995923,0.012180047,0.011212971,0.0028985161,0.018880766,0.03338406,0.014174537,-0.0025203894,-0.017317612,-0.007194316,-0.021729546,0.024549542,-0.03858734,0.023627322,-0.032905184,-0.049034007,-0.016097497,-0.023424828,-0.02588806,-0.013734743,0.020654485,-0.058141656,-0.008000495,-0.035187032,-0.00956699,0.0015073864,0.029232638,0.014490566,0.038212705,0.004302739,-0.012437208,-0.038756117,0.017658453,-0.04017319,0.023941271,0.007159544,-0.04223147,0.012215377,0.017924812,-0.04408971,-0.0072148163,-0.026328612,-0.001793331,-0.010874962,0.0019152504,-0.04752608,-0.046535946,-0.038978305,0.037204683,0.016941354,-0.037885215,-0.032330826,0.019958546,0.02228845,-0.037071068,0.0009483072,0.032617785,0.027222771,-0.04388353,-0.024329364,0.01099897,0.047724314,-0.008817492,0.031352818,0.01785638,0.044576783,-0.032533288,-0.024096206,0.031988375,-0.016372506,-0.018734401,0.009807242,0.019906286,-8.74355e-05,-0.011798308,0.007168939,0.00988647,-0.030228566,0.009046968,-0.0019297288,-0.017700769,-0.03802312,0.012662306,-0.003686831,-0.012242495,0.042957477,0.016783135,-0.007735102,-0.018286932,0.049245004,-0.008448632,-0.022481859,0.00036234624,-0.02955901,0.0043264325,-0.03410337,0.020124134,-0.028464705,-0.03939763,-0.035596248,0.025781475,-0.014566139,0.03263846,0.027628966,-0.041481707,0.027561817,0.032492783,0.001759603,-0.021285074,-0.01295388,-0.02343544,-0.028212853,-0.008575586,0.01647397,-0.017802484,0.007940066,0.03017029,-0.0014240211,-0.052850544,0.0028573489,-0.0074266903,-0.0062377835,-0.04303795,0.047784206,-0.03251856,0.026743263,0.018142536,-0.02816399,-0.0017153458,0.03835753,-0.032492563,-0.010825951,-0.046286743,0.042060364,-0.019583756,-0.015739666,0.037378058,0.045579623,-0.01988113,0.012618211,-0.010354408,-0.030524239,-0.038479205,-0.040334314,0.017973876,-0.033834703,-0.030857634,0.0093855085,0.002212746,0.03185768,-0.017596526,0.0017322253,-0.041048683,0.02184668,0.016774891,-0.00038425674,-0.021807129,0.010343761,-0.004455657,0.0126829455,0.013027407,-0.027627511,0.024643205,-0.028295454,0.018938579,0.0432359,0.018243596,-0.0098302495,-0.045514997,0.022822684,-0.05054692,0.019408528,-0.045363255,-0.037644178,-0.01942633,0.05204299,0.030485174,0.01969201,-0.03480284,0.0348442,0.035803236,0.021085879,0.033404965,-0.024824042,0.0019013277,0.03772839,-0.015703514,0.03108906,-0.011026091,0.05322263,0.023585115,-0.0016493722,-0.0005755231,0.009474992,-0.010605288,-0.018341094,0.013315437,-0.030652395,0.020286972,-0.0033681483,0.029548662,0.0032313557,
    		0.04097399,-0.030467536,0.021259326,0.021555355,-0.0022022603,0.04217492,-0.0017543221,-0.0009173781,-0.045275707,-0.027231071,-0.042692177,0.05330106,0.010328626,0.0064669135,0.03225057,-0.016829828,0.015722403,0.00982921,-0.00416477,-0.030816674,-0.04484214,-0.03285971,-0.016467102,-0.03314103,0.040091872,0.017519318,-0.0135992905,-0.022689091,0.031688347,0.007978194,-0.0047046407,0.0072770314,0.03872174,0.02793783,-0.0006888481,-0.026344726,-0.03344082,0.043341003,-0.04687098,-0.028272549,0.008181331,0.04814839,0.048126545,-0.029850066,0.01718489,-0.015274839,-0.038721826,-0.018888699,0.01242661,-0.034030985,-0.0043101404,0.03958727,0.0029129556,0.008320776,-0.008054077,-0.015735904,-0.023934374,0.039682828,0.019926418,-0.02644078,0.031581637,0.0007796474,-0.032312203,0.029917454,0.021013586,-0.013223775,-0.027442623,0.018151494,0.010867357,-0.006826261,0.0428088,0.019848188,0.015654419,0.02060913,0.026591487,0.011004915,-0.023353497,-0.041095395,0.0005225807,0.036510184,0.030666798,-0.04800801,0.03364142,-0.014959025,0.02818206,-0.036328334,-0.029165387,0.03420953,-0.009773099,-0.037394885,0.0266234,-0.032255597,0.018563477,-0.035578724,0.0019983142,-0.010914008,0.011054855,-0.000953756,0.034454726,-0.026389109,0.022180425,-0.04409975,-0.03829037,0.0014920555,-0.045020606,0.01808264,-0.019624792,-0.04060309,0.047912262,0.03665743,-0.020279896,0.026013026,-0.011178054,-0.05504641,0.022853753,-0.025503678,-0.03168499,0.036922835,-0.032300483,-0.05946882,-0.027369797,-0.013555591,0.037685674,0.028642172,0.009285369,0.013650119,0.017893797,-0.028765583,-0.046867136,0.022519026,0.0102267405,-0.02524714,0.035964992,-0.043014437,-0.0010230588,-0.024445992,0.0005466418,-0.045213368,-0.023449427,0.03950925,-0.041040353,0.045583345,-0.0078925425,0.014446614,-0.013095604,-0.03934582,-0.038555767,-0.021920176,0.032888867,-0.035598643,0.0053206226,0.03139594,0.024104428,0.012445036,-0.018572703,-0.027015513,0.031833537,0.041844573,0.01858703,-0.007637381,-4.781604e-05,0.011147116,0.015978204,-0.009776896,-0.024298364,-0.008529063,0.00056291244,-0.049288955,-0.029430153,0.03198942,-0.0028924192,-0.045106176,0.029189058,-0.049809862,0.011304616,0.0037376722,-0.04326683,0.040367167,-0.034867592,-0.03216249,0.038231306,0.011080657,-0.047458827,-0.008531651,0.013679958,0.013857108,0.014429826,-0.0018195296,-0.030543178,-0.051164094,0.023222864,-0.030657902,-0.008176354,-0.0021019776,-0.0033259904,-0.028916188,0.025310555,-0.013152365,-0.013211281,-0.014817526,-0.007830498,0.023982206,0.02235351,0.026179625,-0.0057903724,0.0030246184,0.018028563,0.024029713,0.035396133,-0.0016525226,0.008443959,0.017744036,-0.030191202,-0.014183834,-0.041341092,-0.042990286,0.033835173,0.024320671,0.039330862,0.037396304,-0.007761978,0.0065120966,0.019878998,0.0009055322,-0.024986008,0.0060714814,0.0015068714,0.0070349416,-0.033752013,-0.027615843,0.030078275,0.0076156724,-0.030119887,0.036422618,0.042654995,-0.037694138,-0.04102191,-0.0025091353,-0.029671283,0.021864068,-0.00459229,0.019184457,-0.0301622,-0.022318806,-0.0320195,-0.009809211,-0.012188651,-0.004862599,0.018546214,0.018065032,-0.035898935,0.05983226,-0.04053957,-0.016767154,0.039394382,-0.009484679,-0.010844141,0.05750021,-0.0136637315,-0.024936631,-0.046822626,-0.0052538137,0.010387453,0.038918816,-0.020349879,0.036586408,0.030805554,-0.007675854,-0.028418368,0.05707932,0.01175137,0.013823707,0.0107571585,-0.046537474,-0.02953322,-0.0007392759,-0.013883325,-0.038681164,-0.046920244,-0.050652597,-0.00382657,0.049453698,0.01964099,0.042303354,0.018849347,0.0032405732,0.038802043,0.03170282,-0.029055262,0.008086571,-0.030259807,-0.029489426,-0.03549715,0.0037558693,-0.020208387,0.03938908,0.0013832216,0.006037373,-0.035796292,0.023541836,-0.02683817,0.02411872,-0.049646646,-0.012339362,-0.005106171,-0.057838254,0.029187478,-0.018569171,0.031120181,-0.017305853,0.033297516,-0.002494911,0.012193748,-0.04575185,-0.02975934,-0.009657764,0.012517606,-0.060978033,0.021490209,-0.012706363,0.0023351088,-0.01426385,-0.036717776,0.017357958,0.025932584,-0.04099039,-0.0004080945,-0.030312708,-0.0128656905,-0.048693493,-0.042163882,-0.053812318,-0.030393375,0.047237128,-0.035190687,-0.044136353,0.03792907,-0.02578576,0.0073786466,-0.025400914,0.008237982,0.02558059,0.018503128,0.03380473,0.023565546,0.021196894,-0.034687027,0.025151616,0.02703725,0.035944704,0.03287344,-0.011320317,-0.01989289,0.038556032,-0.011358509,-0.034129437,-0.029357346,-0.0014218435,0.037233908,-0.011812679,0.020192098,0.0007851505,-0.044095233,0.014500221,-0.03655716,0.046457607,0.029599702,0.004143588,0.024658985,-0.01622965,0.0090411585,-0.03442019,-0.0034837225,0.042703755,-0.016447661,-0.029447885,-0.018679632,-0.041438255,0.032560162,0.026270458,0.022798657,0.0153431045,0.035199884,0.025172539,-0.014210023,0.027096327,-0.033279076,0.029230926,0.04182049,0.022688475,0.0082512,-0.017108688,-0.00037440436,0.043873105,-0.029050188,-0.014696175,0.0017440077,-0.04468461,-0.034191404,-0.02769904,-0.023455411,-0.050353255,-0.03604311,-0.031557746,0.007750081,0.0043805493,-0.02533292,-0.028164668,-0.045618586,0.025088564,-0.01798156,0.023163734,-0.029178513,-0.003175791,0.035669096,-0.000874361,-0.027542677,-0.006051661,-0.0056559443,0.047103975,0.028491704,-0.022821385,-0.047583133,-0.029973282,0.002774077,0.024264155,-0.01074284,-0.047655847,0.03518064,-0.019957315,-0.06795709,0.017324032,0.033481024,-0.034310665,0.040813986,0.0020438647,-0.044192072,-0.01721485,0.004245469,0.029775718,-0.015353107,0.014808103,0.021730509,-0.0043222704,-0.020695262,0.009810356,0.016507756,0.0007081525,-0.034461178,0.05224646,0.013196026,-0.018174993,0.044304427,0.031439435,-0.016336683,-0.0027496736,
    		-0.039206162,0.0149878245,-0.0063515794,-0.03644869,-0.014220613,-0.013476952,-0.03998063,-0.004398892,-0.01409934,0.036667183,-0.018612308,0.037805907,0.030661024,0.016248157,0.02518227,-0.00581677,0.02920141,0.027344545,0.010502496,-0.047558002,-0.045016073,-0.031151809,-0.021989148,0.005206308,0.012489869,-0.006155608,-0.042702846,0.027483178,-0.03605417,-0.02023041,0.046433557,0.029787542,0.02852022,0.01869181,-0.02473223,0.0066469526,0.022968665,0.018430796,0.007786563,-0.04197625,-0.039546777,-0.008601488,-0.03466476,-0.039143514,-0.0026536088,-0.021239545,-0.0019292872,-0.018612396,0.010027102,-0.0044968515,0.014257906,0.029480672,0.01861844,0.015500694,-0.030969549,-0.012383176,0.016608898,0.04033703,0.0051967655,-0.044487495,7.0220114e-05,0.00068107597,0.015373855,0.042977467,0.014398912,-0.0029803233,-0.02234456,0.012905537,0.0010124829,0.023091989,0.00023326467,-0.040067904,0.03472063,7.461124e-05,-0.026979921,-0.025408458,-0.012493189,-0.03378692,-0.025832146,0.039031386,0.016537352,0.027921198,0.004616883,-0.004125443,0.017891832,0.0082348045,0.031666506,0.012652441,-0.032061033,-0.0037619383,-0.0061908923,0.021881917,-0.019428086,-0.023134224,-0.0034275225,0.022848532,0.014393639,-0.03289279,0.045539364,0.027045341,0.001436697,-0.029164169,0.0066816867,-0.051621206,-0.027296213,0.052490927,0.022600709,0.021045674,0.030212374,0.034445845,-0.030046154,-0.015141718,-0.0016205368,-0.043731138,0.021101324,-0.016100932,-0.015085394,0.038084794,-0.011346799,0.01797211,-0.023423092,0.036984947,0.040897243,-0.034001905,0.012978488,-0.008210017,-0.021955164,0.009482641,0.04038699,0.036021262,-0.03845875,-0.03263246,0.035725683,-0.02344254,-0.04969567,-0.0020822803,0.023459697,-0.051621363,-0.023270445,-0.014002317,0.013568532,0.040208574,0.018932424,-0.03132067,0.04742028,-0.0043585147,-0.03758745,0.044974763,-0.018919677,-0.029424943,0.00740028,-0.0065766145,-0.0017026846,0.03227951,-0.030760756,0.0009233336,0.02290756,0.022383587,0.037433382,-0.03623193,-0.026935047,0.013562904,-0.0057076393,-0.033382144,-0.04548202,0.0032376961,-0.003102533,0.00023376672,-0.0040456224,-0.05078477,0.02560373,0.032630213,0.008126387,0.021547334,0.005825934,0.00528447,-0.016586889,-0.009129611,0.000933498,0.008532541,0.0017226464,-0.03201153,-0.0065120705,-0.00024552605,-0.041048877,0.017497316,-0.004004977,0.0350406,-0.011261651,0.015812214,0.016412836,-0.043355476,-0.03341665,-0.0007488375,0.029176237,0.046019398,-0.020142542,-0.018389242,-0.031760674,0.01916104,0.023353057,-0.020691823,0.01783438,-0.04540991,0.038404457,0.0024880827,-0.013907411,0.0511785,-0.018276123,0.0045338054,0.017881699,-0.0022652529,-0.011487447,0.011918333,-0.005597154,0.003950129,0.03021978,0.010392301,-0.044737954,0.018086148,0.009061076,0.03044417,0.03781322,0.008793955,0.03254127,0.030874142,0.025125746,0.025814714,0.027815908,-0.038171597,-0.04580845,-0.017601356,-0.030479243,0.040860526,0.010738615,-0.037509166,-0.009287915,0.0036957157,-0.01979547,0.046159048,0.029381432,-0.034037918,-0.02769477,0.035037443,0.009500249,-0.017967638,0.0133559285,-0.02720686,0.032389365,-0.0447871,0.019618522,0.007430041,0.0017286601,-0.04512589,0.008157138,-0.015070729,-0.05256063,-0.01868307,0.035296317,0.005243605,-0.0051975213,0.044194937,0.023316938,-0.011913095,0.01336297,0.042750683,-0.0047579953,0.016652223,-0.018150147,0.013023559,0.024680987,-0.009605934,0.004971838,-0.00955586,-0.023037745,0.008806337,0.007855839,-0.010736452,-0.01945942,0.009024224,0.019356405,0.012103771,-0.00021643541,-0.009731921,-0.038456965,-0.030350138,0.033282414,-0.03064451,-0.019910015,0.022574652,0.016191186,0.02862922,0.02355262,-0.03629276,0.026622016,-0.01349717,-0.04796226,0.03883608,-0.028254045,0.04133781,0.035850804,0.0007953427,0.0111950105,-0.00658792,0.005331647,-0.023585498,-0.038089845,0.007196264,0.015591529,-0.010332074,-0.040244102,0.041003786,0.00839633,0.0046792775,0.0028924698,-0.036804512,-0.030939825,-0.025591962,-0.03332521,0.006538626,0.0039030307,0.038582347,-0.019094545,0.010818887,0.01685374,0.005443157,-0.013355808,0.05032186,0.009050241,0.0022262665,0.027582962,0.0071313595,0.021522345,-0.022668358,-0.000600194,0.022185432,0.005083949,0.0063369847,0.02674006,0.006261961,-0.0133186495,0.019916669,0.0009534592,-0.008420701,-0.021421796,0.042855173,-0.018887566,-0.03814078,0.0021418969,-0.037002746,-0.05196189,0.022382155,-0.03632728,0.011125256,-0.020117734,0.020000765,0.020463377,0.009611781,-0.020742467,-0.0058708475,-0.008999041,-0.0053068446,-0.034185406,-0.007981107,0.0413693,-0.026457736,0.025559084,0.014019109,0.030356422,-0.045541894,-0.0036549286,0.010202996,-0.043718275,0.038703103,0.013604707,-0.005305631,-0.006815842,0.019930283,0.029747797,-0.05053596,0.002498578,-0.014391781,-0.014117809,-0.026552727,-0.015728697,-0.034475613,0.0039691604,0.008581386,-0.017776243,0.024271315,0.010554401,-0.03471203,0.0072263093,0.0003691431,-0.029548494,0.028509527,0.009327368,-0.030376965,-0.03380954,-0.022124818,-0.01866167,-0.0250382,-0.025917208,0.0061616213,-0.040953103,-0.044522654,-0.0106945485,0.0040107258,0.0013067432,-0.03317844,-0.04339029,-0.022776473,-0.008346956,-0.006450552,0.0058483123,-0.038785547,-0.04559859,0.04217145,-0.017282698,0.004666491,-0.0018144179,0.044169243,-0.051343244,-0.039994955,0.004036535,0.019668896,-0.02035354,-0.012143757,-0.02384847,0.023787139,-0.019041024,0.02295543,0.00028801998,-0.030379575,-0.0517955,0.00054841593,0.027198361,-0.043413617,0.007062101,0.002025972,0.00996722,-0.032247417,0.043405194,-0.0122145945,0.019171476,0.01530281,0.03796913,0.021713706,0.0050110198,0.0236497,-0.05187211,-0.016775979,0.038588528,0.0216512,0.04041288,0.03774664,
    		-0.014915057,0.03957388,0.019283121,-0.0043436135,0.007185266,-0.007404221,-0.028476706,0.04404003,0.010805091,0.006042985,0.008330034,0.01563028,0.052292686,0.021306928,0.030414926,0.023939744,-0.026130134,-0.023583816,-0.018858988,-0.018747594,-0.00902886,0.0066560227,-0.046431266,0.009297446,-0.0044125835,-0.026107972,-0.050238892,0.011566166,0.037017923,0.0054435013,-0.0046960036,0.003723976,0.0064031524,0.040550444,0.0047031925,0.018347075,-0.029735599,-0.019515915,0.014890074,-0.033991866,0.004296857,0.033216257,-0.03704036,0.007460244,-0.015076829,-0.032156117,-0.0055414494,-0.013414192,0.009618962,0.008356787,0.012521796,0.009683895,0.0086395675,0.01671879,0.006161311,-0.016650604,0.03169499,-0.0006509147,-0.037165124,0.004959963,-0.047820188,-0.007978439,-0.0038488603,-0.049575802,-0.0022962012,0.018023236,-0.01155887,0.027267901,0.03361758,-0.008506416,0.0027015465,-0.03127831,-0.02341966,0.0049948306,-0.023679493,-0.022817632,0.009436248,0.022780169,0.026590154,0.04355874,0.023844548,-0.048754685,0.04597444,0.03216575,-0.032482512,-0.021913262,0.03631702,0.021585075,-0.025594728,0.007802115,0.032070003,-0.00025970885,-0.0017776688,-0.0019956166,-0.018260123,-0.020569837,0.0361764,0.037878655,0.02185958,0.010553185,-0.031842392,0.036826618,-0.01913144,-0.008099707,0.033926178,0.0023872696,0.046369754,-0.050492678,0.006587855,0.0291427,0.032255437,-0.021066595,-0.028559873,0.001507361,0.022198182,-0.038881496,-0.031428237,0.0026140444,0.038581934,-0.04026932,0.027389156,-0.0021026644,-0.028042512,0.042041358,0.03184492,-0.046507135,0.04095265,0.026782634,-0.02834991,0.057049528,0.018224472,0.017281527,-0.028108211,-0.010226411,-0.014726189,0.026578765,-0.025228743,-0.015391032,-0.03329672,0.026865127,-0.033690326,-0.017388778,0.0035212738,0.03706723,-0.041377917,0.031418685,-0.020985069,0.033108857,-0.0070655392,-0.0014948661,-0.042106375,0.035261266,-0.0036447833,0.0033237066,0.028213236,0.02584302,0.0459003,-0.0032762531,-0.035036348,0.033353187,-0.01642483,-0.045137804,-0.042593755,0.021831065,0.004643957,-0.04119745,0.013970101,0.025798662,-0.034614958,0.008031409,0.0008659968,0.032821465,0.04800586,-0.0350363,0.036135077,-0.008990529,-0.0015939318,0.032902386,0.05230878,0.01403381,-0.006513349,-0.04134079,-0.024909442,0.039207835,-0.028349984,-0.02625778,0.014452818,0.023990253,0.024230326,-0.028046492,-0.023590188,0.020793062,-0.016043054,0.0072102705,0.022205697,-0.006111471,-0.032005124,-0.049222153,0.020889128,-0.046734754,0.05402319,-0.014745046,-0.015551054,0.026841989,-0.013313372,0.005197117,0.02449214,0.024386965,-0.019205704,-0.026579179,0.0067204004,-0.047592573,0.016542247,-0.033757616,0.018873468,0.008667852,0.03716052,-0.023971278,-0.029912742,-0.021927716,-0.005636438,-0.0124111185,0.04908347,-0.0031202715,0.01028589,0.012110912,0.039874185,0.025230346,-0.019554518,-0.036729384,0.032082554,-0.048143283,0.009068477,0.03816032,0.017294103,-0.0012191017,-0.0074434644,-0.018370334,0.01928807,-0.013200374,-0.0309029,0.01990528,-0.014755595,0.007122496,-0.021680364,-0.032962326,-0.043288793,-0.0094235195,-0.038723115,0.023844495,0.04824327,0.035333734,-0.03360102,0.036703415,-0.03990317,-0.038101412,0.033055212,-0.033277273,-0.015863981,-0.003497939,-0.029768508,0.01849537,-0.004428871,0.01474888,-0.027074354,0.007987072,-0.04679683,-0.011685982,0.021582363,-0.018229503,-0.04774788,-0.032893576,0.016369047,-0.038884215,-0.038981162,-0.028949747,0.007898695,-0.03567944,0.02843864,0.008770478,-0.016028972,0.025139598,-0.04704588,-0.010475855,-0.01968824,0.012713114,0.031101642,0.04216462,0.012912845,-0.024787506,-0.035210207,0.05162868,0.009750088,-0.012422825,0.0140458075,-0.024666948,0.009510874,-0.041538842,-0.014858219,0.041400157,-0.016828526,0.0018051746,0.034300316,-0.014677636,-0.018208819,0.026757346,0.03514766,-0.017657496,0.025193773,0.011310164,0.004701982,0.043070816,0.006528674,0.04441157,0.04103066,-0.0372947,-0.005873497,0.00050026167,0.03339067,0.041741215,0.016790397,-0.028581766,-0.010427046,0.0033702853,-0.037362687,-0.001258382,0.042280804,-0.023449928,0.05025483,-0.047734164,-0.018956712,-0.03440758,-0.044495873,-0.039140232,0.023903025,-0.046843212,-0.05011353,0.009528372,0.021177446,-0.011607497,-0.03479037,-0.033994146,0.034831073,-0.009352129,0.002394065,0.008670204,-0.02948207,0.032908756,0.0061961357,0.008143583,-0.019450437,-0.022520144,0.019250156,-0.0027729433,0.02804785,-0.01805861,-0.0024545977,-0.0021153956,-0.038256817,0.033054654,-0.032147065,-0.005853458,0.021885538,-0.007905721,0.019229492,-0.017763583,0.0015833522,-0.033491608,0.01794393,0.008718166,0.026493927,-0.0013414052,0.013449602,0.01937093,-0.021873957,-0.028819136,-0.04576062,0.0435284,-0.0107116625,0.0048419996,-0.03879481,0.03779952,-0.008546214,0.015497789,-0.01786996,-0.030729756,-0.040001635,0.0417464,-0.05116272,-0.029034415,-0.01469828,-0.015649475,-0.027172234,0.050459653,0.011256778,0.005384619,-0.042855363,-0.040074274,-0.02273815,0.035778623,0.038534094,-0.02825324,-0.049563166,-0.02239173,-0.017841619,0.009128127,-0.026102552,0.015836293,-0.005473379,0.023201285,0.04028995,-0.0016243162,-0.0119997645,0.014254425,-0.04161237,-0.006792805,0.01142918,0.04581164,0.043332905,-0.026728041,-0.026455957,0.037967317,-0.026635034,-0.0047812904,-0.031150594,-0.013630834,0.022490438,0.02657713,-0.029439125,0.031190054,-0.011353526,-0.007806764,-0.008081183,-0.000886526,0.024810677,0.030930595,-0.034218576,0.027084239,0.0219984,-0.008119675,-0.021135474,-0.041913874,-0.008862654,-0.04826465,0.033827424,-0.015592138,-0.035965044,-0.038697474,0.008711189,0.009955418,-0.050811265,-0.024274739,0.017855363,0.023452982,0.015673488,0.041512646,
    		0.008399321,-0.024702486,-0.035478134,-0.003385007,0.04480111,0.017788012,-0.03981788,-0.034486976,0.0060580936,-0.017545877,0.021146538,-0.0062355464,0.02700075,-0.008771419,-0.0315789,-0.008488448,-0.015225869,-0.0063131847,-0.021684134,-0.012997705,-0.03988727,0.00815871,0.0026446583,-0.027465181,-0.020190172,-0.0031906113,0.0058264793,0.016212208,0.026751965,-0.03239365,-0.0041347193,-0.04143747,-0.025855731,-0.04084113,-0.006450471,-0.039313596,-0.024804704,0.021765549,-0.03642414,0.0029155344,-0.023494499,0.0042313235,0.0034450183,-0.042373028,0.034161553,-0.012285266,-0.030238327,-0.018554745,0.037291765,0.03066398,0.025014311,-0.024003593,0.03432631,0.02130292,-0.04568948,-0.038920876,0.0065203565,-0.0009415281,0.015106212,0.014163577,0.025160925,-0.0440167,0.0066110115,-0.040026817,-0.027057355,0.006247002,-0.010315682,-0.025835173,0.0072215996,-0.030550523,-0.011520716,0.01294587,-0.0029903268,0.014446836,-0.046589103,0.02763406,-0.046394665,-0.022856478,-0.0072050435,-0.045288425,0.016593372,0.0011937432,0.013235544,-0.039982397,0.027110685,0.0340274,0.034850232,-0.034686964,-0.050808042,0.0029833352,-0.020376237,-0.003908289,-0.030753098,-0.02282606,0.027103944,0.032492045,-0.021159602,-0.015322606,0.020287998,0.009079202,-0.013219958,0.01753452,-0.019051336,0.0115690045,-0.004969734,-0.039228246,-0.044029154,0.03560754,-0.029067915,-0.033845514,-0.03406503,0.026669268,-0.046474554,-0.011452536,0.00010945399,-0.023604255,-0.04788222,-0.024214787,0.003431359,0.011938898,0.0061195088,-0.009314388,0.031708695,-0.0141561795,-0.023665383,-0.047977954,-0.021392962,-0.035653792,0.010669701,-0.03209791,-0.0050711115,0.033322804,0.035272926,0.02527916,0.028710643,-0.017329894,0.018440412,0.011691383,-0.0015207791,-0.039672934,-0.0464922,0.027636085,-0.016868005,-0.014025577,-0.024194349,0.005418186,-0.03073237,0.049705643,-0.0360126,0.019167894,-0.00638675,-0.035698436,-0.03475276,0.045675255,0.030899731,0.039767735,-0.039890837,0.022103755,-0.03110648,-0.026580643,-0.014988532,-0.028010339,-0.036424216,-0.03523586,-0.034108233,0.048483104,-0.012550774,-0.039109718,-0.005159363,0.031871215,0.04500202,-0.0017095443,-0.02652917,0.012767684,-0.03582566,0.012404333,0.0010469106,-0.023327148,0.0050972835,0.02018979,-0.034802943,-0.0043740603,-0.023291688,-0.011154587,-0.040106215,-0.03638144,0.023015304,0.003777736,0.011020659,0.0036297503,0.0051558646,-0.011811921,0.009593107,-0.033182923,-0.025894593,0.056069136,-0.028673917,0.025511356,0.0096636815,0.021855624,-0.007257518,-0.004742338,0.02416859,-0.0261394,-0.001015772,-0.040809773,-0.036307845,-0.017923918,0.020256016,0.01908809,-0.002163113,0.04352266,-0.013961174,-0.016375393,-0.017286394,-0.03163134,-0.038894054,-0.008875712,-0.017236456,-0.018782763,-0.02045655,-0.039055903,0.008359072,-0.021390604,0.03875473,-0.014798056,0.038331036,0.027342586,-0.040153235,-0.0032116692,-0.0154222725,0.00054993195,-0.026932174,0.031429686,-0.034903787,0.0006430936,-0.03453957,-0.026626892,-0.029554438,-0.016837455,-0.027265908,-0.0024740717,-0.008103711,0.033904947,0.0012739301,0.008927208,0.0123209115,-0.022840926,0.028935805,-0.012911254,-0.014062192,-0.027486965,0.033971045,-0.01766186,0.016517663,-0.0023284315,0.04997516,0.03963568,0.02967565,0.024412634,-0.049183153,0.005640247,0.025186544,-0.05292788,-0.0060370597,-0.04295733,-0.0139723895,0.010086203,0.019200463,-0.03698466,0.016250102,-0.03077043,-0.030022046,-0.012829405,0.03376451,-0.007804935,-0.0117491735,0.040189512,-0.037412584,-0.030795185,0.017133534,0.03914717,-0.04075639,0.028324265,-0.029257474,-0.025728684,0.0035493579,-0.047674663,-0.012310599,0.016650587,-0.0017193875,0.03755584,0.0037963856,-0.04508488,0.004832213,0.039764408,0.011346653,0.033715367,-0.04156999,0.02381683,0.022088414,-0.0056783212,-0.04273609,0.0021518003,-0.037160534,-0.033177376,-0.0018446844,-0.0013891968,-0.01783299,-0.029579604,0.0075492025,0.035271198,-0.019692566,0.01578768,0.03513687,0.04185461,0.043905184,-0.030690826,-0.003084651,0.047576122,-0.011129533,-0.053083546,-0.0011308946,-0.025160087,-0.016003156,-0.02042046,-0.012412144,-0.006498418,-0.028036607,-0.004700584,0.024030352,-0.039702237,-0.046868265,-0.00083691295,-0.016491532,-0.02897838,-0.02634645,-0.033086315,0.0039769397,0.004339009,-0.054068767,-0.014010549,0.030070432,0.021782849,-0.008177871,0.007912559,-0.04236909,-0.017100511,0.043994408,-0.02543041,0.037156742,-0.014267783,-0.022499198,0.050866727,0.036189098,-0.017351178,-0.026219083,-0.0033171398,0.04467379,0.048182752,-0.03464045,0.028887782,0.015487319,0.0040754187,0.018958718,-0.021452576,-0.0072863945,0.035016753,-0.044848822,0.016252894,-0.014024432,-0.015955195,0.01606915,-0.040667396,-0.013189894,-0.028584419,-0.028469611,-0.056959867,0.019579343,0.004780783,0.026131114,0.02618803,0.03626509,0.013561515,-0.01840546,-0.034101203,-0.016159356,0.018020442,-0.003989786,0.01475301,0.0044998275,0.03638927,0.012301738,0.0065768906,0.04251911,-0.05323293,0.01944653,0.04331704,-0.028665774,-0.01392911,0.006837451,-0.0035962618,0.007495735,0.011946506,0.021692459,0.01561455,0.017139545,0.002964154,-0.016701153,0.027428038,-0.011099437,-0.014250997,0.031091107,-0.019553997,-0.048376225,0.022726437,0.030911697,-0.045454253,0.069399066,0.004600946,0.037961513,-0.0076338034,0.029097205,0.02949494,0.020030528,0.031488925,-0.024385901,-0.025091084,0.0077646966,0.046441235,0.014724819,-0.0056350855,-0.03331019,0.010227169,0.015682092,0.018809857,0.0285922,0.015665812,-0.040604606,-0.006849174,0.004080307,-0.047427855,-0.063958384,0.025525058,-0.023721926,-0.02181896,0.011626165,-0.0089533655,0.009015874,0.023624757,0.0061362064,0.049302787,-0.008781643,0.026984518,-0.0040639834,0.016855305,
    		-0.020618726,-0.022619875,0.046113774,-0.025766512,0.03341129,-7.047318e-05,0.01839645,-0.050370444,-0.01697161,0.027897269,0.047015313,0.027280184,0.0031516396,0.03650503,-0.0378134,0.00071571564,-0.009140135,0.02933039,-0.008639488,-0.026871366,0.033408545,-0.022310568,-0.022667136,0.0025208052,-0.019961335,-0.016652003,0.03955768,-0.02297499,0.02028629,-0.009447111,-0.018801445,0.018017767,-0.010693973,0.0059037614,0.019076755,-0.042037364,0.00056682894,-0.038870625,0.0051278714,0.040283125,-0.0034975812,0.02496603,0.024260446,0.006629784,0.0014923258,0.005668766,0.0050314763,0.04070897,0.025821997,-0.027827632,0.03716905,0.015115977,0.016714526,0.025014028,-0.032883305,0.00036489818,0.034326546,0.05063646,0.01176018,-0.02877305,0.04502269,0.031003704,-0.03001578,-0.019247057,0.009923995,0.034893796,-0.0015416322,0.025054526,0.025231961,-0.03536815,0.009569429,0.038234204,0.03576282,0.000266362,0.024501825,0.03146338,0.010463101,-0.011767211,-0.005762066,0.034727845,0.0052908733,0.0396575,0.016436348,-0.052616354,0.040721472,-0.01516754,-0.020077974,-0.001003505,0.002912109,0.036357906,0.011551146,-0.038605552,0.0024876501,0.0033256242,-0.032912344,-0.043644074,0.036419638,0.035644826,0.024770029,0.03885185,0.045404904,-0.03825857,0.040693108,0.0047873743,-0.0429703,0.0021953117,-0.026878528,0.018007647,-0.0011497211,0.02525395,-3.0393761e-05,0.032822657,0.04432333,-0.04618109,-0.013093727,0.029963832,0.026565049,-0.035674747,0.04053924,-0.035145972,0.014208196,0.004924778,-0.03518109,0.045151897,-0.032251623,0.032441564,0.031919893,-0.034352917,0.031609785,0.0038635293,-0.015640955,-0.053145263,0.008812958,0.016636783,0.038559712,0.047186375,-0.01344471,-0.031342372,0.0052143033,-0.015193451,-0.025889665,-0.017241076,0.0033811345,-0.01100821,0.041955713,0.03053851,-0.005891551,0.015512466,-0.018302266,-0.0405505,-0.01871118,-0.032827638,-0.01238313,0.009170564,0.040611245,-0.029895175,-0.0066909064,0.022919884,-0.020914722,0.04342664,0.019547474,0.026864741,-0.034036297,0.024188848,-0.02376904,-0.029744271,0.009621199,0.009076203,0.029802237,0.011974838,-0.021937273,0.027695293,0.038471166,0.016729344,-0.017824663,-0.023848133,0.0097514,0.019349659,0.016735991,-0.02336521,0.018678889,-0.028653473,0.027037153,0.045763027,0.019063924,-0.028240878,0.01867172,-0.020327857,-0.033657916,-0.034904,-0.028926708,0.014967219,-0.025190795,-0.01137645,-0.011021184,-0.049368836,0.035881396,0.037387136,0.014817832,0.01422284,-0.044466957,-0.04872183,-0.0299059,0.0007354135,0.019433053,0.012092652,-0.03599437,0.034175467,0.02298536,0.014319964,0.032295354,0.018874409,-0.025511147,-0.032657675,0.00939939,-0.041616526,-0.0016173876,-0.00830059,0.007041237,0.021511184,-0.01133889,0.024413621,0.048635866,0.0072169104,-0.04974025,0.021111824,-0.0078115286,0.03400195,-0.035039548,0.014902084,0.0189461,-0.012470715,0.025157413,0.024500165,0.03635137,0.003275789,0.017969806,0.0016107387,-0.03131769,0.0021417388,0.021642942,-0.029075913,0.0354495,-0.05098355,0.015123255,-0.0024840315,-0.018009774,-0.04072292,-0.043806434,0.026268743,0.039109904,0.0112311095,-0.019470299,0.0136080915,0.01449743,-0.039845105,-0.002013367,-0.0030547027,0.032588992,0.025404515,0.027683014,-0.0054729832,0.01829197,0.030868808,0.019140743,0.0035418647,0.030522935,0.03424218,-0.023703063,0.021633442,-0.020024128,-0.029297281,-0.041514274,-0.011569552,0.04396933,-0.02521953,0.018715924,0.05673598,-0.01904429,-0.024394412,0.03820158,0.016987264,-0.02401868,0.030940713,0.031432796,0.021621725,-0.010763104,0.009097807,-0.050662715,0.027180763,-0.03255184,-0.014498928,-0.033189952,-0.020428212,0.010375569,0.007806947,-0.021634078,0.001348712,-0.018050736,-0.0039547826,-0.028503338,0.040864013,0.027488848,-0.0024158168,-0.005199779,0.04560176,-0.0009652756,-0.0147401225,0.008005782,-0.03483451,-0.0077019697,0.00044594714,-0.037989713,0.011606788,0.0261058,0.009455833,0.023454065,-0.027539346,0.008077351,0.019722268,-0.020096833,-0.031896967,-0.038190175,-0.010790216,0.018418994,0.0038023617,-0.048904598,-0.029053967,0.030990561,-0.02955626,0.0106896125,0.009082127,0.0060544116,0.022170668,-0.03958902,0.05205972,-0.050310645,-0.04299369,0.022259703,-0.0013398124,0.03431785,-0.027031982,-0.04774249,-0.00814435,0.008195802,0.023070905,0.02527259,-0.018097289,0.02628533,-0.049161755,0.008841731,0.031066949,0.029273544,-0.026297607,0.034749188,-0.023486815,0.03319945,-0.049429808,0.0037541995,0.008525838,0.01980865,0.0152627425,0.0020590124,-0.016258184,-0.002443888,-0.012136319,0.0027028173,-0.0061484897,-0.03948169,-0.014473108,-0.009831983,0.014280686,-0.0058308663,-0.048630666,-0.017123511,-0.024690157,-0.015030847,-0.011610819,0.0321605,0.00041779826,0.035672173,-0.029874057,-0.010172139,-0.00269015,-0.0352507,-0.017924119,-0.03994942,0.01695896,0.026958935,0.03359475,-0.019970357,-0.04703732,-0.05112433,-0.020367509,0.009152333,-0.032250497,-0.0045311367,0.012606687,-0.012865135,0.00074933947,0.02026007,0.023050118,0.0063785366,0.011611797,0.011905571,0.04428926,-0.0031298806,-0.03278359,-0.038447578,0.016643353,0.025088143,-0.024205232,0.019222615,-0.0053788098,0.0065007214,-0.0035795623,-0.03000133,-0.031898726,0.029265318,0.0056412974,-0.036797527,0.013038326,0.0076539586,0.029598521,-0.0008094814,-0.0330913,-0.0020425213,0.028043857,-0.01763399,-0.015282122,0.050204374,0.020099405,0.009244445,0.04626657,-0.03633016,0.015171699,0.019316608,-0.022110607,0.013906499,-0.043102134,-0.030536752,-0.0066434056,-0.006242934,-0.048113152,0.0045179185,-0.022551203,0.028197689,-0.005202481,0.035621982,-0.03355166,-0.012958801,0.016842917,-0.024820296,0.033323724,-0.004120771,-0.023070961,
    		0.023534816,0.006415892,0.0017786999,0.013477043,0.0052810083,-0.037087057,0.018269032,-0.02541585,-0.0068606865,0.014440937,0.04427955,0.035393905,-0.032932475,-0.025119077,0.0022202975,-0.008811666,0.044703018,0.008697137,-0.00040335517,-0.047137804,-0.01096465,0.019286292,0.00027701727,0.0046571954,0.031672776,-0.0016395133,0.015138676,0.01796208,-0.014130937,-0.010602308,-0.0040192073,0.024010468,-0.02486626,-0.033752445,-0.00039179137,-0.028042192,0.052618828,0.03406475,-0.0032584278,0.03302711,0.005296352,-0.01164357,0.039604288,0.023603752,-0.031530626,-0.013606108,-0.02548196,-0.0176833,-0.019568713,-0.0038804028,-0.03666129,0.032907974,-0.0046419823,0.0044057793,0.040557247,0.024265919,-0.050008032,-0.010853073,-0.032130275,-0.04762157,0.0074181086,-0.0016595577,-0.013158386,0.0048116217,0.016899817,0.008628252,-0.0002494274,0.00019645423,0.035459366,0.0053503695,0.03107358,0.011390354,-0.023928242,-0.021071514,0.020867644,0.024310092,-0.017508842,0.044092346,0.03976036,-0.018726856,0.02122396,0.027110804,-0.027660187,0.0148427645,0.00012613105,-0.012374372,-0.016347043,-0.0211686,0.0040302454,-0.011361946,0.034215767,0.013172825,0.03173829,-0.0020158181,0.001887694,-0.0040140627,-0.0055812765,0.0396792,-0.04432055,-0.001340772,-0.012104719,-0.0077756085,0.0035688938,0.014794991,0.0140753975,-0.010972309,0.0058055897,0.001963465,-0.0070422627,-0.012116463,-0.03766143,-0.017102053,-0.0006301535,-0.02099149,-0.030488,0.013880794,-0.03619089,0.00091991364,0.009710913,-0.037734386,-0.022210328,0.030360723,0.02374738,-0.024896733,0.04110886,0.040604744,0.048430305,0.032109477,0.023927316,0.027939374,-0.0031564857,0.046290226,0.004317321,-0.031192102,-0.029070579,-0.040627394,0.0049758526,0.05051092,-0.021502683,-0.02747378,0.026215628,-0.030459862,0.031657223,0.020571236,-0.00984252,0.021322744,0.007874215,0.022760022,-0.04014952,-0.0044134487,0.007786533,-0.05055041,-0.036443457,-0.027978959,-0.018383017,-0.036909882,0.04463866,-0.025996258,-0.029655578,-0.00036291464,0.0128298085,-0.036097538,0.049947176,0.020460421,0.004813619,0.022168282,-0.040233232,-0.02098318,-0.0115704285,0.020036269,-0.05397294,-0.008722997,-0.029444458,0.0062808054,0.050705656,0.031879194,0.019183278,-0.00966255,-0.002242122,-0.032045778,0.050328206,-0.046082176,0.03097682,-0.015838522,-0.025833147,0.049330447,0.053083185,0.024026023,-0.01653049,-0.016735505,-0.028304484,0.050963763,-0.018891037,-0.017878002,-0.0126697635,-0.03984566,0.0233653,0.036495186,0.012378377,2.4032975e-05,-0.010556947,-0.0017464355,-0.013004443,0.022460598,0.01878667,-0.044828244,-0.04410423,-0.00042814182,-0.0414979,0.021877574,0.029274452,0.023438044,0.015633795,0.015750522,-0.043379504,0.030386731,0.011256653,0.0320358,-0.023921622,0.032129534,-0.0046326523,0.039875947,0.03374719,-0.006404899,-0.031258468,-0.032727804,0.00873792,0.016133947,-0.042442575,-0.019815207,-0.015409855,0.0070709256,0.015101737,0.0060368422,-0.032192472,0.01876603,0.00749902,0.013239583,0.0477269,-0.018330254,0.03010873,-0.03283938,-0.021659985,0.004410963,-0.026718438,-0.017030643,-0.051677,0.05309318,0.028815724,-0.037597634,0.034550358,0.025892694,-0.044771843,-0.019161211,0.03790064,-0.015739348,-0.01707094,0.013998914,-0.005127656,-0.0059857853,0.026228908,0.004458585,0.008421102,-0.05675097,0.0045161364,-0.015569694,-0.013804123,-0.012472657,0.035294674,0.024674207,0.00013224773,-0.0022175594,-0.048797004,-0.021715997,-0.015184849,0.014325431,-0.05135299,-0.008719303,0.040858995,0.015843121,-0.0048274356,-0.01185521,0.025272056,0.0017327907,0.047456905,0.017034223,-0.014356404,0.028539604,-0.013770264,-0.0006138692,-0.029357297,0.046294294,0.019199822,-0.0031326802,-0.038837146,0.027661318,-0.036955107,0.042865828,0.036458794,0.02771562,-0.026630523,0.022815207,0.0070060934,0.021103334,0.023457175,-0.0063083046,0.027447976,0.031235306,-0.048112173,0.029155161,-0.025711777,-0.02571989,0.02608143,0.02264778,-0.02108943,-0.032583185,0.01758705,-0.011906141,-0.03694827,-0.027659148,-0.00065407564,0.02051446,0.023596322,-0.031138586,-0.034668278,-0.02305243,0.007338401,0.0056557097,0.022908142,0.020649003,-0.04123227,0.052974116,-0.0014049534,0.032998346,-0.019722776,0.036280077,0.01377619,-0.024999416,-0.03223833,-0.03442721,0.0173001,0.022952512,0.031511385,0.009470891,0.0350326,-0.034949087,0.048263866,-0.044645708,0.02104708,0.04664784,-0.042309534,-0.010142409,0.03378343,0.0031977405,-0.011618744,0.032392703,0.010161017,0.009417304,0.052746367,0.011165828,0.037173003,-0.0318974,-0.03995658,-0.019459398,-0.0062853647,-0.0315555,-0.044939086,0.040067844,-0.031524096,0.031114152,0.030620553,0.00441119,0.029992657,-0.018819619,0.03690389,0.048982218,-0.009232962,-0.023514885,0.0072884015,0.0062484806,-0.02696865,-0.015722185,-0.014331242,0.009043281,0.0073137544,0.03375893,0.007399759,0.030268794,0.045330025,-0.02852363,-0.03141285,-0.030079318,0.03713762,-0.0063077505,-0.0005926902,-0.008141243,-0.04868775,0.016087214,-0.013992774,-0.011890072,-0.034234133,-0.029770115,0.03015494,-0.031512994,-0.04856168,-0.042771865,-0.030964527,-0.02525598,-0.027752804,0.03770858,0.01743281,0.013275765,-0.04655959,0.020566791,0.023102086,-0.0012646602,0.039630372,-0.01755628,0.02850002,-0.030655706,0.035111424,0.04392783,-0.00060533005,-0.00734705,0.030327376,0.0488513,0.0077173365,-0.017820764,0.006639913,0.060509488,-0.034152158,-0.0003359996,-0.021431204,0.017049272,-0.04970362,0.023637718,0.019597696,0.044530973,-0.0012900097,-0.024710735,0.02417385,0.027457261,-0.060492057,-0.0359404,-0.033463657,-0.009436313,-0.015817547,0.04572618,-0.05479052,0.004565805,0.0076830448,-0.008079804,0.042595316,0.05842113,0.022321818,0.013389631,
    		0.009425565,-0.034117024,0.015888117,0.038686108,0.013810366,-0.037653286,0.004499041,-0.049207777,0.0065192683,0.017504117,-0.037506744,-0.022764876,-0.04392535,-0.031724703,0.009083608,-0.0077188346,0.028610982,-0.025683,-0.0081465775,0.017387792,0.0339055,0.03433529,0.013673658,0.044787005,-0.024909705,-0.0025550036,-0.024350623,-0.037639525,-0.015607392,-0.02864782,-0.015800266,0.03246109,0.043257758,-0.020194152,-0.032438077,0.053458884,0.034744456,-0.04135932,-0.0050118663,0.036244377,0.034004793,0.023906317,0.0046811285,-0.012128138,-0.0037862747,-0.028834702,-0.0341903,0.013777768,-0.029365322,0.030923583,0.031826135,0.037877552,-0.009337088,0.048911862,0.016281208,0.01471477,0.046730086,0.028336633,-0.014080624,0.027968539,-0.005201293,0.016224792,0.039039176,-0.008810967,-0.0030291385,0.035943467,-0.040017933,0.022709245,0.020979293,0.027724996,-0.0016575654,0.0026388394,0.044235274,-0.01581381,0.030700574,-0.002582096,0.00769021,0.0032493486,-0.00934378,-0.042663682,-0.0068738647,-0.017656982,0.012525144,0.005555185,-0.038914,-0.004019708,0.05165348,0.04368488,0.033580508,0.0245595,0.022593211,0.031408183,-0.018153118,0.021433719,0.016649477,-0.026610788,-0.015569146,-0.016758788,-0.028025085,0.022955041,-0.050270766,-0.013497607,-0.048241258,-0.01726183,0.03393862,0.049019903,0.03492846,0.022964573,0.017166344,0.00017300012,0.018232584,-0.020018293,-0.04530238,-0.014169953,-0.034054812,-0.045064975,-0.0118230935,0.010104444,-0.013807283,0.00087232154,-0.0319677,0.003435986,0.030653056,0.01766011,0.017128285,0.032106403,-0.0015170629,-0.006683247,0.020061566,-0.029446015,-0.0022912025,-0.018689038,-0.015612944,0.040908825,0.04766433,0.021696698,-0.011477679,0.02014053,0.034166336,-0.012774863,0.04603593,-0.025776051,0.00015514682,-0.038024817,-0.0137917735,0.024694417,0.04529677,-0.008440487,0.03524798,-0.0046366923,-0.040859904,-0.04314345,0.036121782,0.036689322,-0.033963323,0.002739777,0.038866013,0.031300623,0.04383749,-0.039569356,0.010926157,-0.050353594,-0.010621644,-0.043303113,0.032255996,0.020167515,-0.028753938,-0.048387013,0.014489255,-0.04652659,-0.001531113,-0.019863915,-0.015892567,-0.03416668,-0.034015317,0.029227337,0.020112962,-0.050788682,0.02245618,-0.03597515,0.0011520721,0.0012787427,-0.020838877,0.038807675,0.052690193,0.024792837,0.0037906724,-0.010009013,0.037070878,0.028487122,-0.023452828,-0.009230921,-0.027030017,0.010734574,0.033891637,-0.03775916,-0.017586548,-0.042520907,-0.027130976,-0.014846068,-0.010834545,0.05092544,0.02769638,-0.00077552296,0.035386577,-0.033039603,0.023845559,-0.015826305,0.044991456,-0.05226797,0.037981313,0.037384193,0.016605671,0.017300395,0.037595324,0.0034095019,0.03212943,0.016789174,0.036248017,-0.037016634,0.035129614,-0.019253645,0.007876388,-0.03772617,0.012179861,0.04952733,0.026045337,-0.036283635,-0.013247407,0.020257952,-0.010078283,0.022591442,-0.0032477623,-0.0135248015,0.013196686,0.01297675,-0.0431782,0.01315771,-0.012771374,-0.01385991,-0.004222158,-0.036589447,-0.04985083,0.031858094,0.010261215,0.010100899,0.025997331,-0.044473965,0.0024455271,0.02682729,-0.008234468,0.01495582,0.022119032,0.014981624,0.037040755,-0.039374772,0.036619212,-0.048246488,-0.042432833,-0.017844446,-0.01300264,0.030302335,0.00044746345,0.0013425722,0.03549131,0.019082155,0.0054475167,-0.009453776,-0.007113762,-0.0043264725,-0.014597063,-0.005856639,-0.00649582,-0.0062431395,-0.03481147,0.0054642567,0.017413264,-0.012995347,-0.01957832,-0.026247505,-0.036858175,0.0248393,0.013086039,-0.047215827,0.015557971,-0.03457907,0.034866005,-0.02159761,-0.029068096,-0.0061190464,0.01923081,-0.0018236688,0.016526423,-0.040962804,0.008199901,0.011591636,-0.033249404,0.03759329,0.044042006,-0.014610166,-0.053111754,-0.05373487,0.0013598867,0.01721562,0.022141395,0.038371634,-0.031280547,0.02186114,-0.011218022,-0.025165228,0.015748983,-0.037670035,-0.0030914382,-0.051752444,0.025492022,-0.015410149,-0.03748459,-0.03275354,-0.044711772,0.029444747,-0.028639833,-0.00023480477,-0.0355142,0.037126105,-0.009452696,0.012306867,-0.015934825,0.008809541,0.016370835,0.0027909735,-0.029332755,0.029230209,0.011918074,0.02363119,-0.03569979,-0.021826966,0.019782003,0.031542633,0.034836803,-0.039241903,0.034157287,-0.026820544,-0.029443368,0.024121819,0.05054955,0.0354483,-0.035047047,0.016119119,-0.057530206,-0.03992437,0.052350905,-0.02025384,-0.032451373,0.033247568,-0.020040065,-0.012154099,0.028677385,-0.032203205,0.00028513485,0.037807066,-0.009085924,0.004540011,0.052035276,-0.00063584873,0.042294018,0.043927565,-0.041589133,0.014607691,0.025068706,0.012453029,-0.0058173817,0.054006487,-0.05225445,-0.0068422696,0.04935513,0.0064376066,-0.009079286,-0.020221328,0.022183057,-0.044987243,-0.036685348,0.00084695534,0.025462177,0.025909813,0.028732285,-0.025281532,-0.00310982,0.020882007,0.022440335,0.0053834715,0.016116602,-0.020314617,0.035811193,0.006884176,-0.007174644,0.018286183,-0.009778496,-0.057609458,0.0147316875,-0.026298087,0.02740009,0.04327879,-0.023970773,0.008350299,0.022100717,-0.01202568,-0.047778293,-0.01532806,-0.02350446,-0.02263431,0.035170853,-0.0064422074,0.025780752,-0.0065664644,-0.012972212,-0.0141888885,-0.008931829,0.016575873,-0.029566899,0.009911016,0.009425224,0.014143582,-0.030295322,0.012012014,-0.009016156,0.029876947,-0.005343973,-0.047292907,0.003539487,0.04163945,0.016263656,-0.025446711,-0.011824695,-0.055195082,0.015412034,-0.023456287,0.01831773,0.04445403,-0.05462744,0.017768446,0.013165083,0.018835343,-0.04399569,0.051806353,-0.027363371,0.011243192,-0.033611942,-0.003451682,0.017583366,-0.024799004,-0.00020724395,-0.05795089,0.031581312,0.012552183,0.0022957516,-0.02946592,
    		0.0036532392,-0.017873717,-0.0036472932,-0.03533337,-0.02367128,0.05023971,0.03073284,-0.020814197,-0.047179215,-0.04400429,0.036797564,-0.01539702,-0.00488854,0.024796804,-0.02224976,-0.0246139,-0.003303722,-0.023315957,0.03453773,-0.024769695,-0.030048154,-0.016312052,0.01637355,0.04670841,0.030039173,-0.007896232,0.004809359,0.021040106,-0.018431857,0.018437618,0.0040123467,-0.008367199,-0.021948908,0.0024249204,0.016336659,0.016832575,-0.03049889,-0.04933669,0.0021880497,-0.03395056,0.035304464,-0.0033841468,0.038832907,0.032104496,-0.03496776,0.01730282,-0.031749826,0.014323987,-0.008788547,0.008947175,-0.047445055,-0.027977815,0.02621025,0.009926352,-0.0018595469,-0.0024614201,-0.055168338,-0.00801937,0.03682151,-0.036903277,0.002577342,0.019828213,-0.0064207707,-0.043024626,0.0060685887,0.036113523,-0.006919359,-0.036591824,0.030452948,0.03771289,0.030383786,0.032297738,0.03718119,-0.036439613,-0.0029626274,-0.011623119,-0.006755084,-0.0024984549,0.027026704,-0.026518125,-0.0030500707,-0.04117065,-0.050482765,0.026911154,-0.024751343,-0.027820248,0.0033608903,0.035547,0.036808126,-0.025662357,0.0004022523,-0.04051774,-0.037982065,0.03029358,-0.023499979,-0.031973746,0.01705425,0.026944166,-0.0069798427,0.00058997073,0.025858076,0.016620401,0.040375657,0.0070078745,0.025544513,0.0312572,0.018463543,0.006897948,-0.009090812,0.018457266,-0.0031990607,0.015922764,-0.0304488,-0.0018393649,-0.0019876298,-0.04390181,0.021269813,0.017629638,-0.037517425,-0.002236184,0.0376114,0.03830284,0.0051391996,0.015933618,0.0065597934,-0.025193715,0.017704383,-0.022113806,-0.045753337,-0.022940999,0.0051023425,0.01298701,0.04918217,-0.008485641,0.02139007,0.01567225,-0.0055083763,-0.0039430577,-0.015049298,-0.0043509537,0.01654753,0.04543261,-0.009396554,-0.008939865,0.0108056525,-0.042672474,-0.04386159,0.034647677,0.01173246,-0.05189743,-0.007257288,-0.02825285,0.034380283,-0.022082029,0.015698314,0.018173065,-0.026190573,-0.007244603,-0.009460793,0.022968352,0.021869179,0.02513122,0.00042139532,0.009964291,-0.036559056,0.023730649,-0.016042832,0.031640112,-0.0027302646,-0.04555592,-0.05535522,0.018930221,-0.00085799454,0.018231453,0.026793033,0.032673318,0.020849152,0.011227664,-0.04118994,0.001082385,-0.018022649,0.03561085,0.02565026,0.019930342,0.031432725,-0.0061857286,-0.009608045,0.032328416,0.034063198,-0.0075225327,-0.024216287,0.004735197,0.036724765,0.014306535,-0.034852207,0.019642005,-0.011054134,-0.022978453,0.0014668633,0.03451022,0.015804946,2.6837104e-05,-0.034700006,-0.029378243,-0.0312875,0.039149128,0.032106776,-0.025247633,0.0028613354,0.029764695,-0.0007842049,-0.016460244,-0.041062478,0.031960852,0.022781495,0.03995628,-0.023260498,-0.03462134,0.025423007,0.025059259,0.0039203768,-0.037930865,0.0071590035,-0.012327725,-0.023452928,-0.03730815,-0.009796723,0.0455298,0.022343617,0.002717361,0.028581424,-0.042262673,0.0402143,-0.0049983105,-0.006998257,-0.00650792,-0.026689198,-0.016560402,0.0065435767,-0.02919925,-0.017557792,-0.027197847,-0.020086188,-0.042252783,-0.025879141,-0.010287949,-0.005136334,0.017102322,0.02467115,0.01110606,-0.018044634,0.003701087,-0.046947908,0.033288997,-0.047951534,-0.014928135,-0.028778205,-0.0038179832,0.03927226,0.005113248,-0.003873652,0.031075045,-0.0171825,0.037620597,-0.033056527,0.03468514,0.026735177,-0.030703751,-0.028184738,0.03825955,0.013195759,0.0150886495,-0.04479184,-0.026413705,-0.027746435,-0.034519017,0.01577506,0.01126701,0.027200958,0.003753262,0.028834831,-0.015617265,-0.028956497,0.020071536,-0.03658304,-0.019441692,0.027588077,0.03462233,-0.004131779,-0.03095838,-0.029907314,0.030634757,-0.019399459,0.005103775,-0.009098132,0.02599317,-0.0013336638,-0.028763723,0.011540612,-0.017713817,0.030122204,-0.04063205,-0.011552994,-0.022779722,-0.012261878,0.007991158,0.02921681,-0.027383719,-0.013998392,0.047383357,-0.01935099,0.008210477,-0.008603644,-0.019263936,-0.015842918,0.03599691,-0.021238828,-0.018571882,-0.026993237,0.020920997,-0.038332157,0.016722891,0.012966761,0.0058428505,-0.032281693,-0.022266075,0.024682641,-0.015225886,-0.036173765,-0.004468101,0.026549118,0.01256368,0.010022265,-0.02681518,-0.01088775,-0.005240135,-0.010466149,-0.023047853,0.0028673913,-0.029750107,-0.012544263,-0.0076281666,-9.175627e-05,-0.038352232,-0.035061304,0.043409493,0.030043587,0.03863342,0.019452907,-0.030649599,-0.0011004965,-0.010304402,-0.025375608,0.032608356,-0.025786608,-0.03340956,0.014002047,0.03672655,-0.010982008,-0.04036293,0.030636426,-0.0031133061,0.040490594,-0.006936117,-0.010778228,-0.041124135,-0.0084351525,-0.028257307,0.00614749,0.023535578,0.031435937,0.0375323,0.0016271864,-0.011744526,0.0071755196,0.044119366,0.03007139,-0.009161287,0.021527093,-0.020073537,-0.0042697564,-0.011761933,0.007899059,-0.039501783,0.008408058,0.036993746,0.03476131,0.04839188,0.013473122,0.034105625,0.029923767,-0.012121563,0.013640043,0.05663611,-0.00026833592,0.03989077,-0.004386428,0.036579333,-0.043397564,-0.01369339,0.02166477,-0.016622655,-0.024847098,-0.00865781,-0.04839394,0.049828604,-0.005515779,-0.024584774,-0.029884133,0.026980883,-0.03132095,0.0021676396,-0.027323563,-0.002484119,-0.04865203,-0.04686629,0.028332151,-0.03764766,-0.020453041,-0.012179019,0.035828974,0.030314866,-0.034611117,0.0265597,0.015898885,0.051487617,0.029069928,0.02867045,0.032506794,-0.02464433,-0.028614491,0.004630607,-0.011827767,-0.043988343,-0.022242477,-0.046917424,0.029911965,-0.0043967017,-0.011286238,-0.038868204,-0.038132817,-0.016580721,0.033400528,0.02314142,0.015463424,-0.03320403,0.0364011,0.047393512,-0.04364622,-0.025957104,0.034927264,0.013671921,0.036248878,-0.018954996,0.027563637,0.00055332214,
    		0.008237223,-0.034858637,0.026688263,-0.022807917,0.007073211,-0.046536405,-0.004165561,-0.0019910717,-0.03342184,-0.01806802,0.045202125,0.013996989,0.0029553913,-0.029599175,-0.021364368,-0.018338963,-0.03450682,-0.017133916,0.038189143,0.014507417,0.011992654,0.016843509,-0.019751139,0.012961751,-0.014723916,-0.043656144,-0.027686773,0.031557914,0.03226847,0.031251527,0.0120259635,-0.050892934,0.024920894,-0.0009319999,-0.004461729,-0.024146747,-0.020300647,-0.043907877,-0.04963896,0.031355053,0.036895316,-0.00076362916,0.009783217,0.02794513,-0.007712745,0.02132054,0.03306692,-0.041323766,-0.024300603,-0.0071837804,0.02967305,-0.024456069,-0.0099849915,0.017620321,-0.013725509,-0.014814563,0.028918784,0.0030258454,-0.028699046,-0.019428495,0.005794418,0.030290995,0.023346746,0.043592397,-0.042284086,-0.022000743,0.01044915,-0.02544657,0.027222535,-0.0012423401,-0.016671235,0.010006586,0.031581104,0.01853111,-0.018880736,-0.0009734074,-0.0047688563,0.0025661376,-0.020259794,0.0336166,0.0123053,-0.035300672,-0.012692904,0.018611694,-0.029198155,-0.030846553,-0.025377128,-0.029907214,-0.04056144,-0.038221903,-0.02107929,0.039931294,-0.045174785,0.018167408,-0.03472276,-0.017577115,0.010556907,-0.018613169,0.0033969833,-0.021968007,-0.0047917357,0.002292385,-0.017274763,-0.047460195,-0.02074078,-0.019851755,-0.05594605,0.008191437,0.055169996,0.011054326,-0.040161554,-0.023393027,0.031421803,0.030660868,-0.0146630425,0.004050417,-0.05152822,0.0038860578,-0.011967062,0.005000857,0.0030597849,-0.053078678,0.013971303,-0.011686706,-0.04732812,0.032219455,0.026963683,0.0044748196,0.040584974,-0.029602489,0.007150471,-0.05284309,-0.028750205,-0.022047192,-0.029306762,0.024684114,0.012101847,-0.0034845953,-0.027817927,0.0073079336,-0.045648936,-0.013810857,-0.032754,-0.02801353,-0.01679929,0.036420427,-0.037673265,0.02829035,-0.027304595,-0.032981187,0.042962313,0.028003331,-0.01269339,-0.030057948,-0.04799294,-0.020617902,0.0036487032,-0.035901483,0.02057856,-0.03625115,0.0011505183,-0.016423345,0.038164083,-0.01715709,-0.03765481,0.033735856,0.024518047,-0.015735047,-0.029379489,0.0013295473,-0.033325516,-0.0017411863,0.025271118,0.04805866,-0.015433199,-0.0044813883,-0.029965164,-0.03580767,-0.022048406,0.03710482,-0.042009603,-0.013054208,-0.029752374,-0.0049868263,-0.023802247,0.036682535,0.042244118,0.0027857765,-0.021221204,0.056286715,-0.032333966,-0.004376968,0.016939098,-0.024743877,-0.03438109,-0.027300034,-0.009352647,-0.025704315,-0.0014966967,-0.044663772,0.014288375,-0.024755068,0.025132146,0.043823134,-0.04049035,0.0164413,0.030019602,0.038533967,-0.024048593,-0.026535988,-0.011111722,-0.011802807,-0.036482763,-0.03633206,0.0243393,-0.006318741,-0.025320966,0.022070283,0.04630097,0.012662375,-0.007608758,-0.030385165,0.0034737713,-0.022021798,0.044852976,0.0091587,-0.025550187,0.032630283,-0.03130214,-0.015297496,-0.018313248,-0.005059255,-0.051235005,0.0065683736,-0.020456946,0.038149014,0.007405067,0.037112635,0.0025600845,-0.022601848,0.0373789,0.037985582,0.013126901,0.0064830272,-0.0040807803,0.030608255,-0.01370542,-0.034913998,-0.0042914487,0.015023981,0.045042217,-0.0028262767,0.017486079,0.0005746584,-0.037484206,-0.047884237,0.035767578,0.017249336,0.038320113,0.023568815,-0.035450302,0.024553489,-0.0027826815,0.049740095,0.03665751,-0.039642707,0.013132977,-0.040477924,-0.038015343,0.035084847,0.016006611,-0.017455718,0.027205275,-0.012744286,-0.036936495,-0.0071046916,-0.016036926,0.04834979,0.012862593,-0.022905739,0.013818559,0.01889542,0.00700549,0.038812555,0.0144010745,0.021129036,0.043885216,-0.009966854,0.016490512,0.042217933,-0.024654865,0.03787089,0.029183365,-0.0079737585,-0.0020769704,-0.012696652,-0.004676438,0.0154279275,0.030651039,-0.0117365895,0.033515565,-0.0024175528,0.020821378,0.012409525,-0.0005922419,0.014401577,0.004876656,0.039627258,-0.03574096,-0.03843306,-0.0074533042,0.017104369,-0.01571537,-0.020276299,-0.0050952625,-0.007948947,0.032574113,0.030253308,0.029083312,0.0015371558,-0.019349964,0.05423457,-0.034100577,0.0097294105,-0.05168713,-0.011436407,-0.0066362484,-0.026619244,0.0042480594,-0.049510024,-0.0075455834,-0.030192383,-0.03559832,0.036404453,-0.020852936,-0.0013772484,-0.04044853,0.05240679,0.0036108114,-0.023377072,0.03275939,-0.02006057,-0.032809865,0.01401741,-0.009148137,0.045132183,0.055719353,0.022359924,-0.013661795,0.0266966,0.0021799002,-0.0036135025,0.05209889,0.023656528,0.024409005,-0.0016798641,-0.014201497,0.025257112,0.03236375,0.03408876,0.0050009033,-0.012322404,0.0027424947,0.0031212466,0.029000338,-0.0475775,-0.02580546,-0.021332446,0.0061864746,0.03163983,-0.016604587,0.0123580415,0.00792159,0.007088399,0.03354262,0.020043842,0.019129338,-0.05581288,-0.026663477,-0.0012373298,0.037995476,0.03446008,-0.0011802155,-0.03090756,0.029606339,0.0050792205,-0.04663499,-0.027993066,0.037742298,-0.0030526542,0.040302254,0.03568944,0.006582312,0.014175398,-0.006891117,-0.020206602,-0.029942868,-0.0048175477,-0.017834011,-0.029712752,-0.050985456,-0.006087111,-0.0069275964,0.006867348,-0.029088924,-0.0148295,-0.016371226,-0.028165437,-0.047930088,-0.015140308,-0.048669178,0.01654967,-0.046770185,0.046936367,-0.032130726,0.008972617,-0.03323471,0.0019517506,0.012317362,-0.034758728,0.02902597,0.028204754,-0.021358322,0.04442478,-0.00096969475,0.00078890484,-0.015205344,-0.027593078,-0.025750887,0.0030235492,0.0181849,0.050414912,0.02391469,-0.032940775,-0.019267231,-0.0067481766,-0.012289474,-0.03984428,-0.032129146,0.028236408,-0.024206733,0.006502416,0.008049499,0.041292816,-0.005045305,-0.027960032,-0.010628516,-0.014131652,0.035887472,0.017730145,0.01346889,0.0007667241,0.03492157,-0.00052782637,0.0055478215,0.052716188,
    		0.03874974,0.024203958,0.011727736,-0.03439983,0.009656147,0.019155214,0.035144728,-0.047492523,-0.009630543,0.034249976,-0.00096805475,-0.038117718,-0.02436557,-0.017942738,-0.017072063,-0.006752357,0.015061897,0.0021313606,0.0068669934,-0.034335308,0.028753774,0.047889847,-0.044665046,-0.03931071,0.044824515,0.02824768,0.013153302,-0.035091642,0.023791188,0.00627922,-0.0047991606,-0.029487353,-0.020032685,0.029838365,0.034043774,0.011371871,0.001386401,-0.0039158426,0.04202169,0.009850178,-0.052522518,0.011570486,0.032667708,-0.005258151,-0.0078846505,0.00047478444,-0.029935006,-0.039220776,0.018940609,0.030743634,-0.018770209,-0.0019196293,0.0012629125,-0.04213613,0.04465568,-0.042849135,0.020377295,-0.031645626,0.0050439164,0.012666279,0.0062288675,-0.006627647,0.02195693,-0.021689117,-0.047661334,-0.042066295,-0.01925652,0.0084424475,0.009111026,0.0055120257,0.008605752,0.02661635,-0.034563787,-0.009976558,-0.04608879,-0.02688859,0.031046929,0.022218708,-0.04492461,-0.025908276,-0.04937432,-0.0376935,-0.018085344,-0.025002003,0.04789511,-0.03922779,-0.029138794,0.023986056,-0.040557653,0.03272732,0.036268543,0.036395967,-0.05662518,0.031118477,0.029751915,0.031525675,0.042394347,0.013332884,0.00835153,0.009873361,0.013861831,-0.02667575,0.012888868,-0.03694337,-0.027187962,-0.0077327993,0.030957418,-0.02566352,-0.034479678,0.018223604,-0.039499074,-0.017047817,-0.0103296125,-0.047260627,-0.02537544,-0.022572909,0.0029283,0.019118976,0.031238813,0.013366284,0.014349981,0.001915493,-0.05318865,-0.011249285,0.009517304,-0.019902166,0.015760263,-0.02191646,-0.036746353,0.016222421,-0.02408551,0.025497284,-0.019667426,-0.0064291544,-0.00072774844,0.03551703,0.029039381,0.02522346,-0.02244915,0.015798049,-0.048128955,0.037578788,0.020079603,-0.036439493,-0.0074601094,-0.022053901,-0.01248837,0.004575053,0.030446112,-0.03497617,0.016015638,0.036220912,0.023054367,-0.026930116,0.016096566,-0.005592793,0.028626304,0.010637918,-0.02816253,0.0016019085,-0.009870296,0.012689314,0.019059094,0.039028708,0.025653716,0.04124934,0.051298045,0.0039752177,-0.006517832,-0.037844606,-0.021111866,0.044787362,0.0036723944,0.037967052,0.006969658,-0.009789953,-0.057460293,0.05401416,0.030719582,-0.015323198,0.0051173293,0.0018646665,-0.058254797,-0.029893681,0.0339233,0.046767663,0.0020887977,0.0019915686,0.0101674,-0.029879127,0.022392206,-0.031500503,0.03512762,0.035146985,0.017161826,-0.03056703,0.046252638,0.018537471,0.034841307,0.021831548,-0.0032290595,0.009363312,-0.014221527,-0.021886962,-0.018666813,-0.018803567,0.008057743,-0.006329589,0.05164547,0.05359705,0.010448237,0.00655787,-0.0008777069,0.0036125048,0.039198432,-0.006764746,-0.00032702312,-0.0056391866,-0.004966702,0.047466144,0.045203313,-0.01314981,0.021562854,-0.015647223,-0.010588119,0.017028661,0.042358868,0.028291987,0.006661863,-0.02421997,-0.037588175,-0.051391337,0.030996058,0.015628144,0.018532269,-0.031219896,0.01974775,-0.014736155,-0.007287706,-0.021295568,-0.008361924,-0.0285693,-0.051555652,-0.023201237,-0.03801723,-0.020514498,-0.0056604464,-0.022888087,-0.02201361,0.011879784,-0.022700964,0.039995648,0.032660503,0.021327104,0.0141565595,-0.019756751,0.022945404,0.0066986675,0.024681592,0.024197059,-0.029896436,0.029393174,0.030138558,-0.04201053,0.020336444,-0.026679209,-0.013260423,-0.02879332,-0.019166904,0.021431593,-0.036404233,0.03200059,-0.047083255,0.0083198305,0.010214002,-0.034720726,-0.044379074,-0.024913315,-0.044171046,-0.0031819746,0.02396315,0.0169772,0.034566544,-0.0013311683,0.0031825448,-0.031129867,-0.025338229,-0.00069794455,0.006938775,0.046528198,0.022195073,-0.037303045,-0.027683211,0.044005677,-0.0032136063,-0.015661402,-0.014902309,0.04666599,0.010014731,-0.0046698754,0.016873037,-0.03044729,0.012789414,-0.011363395,0.032117587,-0.021246297,-0.011005452,-0.0003779704,-0.029872779,-0.01442172,-0.0014731687,0.016115583,0.014115478,-0.0136834765,-0.033308193,0.02792875,-0.0007396758,0.02973715,0.040830374,-0.011448343,-0.048320662,-0.016711783,0.0030263776,0.03249692,-0.041485183,0.036624666,-9.095285e-06,-0.0011795214,-0.0068909414,-0.032406032,-0.038296454,0.033072643,-0.037474733,0.003660164,0.012448262,0.011816643,0.012958764,0.047347683,0.041014675,0.009359889,-0.01598313,0.017023748,-0.012670576,0.016859168,0.025020055,-0.038145628,0.0033524337,0.038129758,-0.0134297935,-0.020976722,-0.0039095413,0.01999535,0.022358729,0.02655466,0.016409634,0.025996843,0.04012469,0.034641195,0.022962468,-0.028324293,0.0240122,0.030621856,-0.023195215,-0.026729524,-0.0062339054,0.03668531,0.040327195,-0.036367033,0.018714027,-0.005090551,-0.031730045,0.008240236,-0.023884904,-0.025070574,-0.03775732,-0.017291984,0.013308193,0.054718807,0.02332487,0.021319337,-0.038239405,0.033576075,-0.011412583,-0.0008908589,-0.012312904,0.025806548,-0.00050591805,0.031623628,-0.016605558,-0.028561894,0.028021112,-0.036544733,0.0045214985,-0.046621524,0.058902696,0.044232406,-0.02494269,-0.03376333,0.0106916595,0.02793084,0.005196944,0.0111479,-0.048793003,-0.01896214,-0.015893891,0.000614421,0.011063623,-0.0029733442,0.011608795,0.033406068,-0.009245658,-0.03159509,0.012162049,-0.028861595,-0.0098025575,-0.03213965,-0.0302613,-0.040218312,0.027121542,-0.011105782,0.015021144,0.007522095,-0.023212738,-0.027653735,-0.03377942,-0.022028226,-0.011466802,0.021093212,0.009677128,-0.0026398886,0.010266739,0.006374167,-0.029035546,0.022784485,-0.019013742,-0.0050178915,0.012119625,-0.019511579,-0.035974976,-0.03610024,-0.045912635,-0.052453987,0.004390056,-0.03387338,0.03468912,0.02077664,-0.02932376,-0.0187631,-0.016677598,-0.03445828,-0.008812519,0.044360884,-0.008044416,-0.007852636,-0.0053179823,-0.03992577,
    		0.014509014,-0.00244635,-0.037191596,-0.010549446,-0.05059368,0.0018757774,0.03498153,0.0048810174,0.04281366,0.028568054,-0.033306018,-0.025052553,0.021357315,0.010926324,-0.02377979,-0.050571438,-0.029617092,0.016052606,0.042790968,0.018209683,0.036785416,0.015997268,-0.04218206,0.033617966,0.0028028393,0.0016610292,0.00764608,0.008103426,-0.027821293,-0.017572701,0.03301933,-0.038139857,-0.019501437,-0.052438874,-0.024988165,-0.020519646,-0.034522217,-0.046538968,0.021184102,0.008116582,-0.02346686,0.0340915,0.008445092,0.01677001,0.028408092,-0.024130475,0.031494662,-0.007313766,-0.019634716,-0.023821969,-0.0064553255,-0.034868497,0.025064165,0.003242585,0.008010975,-0.02907132,-0.021091698,0.015384769,0.019833632,0.022309398,-0.034769014,0.041950606,0.02062912,-0.012322139,-0.0026180176,-0.018213531,-0.0027680234,-0.014007993,-0.026943583,-0.020639647,-0.018302942,0.036972202,-0.0407027,-0.024626298,-0.0011344226,-0.0072106463,0.027008926,-0.0088738045,0.0054742075,-0.015873007,-0.025203183,-0.027253993,-0.035911046,0.02828159,0.0419902,0.008216577,0.00045635249,0.011960384,-0.048544463,0.016409278,0.0038604375,-0.045281224,-0.025195686,-0.0048786956,-0.016301569,-0.023588533,0.0037412136,-0.0078026378,0.027276136,-0.022288779,-0.033791766,-0.002528936,0.024665333,-0.012001239,-0.02339843,0.0103343865,0.00034191474,-0.048824187,-0.008889619,0.012516409,-0.0028671036,-0.044505008,-0.048742115,0.011722847,-0.013931823,-0.009671028,-0.008036397,-0.008477073,-0.019181449,-0.026593769,0.0041533634,0.021217415,-0.04962689,0.033013325,0.012019734,-0.027739137,-0.03643382,0.018130621,0.01074445,-0.022455009,0.036346268,0.004642802,0.0053842044,0.032961544,-0.035259385,-0.033543184,0.012468003,-0.0056238133,0.033471618,-0.009082168,-0.007955256,0.033943534,0.00016400935,-0.038127463,0.049007248,-0.041373976,-0.05083408,-0.0078389,0.02155339,0.00013512908,-0.032729037,0.032574795,0.00037495256,-0.024495719,-0.02040524,0.040432096,-0.016153896,0.008211565,0.02187156,0.03910251,-0.0021332852,0.041187167,-0.0016009385,-0.0032707108,-0.047038816,-0.00654132,0.024274705,0.007510104,0.024778605,0.01282277,-0.017256536,0.05095576,0.019813422,-0.00081712677,0.0015887986,0.015541416,-0.031847015,-0.0034005842,0.028224533,-0.031004997,0.0127308965,-0.009285219,-0.027142966,0.0086475415,-0.002639823,0.0053558694,-0.033649694,-0.011143785,0.012124724,0.02620304,-0.0003535488,0.05029778,0.0445366,0.03283211,0.02149348,0.028931936,0.025751526,0.0011094983,0.0224754,0.03301899,-0.024488874,-0.012767634,0.010079518,0.036765937,0.028493615,-0.052500613,0.021119919,-0.027154397,0.02428769,-0.03595146,0.008275002,0.020666817,-0.053506307,0.044130363,-0.01849398,-0.035064626,-0.007875631,-0.007338128,-0.036784213,0.015985,-0.011642673,-0.023130726,-0.045438487,0.0068844366,-0.0425582,-0.029930724,-0.019811375,-0.032322027,-0.04616359,0.028118804,-0.02078827,-0.011202807,0.007178904,0.024958832,0.025214972,-0.042323936,0.018698808,-0.029287124,0.01583564,-0.007255237,0.019139213,0.03668786,0.02838143,0.033777554,-0.00025645815,0.028197415,0.035712652,-0.036559854,0.021993488,-0.018705491,0.028681666,-0.008826554,-0.010529813,-0.0083748,-0.023649545,-0.005617618,-0.012556899,0.0029993502,0.00579523,0.03516533,-0.048418347,0.0025106766,-0.022576796,0.039874777,-0.016431717,-0.040266078,0.026100237,0.012138144,-0.054483976,0.0077905734,-0.027417617,-0.019429374,0.020118795,0.022355936,0.033200536,0.038819324,0.008907447,0.022338198,-0.018958012,0.031291083,0.0426515,-0.022698615,0.013061574,-0.024555366,-0.04323175,0.017059186,0.0055341898,0.031266592,0.0014825958,-0.03317772,0.021015089,-0.02796953,-0.0032008998,-0.0363661,-0.050657496,0.0253918,0.0384554,0.014621101,0.05325046,0.025896952,-0.007890502,-0.020951223,0.028109988,-0.023613,0.0131532485,0.031769313,-0.014419271,0.011194402,0.022975449,0.023188792,0.040666576,0.00093932764,-0.00028606865,-0.0060710856,0.029319065,-0.023247734,0.022875315,0.0140205985,0.015189218,0.035225563,-0.045196123,-0.009853405,-0.028583786,-0.0092588905,-0.048208263,0.032079324,-0.049228225,-0.05865421,0.05221202,-0.05133623,0.02065669,0.048312597,-0.048558258,-0.035209995,0.0066892235,-0.004410889,0.015232985,0.017276833,-0.011050401,-0.0446352,-0.03143141,-0.049939558,-0.0015673543,0.003901812,-0.020342981,0.013116399,0.0067745293,-0.04625579,-0.01862176,-0.016419029,0.011083208,-0.052232396,0.0033989577,-0.03801723,-0.020529222,0.012412441,-0.051663764,0.02316001,-0.044243388,0.02074715,-0.014192007,-0.018703595,-0.011696329,-0.0436947,-0.038883097,-0.056464925,0.014654969,0.012807533,-0.041578118,0.025459224,0.0023227641,0.024503395,0.0049833218,0.0043730065,0.0047968593,-0.020628365,-0.021289837,0.027178798,-0.025484314,-0.014609032,-0.028231803,0.01867297,0.03475134,0.025505748,-0.043192938,-0.02143987,-0.028462017,0.018479584,-0.02310122,0.02081964,-0.017920338,-0.027670301,0.0110111,0.018101515,-0.01280212,0.040845234,-0.04524293,-0.040135004,-0.044558767,0.035735812,0.01192385,-0.014469398,-0.03434191,-0.0014947653,0.036908936,-0.020415638,-0.015460432,-0.019391127,-0.001350855,0.041101463,-0.04006362,0.025765887,-0.026923915,0.020365275,-0.020535085,0.029189743,-0.009627599,-0.039532136,0.005084652,-0.010386844,0.014676586,-0.025098093,0.008810298,0.035839472,-0.021668239,-0.0015750452,-0.037836745,-0.022737216,-0.01709477,-0.014519412,-0.006257335,-0.0095751565,0.036094457,0.04134045,-0.035649575,-0.031815816,0.015853498,-0.03696635,-0.0022490753,0.03495138,0.010579736,-0.0362572,-0.00094352267,0.0023364988,-0.0035169884,0.036325656,-0.04153935,-0.020032007,0.04039535,-0.01703463,-0.024838291,0.0461167,0.0074871955,-0.026064651,0.017693209,-0.024502087,
